-4.334395508948710868e-02,7.260503530269636109e-03,8.520664520564996333e-03,-9.316485188267850312e-03,-4.988014317990661917e-02,-3.732272789926757706e-02,2.578865278965138119e-02,-2.951539345246454588e-02,-4.576984158874180392e-02,5.563026512354822539e-02,1.448414932037523327e-02,-3.523917719969785894e-02,-1.845170111199093826e-02,-4.534756281621103724e-02,6.490600439372588848e-02,-1.212415385221810200e-02,-2.333888452829139745e-03,2.866972770037548579e-02,-1.674118644719931742e-02,3.476618683746645136e-03,3.684144305882230963e-02,3.976552754697289249e-02,-2.584887829584080893e-02,2.511491266193164543e-03,1.090889198504457758e-02,1.697354085253052064e-02,-5.930047169569394039e-02,-4.296165611840271057e-04,-2.417222473616869455e-02,-2.793109730243674774e-03,1.159833020782278547e-02,-1.897671818532796484e-02,3.844145180745815044e-02,-6.425009139617739867e-03,5.165748744949246775e-03,-1.506071770935601094e-02,3.110154420070519732e-02,-2.217715907925857377e-02,2.992739917408794234e-02,-2.506540304294927607e-02,-2.728362973654112345e-02,-2.555897520628786640e-02,2.637472097580969774e-02,2.213556056855891727e-02,3.117509318392178586e-03,-4.144623142273186345e-02,2.252942670117678847e-02,1.602304258693090788e-02,2.583453034044714842e-03,7.415506721555510314e-03,2.433590678798959461e-02,1.620489495495686105e-02,-3.010080966091984583e-02,6.599555317342106374e-04,2.570055754495408074e-02,-7.311319500991769922e-03,-7.392038251743322796e-02,-2.730470011060186220e-02,3.818871874711449871e-02,-1.838772315025370696e-02,1.489822097590077186e-02,-4.572000729671093361e-02,2.066348116904168086e-02,5.807046917902179695e-02,-8.779832571277798939e-03,-3.532001958948129822e-02,2.439376283150518701e-02,-5.801896699240120629e-03,5.613081523865414563e-02,-2.686527693268982858e-02,2.939962516182975313e-02,-6.826434439484828365e-02,-2.193442639173025146e-03,5.996636830444845162e-02,3.402742555914952532e-02,1.214492365555141194e-02,-3.925318631190090335e-03,2.617511482277067036e-02,2.742859745789220233e-02,9.950619362471466861e-03,-4.079707707497741420e-02,1.892002859010977894e-02,-2.885549449902834185e-02,-2.812458501249292392e-02,2.763369032677589349e-02,1.334766712718012983e-02,2.502734203041039052e-02,8.634038934672650170e-03,1.008932467281978447e-02,2.530327952260187120e-03,6.255123321719743314e-03,-1.563154914878887684e-03,-2.951806514481862542e-02,1.119645299524904374e-02,-2.621833793912080324e-02,8.218376514730528493e-02,-2.813364164185280097e-02,-1.745750680554992995e-02,-7.123108526491718495e-02,2.991996423779137021e-02,4.849566011901104701e-02,3.530653517846672057e-02,3.627600412317433243e-02,4.071038531493237356e-02,2.698106521830169469e-02,4.652650903752980627e-02,1.314587974600722048e-02,1.957688630563288873e-02,2.004590773814505372e-02,-2.630042999302700107e-02,-9.624947742605721723e-03,-5.952776151879357082e-03,1.750411536410440699e-02,-7.390432214371579246e-03,3.198147169033017934e-02,-4.578496120030194072e-02,7.482551723366047403e-02,7.351183033300174967e-03,5.480569060669331777e-02,1.141418097837360209e-02,-7.353705281699341248e-03,2.611700753824521687e-02,-5.181106712248369911e-02,2.231842234324106153e-02,1.729347192186477325e-02,-3.312683125340315504e-02,8.358484712025836261e-02,1.181821651579676724e-01,5.714693506105133353e-02,7.917328295659639692e-02,-2.982705804993597554e-02,8.151696494109487989e-02,2.666501096177683813e-02,6.916152032025348062e-02,5.201027352137210791e-02,-1.203761719527676570e-02,3.411225095425610056e-03,-6.511560328019144750e-02,1.635423569674551020e-02,-2.303989511223804298e-02,5.342306246867862402e-02,6.035191173130518422e-02,-1.841432804606493463e-03,2.027499805008524392e-02,8.886273688146878111e-03,-1.926370391672762531e-03,8.336026336069942561e-03,-9.244453319623273727e-03,-3.121233033650028243e-02,-2.409055660266285273e-02,-3.672060573726816050e-03,2.006190386223273558e-02,3.595147820136299945e-03,4.119379390206436009e-02,8.619159734221164271e-02,6.484490127702584317e-02,1.245887527917015174e-02,7.785798310778651969e-03,5.055491405941784158e-03,2.055085107183513005e-02,1.797027054901981268e-03,-4.938594636567355395e-02,-3.829271587773279417e-02,4.965359406668839320e-02,5.797574847463647651e-03,-9.810835875424663705e-03,-2.917381687672983281e-02,1.844194397526888185e-02,-5.300413572552369751e-02,-2.076914886057493886e-02,-3.738715140519301150e-02,5.716136812983285687e-02,1.001633476890400037e-03,8.255109611327833899e-03,-1.087247141467282893e-02,2.262482570281813127e-02,1.970102613889775089e-02,-1.166157124269242076e-02,-4.086030561113124238e-02,1.209679334357813751e-03,5.860234062075622696e-02,7.293924326127887436e-02,4.105261232402005606e-02,-1.305392976298357967e-03,7.043667877141596145e-02,2.317524983344582123e-02,-2.285432559062699782e-03,5.844003310664905998e-02,-3.953832758781770929e-02,-3.350353234471940139e-02,1.493641557989933318e-02,-4.192672839715375077e-02,1.039825897106816562e-02,-9.520477742922660302e-03,-5.647235764599518176e-02,1.421506865923762887e-02,-6.216872418566637970e-03,2.238679251380096963e-02,-1.611250428745965649e-02,1.048155501655339931e-02,-2.350633283109846219e-02,-8.720082305401260364e-03,-6.667807792625747576e-02,6.713614595086868364e-02,1.613829805764547751e-02,4.742615910800820206e-02,-1.643140600690246034e-02,-3.237971609709663912e-02,6.013743807089744209e-02,-7.395702932188222105e-03,-1.209502434365451393e-02,-3.569489027848665036e-02,-6.396966861885806238e-03,-6.172802676739744254e-02,-3.090766109921634641e-02,-2.746901122735171188e-02,-2.805566678191450183e-02,1.960821508583771369e-02,-4.704660636359302844e-02,-5.183583268286879459e-02,1.350436490735800604e-02,6.653836541276044814e-04,5.534201599589274809e-03,-5.337370380312906303e-03,-3.033738170539999196e-02,5.815071136445507105e-02,4.349252878123360810e-02,5.072946034489159151e-02,-2.206337798038073613e-03,-1.453727503930898717e-02,-4.492211215115800294e-02,2.429284218201641782e-02,2.735640763628530842e-02,3.944463970416286006e-03,-5.425683816053087673e-03,2.604608575883239976e-03,-1.271743596472240528e-02,4.714910125604649532e-02,-1.226183733068628157e-02,-8.021975624333735344e-02,-5.532666001928683575e-02,1.975449733364879543e-02,-1.362542172468254702e-02,9.793978774387663427e-03,1.243961111627025530e-02,3.348819148093749171e-02,-1.273537866833651493e-02,-2.679925710363999236e-02,5.300467912306297547e-02,1.230969037765797247e-02,5.873321707127651496e-03,-1.724276057212259516e-02,1.662070065457717932e-02,7.725240571783541232e-02,2.113701515432297312e-02,1.550847048656001960e-02,-3.944039240912723676e-02,-5.360060895790423607e-02,-1.239572115183131852e-02,1.029213721045637610e-02,-6.518326229914850681e-03,1.712101920018761769e-02,4.524453050768682122e-02,-2.581023251282068068e-02,3.435968358743171202e-03,-1.822742948278956165e-02,-1.518788423641795338e-02,2.422469634386221083e-03,-8.149097873671939593e-03,1.562122977745536434e-02,-1.192271255939622750e-02,-3.352360527330355833e-02,2.408101929041430930e-02,1.779669642063911802e-02,5.927215087424363149e-02,5.130447671216863993e-03,-2.444287648971526367e-02,1.279264223573739825e-02,2.039303632710526282e-02,-2.897908734383547458e-02,-5.185583281741965034e-02,2.311800295999142871e-03,-7.120944624703488303e-03,5.344808466541729058e-02,6.605266832649103748e-02,4.863815625348803795e-02,5.017649128493863880e-02,2.823934359315828299e-02,1.825837955011191255e-02,7.037532446972492861e-02,3.592427282284790802e-02,2.396641835601475790e-04,-6.883273341815147883e-03,3.303424874372603084e-03,-1.085785388682483296e-02,-3.764384884840534895e-04,3.876641687243378293e-02,-2.132063578309503424e-02,-2.842249476112816003e-02,-3.673433912869867451e-02,7.020583114131980504e-04,1.691723285504390800e-02,3.698537485637187067e-02,-2.825841258203256115e-02,2.912215190676358065e-03,-1.364678704231399569e-03,-7.996535690258042492e-03,7.328354637448334166e-03,-6.945350158723993458e-03,-5.603776232792587880e-02,4.667437275456972853e-04,5.656448582337532047e-03,6.467331235777282195e-02,-6.260925369273578379e-03,-2.038852594935075882e-02,-4.446268338492494893e-02,6.795005640264507873e-02,-4.114510237323483824e-03,4.465002708905639606e-02,-1.579990063025962441e-02,3.712531143618710838e-02,-1.448495052251657852e-02,4.268412943186931235e-02,-7.317997615404453655e-03,5.824139327908290677e-03,-3.919180229667731247e-02,2.378339916593673071e-03,4.262960100158269539e-02,-2.865722978130300774e-02,8.548332100289674634e-03,3.038563745003742406e-02,-1.135951852156992167e-02,5.101933644464685946e-02,2.338186217565784916e-02,-3.937787785313676819e-02,-1.963037214380887463e-02,-2.057729561991585021e-02,-2.625335932018307145e-02,-3.638556403086743579e-02,-2.848387141770821265e-02,-3.525488868010859603e-03,4.258905653167537053e-02,-2.373661725197415834e-02,-3.225568400132035329e-02,-2.464211247949919803e-02,4.416512988635735298e-02,-8.223087773695082411e-03,3.765455187270461829e-02,4.088085800387322721e-02,-7.633044769370707361e-02,1.347087487674476260e-02,2.750207244605120879e-02,-4.697309507499359410e-02,1.180174025995161559e-02,-1.899877719576096788e-02,-5.185420212899530257e-02,4.165511663770000289e-02,4.921288705004821934e-02,5.876521368955171104e-02,4.669686040407586280e-02,1.119928204927639337e-02,3.273750008649765203e-02,-1.720312381167666410e-02,2.103448253959880332e-02,2.995831598866429551e-02,4.558060428476120099e-03,-6.063625686562551173e-03,-1.724330799773910600e-02,-3.096676261775990996e-04,1.722788033887296885e-02,2.182780436316715880e-02,3.630303430370203973e-03,-7.650104089808329455e-02,-6.968749238565442872e-02,1.265424454786662385e-02,3.282262176345109722e-02,-3.477443286655735460e-02,-3.149443751780015878e-03,-1.592472048364891937e-02,1.068512945108305787e-02,-7.650642283249255160e-02,-5.482719394030895199e-02,3.227969437643475733e-04,-1.386841869464065097e-02,1.008966906500110700e-01,6.245111417965709677e-02,2.552738399201072515e-03,-2.124099540744155828e-02,-1.312691028309549181e-02,1.423488702975715323e-02,1.012111884504753173e-01,2.245664402959941797e-02,5.292357033092209449e-04,3.496613956239601889e-02,1.175251317922856170e-02,1.925312184918136216e-02,4.782040193422895658e-02,-8.378778586816172658e-02,-1.535084317471144613e-02,-4.723750707304336105e-02,-2.554436963178588482e-02,9.591796309321840366e-03,4.196337585770388429e-02,-5.716138368621950794e-02,-4.850169157148899457e-02,-2.430569903614732130e-02,-4.747319117079825714e-03,7.610297104589547768e-04,-2.471572712930253032e-02,-1.063366799546129476e-01,-2.408118451270379809e-02,5.043525022664674395e-02,-1.997023655749741514e-02,2.555615840337839562e-02,-1.230746080832093373e-02,-2.337205148907158317e-02,-6.313803198666846639e-02,-7.213797590705050937e-03,-1.372969498608970183e-02,-2.510563851754321618e-02,-1.149453089665640297e-03,-2.364119849107080683e-03,-2.772585499038381779e-02,-4.274078549603639587e-02,-4.305837368452235248e-02,5.792176746945328081e-02,4.928587109364701568e-02,5.600730398796258981e-03,1.853763696809984651e-02,-2.187104101961082764e-02,-1.318560424401978536e-02,-4.749705522242959194e-02,5.153831906132259194e-02,-2.309010293118587357e-03,-1.035151046393913143e-02,-2.188251157713553760e-02,-3.070167176176868962e-02,-1.407995465754799391e-02,-3.079101558415802894e-02,3.161748259029722313e-02,5.781719378675463650e-02,3.210333923629514474e-02,5.559328876128782904e-03,-5.927005675905028942e-03,4.231818072024872562e-02,3.882464429428457431e-02,1.918617755658355226e-02,-1.223166616002481152e-02,1.057034328692321203e-02,1.662540287034184466e-02,4.419540859613244749e-02,-2.426041331841598606e-02,-3.411504175918483438e-03,1.496025062046753631e-02,-2.872830026752347127e-03,3.530575438305357666e-02,4.645732824574401454e-02,3.049688162258145860e-02,3.934414540701749313e-02,-1.560615624383377906e-02,5.298313188299963450e-02,-2.767825022717390615e-02,2.236064345011538543e-02,-4.514507237501439590e-03,-1.827123414963046505e-02,-5.376057341917386823e-02,5.733373616315693517e-04,3.659311526841184381e-02,2.573242369353330450e-02,2.390909969327670651e-02,-4.951094442083300157e-02,-1.639645656393584616e-02,1.030553076841187951e-02,5.290353410539322399e-03,-5.459778355042758935e-02,5.832235191518335415e-02,5.127925064771717695e-03,5.369057048860511466e-02,-1.214717595951793003e-02,4.694845002678121881e-02,-4.141962349890247752e-02,9.189589201635530932e-03,5.297537331852295375e-03,-9.822371047335760191e-03,3.249063861037423950e-02,1.140135946702477698e-01,1.989557562444371069e-02,3.050229566005065868e-02,5.134261416675520162e-02,1.165328499158898717e-01,-6.240254335287605258e-02,5.564309885125690719e-02,-7.993683088377429025e-02,-3.060252804688087455e-02,3.561860528247651203e-02,-7.032144175852982938e-03,5.371567659343252227e-02,-1.444981105057919742e-03,3.776684784198567485e-02,-2.581633791026507595e-03,3.305612338193447686e-02,-5.007256841977293302e-03,-3.562257668730080262e-02,-7.050612931540081729e-02,2.291363020719184435e-02,-4.661839731748737559e-02,5.727012194432794939e-02,-2.287830400329732283e-02,2.173779555867871860e-02,1.830442752725592107e-02,6.836876513700108904e-02,3.568467592962605312e-03,7.242931139794597795e-02,5.061552621795972762e-02,9.829071302240123542e-02,7.252308185808248320e-02,5.213143129229701189e-02,4.815887339145483864e-03,9.086729693544672026e-02,3.073495886683549200e-02,5.404718692625553461e-03,2.579041642951409447e-02,4.261153299268703037e-02,8.177270877766742996e-02,-2.646012689606708213e-02,8.527054751490838191e-02,8.469228973793165027e-02,5.259634788171221875e-02,3.960348357126075580e-02,9.210123895209965800e-03,3.529734972406428639e-02,4.215315291570975037e-02,4.874520521306580090e-02,7.609212354027182490e-02,2.869670961196386580e-02,7.213132968719213056e-02,5.937184872794850493e-02,-8.440848545781077378e-03,6.142895380156682822e-02,3.855828828789849977e-02,4.598054216979324815e-02,4.485920236525504923e-02,7.437819861782686559e-02,1.001419409341468975e-01,5.900514108661929907e-02,2.502843733385040972e-02,3.205346366824021742e-02,-4.154561040948771475e-03,4.560547911301894575e-02,6.673524128326206728e-02,7.004729982058627465e-03,3.206479842881288650e-02,-1.309709666814882871e-02,-1.093393906900014256e-02,3.485675317567697544e-03,6.052522416548170026e-02,5.803472757501820789e-02,5.122918036096022615e-02,4.521407032727875475e-02,-3.000539999193962276e-02,-8.818487212141377235e-03,4.214174153211076856e-03,-5.502571094421110191e-03,4.095137175095583254e-02,-4.332002504862971642e-02,8.705308772810952528e-03,1.249679230077467215e-02,9.144357872954134853e-03,6.644684788413111887e-02,2.994494086083889298e-02,-1.181004066616719687e-02,2.960519476115753765e-02,1.017024493562406762e-01,3.869794246741736776e-02,6.182754502157001425e-02,1.545959978089683209e-03,5.145482525488303399e-02,-3.975357225011712237e-02,-3.562190576089310605e-03,-5.160581416182657283e-02,-7.054833514739759781e-02,2.854895759114236056e-02,1.004865822772534750e-02,1.013887905236706549e-02,-2.020479496872250747e-03,1.673524945094130578e-02,1.233145237871445532e-02,-5.541060278312164543e-03,1.439978782825447265e-02,-1.631403937510982755e-02,-5.036429945773719663e-02,3.785354994283843949e-03,1.078728396112369186e-03,-2.574156090281710593e-02,-4.664080102558390561e-02,1.296698257055350044e-02,-1.424030866428476622e-02,3.557375844811602045e-02,-3.345338551027499802e-02,7.991700886860221564e-02,5.176917539959739051e-02,3.417429606945289466e-02,2.076619855831445677e-02,-1.124675317647946989e-02,1.516028628909261685e-04,4.452723256396741956e-03,-4.043239593935771259e-02,4.441018649075358093e-02,5.588530427534708911e-02,8.416517417612211227e-02,-3.043343608508730994e-02,2.383157714776554942e-02,-2.748139844025196052e-02,1.341164731305280466e-02,-7.063717146092336752e-02,3.751132425082149419e-02,-4.083871871846808492e-03,-2.123992595238824443e-02,-3.212584766474138598e-02,7.283162027475298221e-03,-5.774785564430010704e-02,-2.387411667923779526e-02,-4.206814469359075603e-02,-8.442946404916676362e-03,-2.119242110379321309e-02,5.934122556098554019e-02,4.803858213273551336e-02,-4.937848293650923259e-02,1.899314447424425845e-02,2.772297495755914401e-02,5.614315010605808176e-02,1.691720373609899384e-04,-1.891874861960328837e-03,-1.291775499989843839e-02,-3.973120019786209600e-02,-1.145755424729457198e-02,-7.741551345355163032e-03,1.393647750574258069e-02,-2.770836391194243797e-02,8.459583738333369607e-04,-3.171761722879431339e-02,-1.565800812357452665e-02,-2.897253050531511248e-02,-4.220860941566101994e-04,-6.159483868505190307e-02,1.445912380264658889e-02,-6.019193048649316286e-02,6.387968414657280158e-02,5.019922308949474957e-03,-1.596781507620999296e-02,-3.295661387320739100e-02,1.694468020953195098e-02,3.237630015820480017e-02,-1.461901413224497501e-02,6.746032669791465243e-03,-3.718935458485335410e-02,-1.939183874075809874e-02,1.480671961797601528e-02,-6.514217609925326835e-02,1.360422522049365736e-02,3.491887463559188720e-02,-3.368302372144196810e-02,5.865834419286308776e-02,-1.694257640538698526e-02,-4.917300624024374678e-02,1.719233281864395932e-02,-4.322048940521740212e-02,2.306384944382595947e-02,5.328507804021129918e-02,-1.965174708503874407e-02,-5.344856205524128878e-02,-1.534163529572083774e-02,2.263665002059842002e-02,4.966735527778189108e-02,1.973991949171574611e-02,2.864606291590193407e-02,9.445666431860434697e-03,-3.218724778518231716e-02,3.795741723722728667e-02,1.086195853837204628e-02,3.085953822036054811e-02,-1.157876416027246204e-02,8.553991913724766361e-03,-3.928389423867633540e-02,2.155135712585910801e-02,4.025863354132307864e-03,-3.183707206978257653e-02,5.605492214766022441e-02,-3.288325155461321175e-02,-2.904298089687860560e-02,2.878090256624355955e-02,-2.666653321212454630e-02,-1.759147804016123612e-02,1.324512466046108734e-02,4.313647954165952293e-03,2.614015222905352251e-02,-1.192725560190939678e-02,2.751317854302826049e-02,-3.245516560594262356e-02,1.134517278700280379e-02,9.897312608367351411e-03,5.075696033243150967e-02,-2.468044152587934442e-02,2.742374297830990626e-02,8.010579019886102103e-02,1.284945046239399473e-02,-7.504151445512780017e-02,5.239615264587973477e-03,-2.293488371364993048e-02,-3.434244746022501946e-03,-6.231621941882169863e-02,-3.234006384017158731e-02,1.574937007421292959e-02,9.573414385918598002e-03,-7.525226241939018956e-02,9.840275728198051228e-03,-2.264011013390468049e-02,2.389654987688200061e-02,-1.063241432715111429e-01,1.039609187807555638e-02,2.533495941635316440e-02,-7.858508616872889041e-02,1.110733132973741183e-01,2.604678201904803668e-03,-1.021446599662632904e-01,2.274607988472739789e-02,-8.160648631289064980e-02,4.968553247836085540e-02,1.477393973867835095e-02,5.107139267022756113e-02,-5.399956003090670975e-02,1.988535291880183260e-03,-3.610382694086739647e-02,-3.892111785948478703e-02,3.565964955383613393e-03,-6.848042278995974952e-02,-6.589412371946714968e-03,-2.352970249450331980e-02,3.171667031704909767e-02,2.298260893236434791e-03,4.097206640140757528e-02,1.114397190598425368e-02,-9.895029998576875332e-03,-3.819768836507527604e-02,-5.099340433331071148e-02,-2.923671461034843544e-02,-7.474429384454544904e-03,-3.330198949776624201e-02,-3.879295822604194449e-02,-6.367002888884176759e-02,-1.821607011697381345e-02,8.059418340559616756e-02,1.575649766964457715e-02,1.235190639169958700e-02,6.636853925677259521e-03,-1.457177606048258578e-02,-5.600182981888766204e-02,6.557248321264067328e-03,-3.355743769413795791e-02,6.095357743518246829e-02,3.055630300601360622e-02,1.494574330923649670e-02,3.700495653705968696e-02,-2.533514606420541465e-02,1.198285895550320508e-02,4.836422421221130835e-03,2.835824085318778762e-03,-1.402820570170754642e-02,2.247612204925071664e-03,-7.955242059726544412e-03,-3.747277343589608400e-02,1.156818482114180258e-02,-5.078443749335489338e-02,5.331373847285094530e-02,2.286427155982480655e-02,-1.041141228866194340e-02,3.990642880660330225e-03,5.817076753318928088e-03,7.329419892188666907e-02,-2.730503782763484683e-02,3.548096440064413271e-02,-4.135940429505548938e-02,-5.678971297328001822e-02,-1.236330702018494446e-02
-2.060654445113842270e-02,-5.148308200769610710e-02,4.410528804812609283e-02,9.867535080056416118e-04,4.516513559650570109e-02,6.897659575148618050e-02,6.675164838583781679e-02,5.971151642018711347e-02,1.203744846121149572e-03,6.218198384284097380e-02,4.649538637740287597e-03,2.213183132081104898e-02,-1.675797684894212575e-02,-6.089220713209466534e-03,-1.827348983369159879e-02,4.629992564327081034e-02,-1.636120059240808722e-02,4.417352926020083788e-03,-6.808944539314490396e-02,6.036497593615904739e-02,-3.632417813670937162e-02,-6.480634787948760800e-03,-5.720813957139583850e-02,2.480002994816107344e-03,9.686239142572347508e-04,-2.884920393901765218e-02,2.667712503569075189e-02,-7.208315930357522827e-02,3.629725970195547130e-02,-1.944114239408576555e-02,6.128656362179667888e-02,4.085858595155996906e-03,-5.408834157982903013e-02,-3.267301860740875336e-02,2.342246858708384866e-02,-1.407334272099487922e-02,3.659640358376872044e-03,-1.816490851260191275e-02,-2.609308405319395088e-03,1.383935980297379235e-02,-3.731620490199560880e-02,-1.853617118583089423e-03,3.194001157927172773e-03,-2.600271378322459997e-02,7.456679807139202087e-02,-1.699920902507964793e-02,1.502454781823771290e-02,-3.827309150214668054e-02,1.326076867094596115e-02,-3.352943041084314318e-02,2.751771535263768803e-02,6.331493881402558421e-02,-2.215524641760707042e-02,-5.215075253540397276e-02,3.407085395211536388e-02,-3.505298466838171340e-02,-6.827922531636500822e-04,4.986948940478192448e-03,-9.251962056105208013e-03,-1.174681990061450867e-02,-4.411509711646834780e-02,-3.153821168620582482e-02,-4.394887975301550037e-02,-2.895789351745522294e-02,-1.202321095842568688e-01,-2.502933114890295435e-02,-4.539775054989422971e-03,5.021466989210354032e-02,5.386899423294620737e-02,-1.071011645209146539e-02,3.229697077552381307e-02,-1.635337159036034244e-02,5.405464723988176283e-03,2.777287083882509777e-02,1.766448844096888543e-02,2.118050413555167336e-03,-1.431604330295469310e-02,3.664424084516989394e-02,-1.879110514882233185e-02,5.644766348921943742e-06,6.540995837948702929e-02,2.281475112285796802e-02,2.157463328308752148e-02,1.122431650515160091e-02,3.787012896197097800e-02,-2.404201815062310260e-02,2.225669412454205770e-02,3.181865769639132674e-02,1.460807039004775876e-02,-3.477419543694701930e-03,5.652416467245895831e-02,-5.088074443137074326e-02,-4.228812433070253812e-02,1.232558691792694011e-03,2.980354376151874221e-02,2.397118083024770904e-02,-4.046902615641669726e-02,1.555025906351605210e-02,-1.027102737980164701e-02,3.211459544539350258e-02,2.539609954880104117e-02,6.300933656764465610e-03,2.684383498925456760e-02,2.023634316730749463e-02,-4.523858729083164894e-03,5.582035856006010988e-02,5.236365726407592180e-02,-9.324367674297322911e-03,-4.874479483928548240e-02,-4.793072289994733393e-02,-4.063615701147483411e-02,-5.233011128227799125e-03,-8.685788802693494848e-03,4.445343842701920262e-02,-5.677054861195717124e-03,-2.573375662878719938e-02,-2.799488519287061938e-02,3.510866572529046381e-02,-1.818451519303041636e-02,-8.600007718816919666e-02,1.299510148446708733e-03,5.831664488922479184e-03,-1.936769359923708883e-02,-4.561828941239319535e-03,-5.318148778039746144e-02,2.167145862305296100e-02,1.815273666713342407e-02,-4.996778995501062123e-03,-1.641500144233297431e-02,-7.031642444082469856e-02,-9.158443505172689236e-02,6.680660998618083782e-03,-6.159216742944136763e-02,7.127483552544421064e-02,3.485048581096078513e-02,1.968211883077546076e-02,3.193822636360817840e-02,8.461416900978506461e-02,-1.420489939498150540e-03,3.513178822069042140e-02,1.053660431148371185e-02,-3.244805361650210558e-04,1.715215003067726424e-02,1.725221911069486913e-02,-4.886890649384416363e-02,-2.340104779571620941e-02,-6.180597208143175786e-02,-1.215175199719136130e-02,-4.974530349890090436e-02,-8.360248632416657222e-02,-3.116808998524616195e-02,1.020720793258318541e-02,-1.196369281235506316e-02,-2.009630178239808773e-02,-2.042302650621542759e-02,-2.969848734462338363e-03,-5.461814317678633651e-02,-3.393144375560410569e-02,2.360998252412736115e-02,-2.838243641930088615e-02,-1.343445215050798926e-02,-5.231049749547150851e-02,-2.934778318912384734e-02,-6.981752837448612636e-02,1.180056050931319045e-02,-4.762792822965940948e-02,-3.517659709766733644e-02,-2.196463511048778877e-02,1.370643356090771314e-02,-4.186807061688079673e-02,-2.599007214289204143e-02,1.812318259565366685e-02,3.256820368614535277e-02,4.965047249806084015e-03,-4.776320536710952636e-02,-6.667626048441259966e-03,-7.187776399657985760e-02,-1.074613347014578314e-02,-6.275682291840660454e-03,-6.837486642594554909e-02,-7.279606897434130752e-02,4.296661783578271943e-02,3.768381683987720443e-02,-5.220021374353847610e-02,1.191608611654682015e-02,1.098851594854643662e-02,-4.111236069927967640e-02,-2.323943037007366805e-02,-6.299037017691191953e-02,1.514344748671941736e-02,5.764920787853707734e-02,2.004613487552142290e-02,3.981243322453493355e-02,5.565697443422086901e-03,4.100978633631818804e-03,3.672555161847541882e-02,-5.887738458582189582e-02,4.438410105717119358e-03,-4.111257682282837972e-03,2.203634885144358305e-03,-2.590363400088720180e-02,-4.921953352621978584e-02,-2.796142145075686952e-02,-5.874419169259596091e-02,5.780367491170354532e-02,-2.988464613187208352e-02,-1.117980077590406823e-01,-5.046268452688928291e-02,-3.160884354212696590e-02,5.588186751489058329e-02,1.593337350935487493e-02,8.848296721597712078e-02,8.082039871774909789e-02,8.048428005507048122e-02,-2.087228275178580963e-02,-7.419587055013350529e-02,-2.036183396766665446e-02,-4.015272673205240450e-02,-4.305073299837031825e-02,9.124110436999276555e-03,-6.344026789351150941e-02,2.019795176213871890e-02,6.843051911202349853e-03,-5.533313815644154421e-02,-8.216249633898149718e-02,-1.421878878090778418e-02,-3.116012517463852965e-02,1.828953449037353657e-02,-2.879409095708171384e-02,1.393462223929081527e-02,-7.976365766607317054e-02,4.346459003278975441e-02,-6.574021696730093789e-02,-6.711096992271195494e-02,1.257460636195562205e-02,-1.514990047537580990e-03,9.924793497444685600e-03,4.588157937297353273e-02,1.011166870637280335e-01,5.475999573421071881e-02,1.897327762816054808e-02,9.093636358562022515e-02,1.252625706186967849e-02,-7.721710778525217068e-03,-8.514855857420956797e-02,-1.138769840453932036e-01,-8.109213526519980925e-03,-1.665912169422971781e-02,4.653757878616233967e-02,1.972903297636203340e-02,1.409312753699611120e-02,-3.397062524548864065e-02,-4.172881111251322203e-03,1.265926194317175402e-02,2.515502682771787735e-02,4.443226945732322436e-02,-1.033431296968170821e-02,2.061997765145300032e-02,-3.845132595740317211e-02,-2.296019220516656509e-02,4.018648957005824252e-02,2.709378345282990527e-02,1.101609426007437234e-02,2.005446320035899135e-02,-1.871352063429540871e-02,1.052063920174040879e-01,-1.019535407223488323e-02,-3.595113336368887386e-02,-2.058979069839402334e-02,-4.721415355598593960e-02,1.443650917258854950e-02,-5.172504125850962975e-02,-1.459912864707212446e-02,-6.636826438240801818e-02,-8.052198631795506531e-03,-3.314079013024595621e-02,-1.625889009405623309e-02,4.747537087707037751e-02,2.402342181766394663e-02,2.877649556502841210e-02,1.390428210500097191e-02,-8.982297642064981241e-03,-1.217941910603518750e-03,-8.585990292252316039e-03,2.543116904367583725e-02,-2.243088968805475453e-02,6.023360996489614955e-02,1.170974085839561127e-02,4.513671782161101861e-03,6.656986934317021820e-02,9.490350791368479255e-02,7.645126192081910799e-02,8.523597448905309570e-02,-6.467200974174049100e-02,3.435762777394620049e-02,-5.761401481417133263e-02,-5.894159701430456977e-02,-1.400182834356404962e-02,7.099320973054702028e-03,-2.374542647550820576e-02,-5.483976771082872681e-02,-3.648235691030959991e-03,-1.424610098000148560e-02,-2.939174762399188873e-02,-8.391471013752438424e-02,6.428356951544002967e-03,-4.442048667177267950e-04,-7.158267371408616464e-02,1.535706149813692448e-03,6.045324050976533248e-02,1.976394957295338900e-02,-5.333560533058111230e-02,3.651601120046137766e-02,-3.043693402057899566e-02,3.935167189788009445e-02,-1.909255651355058064e-02,9.217592858051197949e-03,-8.810446011103252421e-04,4.726671896107675908e-03,-1.574719235416155785e-02,2.798607248804942452e-02,3.966574487663335896e-02,-1.947363428706474012e-02,-8.142621684620963973e-02,-2.461543478953616762e-02,-3.192648014376393839e-02,1.084704655331649760e-02,-2.976531140709096773e-02,-3.230217467211560223e-02,-2.474144539920391725e-02,-2.243949685980022382e-02,4.215965173947917172e-02,8.169995791440379240e-02,1.719097058447729282e-02,3.220153767541694689e-02,-6.020543704222496018e-03,-2.121069334214696622e-02,6.445053945264694883e-02,1.555482533098033644e-02,4.712197321512243131e-02,4.073216010431471995e-02,-5.451360420707303256e-02,1.244018411499262997e-02,3.058978577889790926e-02,1.455499396943529117e-02,-6.891417996054009787e-02,-5.179212534244073685e-02,6.125678358205990937e-02,1.068336234946706820e-02,-3.134209898358678026e-02,-1.342682428088577511e-02,1.228023509593073430e-02,-3.738270658509770111e-02,4.097006039189349941e-02,2.668552269494544119e-02,3.214865200328766159e-02,-5.516946292662087969e-02,3.178523629680261864e-02,-3.156901223974856608e-03,4.849207499416354622e-02,3.448594523044004601e-02,5.484318739911515916e-02,4.697461438138941098e-02,3.306601250591501701e-03,8.282338285055987348e-02,5.214979917822225308e-02,-9.169234687417683605e-02,-2.665988760227495924e-02,3.005996377451099211e-02,-7.720894877533163170e-02,-5.945870039432986365e-02,-1.089262168732140282e-02,-5.477019739971283885e-02,-9.073769119228181773e-03,-2.906938986232364408e-02,3.395618609377593772e-02,5.634137967335804686e-02,4.212660581190684136e-03,-6.259885009615370755e-02,2.298243774105808088e-02,2.110549693478947289e-02,5.820128996342142924e-02,9.130640698774710601e-03,2.084904219680019238e-02,-3.688658348794533748e-02,-1.333955734592588314e-03,5.373126286867139839e-04,-6.530541606479647876e-02,2.397259662612986203e-02,4.196601478737234381e-02,-2.063440687679097413e-02,6.715270505299310820e-03,-2.816579566351433417e-02,4.351061153079254645e-02,1.678201641689773408e-03,-3.443052106819875086e-02,-3.054782416363742426e-02,-5.117828936574167660e-03,2.634166430509475229e-02,-1.656084286105516737e-02,1.882470484442015299e-02,-2.423964135209934895e-02,-6.329347909639941594e-02,8.470455164088169786e-02,-1.949312926329761081e-02,6.331077861295891784e-02,-1.395394910663462322e-02,2.722516541050373079e-02,9.825089989355974274e-02,-5.033717158738194170e-02,-7.209697243014340576e-03,-1.621727709248968691e-03,-9.816972151522067314e-02,6.109674150271821730e-02,-2.656949966854410539e-02,7.743107110006836047e-02,1.443573064100480211e-02,1.136793909711569101e-02,3.839675170113472646e-02,-2.076012049817472366e-02,1.878881366578007139e-02,-2.534698589089880855e-02,2.947863879750766553e-02,-1.234735616362980229e-03,3.378899057938340722e-02,-4.607162053780468509e-03,-7.452569774376188727e-02,-6.498741798617493903e-02,-1.828467121657842975e-01,-8.678879882649810640e-02,-3.101603333723417996e-02,4.311018072503168194e-03,4.673042731097482028e-02,-1.193640636436638508e-01,-3.551246785580596324e-03,2.536767168561870206e-02,3.546759987628250038e-02,-1.127058124865462294e-02,-5.348010928427025107e-02,-4.733973574606938073e-02,-5.066887987170791419e-02,-4.852962371436670211e-03,-1.812588257238351847e-02,1.418360669762526276e-02,-8.433288456710534564e-02,1.540908817777652054e-02,6.762625752017699388e-02,1.238991208202315682e-02,3.600253572304564637e-02,7.734945744623699521e-03,3.718778177266533064e-02,1.016829523995797964e-02,1.894575683018967158e-02,5.268324899555764523e-02,-8.789824788278272072e-02,-7.568503373262942813e-02,-7.047363362851810642e-02,-2.891136500585529071e-03,1.107228253795210747e-02,-1.003004853744798863e-02,-7.476976248769002555e-03,-4.972386467659936637e-02,-8.678460389123163199e-02,2.815051132715807106e-02,-6.317787774392023825e-02,-6.068240858267722609e-02,-7.636400672785752242e-02,-1.132533435088167312e-01,-3.448291325813672425e-02,-1.189775675191382387e-01,-3.994242988125340510e-02,-4.871559849098326678e-02,-5.992675969071341660e-03,-2.660844087169761396e-02,3.131572719652957887e-02,4.172410750687967351e-02,3.795046721562291697e-02,-4.093059829974326352e-02,2.853760979623137795e-02,-1.720628974434070674e-02,5.536977817525750439e-02,-1.956368188465151033e-03,-4.752115674075602959e-03,-2.081545546069455202e-02,-3.894591109362153386e-02,-1.595152669263799963e-02,-7.799711314756638258e-02,-5.534560588581685994e-03,-8.498814634394860623e-02,2.442333178104075415e-03,-3.683050168179257625e-03,-1.658451379034770606e-03,-1.072118524155291630e-01,-3.833880573956314347e-03,-5.318842861627150198e-02,-4.109587301118219904e-02,-1.045776436830270564e-02,3.017991845735104248e-02,1.115445933466379692e-02,5.469403131150742808e-02,2.069797705796148912e-02,1.550623010299641454e-02,-2.054594312635528441e-02,-4.860889660383010957e-02,3.791442945439217616e-02,-4.263481699351283349e-02,2.221558853118368870e-02,2.804225095443759917e-04,-9.737452252384994067e-02,-1.705979399592320173e-02,3.655862629288326310e-02,-4.123034391284714079e-02,-2.248229635993193726e-02,1.552981319411153929e-02,4.745902669410595291e-03,1.405945294565118762e-02,3.614014956974750947e-02,1.359420443903672920e-02,4.681183908497522916e-02,-5.444383180326892169e-02,-5.540762591027363626e-02,-6.122387604561042862e-02,-1.473188274485004445e-02,-4.290907699458320484e-02,-1.246974569417656602e-02,-4.661251314659588946e-02,-2.962959419561727106e-02,5.967886989873642106e-02,-1.417504310911352552e-02,1.042029003587317121e-02,1.103742712412862127e-02,1.287254974302960405e-03,1.523615656997397323e-02,1.904635705121979911e-02,-2.680292414245390858e-02,2.443661187279670688e-02,-5.659721157408981185e-02,-2.811080291365952721e-02,-4.450558572751179415e-02,-4.404867637319996067e-03,-2.156826668502035554e-02,5.220445148442517252e-02,8.803190444353386351e-03,-8.124570820789299604e-04,-3.177724846999927660e-02,1.149831538841600796e-02,-3.798027436857985550e-02,1.947496331228955671e-02,1.607220203427701249e-02,-3.131983977790567947e-02,7.261377791237509823e-03,-8.493173641915598713e-04,-6.878530638665071584e-02,-4.003606023990034096e-02,4.993446893548098703e-02,5.449057888188770654e-02,8.659645470187871813e-03,9.386247569153680081e-02,2.615577582258247352e-02,3.465328313207625271e-02,-7.025502640833617383e-03,3.088366968050188649e-02,5.055563426206183958e-02,-2.495923595917141219e-02,-3.548183492102032627e-03,-8.713444327154531988e-02,-4.659002819592426153e-02,3.536041000410807683e-02,8.671778351930069934e-03,-3.604356938558633556e-03,3.679816131493025139e-02,7.142020009841151817e-02,3.566598352236455965e-02,-1.221708325065223345e-02,4.024066694878648126e-02,-1.042392710980647764e-02,1.803292668674858282e-02,-4.012633848520497093e-02,-6.410572447206824842e-02,-3.834155316548100781e-03,-2.036660427773511611e-02,-4.998464915985852824e-02,-1.373476770460645667e-02,2.042294729354356825e-02,1.457889975588355126e-02,-4.424364301504865593e-02,-2.313284568670686409e-02,9.280430318754594871e-03,-2.355911787990550010e-02,-3.276468796845748155e-02,-3.656155442029380281e-02,-5.216049893497674839e-02,-6.160861233252273861e-02,-2.086968734611551607e-02,-1.061396361947755836e-02,-6.648365429361696721e-02,8.212538342707088879e-02,-5.017505350087696908e-02,-8.435144358632783515e-03,-2.331110136752177764e-02,1.698685652447420522e-02,-2.479800462809651079e-02,-3.550569529353219539e-02,-1.775813269458092342e-02,-1.238546093826279129e-02,-6.206953699111545514e-02,1.404657279254527096e-02,2.771825870235747336e-02,-2.212114501867461572e-02,-5.185045348136040760e-02,-1.603515694735413314e-03,-2.906971620340337986e-02,3.355949560946043519e-02,-1.722799752965571305e-03,-5.119923257443724507e-02,4.163340916812238723e-03,2.446813193763931055e-02,1.127113301460767013e-02,-2.319277914186715361e-02,5.164046328373762818e-02,-1.779520272837424458e-03,3.000212148937679568e-02,-2.467378858227574356e-02,-4.370003320532820507e-02,-5.163587331884846032e-02,-1.883542166674780083e-02,-2.055654090442946350e-02,3.429699153640202586e-02,-5.297117154034670233e-02,1.991988610358709152e-02,-1.181659050986302029e-01,-7.995846481924898108e-02,-3.468158524546703647e-03,2.294790229574885168e-02,2.020052348199035189e-02,1.646026714477436936e-03,3.725448124345409617e-02,4.296781105734013423e-02,-1.888369016344885326e-02,-2.059033285726405427e-02,-3.305869760420031278e-02,-1.056684663857409591e-02,-9.473880408446920531e-02,4.688813342817025644e-03,4.622133365374735126e-02,-2.145790701413450609e-03,6.214890074194709402e-02,-4.969361220296980575e-02,-9.279730101344838694e-03,-5.351012843558208831e-02,1.520212142360351064e-02,1.859133828246635131e-02,1.764482363621830766e-02,-1.043946574102726232e-02,4.834171752422766408e-03,1.727115429594976853e-02,8.593504541908882077e-02,4.479710843519281449e-02,-6.208924371010900861e-02,5.191788315609758946e-03,7.271628239888734690e-02,-2.456011307729127555e-02,5.270659008535136594e-03,4.149978396842707307e-02,-1.036832612750663088e-02,3.466172315634063333e-02,-6.532881611084212677e-03,3.831450619160067100e-02,-1.184491839076328920e-02,7.554942628244504417e-03,-2.825818992924946510e-02,4.313759973304001627e-02,9.860880685322534218e-04,4.207111098094609009e-02,4.503827947879013305e-02,4.822179966418622954e-02,-8.817440174280494203e-02,-3.253563352134016678e-02,2.287090318133672834e-02,-4.336525791106814187e-02,-1.846723608880378870e-02,-4.723169715286919951e-02,6.132021809788536226e-02,7.495106286314742738e-02,3.614093152092043900e-03,-2.035619445062743921e-02,-1.094645947972947182e-02,-4.493910820340927398e-02,7.085338050032911894e-02,4.220453156859490379e-02,-5.636888404055828000e-02,-3.600218463736522267e-02,-1.780338072524577375e-02,5.930199937259610088e-02,-4.172810605265688672e-02,4.588565844840317154e-02,3.280435155942208313e-04,4.132671864932081079e-02,5.029995314806144646e-02,3.221756355958108747e-02,2.364928637390813215e-02,-5.619374252511084855e-02,-3.049878527561066671e-02,1.706932443310037184e-02,-1.755584858841349044e-02,3.723959447692654773e-02,-3.250815538201306219e-03,-2.239816963384086423e-03,1.730894213443184837e-02,6.820528411641675615e-02,3.495712360798316999e-04,1.125011914759342820e-02,-4.716777783234501684e-03,5.971890395318009328e-04,5.791979344805917029e-02,3.562975425291622228e-02,4.623167399211858264e-02,8.696369090266103941e-02,-5.744239820615742315e-02,-1.802685951422520333e-02,-9.411890910835446142e-03,7.036753969551041640e-03,5.377429425153204719e-03,2.467547034563601083e-02,-2.977789920708645566e-02,-8.991525536757340176e-02,5.601002019822757909e-03,-1.545532819290782595e-02,-5.371550123359316795e-03,-9.594629753441890826e-03,-3.838461005378192292e-02,-1.112166333027642942e-03,-2.061652391216933083e-02,-4.251820162704194467e-02,1.544058090472173218e-02,1.904082110402493741e-02,1.476014624165876941e-02,3.114598728587405357e-02,1.905727822889614204e-02,-2.997986595209777005e-02,3.936773989817831179e-03,1.611469738875276336e-02,2.243437884970459623e-02,3.890136262598978267e-02,7.926088384746239612e-02,-9.310457045303812199e-03,-1.046354183700386187e-02,6.005645389896768077e-02,-3.548464334623963740e-02,-6.549884781651217625e-02,-1.359539779621775184e-02,2.051749263801341816e-02,5.730629173155917661e-02,-6.548996586961525895e-03,-1.837048106969008110e-02,-1.368002481283880738e-02,-3.929810657564650894e-02,3.269112888767560648e-02,-4.650296860752693891e-03,1.484678090686041008e-02,3.125523148403187151e-02,3.200574722169904213e-02,1.367604411093168403e-02,4.252586195343618231e-02,-6.825621789050803634e-02,4.616588225215010471e-02,-9.670675897896141224e-03,-4.230798670997294730e-02,-4.906265906677083170e-03,2.099932022140432730e-02,5.936101797814784947e-02,4.259760016520754144e-02,-7.572558033402018197e-03,-2.876502442764656414e-02,1.565642049239542033e-02,3.571662260102390768e-02,3.046705359611760755e-02,6.648721523818836195e-03,-9.786737452561287270e-03,-3.603623086502647302e-03,-9.773135760672072014e-02,-3.788621887794701298e-03,-5.381317365985066950e-03,-2.733417737645177370e-02
3.740512891309341614e-02,-5.016029779789119014e-02,2.131156382307206748e-02,-1.815986757583905320e-02,7.714706435219942544e-03,-8.435402497829713048e-03,-3.433710680151508959e-02,-1.682940581313361467e-02,-2.565291604987388757e-02,9.194700729028091463e-03,2.003317455592150409e-02,1.616100334892105889e-02,9.807108065158087404e-03,-3.371666776415596645e-02,-2.323648469758111262e-02,-3.966276949573985765e-03,-2.005609808028743779e-02,2.004034321677852781e-02,5.729903863799189895e-02,-2.316693596542082102e-03,-3.914856624758038944e-02,3.391105475945996317e-02,-1.256700079481573758e-02,8.571868335504922304e-03,-3.048297389094992843e-02,4.972587964190856857e-02,1.547409613789562169e-02,-1.936944914842673310e-02,1.541854281694519414e-02,5.809332393366304498e-02,3.280372240052212979e-02,-3.025182017437298698e-02,6.232492405652443473e-02,9.742846695744900379e-03,-6.773842816633339481e-02,-1.158942800741051896e-02,3.720143095797991128e-02,1.551504114524616430e-02,6.878865311127325792e-03,3.723227762232222959e-02,-3.938558266912300238e-02,3.535490043200706367e-02,-3.954373684318160040e-03,1.811851519387089673e-02,2.401536796784474459e-02,2.482130837493118011e-02,1.515050254387265843e-02,-2.342700636802225872e-02,-2.793941973049487298e-02,3.432022889249150555e-02,2.599534114300560556e-02,-4.476970015871638287e-02,-9.764374439147728568e-02,-1.491734099537695346e-03,6.449564055840312227e-02,-5.865024382868826852e-02,1.046483547836534259e-02,-1.827212346262132442e-02,8.597390931160754299e-03,4.197219958000773105e-02,-7.439220621667361200e-02,2.600598638856425893e-02,3.972953874415300485e-02,1.193427743499216910e-02,2.362159867911842875e-02,1.793871753794841484e-02,-7.555144582492191382e-03,7.789538358588056488e-02,6.928552277741527321e-02,3.817440120950073290e-02,-1.850345956764180497e-02,-3.670073093855031211e-03,-3.662602554592130620e-04,3.889928658204452189e-02,-2.723028047320053685e-02,4.546269740322749636e-02,-1.914827636615078557e-02,-1.605371462819394496e-02,7.265099060653459808e-04,9.504015356906736489e-02,4.107641919840470703e-03,1.358799099402137160e-02,-5.848758796018187905e-04,-5.052677351867764649e-02,-9.072426153681204669e-03,5.600525272804533598e-03,2.462190475852647775e-02,1.116262166540630922e-02,5.114697317331907966e-02,1.592034860739337948e-02,-2.637291146295279998e-02,5.427104589788393080e-02,-4.446122699647135634e-02,-2.953259595019520900e-02,-8.097711762238744837e-03,-9.271105711348918976e-03,-5.437893306537537608e-02,-3.639234353391846560e-02,-8.404178009392666848e-02,1.172094677031049756e-03,-6.542552979467948504e-02,-2.086109149704975900e-03,-5.339706854832604321e-02,-2.957878791826534792e-02,2.406126804925939888e-02,-2.681512537507708960e-02,-4.674243212760582390e-03,2.197696015846902634e-02,-1.426062161293675974e-02,4.880030025999400334e-02,1.597014266242076028e-02,-2.159762313772185804e-02,5.920429623283242349e-02,-6.927858936961536762e-02,-2.261403450383740049e-02,-2.760403882207251164e-02,1.272047393217549081e-02,2.689652202021980062e-02,-1.998011186000819839e-02,1.571420988684180814e-02,-5.262529757194313318e-02,7.817880714444778653e-03,1.471120892972013414e-02,-3.691479511060293678e-02,1.804048466389772745e-02,-6.193242826457446421e-02,-5.167195268009604908e-02,-2.741398061181607795e-02,5.142474578186398892e-04,-1.216203893797550284e-02,-4.883456103303108337e-02,5.753987848024127300e-02,2.656469866196845692e-02,-3.581216888978134942e-03,-7.617593289644800959e-03,9.589234657534211406e-03,-2.522103572798917604e-03,-2.811225226936429900e-02,5.296859733789768127e-02,-2.941824043906511588e-02,4.493397585048933274e-02,2.383171777058398777e-02,5.536061700100343257e-03,-6.984098897878615424e-03,-1.763752839888162866e-02,-1.367954205425807659e-02,1.708517918294481797e-02,-2.190747441673885493e-02,3.023747760427830319e-02,-1.481539960674261268e-02,-3.252124533076047180e-02,-1.703215066170404857e-02,-1.291947255149808182e-01,6.565974610738689599e-02,4.098129036036672612e-02,-4.575823491287542982e-02,-8.062693146042647710e-03,-3.745501239852794262e-02,1.401228742372211816e-02,-2.453763893025896412e-02,4.009441533691764786e-02,1.045194240577757699e-02,6.419894743109175184e-02,7.371363741809336401e-02,2.576274300317239058e-02,1.276513460972281307e-02,4.591667967310163190e-02,-1.209526179202526606e-02,5.030247020741190206e-02,2.063473672824418098e-02,4.924985137907864768e-02,-2.072119911829864143e-04,3.065038625663127000e-02,-1.809142814127250032e-02,-5.254361945117715788e-03,-1.514696686411942141e-02,1.106342984588827094e-03,8.233139104115130835e-02,3.820833775826867201e-02,6.296328452728749969e-02,-3.989568662829200835e-02,2.017775448664785309e-02,-1.287662889464959680e-02,3.737622615255220548e-02,3.469282140373175505e-02,9.491510843237262185e-02,3.681099777054165547e-04,2.083943246084187656e-02,1.051090299537797840e-01,-5.907755799431743671e-03,8.919828461129465647e-02,3.467997379136284614e-02,-1.372135577060291413e-02,-4.058023985968069874e-02,-3.625900835967091340e-02,2.713372555732421199e-02,3.487007699078598782e-02,3.553604483529767405e-02,5.142928407220962415e-03,5.612480722789629783e-02,-2.945631819030516962e-02,-3.600818236742012873e-02,-2.522423966614104757e-02,2.039844457260343857e-02,2.749480350370606813e-02,8.036346745235971659e-03,-2.210815704326382636e-02,-3.411726100431496100e-02,1.027254152103216842e-02,-8.466215068428355889e-03,-7.783631327192543949e-03,1.749483361373219831e-02,4.681300877500229468e-02,4.694626353504139510e-02,8.278308816390263225e-02,1.044106862391462748e-01,3.953099281778927471e-02,2.975296566899990596e-03,-8.612670684882554537e-03,-6.350705294469928541e-02,-2.176494085572009199e-02,5.597615164324278025e-02,-5.032623253848069605e-02,-3.581061096083546641e-02,-1.313122444405910409e-02,2.449155557664465382e-02,-3.547427096160992062e-03,2.808309814212981564e-02,-4.957842552735918645e-02,1.080122962880104322e-02,-3.245799699565940499e-02,-1.654062946985273425e-02,2.022351573742283901e-02,1.001339541674459675e-02,3.708778232264843544e-02,3.579795345032648485e-02,1.785216983499868931e-02,-4.187349710509779416e-03,7.911197648640636015e-02,3.317901886503904496e-02,5.087463641470058029e-02,2.097811070157335270e-02,7.349519852968997013e-02,6.127114795420163240e-02,-9.415748424126325899e-03,3.172269087514066610e-02,-4.853872781823828642e-02,1.373002202327894966e-02,4.724516662745138762e-02,-1.097001684052350406e-02,4.934220179701625554e-04,-4.139267926319280364e-04,-2.846275600258985072e-02,4.297705708564905636e-02,1.440069300950111778e-02,-1.445209741116988862e-02,5.643544796228678467e-02,-5.434607726353644919e-03,-2.061804645108559000e-02,-4.666942499162659436e-02,-1.762445495126172337e-02,-3.506934130035457148e-02,3.820524665029818856e-02,1.360654049854297803e-02,-2.168094301661292050e-02,-3.873760250964629250e-04,4.087964856197101593e-02,4.607903753178882109e-03,3.311402730434323538e-02,3.912509363982491495e-03,3.496884970647270996e-02,-2.884649353695318413e-02,8.751898324037361843e-02,2.927294879030163319e-02,-2.093318625313898840e-02,-2.453939668344162772e-02,9.715573822314982344e-02,4.475524112044752811e-02,-1.675456550862615066e-02,-1.097643539875372935e-02,6.469719610960052159e-02,5.233560512832996503e-02,-1.098153703116063612e-02,2.878498822270301495e-03,-3.341821335003999395e-03,4.049685577577964019e-02,-4.303416180287350512e-02,8.439582715296452264e-02,5.615913483129036238e-02,-3.055075717939620406e-02,1.879343129462199627e-02,4.951908259692908328e-03,-1.155536551069404581e-02,6.018546748229851306e-02,-3.251033878982310943e-02,3.512624626920562293e-02,9.456775919971497149e-03,-3.019618599139393261e-02,2.303869448541781204e-02,-2.724445084939628586e-02,-6.149824550905609588e-02,-1.277117712122621297e-02,1.551949626308704762e-02,-1.962566349148358105e-02,5.839078708212651347e-02,-3.166131722472445564e-02,2.645353018877247969e-02,1.078538726245726644e-02,1.578298342052421310e-02,5.052497671968261134e-02,2.044718955835763460e-03,5.326481291675208563e-02,5.088438774103409834e-02,1.166757277218902489e-01,3.837025174126892924e-02,-1.883968357455114567e-02,2.391580178081945812e-02,-4.757529601142267139e-02,4.141803032063191836e-02,6.587727918311456210e-02,2.493776524527588703e-02,-2.123062337979760711e-02,3.489625447150472570e-02,-2.841773465057568712e-02,4.662355324966080926e-03,9.887635365281671751e-02,5.248580752221614076e-04,1.542183643609875907e-02,-6.384925779008922275e-02,5.263032351880195941e-02,-6.781670122374427491e-03,-5.669451922591212112e-02,1.714843543254251576e-02,3.232685692967316587e-02,1.969119889614976207e-02,7.648407377374578063e-03,6.464822378124933377e-02,-5.196995578112170028e-02,-8.997522556626872184e-03,1.221208749209693779e-02,-1.518248794633022050e-02,-3.266155849099882519e-02,2.594753483636209890e-02,1.912981821408845859e-02,3.950029660303228801e-02,2.018473967717617640e-02,8.289042280617735237e-02,-5.701283458808305282e-03,3.906756211974297260e-02,5.203905176969601809e-02,1.287667629662038113e-02,8.609790063485325481e-03,1.559067299096463660e-02,2.158955514347066923e-02,5.667469531895793534e-03,3.734361544466063831e-02,-9.329076767618758870e-02,3.808771835771066622e-02,1.387165237083667728e-02,6.362752361992285270e-03,2.287524212248977576e-02,-5.259174125737323124e-02,2.721008376061057749e-02,5.205191065266793343e-02,1.716809364626158173e-03,2.046789117123621465e-02,-5.001515464560987723e-02,1.497502837986266968e-04,3.134363262859405502e-02,1.674193891807878448e-02,4.561911046353647747e-02,3.153952471200167917e-02,2.592848263144792095e-02,8.070717387248693003e-03,7.642369048620520355e-02,-3.451961090556088935e-02,4.433424721772248611e-02,-1.750066338442760397e-02,4.948783565355274749e-02,4.894327770753540557e-02,3.184407531125611063e-02,-3.437583767546847219e-02,-2.110030786470490013e-02,-3.636875945503742491e-02,-7.010724260738186719e-02,-2.319595326631014240e-02,5.657112976075032162e-02,-1.352397029853288045e-02,2.006346180374818031e-02,-3.258646270935115080e-02,1.057630034564324348e-02,6.569557307094264255e-03,-2.176233147174825439e-02,-3.697838789264748516e-02,-2.566130428121985579e-02,2.761755356127550132e-02,3.482471834906396974e-02,-3.481746847847280724e-02,1.198098526366424832e-01,1.371179570390715363e-02,3.528745773561434845e-02,2.558873167286226588e-02,3.308785154885793972e-02,1.760640677052362473e-03,5.585935304085257874e-02,-8.385104113412277828e-04,1.724996767983322590e-02,5.133643512229969785e-02,-4.474642559026290045e-02,-3.812070699862594308e-02,-2.151327989410791244e-02,-1.119880175208451539e-01,4.312868704898387140e-02,-8.866862364202430027e-03,4.600475752197404067e-02,4.375894351923827891e-02,3.501267422870251583e-02,4.711356205687140808e-03,3.042640572919547842e-03,-1.147996942272177905e-02,6.676152853350973519e-03,3.150338862555369934e-02,9.029603838003920357e-04,1.714176496974232147e-02,1.668933809995732861e-02,1.732389894149008458e-02,-2.330209365929125729e-03,-2.458984908195819327e-03,5.394884851749783689e-02,5.774893471704851955e-02,1.194002886940313292e-02,-4.699431927582815860e-02,4.487782774679714010e-02,6.844866305368202397e-02,9.158722947904213152e-02,-2.241170586660419517e-02,2.084636148082392657e-02,-1.433532983375095105e-02,-2.699638708309723065e-02,-3.344180898590087825e-02,-5.033142667784284985e-02,-4.680366699178095669e-03,8.552002166830878493e-03,5.928128718476273484e-02,4.964055532588048519e-03,-2.002736277859179861e-02,2.568983945613285969e-02,2.198378600656958337e-02,3.999942986798656931e-03,5.996766189680084735e-02,4.982799548100981697e-03,-9.916969853819124214e-03,-4.885636791588031727e-03,1.777268661890537768e-02,6.394351386162919204e-02,5.415554348863969164e-02,5.760031992577833299e-02,4.965172770301964911e-02,3.658909914401263508e-02,9.976735659046633703e-03,-1.250453946388328449e-02,6.078552540856236447e-02,4.306643785044357575e-02,2.959535790441681496e-02,2.159325547509010831e-02,6.043038527021936217e-03,6.980205551481926491e-04,-5.812869560141412095e-02,-2.576614379320774431e-02,-8.087095596632237629e-04,-1.198323668395648647e-02,1.445454479980051200e-02,-1.393833571511140026e-02,2.920432546355863218e-02,1.895500409963082195e-02,4.176316642253917466e-02,3.218588757261917066e-02,3.257836502601138551e-02,-6.481402118717079393e-03,6.872081359941851868e-03,-4.874201645722994053e-02,-2.103851299819115006e-02,6.369547281650064785e-02,8.922739929827973315e-02,1.806298401602359285e-02,-9.424397034677366169e-03,-2.058137659465850491e-02,9.891927970865595221e-02,7.671165142916999691e-02,6.901118708332774909e-02,-3.566714379723633088e-02,-1.908590266291666088e-02,4.979970715124863202e-03,5.423037009140890645e-03,-4.239458854636712903e-02,-4.250961677624216783e-02,3.642813952364103158e-02,-2.667740079747663029e-02,2.545683595622569902e-03,-5.524046322093926348e-02,1.775926791352230166e-02,-7.144682973992806663e-02,-1.193495859598120434e-02,-3.589570364606521624e-02,-3.388746357204933113e-02,1.290189696094854593e-02,2.297476484939378616e-02,3.943375665373354683e-02,-2.440075828439992878e-02,2.055627035940052125e-02,-7.568542647640075401e-04,1.097439492421728099e-02,8.165695544073505591e-03,-6.779310237075993062e-02,-8.701459435777010587e-02,-8.780655823077790356e-02,6.505909221649977536e-02,2.477302868993475418e-02,4.235861999459601679e-02,3.144724109377985272e-02,1.313171407499250619e-02,-4.786916492022855185e-02,-2.274683408597661521e-02,-4.621874868440230960e-03,-2.862516829003831920e-02,-4.642972604270117348e-02,-1.853523340963997984e-02,2.748851257273340204e-02,6.153866737689609942e-03,1.166194254427045489e-02,3.257836423591911612e-02,1.830641774291006524e-02,-1.287171511965399390e-02,-3.120338336612307403e-02,-3.773373216354741766e-02,-4.828773783679927295e-02,5.167951336393206314e-03,2.927386242833060828e-02,-1.060497854866501721e-02,2.541185637883034906e-02,4.404391426128601711e-03,-4.912174565075538846e-02,-9.069187318369137385e-02,-5.749452587353980071e-02,-5.121901148791037361e-02,-3.761970515774688828e-02,-2.233650451868970585e-02,2.517738779550526482e-02,2.417571156650371103e-02,8.834374416871909261e-03,-9.679815505841035325e-03,2.260672348596966860e-03,-8.073693162035957410e-03,-1.652093359218185023e-02,3.581525984032396526e-02,7.455727219080601417e-03,-3.082774310579841637e-02,-1.404629384205749627e-02,1.467473821608748265e-02,1.182076305863361682e-02,5.228181424356143081e-02,-2.945433194996088799e-02,3.443459744132925521e-02,4.335155718117413882e-03,-2.954230123968703062e-02,-3.951516593223393381e-02,8.593158479004661676e-02,1.223123022280140672e-02,-4.449687018933808774e-02,5.462857397335573947e-03,2.369717696802038295e-02,-3.254403760460903780e-03,-1.093741999276451674e-02,2.852437106193319444e-02,-9.243897646830466497e-02,-2.432287526422832399e-02,7.094212631711217971e-03,3.877281488135553983e-02,6.378021170592528162e-03,-4.427419526576590637e-03,-6.875049660417764663e-02,-6.129096769445599793e-03,-5.650502049432026136e-02,-2.557248022971327431e-02,-4.461299285300201339e-02,-2.790858013411030760e-03,3.752534152657387243e-03,-1.891044980745400228e-02,3.413010475989575188e-02,1.565185328237500909e-02,2.786911098462208775e-02,-2.358559485846657700e-02,5.583254020436973029e-04,-6.627458710572041445e-02,-3.887686933444625681e-02,-7.352875423196853465e-03,1.356790690819976650e-02,2.690018091855345475e-02,3.143554009723568271e-02,-7.487449174007763247e-03,-4.312583161827350520e-02,3.593254337407904980e-02,6.711043878401956077e-03,1.396180317064702608e-02,9.058886552085188004e-02,4.476974950932613440e-02,1.332828809555273650e-02,-4.980061028949218233e-02,-3.183610561402684669e-02,-2.450622979398675572e-02,-7.667002203248444135e-03,6.853482427572346819e-04,-5.483191493109760596e-03,5.861857138449213384e-02,3.895154354357770188e-02,9.634576610847324363e-02,-2.061654382520182460e-02,-2.640266373304669782e-03,-7.223040057197306629e-02,-2.076107133864417160e-03,-3.776335427905293252e-02,2.454057290685628806e-02,5.653418312760561532e-02,2.540091375821427761e-03,-3.708330881420674428e-03,6.081466440913091409e-02,-2.409479737463574370e-02,8.004559916468592662e-02,1.735122974798296996e-02,3.937780659545812162e-02,1.319860530779334851e-01,-5.146181608105519084e-02,3.398343666203525182e-02,5.009649398038299589e-02,-7.835865681586777487e-02,-2.809088190053510205e-04,3.648318971359164331e-02,-1.302893648124619141e-03,-2.196640035283696675e-03,-4.795186808310530902e-02,5.731123497122866256e-02,2.013179533487530204e-02,-3.664418127627409871e-02,6.585045134959431612e-02,-6.970026490294178867e-02,-9.503155239991047110e-04,1.662305099961451649e-02,-2.241179655665511902e-02,-5.955906857981897035e-02,-6.240086163360363675e-02,-6.656985803799881501e-04,4.819943694307511628e-02,2.302483857720817942e-02,1.232071458320909210e-02,1.159872413934745494e-01,-1.541936754318866745e-02,3.686575617644359537e-02,4.452670152185468633e-02,9.991604907400540581e-02,4.367271689192733092e-02,2.727230559354769379e-02,3.764381707526718440e-02,7.206864773032965743e-02,1.974319458313799139e-02,2.448316401571940318e-02,-8.519861767542869641e-03,-1.763586774833118820e-02,-4.353918319291632394e-02,-2.448644305298486659e-02,2.666890912265416913e-02,1.223491592972409704e-02,3.886261110467948560e-02,-1.075499976546716481e-02,4.400502885053201446e-02,-2.484093644930100014e-02,-6.964860014759697605e-03,-6.795151771629914621e-03,-4.711385567556508613e-02,3.627929013035549599e-02,-5.252369420310661063e-02,-9.780103050723189598e-03,2.420609134798431053e-02,-7.176850144652829021e-03,-2.305646873494973312e-02,-1.415996383080780213e-02,-1.026643557576529218e-02,1.510275634276474384e-02,2.696939839010027012e-02,-2.672791047882712434e-03,4.579893413575031325e-02,-3.967801799237211796e-02,1.375289563133041786e-02,3.475918470120595294e-02,-4.868820068520111899e-02,9.138541210544913126e-03,1.793207010281972630e-02,8.812856679264230789e-03,-1.506495640061467425e-02,3.853621771628541227e-03,4.860562243260729831e-02,-1.315834245708213078e-02,-1.058827050276364978e-01,5.541044834152424048e-02,1.874260149748172011e-02,1.791189262760956719e-02,-5.183122884147685350e-02,-3.773836583122910232e-02,-1.739837589896094799e-03,1.446030570664944524e-02,-6.616800239116403526e-02,-1.944766984655510109e-02,3.080745323942707045e-02,-1.604750197311257190e-02,4.322391751654346831e-02,-7.923029970203382746e-03,-6.583459931589323577e-02,3.808547729058905235e-02,6.267938022756698591e-02,7.280332193774939273e-03,-6.474240001822151314e-02,-3.595283479909329449e-02,-3.863512748148226206e-02,9.000673227753075781e-03,5.052969756126448470e-02,-4.303749464654989948e-02,7.323397868834746922e-03,2.269764335294547491e-02,4.778931304084246649e-03,-1.916399083863907843e-03,5.072090632270283284e-02,2.837614468763480918e-02,3.958865760318214938e-02,8.470425685566338250e-03,8.995356970863930407e-03,-4.716453111100485374e-03,-3.802798335798342894e-02,1.715199108733986158e-03,1.493551380357512580e-02,-6.457505224923869303e-02,-4.374477552269036285e-02,-2.378533975851871568e-02,-8.962780529964558401e-03,1.873779520042533758e-02,4.243617327138528295e-02,-2.003510904813992841e-02,-4.609409949805532911e-03,-5.329603040401066638e-02,-5.958116472236731770e-02,8.189348209572068493e-02,4.023175820492404416e-03,3.020651766647385050e-02,-1.670925957208074103e-02,-8.745730708641212547e-02,2.979858936297555966e-02,-1.054367972748218238e-02,-1.850576953856682832e-02,4.985468089943611431e-02,1.041789737534361097e-02,-5.863742998296828796e-02,-9.261928249221234796e-03,-8.722479042349490230e-02,-8.565988152073924708e-03,5.015021453715264727e-02,6.274387898102561263e-03,-7.889951038604689493e-02,4.459779829958165909e-02,5.196419733937844565e-02,-2.622929838481356801e-02,-2.070502227052644847e-02,-2.033690114848103747e-02,3.118602387534944592e-02,-4.254379647151534938e-02,-1.930341253431873058e-02,-6.930555851954539603e-02,7.777252575333669718e-04,3.354306805552664111e-02,8.984191398591630934e-03,-7.687275295862360143e-03,3.698605256734438171e-03,-4.298500498589991059e-02,4.019152632055904978e-02,1.749447501330418653e-02,7.009777828930167931e-02,2.255018902410100418e-02
1.140182695217979193e-02,-3.418168480199552939e-02,-4.216243345163760148e-02,-2.696685367594219007e-02,4.783159576255393425e-02,2.757726842299655992e-02,-5.761930712295375290e-02,-1.134838065048255186e-03,-1.284133493643475725e-02,5.337748607192015216e-03,1.086250934844012854e-02,-8.914804381257776522e-02,-2.579689939974099191e-02,1.117235370078477168e-02,1.046161980287877401e-02,7.497205865171724382e-02,-1.833503406968913646e-02,-1.974357935940767965e-03,-3.392780504878145989e-04,6.370376156423641911e-02,4.291265624555599349e-04,1.412431116888964409e-02,-4.929472073621046823e-04,4.628372321382634436e-02,6.735257785135900788e-02,-1.096366308512578209e-03,1.590575507193679738e-02,-3.060527150177683176e-02,5.651640061689701400e-02,-2.446393344471614953e-02,5.765136827482222198e-02,7.009172870135986499e-02,9.603210108626937525e-02,-3.479551545963446152e-02,3.275899905228869119e-02,3.092376948089994512e-02,1.754072870923942956e-02,8.349753681689953133e-02,8.222326189174485045e-02,1.754505713592098559e-02,-4.997293065384246502e-02,4.578133800891605321e-02,4.637816622518181608e-02,9.081331242645023644e-03,9.703212800016138007e-02,-2.908703025532792877e-02,2.436883340478337295e-02,-7.718491687509236240e-03,-3.894674818860351800e-02,2.713545957865142258e-02,2.818134328225928298e-02,-2.626723252686869944e-02,1.108303981221723904e-02,1.560315814995382085e-02,-5.888478587189492283e-03,2.125611923540565024e-02,2.167744493106490197e-03,4.729153073391186707e-02,-4.346380524588692312e-02,6.951518570969472677e-02,5.662622574527233915e-03,-2.136355193418557757e-02,9.880906106978748840e-03,3.244966348053394956e-02,3.041261878478400751e-02,-3.905172726472878886e-02,1.397277651517005170e-02,-2.369795857198859004e-02,-6.342349871061690736e-02,-9.030116235296045679e-02,2.317406175760163348e-02,-7.294927201083092547e-03,3.055127720941572256e-02,-5.167802697362326725e-03,3.867902317097003488e-03,-3.524368337720319710e-02,3.933812597272731693e-02,-2.954184725833584185e-02,-3.996914917534998696e-02,5.466388823980689038e-02,4.673015333889408290e-02,-6.638501148177224087e-02,-6.296664662194072226e-02,-3.801931421523092620e-03,6.637916902861755453e-02,-7.640711824337717561e-03,-3.776587737214406881e-02,5.773158719669965744e-02,9.914563345008342576e-02,-7.723988562678257841e-02,-1.297846739283228280e-02,5.306900548127234385e-03,-4.399807982700534859e-02,2.816589916916220626e-02,9.757650779444734107e-03,-1.718129953520693490e-02,-1.356045670314936884e-02,-4.618952267831620551e-02,2.275883272435144308e-02,-3.465405171001377516e-02,-3.100288499521879418e-02,3.057276361896046554e-02,1.842679124440341557e-02,4.165307285065561471e-02,8.022534561632940764e-02,-6.677906020378546192e-02,-1.686449383148453524e-02,4.226986670193527695e-02,-5.667698368110250795e-02,-6.971674235448319101e-02,2.999341867792456456e-02,-1.665494618291974219e-02,4.208838950580310462e-02,-1.447169979186223483e-02,-2.046994418679192948e-02,6.810255555288359519e-02,4.544858528212045862e-03,4.843869410629915440e-02,1.329733542752709573e-02,-2.821228355575568399e-03,-2.047109002690480212e-02,4.070381367076916085e-02,6.422968426763960015e-02,-3.580465711891703956e-02,3.597501666904054374e-02,5.914433700143742478e-02,-7.531597368951037375e-02,6.291574529339695639e-03,1.165766162014988255e-02,-6.624180678595432969e-02,1.007365269264433837e-02,1.051355905598745644e-02,3.455826215594488826e-02,-3.847333943703853953e-02,-1.442983644287028008e-02,-3.304042459824502349e-03,-1.733155135117039848e-03,-1.560193069859403675e-02,9.973849819994834442e-02,-7.330921208379913290e-02,9.759071854303394758e-03,-5.317978774460869031e-04,-5.336796726127085444e-02,-3.758936821157525532e-02,4.980696140007931372e-02,9.892892015551163487e-02,3.247002584631962507e-02,-6.188832593417861738e-03,-6.644274526047946883e-03,-1.195411694333154383e-02,4.066939660871598389e-02,8.066788216531514677e-02,-1.802920653757281513e-02,-4.167490487346465350e-02,-5.696990206486029357e-02,8.616135907756831969e-03,3.768202897572794918e-02,-6.327626110765589666e-03,-3.460467862245772408e-02,-5.055507858973301225e-03,-4.305663073595032003e-02,-5.918106015267695502e-02,-4.718828810913380106e-02,2.523670728379115089e-02,4.368094065536386184e-02,-2.363846748768917011e-02,1.608112478856843497e-02,2.181334860981181192e-02,-3.809658306669021829e-03,5.144079082470652889e-03,-5.803923858476964237e-02,4.004394370459475258e-03,1.182773717045061375e-03,-1.246544660061693274e-02,2.812774488959906075e-02,1.561374030506236001e-02,-1.088156002465407064e-02,9.056187568906279295e-02,1.412421839138372666e-02,3.850912778522124630e-02,9.385808085122163483e-03,-3.856482827816225256e-02,-2.985035560763621768e-02,-3.072583010806581583e-02,-2.836708772523589134e-02,-8.193295894271116972e-03,1.266981296562391494e-02,-5.692008929086713603e-02,-1.362255646366768852e-02,-5.386500203356918773e-03,4.624661657785699570e-02,-2.511908183115622167e-02,-3.414148474957784569e-03,3.210802081867360214e-02,3.725622077199292059e-02,-3.986993943905024762e-02,-1.296953631062834102e-02,4.777357446759952081e-02,1.375221573607500469e-02,-1.145670193684382963e-02,-5.095176229240674926e-03,-2.650900737655211351e-02,4.377755307040574057e-03,-2.576592298740621942e-02,7.809519221510244358e-02,-5.862003180885338310e-02,-3.823536902149918953e-02,-7.314255991317091324e-03,-5.611390446123241948e-02,-2.788973337940285277e-02,-6.195559343814603659e-02,-5.091225752821070677e-02,9.137421030875340217e-03,-2.045138853157784514e-02,-4.123433174371565757e-02,-3.674813131579536540e-02,2.387459741844854405e-02,-2.881440090126821674e-02,2.745712026616402984e-02,4.743965289924165218e-02,7.261729556934496538e-03,1.299499720304813331e-02,1.306699747105433303e-02,-1.174567848505719998e-02,4.421354842433306703e-02,-2.205790688587237758e-02,5.851669760433180628e-02,3.695795125617633986e-02,5.123334257460265134e-02,-1.400646171167310976e-03,3.681197507698171639e-02,-7.767667365536022042e-04,-4.338569372347197278e-02,-5.452053637779682993e-02,1.182564795853701528e-02,1.309409316265025547e-02,-2.820380941232970146e-02,-7.909778126746426410e-04,-1.188202814748695081e-02,-5.578244689306647436e-02,4.225664903197818428e-02,-2.037168424729639271e-02,1.580594140310650347e-02,5.209167557034998647e-02,-4.087654668450395323e-02,4.406593196909443060e-03,-3.613537478334977876e-02,-1.897872178483441669e-02,-5.604723696693654847e-03,3.738782822480072460e-02,3.790949840012088762e-02,-1.970875173497273203e-02,5.301770316708997316e-02,-1.999944896252569410e-02,-1.398718612948839958e-02,-2.173226927649231713e-02,-4.212520279570907203e-03,-5.171510326549909331e-02,-4.933103746322248240e-02,-5.130439469337522845e-02,-1.108954384457050760e-02,-1.996655752199942568e-02,2.532579053671833377e-02,-3.330035330798029186e-02,-2.098320214174921247e-02,1.087691037612355943e-02,-2.157652458235470930e-02,5.460504271241972685e-02,-5.207422078805411594e-03,-1.979552148059653821e-02,3.407729604326176914e-02,1.450101427524066837e-02,-3.162353197942510685e-02,1.863130334503423566e-02,-4.905389322468555607e-02,-7.956810550130005710e-02,-3.467219166649621043e-02,5.117652261122039581e-02,1.218882448963932476e-02,2.581891459485227344e-02,5.505002422471445139e-02,6.250694930533236271e-02,2.127214262929684116e-02,3.608074501796048467e-02,-1.156301912518092889e-02,7.522530771968045926e-02,-6.141728589749313044e-02,-7.348159162558863533e-02,-2.749834333934420699e-02,-4.208834498759997378e-02,2.550812975402534655e-02,-9.948772706845646074e-02,-6.861490507249649873e-02,-5.978322426593640944e-03,5.492171222111490170e-02,1.040941359191175676e-02,9.523728745693215911e-03,-2.123275495771501792e-02,-1.042007803645958741e-01,-8.294266559001027550e-02,-3.614886359073476302e-02,-1.015149042225842874e-02,2.633748977587929002e-02,-2.487069398304494333e-02,-3.346150665078222175e-02,-7.801676250632116200e-03,-2.571558199088090028e-03,4.844090979613119990e-02,-7.662551108550005874e-02,-2.351990084646944645e-02,-6.116363321690292121e-03,-2.541665020293229840e-02,-6.436724646567114350e-02,4.071529611609375765e-02,3.206030671774535989e-02,1.440495791533917894e-02,-3.660067240209237405e-02,-3.534515538609279278e-02,-3.963009465740118670e-02,-2.763070051431133767e-02,-3.151680300630152476e-02,-3.625262481447500545e-02,-3.283353362214430637e-02,4.546076973549815874e-03,-5.471983345997902953e-02,2.613398241457672716e-03,-7.629805195775911028e-03,-2.487890850205971144e-02,1.851012316794738502e-02,-5.235489418374109777e-02,-2.732314408557755345e-03,1.549031719306703976e-02,7.645618562102319193e-04,-9.323747170226021064e-03,1.783707795529450302e-02,4.471596430132545458e-02,3.377608474472387073e-02,-5.374351590115592631e-02,1.541510802658717892e-02,5.739416824188777605e-02,3.784476692617809446e-02,4.327080137664755799e-02,-9.088748447629800206e-03,4.494677240741459107e-02,-2.520833227544591951e-02,5.265104161484214507e-02,2.087399591265052395e-02,-1.108370878257167874e-02,-1.288107295518707007e-01,-9.610379518860610870e-02,-8.596098766288993998e-02,-8.474268065400154815e-02,-3.565587848773168339e-02,-9.321212534406361772e-02,-5.420320792671666499e-02,-9.883180195150004232e-02,3.406197265123521445e-02,-5.121196181110222040e-03,3.431610174172163019e-02,7.222447481920039880e-02,3.117252485623208530e-02,6.659035263856818987e-03,-4.499893134856020049e-02,-1.501830176924083375e-02,8.410295832823303300e-03,-7.881667485937987952e-03,1.166482686745652295e-02,-1.927163133346583221e-02,-5.324876400469501225e-02,-5.606474116962217868e-02,5.283055136380035433e-02,-1.231292345697676364e-03,2.358575309804545120e-02,-7.161149446944086241e-03,1.749239554790437204e-02,4.860057068952312181e-02,-7.273584423182363756e-02,-8.982771460333544011e-02,-1.359003750917787273e-03,2.414636690057910332e-02,-3.687276867895872279e-02,-7.307262581405042645e-02,-1.149153416364532242e-03,3.758647194679560349e-02,5.471798191024776492e-02,-8.210402992893124641e-02,2.931446401741955119e-04,2.047033386217042041e-03,6.489741516446245750e-02,-2.226583340923501964e-02,-8.620742998342892371e-02,7.491768871276430555e-03,-2.496077849701624791e-03,1.434568076668633028e-02,2.755708980351870372e-03,3.131483631079955143e-02,5.560275145932672136e-03,2.167457796136331230e-02,1.264353448610972680e-02,-1.654381068824403028e-02,-6.956178577445226545e-03,3.568144641201728695e-02,2.123150524809038972e-02,-4.364159014947116555e-02,-4.834950433706478035e-02,1.125840371165833659e-02,-1.964154235337304752e-02,-5.889528057568128860e-02,-5.134344080205037464e-02,4.344923720868396760e-02,5.685562035437050771e-02,8.775192283206806332e-02,4.594629625269001233e-02,7.152515643533931267e-02,5.698232898132626206e-02,-1.717069878655850743e-02,-5.442125253384161310e-02,-7.305488020509200153e-02,2.965238900173301079e-02,-2.530275949359331311e-02,-9.184661865888571128e-03,-1.540695865254951584e-03,2.497694507153485483e-02,1.673987207797842172e-02,-6.115195433242431172e-02,-1.577612898296681943e-02,2.268761742259941053e-02,5.294323205197433435e-02,5.041341175631615379e-02,6.259908964342647542e-02,3.736594199285820511e-02,4.436247784379828557e-02,-7.833897026094970018e-02,-7.161055242608276722e-03,-2.368458852382658575e-02,4.532465672119220801e-03,2.682066321852557417e-02,-2.078384213123339250e-02,4.074285267400738764e-02,3.635274653162288983e-03,3.517004485707985600e-02,-7.237210835695459012e-03,3.413070381523086727e-02,6.772460524165241358e-02,1.731820986869709450e-02,-2.888896424809484290e-02,-1.290664515970718455e-02,-2.830277618040000567e-02,6.004296743840635553e-02,-2.408715053651170473e-02,-1.377784446097225259e-02,-1.598949613387615903e-02,-6.748860191796417912e-03,-1.869314638178166607e-02,-4.747100294464404006e-03,8.424207253450022304e-02,5.530414731836190423e-02,1.986094618187126196e-02,5.396670360277568829e-02,3.094392320153305578e-02,-2.986291922234434945e-02,4.218169599654848084e-02,3.752828654901676358e-02,2.696639912519172358e-02,4.102745564834493069e-02,4.126683346597126434e-02,2.145772267395132729e-02,6.168914905944809790e-02,4.354220258722991260e-02,-5.164098275770188928e-02,4.536952036326972332e-02,1.461864346540915453e-02,6.018552409872028608e-03,-5.161744768056297089e-02,-1.448074647788182012e-02,5.734487047058328679e-02,7.395488085486673357e-02,3.956733661653378392e-02,-4.457600702703819542e-03,2.588865134454759742e-02,-2.266876956328568726e-02,2.415618779813089034e-02,1.002845504668661014e-01,-1.737476812704985552e-02,5.421110811902273702e-02,8.334199575936594717e-02,2.459234366001738364e-02,-4.772781049445964235e-02,4.510526635145240687e-02,5.599560185734950984e-02,3.197643456951242830e-02,2.601834703965041212e-02,-2.748761541832682453e-02,1.769852500109006868e-02,3.601323239159057166e-02,6.822189854360486208e-03,1.452932496063139185e-02,-1.301447507026231437e-02,3.671691509724483299e-02,-3.057471004051864547e-02,-1.656574031474855125e-03,-8.655166302123321054e-02,-5.898644115907239471e-02,6.559788828645653214e-02,2.826497761619998269e-03,-3.839781975324656205e-02,2.596782114887320400e-02,4.070686271221780200e-02,2.752475051914104673e-02,3.161704900364144255e-02,2.742508461323418800e-02,6.412043326801188103e-02,5.506504733702187286e-03,2.849543101748485893e-02,-3.753891028245427697e-02,2.653778765332994588e-02,1.694730390509544687e-02,1.907219645133587105e-02,2.103195714137637631e-02,-2.847272093876194662e-02,-3.193970997146976243e-02,-6.774670310413406782e-04,2.041395763294665856e-03,2.180691120902185365e-02,-5.883336051845976244e-02,2.148173926978608206e-02,-9.990941909134146148e-03,4.247336989549210795e-02,-3.373021251323644887e-02,-1.029421684663941877e-01,1.226479162044287648e-02,6.771582177213798792e-02,-5.023956247860774521e-02,-6.577583402656654588e-02,-5.586539963031357525e-02,-1.182627752319744159e-02,-7.151721160256985406e-03,1.039299705694522041e-02,-2.314040172388669159e-02,-2.690741033855465966e-02,6.210998509602499301e-02,-6.180241623760671793e-02,-1.400320092696862376e-03,3.552669398714779214e-02,6.603713295650837090e-02,3.293229782177611170e-02,2.540758563835192677e-02,1.809547242205565565e-02,-5.194506682234477368e-02,4.563272551286388923e-02,5.357680917058427889e-02,-4.987223191699131919e-02,-3.314666284277522496e-02,5.994719797798751804e-02,1.318812792162141721e-02,8.053203222321423521e-03,-1.350618670487507139e-02,5.572371456904487430e-02,-2.231925836681847991e-02,-5.344476097949998200e-02,-2.639794507244548616e-02,-6.149757036930859899e-03,-1.648552030668485116e-02,-1.474290434735373370e-02,2.885794501501541889e-02,1.822256064122815267e-02,-2.585658477800017313e-02,-1.545955428650517931e-02,-4.820949367768003618e-02,-1.092560328418744862e-02,-9.133099045246411210e-03,9.141702269971265643e-03,6.723668357053411149e-02,-1.182939934010280268e-02,6.270513013280364784e-03,2.907805229476961156e-02,-1.083890082542050652e-02,2.693602712483451206e-02,2.466409911256387671e-02,2.431469120262842037e-02,-1.903813427083390908e-02,7.848578625692839705e-03,1.052486959751023632e-01,-2.474968715906522912e-02,2.517317479167054811e-02,4.277730341733904096e-02,3.499691325979048528e-02,2.616437381146776136e-03,1.742647209526560631e-02,-7.667838493914452477e-03,-1.594342988736079667e-03,1.879980674099908031e-02,-1.925234304351320248e-03,-8.689898147075868565e-03,-5.254212974746489545e-03,-7.864680918298476084e-03,2.939573752806081547e-02,-4.239625855502045931e-02,1.452532981580975310e-02,-2.078567688767551588e-02,1.399390321918886522e-02,2.499994851373134319e-02,-5.010326615354292884e-02,-7.971047374372594585e-02,-1.052458059922432160e-02,-3.708412351728951339e-02,-7.529076726795303626e-03,-2.358948538737171835e-02,-1.549686202799553138e-02,2.071572643942288725e-02,9.985193391596629275e-02,9.150724053165625038e-02,6.466892635289281377e-03,-2.173790986375527187e-02,1.954995677485350455e-02,1.253582867927217036e-02,-1.962910778222894809e-02,3.216427405784574173e-02,-8.613920020008368830e-03,6.147508699148772349e-02,-3.136906149330741245e-02,-7.112872424402642835e-02,-2.176046600483423285e-02,-5.082987286245723574e-02,2.471798304022555792e-02,7.243964452148079700e-03,5.831060502302217070e-03,-5.878572770784854656e-02,3.683694684212270032e-02,-6.641916816122472866e-02,2.166606964916769837e-02,-3.112804446610732689e-02,-3.811413355643264445e-02,-7.181621253044381814e-02,-4.239324531946165112e-03,6.732585711206476309e-02,2.559468687051728863e-02,1.915574111980231694e-03,-7.573171500329107641e-04,-2.966670466440612247e-02,3.287926543086340265e-03,-4.539934091520437739e-03,7.149855688061613644e-04,-2.089496909008064715e-02,4.805915258186287120e-02,1.532868960996730014e-02,2.826730517201368059e-02,1.100923422415250527e-02,2.516153335376485750e-02,-2.626820894872140474e-02,-4.611214536015870169e-02,-5.558779797726991906e-02,-1.344407016622732320e-01,-6.162977606241800549e-02,-5.845266579351786340e-02,-7.053925513014137894e-02,-5.653410426094028496e-02,-9.099290548963165359e-02,-5.642910187405068140e-02,-1.553700495106626576e-02,3.038705274786698829e-02,2.591186562090482329e-02,-1.445899073207339292e-02,-1.397300697181027077e-02,2.773191388923024539e-02,4.624577659720345568e-03,5.793806499051684655e-02,3.195605797919690017e-02,-4.285689359827816319e-02,1.556046537713723886e-02,-3.939484475243189288e-02,-2.250768250360632092e-02,-6.120421925701897969e-03,-1.839969059571449836e-02,-2.776775382032230580e-02,8.829837083975714505e-04,5.167548936778153940e-02,3.021497914714686706e-02,-2.088707651634882229e-02,-4.258891534108255605e-02,-3.006108826420997651e-02,-5.911157602530168337e-03,-1.065238490443760205e-01,-9.268430748767360339e-02,-2.923690833992310598e-02,-6.475785700422551083e-02,-5.600562116671678470e-02,5.380950377938286365e-03,-1.312793673572250179e-02,-2.076549237021329403e-02,5.488822878742556990e-03,-2.136769271510164173e-02,1.698936940171942231e-02,-1.129275359201999812e-02,-1.833010615195921483e-02,3.886735348945557361e-02,1.544273292269846866e-02,-5.048181770913850314e-02,1.782334136622071947e-03,4.099071672918576034e-03,1.301416500655721599e-02,-5.259181996320636682e-02,-4.983438374695108725e-02,2.503043305153692180e-02,-3.351919904167394160e-02,-1.178299416338323725e-02,-8.854813495525058059e-03,8.021165792908969625e-03,-1.079247816315196118e-01,1.358854542379303761e-02,4.024606963569242468e-02,-2.274505419018276256e-02,2.579768987136051017e-02,-3.414361360069029239e-02,-2.173474605548746802e-02,-5.095402579852870845e-02,1.803386341779526780e-02,-1.099826292685307343e-02,1.583037189825292623e-02,-2.557016100723080720e-02,2.834748226241318430e-03,3.103787035890214277e-02,-1.182166681680218642e-02,-2.544137763053212764e-02,-2.410583274835006659e-02,4.465376523707433390e-03,-2.422859533637486754e-02,-2.245597220667824075e-03,4.992697003219475488e-02,-1.098356745004907924e-02,-9.485927535649466003e-02,7.290508874197472455e-02,2.427353539735492213e-02,6.332454579878830925e-02,4.563374797305098929e-02,4.406568283707943887e-03,4.718466087251963620e-02,-5.616284101317271099e-02,-2.747186996034088960e-02,-2.920252114641901445e-02,1.264063977292979694e-02,1.345484785192581356e-02,4.546464190053868537e-03,-1.225949723798367731e-02,1.716601739075794553e-02,1.528568911690514169e-02,-2.766724405453525881e-02,-2.209042302423401202e-02,4.284808123971844962e-02,3.053599691746641115e-02,3.328321487550977426e-02,-2.329491779776254531e-02,4.689081317099451363e-02,4.099638950849182617e-02,-2.152930764640526018e-02,-2.093254746316379478e-02,-4.510259026841369895e-02,-2.987713701498011590e-02,1.802826203792058310e-02,-1.811119223304719431e-02,5.486774215006617189e-02,-3.180126620867987364e-02,-2.905053384498064786e-02,3.718109572691410264e-02,-1.533915316912833060e-02,8.130667424970698665e-02,-4.132510144028401361e-02,3.083781915536535495e-02,1.371483070556799716e-02,-2.426653074393158444e-02,4.240981958904601473e-02,-4.537949282086716288e-03,1.451902407003742047e-02,4.426002955298651703e-02,5.013301620850630844e-03,-7.426615845490604217e-02,-6.691051636330756780e-02,-2.686834337273547382e-02,6.701597790842257762e-02,-6.091075353633992884e-02,2.390264927051173605e-02,-4.166194876691984433e-03,2.852725855626936716e-02,6.878072480446539155e-03
-8.270650727585804329e-02,-2.752831214657723916e-02,5.765405271058244435e-02,-9.017177164067545492e-03,5.366507058186003459e-02,-8.579248081426801842e-02,-2.217067917452604855e-02,-2.493585901142418570e-02,-2.777884670120859059e-02,-8.234549995184568816e-02,2.147019106973788345e-03,3.478913794089693451e-02,-6.969824451466643048e-03,2.334757185452018824e-02,-2.024087417440787254e-02,-4.816536966547490389e-02,3.876190539541069652e-02,-5.333283122028947137e-02,4.569971508176391413e-04,-4.351717143067299759e-02,2.065957781994352815e-02,7.965356402721661400e-02,-6.209254788236932138e-02,-5.284986908130492184e-02,-2.100104955728749126e-02,-7.454823709396615414e-03,-6.802075465744547578e-02,-1.040160086227343017e-02,-7.652445403384258715e-02,-5.644655721520572961e-02,-6.669837418158446052e-02,-4.171003230603338024e-02,2.642076171181412594e-02,1.325527858498709577e-02,-4.462460688616139842e-02,-1.879656323534581452e-02,4.105500093577481996e-02,-1.966904987712224384e-02,7.308413557860346174e-03,5.016170651181613149e-02,4.845996514597617627e-02,8.450260526411960266e-03,-2.286397397324289177e-02,4.992932836224175941e-02,2.654058171842220079e-02,-5.112038255891777211e-02,-2.673128996226063758e-02,-3.420302344209651818e-02,-6.053025141897711708e-02,-2.163455884247550420e-02,-4.178851754288522707e-02,-3.259684990640324825e-02,-1.272053814688492435e-02,9.159235903063986384e-03,-2.639222588710999143e-02,2.210730903790794968e-02,1.568672512390934318e-02,-3.980722635529629697e-03,-9.174242186489834847e-04,-2.359342294429026682e-03,5.543202988790341817e-03,-1.633361246463267344e-02,1.510001797488606801e-02,4.837979561405964662e-02,-3.895543556314559966e-03,1.927185130479215636e-02,4.860794042044408458e-02,-3.722669220481564234e-02,3.997434513192998917e-02,8.426421788204872809e-03,-2.950155808101933771e-02,-1.178563118543660658e-02,1.292645475535202397e-03,-3.844979821039522239e-02,-1.726627999201762673e-02,2.686193396941952138e-02,1.817218582738975435e-02,-4.527641217383584007e-03,-3.624214065857326444e-02,-7.613041624468448385e-03,3.605539835785331187e-02,2.878291990420870500e-02,-1.335940707601590473e-03,-6.429106682312986463e-04,3.171431735006168678e-02,-9.637225590376954920e-03,1.820562056053069352e-02,5.688405801801720701e-02,2.052386206952843892e-02,5.903974235485002359e-02,-6.393477893088120312e-02,2.160823355546279828e-02,-1.419904056071930563e-03,-2.064264438112501515e-02,-1.702850461270253440e-02,7.471580037979890301e-03,3.875797071617015366e-02,-1.525006891470016487e-02,-3.909690705008103499e-03,3.997723386112789906e-02,-7.404797393874611167e-03,-1.872656708839473549e-02,7.004152482158822191e-02,2.610595077285084858e-02,8.392053102581840604e-03,1.157139910675752253e-02,4.322963188914401983e-02,1.623747231695998536e-02,-3.598487601022386934e-02,-1.456255725682412475e-02,-6.314336287731446562e-03,8.587285725109961021e-02,7.465532863519383153e-03,3.887396716675236424e-02,-4.089814553849505790e-02,-4.842352834192620997e-02,-2.626088207158291943e-02,-3.248138592804957619e-02,-3.277091333429420997e-03,2.674785551767490041e-02,8.347612004806134745e-02,2.314541688432573616e-02,1.189824807224013417e-02,-3.467537655122474027e-02,-4.611449749652792723e-02,4.652095085336521718e-02,1.958062367095057127e-02,2.888187930916875576e-02,1.283068856209395453e-02,-7.151633104548531239e-02,4.676958308802736664e-02,6.405148003570106108e-02,-3.782464329349583682e-02,1.664613897740290643e-02,1.744457985321848370e-02,8.603636537988502975e-02,-6.709338036182167786e-02,8.625729343194821208e-02,-3.047846945752363812e-02,-7.885491273627009967e-02,-2.416788564285275026e-02,1.542317227042737035e-02,8.025611699593933335e-03,6.686542454713387262e-02,-2.058128359238197910e-02,1.472207861786256795e-02,-3.564917681325763948e-02,4.517108868425848134e-02,-2.647884698193874245e-02,-2.775651295368022648e-03,3.541471329819309913e-03,2.282799223385595724e-02,8.178798885571682969e-03,-7.788834814709011400e-02,5.508958797791272538e-02,1.401593101879600352e-02,5.744264253363673411e-02,1.009930377586308256e-02,-1.845722771716581598e-02,7.613205498619492195e-02,1.283957107807094482e-02,6.077162260504297142e-02,5.048055855824693655e-02,7.265172877387210404e-02,-2.765819061093814299e-02,-1.126905670726123521e-02,9.116541185252286092e-04,-3.357032978688506350e-03,-1.269694985026569370e-02,-9.958825972630286349e-03,-2.533840290542435474e-03,-5.244858223300764843e-03,-3.013890632529689015e-02,4.347040094273496580e-02,9.681022413245608804e-03,2.723092908076397371e-03,-4.420807654811425430e-02,5.106865420240127434e-02,-1.007052710680746317e-02,6.334327476447468297e-02,1.545155757429741289e-02,-2.473923617699130828e-03,-1.768106320087605918e-02,-1.106876870226473769e-01,-4.955974476933519557e-02,1.234252615613276767e-02,-2.465033665979277089e-02,5.911434964418096905e-02,7.041726645156171430e-03,7.261856671226334103e-02,1.923855669306042890e-02,2.778181653123010936e-02,1.773547393055130775e-02,-2.760692072718324772e-03,-3.543195102437784322e-02,-1.391875141132584148e-02,3.371279456875252850e-02,8.773640611346512908e-02,4.201592568659277827e-02,-5.333040438098346492e-03,2.077842138861929130e-02,8.144733088331214399e-02,1.829656147412288790e-03,2.805477507294793209e-03,2.484284250292256510e-02,-9.012529126438809102e-02,-1.425716069175335908e-02,-4.347112561815173054e-02,-7.731735490415894696e-02,-7.767145465847739849e-02,-1.537115736513490760e-01,-1.198750810993521460e-01,-4.698243095302210431e-02,-3.100293159852643074e-02,-3.351779150295748546e-03,2.580126826822162420e-02,7.627620546861486883e-02,3.173630363662016673e-02,-9.459379948835149737e-03,-1.228032934402656894e-02,4.477551625968352600e-02,5.146018199280036516e-03,-1.729963988434940134e-02,9.126325760172379490e-04,-1.815756805978727823e-02,-8.190493811229573179e-03,-4.410077047880730378e-02,1.519995997666804058e-02,-7.259651764105541638e-02,3.551081269479629265e-02,-4.013146738131672525e-02,-3.004748018471000912e-02,-8.553682431200991532e-02,-2.643235179564665249e-02,-3.388592545973852233e-03,-2.559910916592574720e-03,-7.553277820218401439e-02,-4.563858028496647901e-02,-8.592417560269124954e-02,-6.485724891217152510e-02,-6.022710281235586771e-02,-5.885160976146140005e-02,-1.246454983705766115e-02,-3.936760402821323085e-02,3.523811666515025420e-02,5.170077929861392058e-02,-7.219180445516180933e-02,-7.376750580837822258e-02,8.840641070779803670e-03,-4.851343491214907266e-02,5.525808177528112979e-03,8.355046023591560650e-03,-3.466726861964380263e-02,-2.863758909413645186e-03,1.388037569880095495e-02,3.839349419465620805e-02,1.384964376917792277e-02,-5.152038372277814755e-03,-1.801133945861864774e-02,2.146557758777281957e-02,-2.085702829414011472e-03,1.199799339194117416e-02,-1.020026191632637663e-01,-3.699458169425171722e-02,-5.385087186115311564e-02,-5.537287530707946451e-03,-7.715024772736801817e-02,-5.380477738433819823e-02,-1.931436496807809391e-02,-8.549870424643677205e-03,-7.769134510659871096e-02,-2.301665445172574199e-03,-6.782623779312402235e-02,1.511932519674940439e-02,7.744671390329369021e-02,4.083621448316124974e-02,2.420291637864279907e-02,-3.720519563200175295e-02,4.202119036773352412e-02,-1.827250247519191309e-02,-4.314367247085288543e-02,-5.400893170155134787e-02,2.478059809999815302e-02,-2.151721371566616553e-02,-9.345317235652059185e-03,4.797919943781297353e-02,2.255501319843577004e-02,6.251796626095974113e-03,1.935880066450724329e-02,-3.391990946605671214e-02,-6.643085455698782837e-02,-4.626156022692165526e-02,-3.153013306320373577e-02,3.147016279192279414e-02,-5.122490660001920160e-02,-6.625219662646976426e-02,-8.667595693726229400e-02,-1.815549935567000936e-02,-1.747073115525270628e-02,1.110925397203446630e-02,8.840400227281071388e-02,3.782104769232938479e-02,-1.634838767417624156e-02,-8.363390478963011673e-03,-3.570469136565336543e-02,2.760742960239959479e-02,-3.541075520840528124e-02,-4.069125121547213092e-02,1.908729302818077756e-03,-5.037512778076146114e-03,-3.748870945581419395e-02,-3.287197409986239438e-02,-7.477621723812484522e-02,1.586299766653324200e-02,-4.384467992856085072e-03,-1.646644591500988353e-02,-5.131417695019296205e-02,-6.533177449567012518e-02,-1.708309802721783358e-02,-9.411061359904179802e-02,-7.754557341757628564e-02,-6.015792560521850130e-02,-9.313423020120394427e-03,-5.380882922949802027e-02,-3.653901402437646773e-02,3.342184123486249825e-02,9.130311593985515617e-03,-7.547418985499879801e-03,3.314304931458420672e-02,3.283718791017519595e-02,-3.471697579436440820e-03,1.280225430000920400e-02,3.660120256741237338e-02,1.417830981644447631e-02,2.953107619099572256e-02,-2.003409553338376947e-02,-3.871166726415176812e-03,-3.923022847962216036e-02,8.488608967795116533e-03,9.547285729634615720e-03,-5.581137556227349673e-03,5.016361053429106709e-02,-8.403074017821024477e-02,-8.546449415634087277e-02,-4.696385587600502426e-02,-6.148826518694323201e-02,-6.871763240227227176e-02,-3.619943426466801228e-02,-5.417465095323104052e-02,-3.241395816853123724e-02,-5.252666677803309592e-02,-1.024533299491402552e-02,1.796507129056884935e-02,-2.988766276954950979e-02,1.708319144202400872e-02,2.910007466794196571e-02,-3.710550002866335600e-02,-2.412631314496574333e-03,-2.927046787745811798e-02,3.261276028228009792e-03,-1.119874219216871088e-02,-3.600013721009159146e-02,1.144236235943663083e-02,-5.556393102199502082e-02,-4.236132750427892141e-02,1.997404027844839822e-02,2.626556294024924229e-02,-2.494836125727246598e-02,8.629033741722630727e-03,-1.947486592571359698e-02,2.814102926260863766e-02,2.463200722506541859e-02,-6.532451596567601104e-02,-1.206110790771751547e-02,-8.829761417467843487e-02,-5.844340896591942308e-02,-1.076601163038788250e-01,-5.774323308096878347e-03,2.598049074486000545e-03,2.807832609355436458e-03,-5.645886444865057252e-02,-8.635936998477641846e-02,-3.280342567044863128e-02,4.371155329586519367e-02,-4.180715238592517397e-02,-1.328399315278281333e-02,2.953563287326881059e-02,3.160188196029580995e-03,1.603636418036322002e-03,1.155273030584120370e-03,-7.647597173824052796e-02,-3.201757426898927533e-02,1.345485929239496892e-02,-2.354338064762982741e-02,2.118743784130667704e-02,2.209833521111478905e-02,-2.593558296961638913e-04,-1.666418718991807477e-02,-1.039105289140959676e-02,1.959113359616360822e-02,9.487053060400382765e-02,-3.491119780654535626e-02,-9.641054583787637966e-02,-1.069298299243577333e-01,2.360704590347585674e-02,-3.309433846649621758e-02,3.625350188819445596e-02,1.932632640707715108e-02,-7.361810502349874774e-02,-6.329095657664483843e-02,2.680320534549925950e-03,-5.264788171968552699e-02,-5.611676252419730421e-02,1.247400600689035563e-02,-7.145787334503991839e-02,5.325710142413811639e-03,5.806633980029665340e-03,1.004389223291100690e-02,-3.409305130692041191e-02,2.608923471150541989e-02,-6.451979082456668277e-03,-3.361304810533587845e-02,-1.030497345432059147e-01,7.094073360443202414e-02,2.474114046404751049e-02,-5.365965600978096599e-03,2.423797822917673345e-03,1.536363299501333594e-02,-5.329191002872109284e-02,-7.342075655635728337e-02,9.937065792344199067e-03,5.694794507497149411e-02,5.991294813413433618e-02,9.210895153939817337e-02,5.869864948703210072e-02,2.520249199364642603e-02,-6.246814205814898296e-02,-6.753174452540991468e-03,-2.555856127112324933e-02,-2.843153731695221079e-02,-8.965441850604990992e-02,-3.268161009281335405e-02,-2.536595069982267719e-02,1.267567289636732999e-02,3.809068126281682509e-02,7.656663465927522443e-04,2.644973128480903463e-02,-4.999606034683492378e-02,-6.165257596520621469e-02,1.508492758949031565e-02,-1.835338439143024622e-03,7.596953760560641415e-03,-4.028864243636618575e-02,-3.720702815535448238e-02,1.374346872639147128e-02,2.156320029169131805e-02,4.477210593854996645e-02,1.808673770613362930e-02,7.163316480797546348e-02,3.340575811086657354e-02,1.172489028861663507e-01,8.375363390255742557e-02,5.819507940924152634e-02,-2.265259791310725995e-02,4.309447510055552932e-02,-8.499456623798794241e-02,1.956775523918826212e-02,-2.815564848607288607e-03,-3.558887040191133222e-02,-7.012915754811802072e-02,1.249963668665897941e-02,-1.835916162385210770e-02,-5.573804636793829731e-02,9.216033474113637450e-03,-6.151098401970859358e-02,9.853073309906888733e-03,3.787510002523945471e-03,1.804501908458171211e-02,1.026631537183881823e-02,-2.250744715463947471e-02,-5.953332218636552681e-02,-7.097280777242388761e-02,-2.614371633200920919e-02,7.812449300936083474e-02,-6.577371236313938295e-03,2.732318449586017620e-02,6.751665316048360843e-02,1.019608879801530837e-01,1.047248993471677769e-01,-7.119449693156903753e-05,5.937154497211589305e-02,5.551079490682576945e-02,-8.043646977584457611e-03,-1.008224305821217928e-02,-5.313851478645024301e-02,-5.791502428967794380e-02,8.231616307832881341e-03,3.838394902111359058e-02,3.768145462345098839e-02,-4.381339100066800746e-02,9.099659600020615358e-02,-3.632931185568397114e-02,-4.271234967329302218e-02,4.022707458164565680e-02,2.053982650639278248e-02,-2.807301543677190661e-02,4.379419741660168369e-02,2.141653200264446305e-02,-5.350876721345949188e-02,-3.545141593987680140e-02,6.972551138861110553e-02,-1.294534246756260699e-02,-2.274468237198303076e-03,3.235484161635293621e-02,-4.626298632912096039e-03,7.297339795847657129e-02,1.050222141752003568e-01,4.741281478808223593e-02,4.467959721568425663e-02,1.307613071520419452e-02,-5.477002305688364291e-03,-6.102362544645294901e-02,-8.356893105258487997e-02,-5.718249540557761301e-02,6.547903694149746247e-03,5.630181182986947891e-02,-1.616827664304137241e-02,-1.746273761110191461e-02,-6.404169641709686611e-02,2.951078433203396800e-02,4.251030316571296347e-02,-9.885255099684686630e-03,2.532878229008380180e-02,7.898274404374842905e-03,1.427117725123744352e-02,2.412860095822350059e-02,-5.495878535820016009e-02,1.612633394525997063e-02,4.014626067827841566e-02,1.326342119115622720e-02,8.377364432745247613e-02,2.792193923831854871e-02,8.579122798240938763e-02,-5.336197853080978243e-03,3.908709109410604676e-02,-2.197126383091229165e-02,5.780543693980063485e-02,2.754105066174045158e-03,-5.051105588577179534e-02,-1.707657747302447279e-02,1.022860991396565451e-02,-5.539203620535310818e-02,-1.933659032341276604e-02,5.837348220872903316e-03,8.641720388978309936e-03,2.547861730435731567e-02,-7.547482192689336511e-02,1.947007212292662173e-02,-6.134246534404958970e-03,1.456137492221283580e-02,4.481885442512286571e-02,1.956260012292662664e-02,-4.138079475438568439e-02,5.180588350204801129e-02,5.745431945007543201e-02,1.060912861756865416e-01,6.654073225625113663e-02,1.948248821109774959e-02,4.189334155472374671e-02,-9.630214601973826477e-03,-5.324512927425949227e-02,4.369543922072355313e-02,3.094929256566314804e-02,-4.378242769518397859e-02,-5.449271061861867688e-02,-4.169922182349337231e-02,-1.019236408806101640e-01,-8.399030445454132299e-02,-3.876449566212232609e-03,2.270926019820363254e-02,-1.886956278528944056e-02,-4.224369084736025876e-02,1.328216503535420250e-02,3.038364177785019341e-02,5.551413855511364709e-02,8.636579092649841055e-03,-1.676883998359730496e-02,-1.342952045500368785e-02,-3.089531126856841226e-02,3.285443254973723776e-02,3.052209845932156787e-02,-7.363311632760968783e-02,-2.869509650769096198e-02,-3.556689906619398683e-02,5.626840625484129388e-02,-4.349535036831284757e-02,5.604990237876477863e-03,-7.902828428493781018e-03,3.282430452368395590e-03,-5.881841880875512962e-02,4.742419940736732759e-02,-1.095715627907958151e-01,-7.135311591273379994e-02,-3.077344690477928565e-02,-1.808927185491032708e-02,-6.772843959474642017e-02,-2.193680346950724336e-02,1.600975737662595905e-02,1.566015811271423072e-02,9.470238821144659480e-02,1.017979377087093081e-02,5.140239307383606682e-02,3.862797752029484971e-02,6.138064031561744210e-02,-6.603714103726144972e-03,-4.691599132211576179e-02,-1.466979284903831629e-02,6.215551503023691166e-02,4.063130355039874103e-02,-2.940195639541540867e-02,1.349106073040619476e-02,-4.118153598726037590e-02,1.737863012949305338e-03,-3.503704191224831649e-02,-1.219634363088831393e-02,-1.792055732621722006e-02,-5.342311887021818084e-02,5.805089287864079878e-02,1.112280964642431424e-02,5.004771168635287204e-02,1.097216938046548067e-02,1.832450888102560294e-02,-6.416772214847527023e-02,2.069781769139674224e-02,6.040079311038421689e-02,1.075181415034047322e-01,6.100610495592053567e-02,1.899246998755661992e-03,6.625563527236095172e-03,-3.419856455921179567e-02,-3.321746027438289908e-03,-4.377430087396218597e-03,-3.733331069526589496e-02,3.646155545097837930e-02,5.829065636189526001e-03,-5.403186529349756489e-02,6.157186291097702796e-02,1.589588239014401438e-02,-5.285233859422913336e-03,3.026770039365194592e-02,3.217491019773312168e-03,-8.069321924362293785e-02,3.211249056131351958e-03,-5.507469839681415624e-03,-6.384424675039293562e-02,-4.441041649030742777e-02,-4.385027941838184201e-02,-4.787594380732143606e-02,-2.571642299922667282e-02,1.610640320128160080e-02,-7.772347818667990627e-02,-4.924829530270654482e-02,-1.890283673356915259e-02,-4.922416700999320861e-03,1.090127207856107956e-02,-1.277949442893364573e-03,-4.104433320330207885e-02,-2.154222861662277028e-02,3.129245507367295863e-03,5.676894992898146725e-02,1.173942365269512941e-02,3.196233372417455615e-02,1.713306145125349095e-02,3.081327435856230298e-02,-2.785429460519994738e-02,-3.911638642130461918e-02,1.639958121128860802e-02,5.058919457425650051e-02,-4.838259349109085006e-02,-3.648357840415118042e-02,-5.935153167605761171e-02,-1.600949906061796893e-02,-1.350419694495796560e-02,-5.052371786953408633e-02,-2.348604823907622305e-02,-3.130306457052771385e-02,2.219006876347973806e-02,-3.087103752768098619e-03,-4.837471762121108021e-02,-9.095024876787082338e-03,2.676553040146343113e-02,-3.741310126441203115e-02,-2.051728208236410639e-02,-4.549735568424776583e-02,4.830877620713546622e-02,1.151827831140516192e-02,-1.234228623170811542e-02,-3.669503698935685371e-02,1.277388674589311976e-02,-6.786277165988345572e-02,-4.453999389433362446e-03,4.768244904229781284e-02,4.198496860543587256e-02,-1.448701284449061336e-02,2.577767686012590043e-02,-1.426575519525506361e-02,-2.873374578299912191e-02,-9.538520018354996327e-03,6.304370049454625924e-02,-5.973341593992195775e-02,1.564730768149281623e-02,-2.317032586263929536e-02,4.574398421476791321e-02,-5.092120261796797415e-02,-5.252244868879963474e-02,-1.476627004418857442e-02,-3.256033983555022687e-02,-5.754969069234653484e-02,-2.482709843753654663e-03,2.278016454313744679e-02,2.692252092694305890e-02,-3.824428773996047665e-02,1.124614947470745779e-02,-2.918282236274418254e-02,-1.882913469116635763e-02,-3.585925616271138511e-02,2.417118690014970206e-02,-5.590433354598404320e-02,-6.000058825882453178e-02,4.176027840897773152e-02,8.433653152143994608e-03,4.714413704557206611e-03,-3.285742908975768095e-02,2.898651346406086460e-02,-2.457747873764118060e-02,-6.870566388966792629e-03,9.438112316519173955e-03,-1.031140622822267205e-02,-5.765416518824520442e-03,-5.566443739489074054e-03,-3.152139639580378572e-02,-8.281569452538761755e-02,1.344319184399279943e-02,3.187993474710820729e-02,1.691747933265128415e-02,-2.953046528172777879e-02,-4.241090882023538372e-02,1.690257685355917722e-02,7.307374230357938094e-02,4.726032423416610603e-03,1.938261699122110701e-02,7.489822751012728541e-02,4.962066878144027332e-03,-2.377629519051496776e-02,-2.126089297153524807e-02,-3.301579091199240840e-02,7.520703238066897556e-02,-2.537683698146304956e-02,1.708350917907527911e-02,4.854934921229844130e-02,-6.235822879643406966e-03,-5.206315643869390691e-02,1.617506016716658765e-02,5.480553054643193603e-03,-7.058831091779564637e-03,-1.690286012098396115e-02,4.449296528745384435e-03,-2.680152758042522038e-02,-2.410842029768937855e-02,1.207137851260393566e-02,1.412309003434605512e-03,-3.676074593412619919e-03,-1.308215448988342064e-02,3.242261412775179069e-02,-5.597952545081754522e-02,-2.120115146249268445e-02,-4.856859057285910913e-02,-4.213393424851199359e-02,1.298440977109816333e-03,-2.087648546193251672e-02,-4.491726905706456413e-02,-1.775796120111226492e-02,-1.266537509675067300e-02,-4.597897547814680866e-03
