-4.724943280053354316e-02,3.355025819220109045e-03,4.615186809515152248e-03,-1.322196289931704648e-02,-5.378562089095305365e-02,-4.122820561031401154e-02,2.188317507860287892e-02,-3.342087116351069587e-02,-4.967531929978823840e-02,5.172478741250179091e-02,1.057867160932603710e-02,-3.914465491074429343e-02,-2.221602317151332925e-02,-4.892546768191314427e-02,6.102110323036191719e-02,-1.602877420711311743e-02,-6.239366163878945666e-03,2.476424998932698351e-02,-2.064666415824781970e-02,-4.288590273027957883e-04,3.293596534777587514e-02,3.586004983592645801e-02,-2.975435600688931120e-02,-1.393986444856299854e-03,7.003414273994827167e-03,1.306806314148157254e-02,-6.320594940674360840e-02,-4.335094272233725420e-03,-2.807770244721719682e-02,-6.698587441293503246e-03,7.692852496773146080e-03,-2.288219589637646711e-02,3.453592400616119218e-02,-1.031830513073577101e-02,1.933467319727738337e-03,-1.780799054284282201e-02,2.881905047650653445e-02,-2.446117621307128398e-02,2.745971493627963333e-02,-2.618461377765460285e-02,-2.898033049610094017e-02,-2.704151985109284548e-02,2.395527269315473815e-02,2.286711034789710301e-02,2.205955075799728802e-03,-4.356658937497408235e-02,2.008730576010275479e-02,1.540601401015009517e-02,1.089938155335721214e-03,4.373684016331608020e-03,2.122849115501374007e-02,1.276454683900146714e-02,-3.400628737196608603e-02,-3.245522179315222643e-03,2.179507983390557846e-02,-1.121679721204095308e-02,-7.782586022848318741e-02,-3.121017782165027080e-02,3.428336905989171762e-02,-2.228504286202726004e-02,1.093704254459326210e-02,-4.952716919450193128e-02,1.791862782148761005e-02,5.683918596192957112e-02,-7.127001729642207760e-03,-2.754234269834482732e-02,3.189355629831883143e-02,3.192788021059522405e-03,6.564703740525767994e-02,-1.751029887581465050e-02,4.601388839353293819e-02,-5.502432739399200357e-02,4.661445002763696561e-03,7.033160392255266569e-02,3.991322069576895559e-02,1.947369197667993962e-02,1.837245966676167869e-03,2.826189229401973591e-02,2.581411852340062540e-02,6.172901962746197603e-03,-4.495282668402252046e-02,1.494409986638530093e-02,-3.276097221007470001e-02,-3.203006272353931677e-02,2.372821261572739121e-02,9.442189416130933668e-03,2.110692056162409569e-02,4.779143447857112960e-03,6.731709700895218383e-03,-2.540384507470117058e-04,5.093502603018496000e-03,-5.736307733945757853e-03,-3.003790038679482466e-02,2.264363325777665747e-02,-9.934959458542518343e-03,9.609506688767771587e-02,-3.067577761517921789e-02,-2.730720088313042665e-02,-7.727665800246272254e-02,1.213134855705373660e-02,2.832607103442032551e-02,2.398532739354148832e-02,4.497993267120290600e-02,6.645910815203756594e-02,4.306688171792379810e-02,4.602799181101722981e-02,7.274624708112949071e-04,9.685880743338804583e-03,1.209515301677798610e-02,-3.041392058513181507e-02,-1.349226846065218650e-02,-9.858253862928588809e-03,1.359863765305537216e-02,-1.129589348431021996e-02,2.802192395968689312e-02,-4.983998198790523526e-02,7.172333878079355240e-02,7.942418837514363117e-03,5.618369429919605612e-02,1.173088420669188281e-02,-1.474583387055428650e-02,3.066208071692365367e-02,-6.371336802502762520e-02,-2.626059515743124975e-02,-5.135153915518197998e-02,-1.192188667229130417e-01,-2.367036189802171689e-02,-3.037451595310345330e-03,-2.670685055893072882e-02,1.734458063491987542e-02,-8.071178464442708977e-02,4.906622120844655183e-02,1.051926212972856094e-02,5.073763539571156389e-02,1.799079869620980737e-02,-4.038169047621287949e-02,-1.517300213280014902e-02,-7.222417666934462244e-02,1.300686463477835134e-02,-2.635749998634990751e-02,4.951758475763218953e-02,5.644643402025874973e-02,-5.732041996730149157e-03,1.564493160548969045e-02,1.291867089545914102e-02,2.689851935130471369e-03,1.563743089946667206e-02,-1.543534072370962747e-02,-3.346848689791891152e-02,-4.523373086092765533e-02,-6.104741181941563538e-02,-6.463548540241750850e-02,-1.073107820970175680e-01,-7.508775776058142226e-02,-2.457333226359763312e-02,-5.479886415258156118e-02,-9.430125236795749988e-02,-5.445064365440343418e-02,-3.015100879410937892e-02,-8.893963436705312059e-03,-2.419174163502104541e-02,-7.339665011884090318e-02,-7.173904839467309946e-02,1.860878300061064028e-02,-1.004075803706904434e-02,-1.586762517657767588e-02,-2.983583618878037080e-02,1.534328484786936196e-02,-5.690961343657013199e-02,-2.467447930822307817e-02,-4.192191523096928246e-02,4.980246275158130981e-02,-2.202853902526204655e-03,2.583486155235345701e-03,-5.657963134906091734e-03,1.847311108011284037e-02,2.719248959776185241e-03,-6.507968768695725215e-02,-1.296216759822353404e-01,-1.048470149990790162e-01,-8.333722690611920780e-02,-9.800024075766647358e-02,-1.403588159187088291e-01,-1.890484489798945622e-01,-1.404305352786547889e-01,-1.397837207567726447e-01,-1.290705702014930956e-01,-5.775718314878458548e-02,-1.243192914757242640e-01,-7.637097373405912770e-02,-2.214408066697356667e-02,-6.825565821558687851e-02,3.817121113427506245e-03,-1.496565442096425315e-02,-5.864746803345906312e-02,1.397773103953496750e-02,-9.940168954066373741e-03,1.896546864961439968e-02,-1.821766321302649774e-02,-3.627864495407505125e-03,-2.665599871575309587e-02,5.673005196980009622e-04,-4.501780757020757556e-02,7.174518636187809939e-02,-8.227418743079521757e-03,7.350479176074118867e-03,-8.368655858995967256e-02,-1.153393096527773332e-01,-9.013726589433088132e-02,-2.180561487999887194e-01,-2.411288020332347237e-01,-2.255397993416366209e-01,-2.090802000827732265e-01,-2.169941209627262446e-01,-1.889400958830675381e-01,-2.037639335491775727e-01,-1.525264735525902748e-01,-4.404442623562992293e-02,-1.035410185715660986e-01,-8.353869713795079865e-02,1.783863784383718509e-02,2.440555828749224696e-03,6.019335826199158357e-03,-7.166859162565903697e-03,-3.348489156861147314e-02,5.536564322606533223e-02,4.214282575296282585e-02,4.277984041003477650e-02,7.105932810841637890e-04,1.889376143097038288e-02,-1.859984132180722213e-02,2.489565569453772859e-02,4.083251662765806367e-02,1.318549095366473682e-02,-4.196361062340767112e-02,-6.378268489322096169e-02,-1.241690763579935686e-01,-8.718397233137752111e-02,-1.218722300883648274e-01,-1.657542314299620401e-01,-1.984967786726540562e-01,-1.357311183860388237e-01,-1.749362969276458679e-01,-1.101509653579302306e-01,-9.904797727428144016e-02,-3.535829160459042636e-02,-5.095473196116792614e-02,-3.991313918102024072e-02,5.603452730886016031e-02,-5.882674725742352345e-04,3.089155161620342656e-03,-2.034535370388583855e-02,1.287106633704469642e-02,7.339765407310243350e-02,1.794045692971953099e-02,6.380902755795945722e-03,-3.630530704224883831e-02,-2.481180218347037517e-02,2.431432200235541553e-03,1.874570445884279554e-02,3.036823832996569418e-03,1.330488245040104683e-02,-5.667173300891725773e-03,-9.084694261890373379e-02,-8.115876166494713495e-02,-1.152558013641990925e-01,-8.081918488452650984e-02,-9.095419852398424487e-02,-1.595949614755381440e-01,-1.429706232475810856e-01,-1.275433781547235801e-01,-1.053596802606705518e-01,-3.848075351756299889e-02,-1.531463090345853290e-02,6.897594366353068662e-02,2.354662050632364695e-02,-2.624877079845720426e-02,-6.259509301192907327e-03,9.780205882290893271e-03,-3.559184655510706091e-02,-5.571650703722283438e-02,-1.832602682678128453e-03,-8.617730375666878342e-03,4.449005146678503692e-02,7.165832640825575695e-02,6.849342859587351229e-02,4.591451172660643981e-02,3.724493918527292668e-02,1.949080155199765796e-02,3.200014450407662192e-02,-3.761439905647476906e-02,-8.644523925534718101e-02,-9.754769026467580151e-02,-8.098966150306698142e-02,-1.005298474792683250e-01,-1.589851006869067440e-01,-1.397006327443628682e-01,-1.541423726538124483e-01,-1.296799336718260642e-01,-1.290980308415780875e-01,-3.241269883223754644e-02,-1.077736259157613223e-02,3.208238925475689896e-02,-7.470201093508690472e-03,4.831091723440290343e-03,-2.226939935362468731e-02,-1.507892572781254631e-02,2.645136982508042127e-03,-1.083853441753511622e-02,-5.975116541879192666e-02,-1.153785470858257169e-04,6.234931298503856812e-04,6.795598152971961403e-02,-1.235344269512688928e-02,-4.612854061510873044e-02,-7.551835663715728009e-02,-2.328031205047463321e-03,-1.318599795196265800e-01,-1.047801895692990898e-01,-1.476570419619969710e-01,-5.561823414518303477e-02,-9.819681369304715524e-02,-1.151116645389432397e-01,-2.116277585262016647e-01,-1.744331532193455769e-01,-1.732206336149028914e-01,-8.139756441498996464e-02,-3.063206250707401629e-02,-9.771848152534556853e-02,-3.280673278875837623e-02,3.052530854694750911e-02,3.871247348096693019e-02,1.009434169965677391e-01,2.094867164361119416e-02,-4.436614897479843056e-02,-2.383419865211933858e-02,-2.448081063899494939e-02,-2.998093650110294703e-02,-3.863327321807916159e-02,-3.665042638305195805e-02,-2.334022071695499023e-02,2.754301062802130134e-02,-6.788478452010053565e-02,-1.133588927880965908e-01,-1.525740958349686149e-01,-1.078532612595550499e-01,-1.704826999857945169e-01,-9.104046485722044890e-02,-3.711236530870946904e-02,-1.707234470028329287e-01,-1.632156593029846225e-01,-1.522343953115892767e-01,-1.813286492455659371e-01,-8.590715871776191670e-02,-7.513791135357192341e-02,-1.178014414884057531e-01,-1.017421368677473396e-02,2.173542983143931032e-02,8.584343480790901371e-02,1.392225083471010927e-01,8.996742262413261193e-02,4.716357533634936428e-02,-1.982983721687837236e-02,1.686422377155432500e-02,2.605499404553728374e-02,8.265233466320685493e-04,-8.135370856003777684e-03,-3.247371933825790591e-02,-3.842116357386482495e-02,4.247004064202954121e-03,-3.631254934493749476e-02,-1.224423451943914970e-01,-2.195559845139615218e-01,-2.354788867026278432e-01,-1.271731656267071631e-01,-3.128968550715639785e-02,-5.383292148373561292e-02,-8.772579659201774904e-02,-1.812711718505874425e-01,-1.056057262912897671e-01,-1.377235600087584055e-01,-1.033463720346399634e-01,-6.540866337397178987e-02,-1.101122519822088364e-01,3.242204428924097678e-04,-1.433742137904936388e-03,1.399187579024516355e-02,9.379727128465006891e-02,6.694497911741754959e-02,3.144542747557529244e-02,1.036700107482972089e-01,1.969640341347414850e-02,-3.364831426055104810e-03,3.105542072393342040e-02,8.125555216523696125e-03,3.504174841519654832e-03,3.454669823130841321e-03,-1.015194014992895216e-01,-7.982639534639243695e-02,-1.639136764364522991e-01,-1.636405393004975173e-01,-1.234545582658454349e-01,-5.469945349648683980e-02,-6.934630292195281820e-02,-5.355502293254424395e-02,-1.440812953368701410e-01,-1.486260055897558607e-01,-9.067630170940754741e-02,-5.176045091431626111e-02,-1.341131603513627812e-01,-1.291685365202893399e-01,-1.111904118188224294e-01,-1.452782809858567392e-01,-4.273819763396133342e-02,5.936394760496542695e-03,5.650152612683544129e-02,4.364314549036065957e-03,1.189300463292788934e-02,-1.387678902274127636e-02,-2.890734163515829361e-02,-5.051176521068738608e-03,-6.426400692611057563e-03,-3.164548423192725668e-02,-5.370450214865827437e-02,-8.263137967076289447e-02,3.313743201966285606e-02,-1.562099181024995641e-02,-8.479203523913864116e-02,-9.476332110599602898e-02,-1.199604509883587938e-01,-6.768978799788277767e-02,-3.702446034133361624e-02,2.404950725946828488e-02,-1.249792566290242601e-01,-1.488736499568390215e-01,-8.186371822387497610e-02,-7.250639703063706254e-02,-3.425553105384800123e-02,-8.756156182861735138e-02,-8.321843235217840640e-02,-1.248678557145275862e-02,-1.866238763654598509e-02,1.003030316364613740e-02,4.289897664101532254e-02,9.349252120842457825e-02,6.467173365564635179e-02,1.922410800380355486e-02,-1.576643362892814204e-02,6.664968841498092843e-03,1.263932524952923395e-02,3.866378499285386822e-02,-3.202629521343256652e-02,-3.221848287926703386e-02,-1.766715804710837848e-02,-5.331456693802230640e-02,-6.090800959951388899e-02,-7.338645178641230171e-02,-6.692616153870356577e-02,1.248814686408488035e-02,1.422520275078522668e-02,2.347910633903093573e-03,-1.787597401867208335e-01,-9.958783948328772673e-02,-7.059931034685688889e-02,-2.120935634316242421e-02,-9.145451211751785825e-02,-7.446658541612072302e-02,-6.594708564783789695e-02,-6.153142953494908363e-02,-3.492994894140663553e-02,-6.720818525973226709e-02,5.224319193879517313e-03,4.110454808806403987e-02,2.607363436451019117e-02,-4.923066627117998750e-02,5.486778088085859928e-02,1.222447353722252430e-03,4.975404740696841299e-02,-1.828288011224009357e-02,3.645712124072911925e-02,-6.799120366576565100e-02,-3.839206827340322509e-02,-3.667177655700325917e-02,-8.968699812258851267e-02,-5.505998484911456270e-02,6.894201289537418842e-02,6.443292644155024229e-02,7.363149172868854730e-02,-5.421238610067681367e-03,-6.005968327472090834e-02,-2.181935127176201639e-01,-4.332758371462495234e-02,-1.060541505445528193e-01,-1.026977401675037982e-01,-7.447610579512516094e-02,-1.297111440738112909e-01,-1.971139541150371960e-02,-5.972860256093523446e-02,4.560589028459749623e-03,4.538270349685405262e-03,3.486133753143687286e-02,6.972688946204623657e-04,-3.685574265622940798e-02,-7.364361008740880066e-02,1.904074847140509175e-02,-5.052455808747954857e-02,5.310812249497891269e-02,-4.073807653078533736e-02,-1.303062092350294222e-02,-3.712981365647428922e-02,-2.142922797710693217e-02,-8.128400285918199741e-02,2.248647011771933227e-02,5.718655586707023508e-02,1.342025327130809687e-01,7.351821665221745794e-02,4.450933472489659176e-03,-1.158260767101105815e-01,-2.464997477491402342e-02,-8.604645090302062444e-04,-2.146434823697774066e-02,-5.376674150973605876e-02,-3.669648950284055966e-02,-2.282733331880927932e-02,-1.352755828228485446e-01,9.371747454804174940e-03,3.239799903526553032e-02,3.176609368781704856e-02,2.788186738538627266e-02,7.117398585539233893e-03,3.163398126225501483e-02,3.841206235962704024e-02,4.483966295010526765e-02,7.220052963866807616e-02,2.709854996026338919e-02,5.480541325010677284e-02,2.103282013446622356e-02,-6.513354348623819068e-02,-3.020525145681941109e-02,-8.491965573477296136e-02,-5.408034672953330319e-02,3.400229833426711423e-02,4.462807074695275544e-02,8.237229366967327437e-02,2.617211903242991008e-02,-8.370424693854428000e-02,-4.719965425820468741e-02,-6.083857066071522712e-02,-2.882521503984787278e-02,-8.754666497391729724e-03,-8.320737226194606373e-02,-9.434830188681113394e-02,-1.185008335077607777e-01,-9.360757176776787758e-02,-4.866141695863988176e-02,1.707283456958955462e-02,3.235294609309556646e-02,4.979174736191575856e-02,4.329445527746716288e-02,-3.411756217268011038e-02,-1.272396492319057514e-02,3.148842780780825089e-04,-9.373063505523863276e-03,2.337978576766638894e-02,-7.260457035026623984e-02,-3.245774311595922557e-02,-5.679474907191135041e-02,-9.276323224263688383e-02,-3.410878155534985412e-02,-8.022794864475255028e-02,-1.041889846215401233e-01,-4.319672415963066864e-02,3.834128922001549949e-02,-3.323357933924670632e-02,-2.713049315215704596e-03,-6.425290090752690253e-02,-3.611407661137353703e-02,-9.947763919615557060e-02,-7.496397219396772060e-02,-1.472346811177003001e-01,-1.708997703922957856e-01,-6.076028030769217020e-02,-4.555392756711058866e-02,-3.158511066172923348e-02,-3.465756118205880892e-02,7.446141026157748581e-03,1.004235367491834036e-02,-9.446593918213997548e-03,1.049340027160811963e-02,-2.022174533024876861e-02,-5.503679428663472289e-02,-7.256325566762727997e-03,-2.193660337027660001e-02,-4.156895787416488297e-02,-8.568139674185382137e-02,-5.296563360113890756e-02,-1.092421645897354854e-01,-8.213320304133142624e-02,-1.587504589633912111e-01,7.853584805771463700e-03,2.552286882354401487e-02,1.012369747166204370e-02,-3.291562931117950064e-02,-8.906104393090137628e-02,-7.101424120847765753e-02,-3.751883674878362523e-02,-9.182793233170503944e-02,-2.595775407034738372e-02,-2.802299180904516129e-02,7.266564347505982853e-03,-8.929033160715992012e-02,-2.087916600450658716e-02,-5.281079439265908004e-02,1.013547076949077204e-02,-7.398793424611530001e-02,3.360580604001741495e-02,-7.990230995818452947e-03,-2.514557939256896815e-02,-3.615411208609792260e-02,1.294126689577018144e-03,-6.919004849831902892e-02,-3.481012338391555050e-02,-5.605622352489330468e-02,-3.288771841387193307e-02,-8.521999573607708101e-02,-2.449807893112078069e-02,-1.072165687522111041e-02,-9.670277411178944404e-02,1.366420738768444644e-02,1.424511862875903895e-02,2.227275805029069796e-03,-5.757714533954488845e-02,-8.185603437787218606e-02,-1.035976231895410771e-01,-1.226412073751280557e-01,-9.583776253174530746e-02,-8.983744464845258570e-02,-4.780972246231757206e-02,-7.491598822508563349e-02,-4.559000680776069403e-02,-5.508032818587640933e-02,-1.908789825143265492e-02,-3.268810322014081143e-02,-4.327638573989630102e-03,-6.550031639610205680e-02,1.055364609159739099e-02,-6.406084769803720158e-02,5.808336035155809568e-02,-1.035444703534156921e-02,-3.299301558121434108e-02,-5.952671539061369504e-02,-2.207463689146315494e-02,-5.827656695135286641e-03,-4.433960078865122750e-02,-1.020235858009837897e-02,-5.101673701657724602e-02,-1.747791355433972807e-02,-1.584820026412711927e-02,-1.148578923534741142e-01,-3.711023923609969855e-02,-3.310199212807105051e-02,-1.165501372294288351e-01,-1.201308121787613911e-02,-8.270899555381998336e-02,-1.045703763925837637e-01,-1.869562926446793200e-02,-6.616627009578968099e-02,7.247465976950952238e-03,3.900773211654743472e-02,-2.292214169500247575e-02,-5.685076811770075483e-02,-1.924711300676941461e-02,1.873117230954991774e-02,4.576187756673545659e-02,1.569017955353355434e-02,2.140378666772421376e-02,-6.028460494718249248e-03,-5.538659264916503955e-02,2.971453848175600269e-03,-2.423853514482487287e-02,1.522324631203231075e-02,2.269058706300790870e-03,1.888103478283435777e-02,-3.957949987404225933e-02,9.258435068753774130e-03,-6.354058978897067674e-03,-4.578987595012425776e-02,4.844815540412988897e-02,-5.817405108595832125e-02,-6.342591571856234789e-02,-1.261940343510516149e-02,-6.680018825718321562e-02,-4.697441456494409751e-02,-1.541041423556337511e-02,-2.068185884077936021e-02,1.333319415320831543e-02,-1.669914092514742862e-02,2.379424758509569859e-02,-3.635206162930019330e-02,7.439695075953157467e-03,5.991834897317554164e-03,4.685148262138507519e-02,-2.858377057324280185e-02,2.315490331356225007e-02,7.032359939811659577e-02,-2.088035050139862986e-03,-9.259946418836868809e-02,-1.029516332184997850e-02,-3.387182239378890014e-02,-9.891106764117923653e-03,-8.301525549564449380e-02,-5.852476254983612902e-02,-1.375063657995987537e-02,-3.165582525408022763e-02,-1.029306415804629449e-01,-3.767950502640440933e-04,-3.522652688004467014e-02,-4.591166871348966762e-03,-1.404602463698560733e-01,-1.271819678382045751e-02,2.292589477427665369e-03,-9.759828406509672705e-02,9.731420434835881539e-02,-9.246543843020534753e-03,-1.086157459549294130e-01,1.885153831564229457e-02,-8.549791824599800583e-02,4.578005476731442092e-02,1.086846202762915305e-02,4.716591495918112664e-02,-5.790503774195314424e-02,-2.338590492878394548e-03,-4.302641011345079147e-02,-4.501821510889727346e-02,1.802353548711302768e-03,-6.543158412490557296e-02,-2.600443490516762216e-03,-1.440357681756097331e-02,5.065481251665858442e-02,1.360185301989036075e-02,4.742670614878306129e-02,1.678255935311225716e-02,-5.484647892259955637e-03,-2.953777130597555478e-02,-4.530002193373617453e-02,-3.498141612130096362e-02,-2.171692547237925180e-02,-4.363457578316524282e-02,-4.965963341510280099e-02,-7.259027636999598743e-02,-2.527793150603145286e-02,7.659430222987578807e-02,1.185136592351256415e-02,8.447316529454124492e-03,2.731376214627813121e-03,-1.847725377153122683e-02,-5.990730752993409652e-02,2.651770610214623531e-03,-3.746291540518439239e-02,5.704809972413603381e-02,2.665526815028762889e-02,1.169270802318156041e-02,3.450501843703829286e-02,-2.722934565247134980e-02,8.792933147148402143e-03,1.398950489313367535e-03,5.127505354002706356e-04,-1.589544314688303567e-02,2.338187465238019801e-04,-1.070091916291459472e-02,-4.008783982863470957e-02,9.716239098892095680e-03,-5.132238888333051641e-02,5.131692579526875991e-02,1.562437640070810617e-02,-1.599151736683233557e-02,-3.889270950222140132e-04,1.682959316888583447e-03,6.806232014182091172e-02,-3.133170845672225702e-02,3.157548668959769822e-02,-4.526488200610192386e-02,-6.069519068432645270e-02,-1.626878473123354041e-02
-2.807123973613350962e-02,-5.894777729269235628e-02,3.664059276312984365e-02,-6.477941776989369627e-03,3.770044031150945191e-02,6.151190046649186033e-02,5.928695310084224762e-02,5.224682113519086429e-02,-6.260950438873865570e-03,5.471728855784472462e-02,-2.815156647254823171e-03,1.466713603581530807e-02,-2.558514571366644549e-02,-1.651111118685003390e-02,-2.570908279893438161e-02,3.883644295493093174e-02,-2.382589587740317413e-02,-3.047342358975070348e-03,-7.555414067813866208e-02,5.290028065116280515e-02,-4.378887342170561386e-02,-1.394533007294369679e-02,-6.467283485639059581e-02,-4.984692290179089727e-03,-6.496071370737786788e-03,-3.631389922401360298e-02,1.921242975069566497e-02,-7.954785458856898639e-02,2.883256441695948927e-02,-2.690583767908085247e-02,5.382186833680043664e-02,-3.378836689839110393e-03,-6.155442334970098045e-02,-4.006717463781712257e-02,2.078890363346623180e-02,-1.261753416582874279e-02,3.712826403980203690e-03,-2.255196801562631484e-02,-8.492085615904320511e-03,8.203803071452520079e-03,-4.081805032825726320e-02,-5.357146130339465046e-03,-3.258806199634294715e-03,-3.474357627831927559e-02,6.689925294649455567e-02,-2.621426615756896478e-02,9.788959146668239908e-03,-4.453676923665888382e-02,5.326134177141841723e-03,-4.048316479628335379e-02,2.411975460181883107e-02,6.080939396824281556e-02,-2.961994170260215734e-02,-5.961544782040021501e-02,2.660615866711971492e-02,-4.251767995337795564e-02,-8.147487538158587270e-03,-2.477746344516902708e-03,-1.685344951859296322e-02,-1.920522055313035950e-02,-5.161186377143991283e-02,-3.872300258298505549e-02,-4.747643452674596420e-02,-2.330202144561487054e-02,-1.149367543141053827e-01,-2.160959220956764140e-02,-3.634948525631894172e-03,3.419362727492138154e-02,4.529910719395926350e-02,-2.001377002924496079e-02,1.221197061832876400e-02,-5.121070316025438246e-02,-3.694017006499774464e-02,-6.726372133468591641e-02,-2.215405037334994623e-03,-8.921472118632988585e-03,-1.907723560329802059e-02,3.119756477666695699e-02,-2.214873248303112288e-02,-3.507446221697974650e-03,5.791317793352581539e-02,1.534884018996637671e-02,1.410993799809214487e-02,3.759621220156659713e-03,3.040543367697534291e-02,-3.150671343561829707e-02,1.449040872093532509e-02,2.453771980077210091e-02,7.676952944416397424e-03,-1.015303960788785202e-02,5.221198066986128261e-02,-4.719903331877860903e-02,-3.715500127218331755e-02,7.785688474156866358e-03,1.487256124960405906e-02,-1.297626954109407094e-02,-3.914547132148552683e-02,6.137426566264684961e-03,-1.195673567923940112e-01,-1.250945642249452761e-01,-2.195726356216339825e-01,-1.783052125187492565e-01,-2.140018649696464638e-03,3.925530797040766018e-02,-1.405657956319631731e-02,4.130007148984323612e-02,4.762160949528847220e-02,2.581707485893531759e-02,-2.571491015396659349e-02,-5.527705323689896533e-02,-4.809598202744021916e-02,-1.269770641322258940e-02,-1.615048408768819319e-02,3.699685390413465919e-02,-1.326649713651401920e-02,-3.310901374048364626e-02,-3.802474082168765673e-02,1.020890173847224976e-02,-5.436621604938621233e-02,-1.600606133902304218e-01,-1.821102908116483676e-01,-2.321767926828403605e-01,-3.202318129869315411e-01,-3.098618545625219101e-01,-4.608864427102508654e-01,-3.935968723924568313e-01,-1.997374391461840537e-01,-1.643123924413349424e-01,-2.836898052979696661e-01,-9.494245919652549714e-02,1.175626493971341779e-01,3.196152508211698717e-01,2.205814713083761314e-01,4.377825759972510666e-01,2.683124866922405038e-01,1.322408641861289869e-01,6.663761075329405204e-02,8.999044292255212185e-02,-8.804550513835629824e-03,2.766105351060516374e-02,3.071909026488660929e-03,-7.789175821159967025e-03,9.591047497743211345e-03,1.256200004369077868e-04,-1.018165929265492375e-01,-1.349848288752555636e-01,-2.103367561969720911e-01,-2.563314600563370571e-01,-1.933846182404497793e-01,-2.789160545035134775e-01,-2.415715122368465306e-01,-7.795134206471607263e-02,-2.722823370990830605e-01,3.547469001686704565e-02,-3.457900949646347533e-01,-3.488212765890152944e-01,-2.727456291461382021e-01,3.670955996325862003e-01,7.550960111234794603e-01,3.596525408090664455e-01,6.107734723504263386e-01,3.364463266043627443e-01,2.006204153147670699e-01,-9.846618515625684201e-03,1.015609041485168729e-02,-6.819514095613363192e-02,-4.130913289540368016e-02,-2.939708413366842396e-02,6.241738275913026948e-03,-4.971148478584657554e-02,-3.186801100821495120e-02,-1.611199326659565681e-02,-6.358993882869880265e-02,-1.723051772659015823e-01,-2.108291861580439408e-01,-2.619797888393903262e-01,-1.322836510211151950e-01,-6.245481436892771909e-02,1.331452860262601900e-01,3.913410999716607774e-01,6.112673937910632072e-01,8.824168255269256855e-01,8.047669873377658600e-01,7.049495294692995628e-01,1.392925906149913073e+00,1.028374670071001917e+00,7.962647351576307431e-01,1.018726832954088557e-01,-7.416018308869549991e-02,-1.696224118895034993e-01,-3.180164271204130588e-01,-2.418664727244943802e-01,-4.625031463022890449e-02,-2.042689763891215177e-02,1.737751431734394381e-03,2.829497812591186962e-02,-6.642287172616075097e-02,-2.393410300659903553e-02,-7.556737092255598129e-03,-5.836787160169130267e-02,-2.080009728858240314e-01,-2.522893944313476799e-01,-9.548273452462308075e-02,-2.641176196431628265e-01,2.662254877626500371e-01,-7.754167521656681050e-02,2.859240826913621580e-01,5.477645084403534037e-01,9.045315575304845312e-01,8.653485446663932157e-01,8.251435854830683203e-01,4.169366916175729632e-01,2.841628138053964303e-01,-6.091926908957892017e-01,-2.690273986797225847e-01,-6.751727259152511262e-01,-6.367705413772402068e-01,-4.919328825608578204e-01,-6.535727485473983300e-01,-4.243597951272418678e-01,-2.234103210780021831e-01,-5.351266049947227266e-02,-2.893909947968546087e-02,-6.360012338988427216e-02,-8.996332418509474238e-02,-2.134179854533327023e-02,-6.032382180000833705e-02,-9.284591267432772133e-02,-3.010964831619152848e-01,-1.768218061131570373e-01,-9.871451658128523043e-02,-5.399159291549694706e-02,1.843223414359941581e-01,1.733365962498372714e-01,5.088391240651308350e-02,1.668813032849858491e-01,2.223720492665607340e-01,1.689216941858560084e-01,2.379812257679868315e-01,-4.609118779172609592e-01,-8.707439365328708547e-01,-1.444086604534641660e+00,-8.926672846921156479e-01,-7.902682988026730193e-01,-9.205344356460237742e-01,-8.023642564439046332e-01,-7.663240510349721424e-01,-5.023645852241039877e-01,-1.701079836457292382e-01,-1.155663236836134977e-01,-1.818734214417438294e-02,-3.932103121211293767e-02,-1.607657888945089944e-02,-1.051073620038712238e-03,-2.516468609536813214e-02,-5.361877206460735623e-02,-2.650353963498296994e-01,-1.606196881822832545e-01,-1.922840479183968165e-02,-1.559864099474886634e-01,1.100020961033434802e-01,2.599350170634951440e-01,1.502925885124577476e-01,3.446164007794404460e-01,-1.945253832892349377e-01,-3.970599832444937083e-01,-5.104040807196686957e-01,-6.557858402808937059e-01,-9.335195254789306896e-01,-1.044398878042046785e+00,-6.677391559675160959e-01,-7.931513091006388017e-01,-7.549996081558374428e-01,-7.718208633117634720e-01,-7.975048541000663294e-01,-5.759844567710591390e-01,-1.805479554179942325e-01,-3.258818825100527616e-02,5.569829956831032908e-02,2.171857893457039557e-02,1.329881034876930976e-03,-2.246879659495126802e-02,-3.394799022708349517e-02,-7.983085792584673768e-02,-1.413347101169194486e-01,-1.023556792733253673e-01,7.143169607871580062e-02,-1.470204153697231564e-01,2.206050501907635963e-01,9.906226750054876462e-02,-2.304949329047375761e-01,-3.039062999909613039e-01,-8.943387686709576567e-02,7.880065632111654672e-02,1.057005121206431586e-01,4.527105537701989896e-02,3.352962710778717992e-01,-2.169251994682295029e-02,3.486214038604096843e-01,-5.712187714108038494e-02,-1.187750646296453078e-01,-2.134086071427836462e-01,-5.540882902063207771e-01,-3.326304853219344548e-01,-1.670512733191831800e-01,6.797402606108719769e-03,9.176475242658313491e-03,-7.928320131872308718e-02,-7.080815306182364904e-03,3.953326389156607001e-02,-8.223189526184235612e-03,-1.079865421262552472e-01,3.811061802288925882e-02,-6.384240124243986680e-02,2.370573273662423264e-01,2.506374380554798331e-01,2.415624735596699491e-01,-7.784929811317337078e-02,-4.333857580269283583e-01,-3.683771390840914761e-01,-7.896401619387471982e-02,6.333704680517926455e-01,4.259710951331439066e-01,9.635293635045152350e-01,1.280311980853785281e+00,1.032264377350735396e+00,1.036480282481944348e+00,7.136097553233345936e-01,7.191188849189733556e-01,4.875604855055736789e-04,-2.785803374901527074e-01,-5.822462013483920701e-02,1.226165347792772670e-01,3.015177489453612844e-02,2.619081731205382541e-02,-1.216554748017185765e-02,-2.891700367581741607e-02,5.310676404013575658e-02,1.024029457247532023e-03,1.115830628733173180e-01,1.874517668624339217e-01,-1.954315127896269211e-01,2.953534439351760965e-01,4.462800951258154569e-01,5.987952476026591198e-01,4.247072930325613282e-01,6.680381845248083150e-02,2.233787950657522281e-01,3.101162731891619201e-02,2.336350262431241553e-01,-4.383801761256170271e-02,5.704292122933433129e-01,5.315690797549637026e-01,5.287518347569930555e-01,7.714602079705182858e-01,7.248454914333665178e-01,6.700270533649499427e-01,1.241058383402819237e-01,-2.296818898296742739e-01,-1.243367100519322255e-01,-9.234150805298986520e-02,5.766298805992246118e-02,5.160180575598820318e-02,-4.795374293064388546e-03,7.535986285090848225e-02,4.903507844823685319e-02,-9.575975305817897854e-02,3.665571805108939346e-02,1.308125408788153587e-01,-3.088085748046922978e-03,3.329750406810930846e-02,6.118312564208917559e-01,4.647051049201209594e-01,4.304668205935099357e-01,4.463019750682652442e-01,-1.309869710739182680e-01,-3.323579479886934473e-01,-5.901008592092720217e-01,-5.289131110492542032e-01,-1.821750240230030904e-01,1.283198389379641702e-01,-1.420724091616246409e-01,-1.214788339452443910e-01,8.644162741215443563e-03,2.450558502671995875e-01,-4.154108651795797580e-01,-4.508882470999480696e-01,-3.738568622037866662e-01,-6.676064494703012886e-02,1.501824793685224355e-02,-2.743505151450881946e-02,-3.907566915866638292e-04,-3.624607765142092569e-02,3.423761577005769025e-02,-1.189764999330262564e-02,-2.663271350104929464e-02,2.039980043997549272e-02,-1.344385433363222415e-01,2.533119929589576769e-01,2.861052815705383279e-01,4.277399399319181672e-01,2.777846231672486677e-01,1.551845108692057884e-01,-9.412722172400454779e-02,-5.538306266775021580e-01,-5.000754204379969092e-01,-8.789572033190311551e-01,-8.758230610933381843e-02,2.509620863758906251e-01,-3.079140541214409055e-01,-3.955421412094711764e-01,-2.374086910696516506e-01,1.393877658387833174e-01,-1.563744645081359963e-01,-2.425951271444037605e-01,-2.481617048346398680e-01,-2.031860538027641938e-01,-8.757025867628751015e-02,3.407776223183826836e-02,-2.814492928763437721e-02,1.111117495076960511e-02,-4.087053424184820122e-02,-6.723896505040487769e-03,-6.516730069401917291e-02,9.679285558039738002e-02,3.681373798288411353e-02,2.914752597493740494e-01,3.772574035136038589e-02,1.283280431561220347e-01,7.332012151569498870e-02,1.253656821515689301e-01,5.605260727916643038e-02,-1.428813135714120108e-01,-7.300056953920069924e-01,-5.186458488827890845e-01,-7.420749473187643330e-02,3.018744374299506816e-01,2.624503638136346240e-01,-1.320483433688692254e-01,-4.019247532042159454e-01,-2.326791684124613069e-01,-1.500960534452387002e-02,-4.941088555222900025e-01,-5.083102466515497797e-01,-3.140375500449435475e-01,-6.818388295957024392e-02,5.545411396081594696e-02,5.784237652482355704e-03,2.847281391041110374e-02,-3.724955143152012659e-03,-2.351862493672641011e-02,-3.996570192127570781e-02,1.173146665629535290e-01,1.617265740739066426e-01,-1.063535827314129184e-01,-1.244934565463968051e-01,5.967086325681543457e-02,-1.742814122136626953e-01,-2.265207013192532814e-01,1.094361056715824482e-01,-3.898102524468303326e-02,-3.305360668124897594e-01,-3.115565020495077997e-01,-4.628549736764474287e-02,-5.817381329421607294e-02,2.252371205454250791e-01,-6.390463136125459909e-02,-4.958166045211665485e-01,-1.307875318588835323e-01,-1.756030417753422779e-01,-3.417831460788581244e-01,-3.247444889520227918e-01,-2.322773525673821060e-01,-9.803298164564229478e-02,2.411155432710548885e-02,3.439647499508767525e-02,3.048577193062697657e-02,-4.972525078532385318e-02,-3.345884574164688374e-02,-8.211319137001078794e-02,4.656145186841525313e-02,6.948914468301800595e-02,-7.001107802053084007e-03,-3.128112699842265920e-01,-1.950635554204522837e-01,-2.909581316001287887e-01,-2.339642773993124703e-01,-5.506835434490839343e-02,-1.590384354046502913e-01,-7.703859577361781008e-02,-1.026854764857147162e-01,8.045694041867408608e-02,-4.745524063439651163e-01,-3.420936330559479210e-01,-2.539774923904599691e-01,-6.562410562520430979e-01,-3.233744634032126863e-01,-2.951086757429506879e-01,-2.031632420840134567e-01,-2.609368107240530033e-01,-1.657305131323110192e-01,-2.676413594219943098e-02,-2.905224902680233687e-02,-7.526496672484685180e-02,3.218230092196044945e-02,-4.992421958591879844e-02,-4.247524271351576543e-03,-1.070167400622942938e-01,-1.643238982446239560e-01,2.144044252415572976e-02,-1.313852928315614177e-01,-1.821278135681504429e-01,-1.673815486131044472e-01,-4.233084386813028288e-02,-1.120662727505954137e-01,-2.199638913707060717e-01,-7.958023009393083713e-02,-1.520204686310226705e-01,-7.968372333556753007e-02,-4.895156498402053469e-01,-7.770289843108489913e-01,-7.368093424042431172e-01,-3.116268070291029479e-01,-5.739037812437565167e-01,-3.592292643919842710e-01,-4.016150275559425276e-01,-1.593853350291949411e-01,-1.175125606976295534e-01,2.671263642241259850e-03,3.567993279049978816e-02,6.892365517749732100e-03,-2.966965463838725902e-03,7.773713337831754562e-03,1.977813576463500686e-02,-2.764597730622832608e-02,-5.526057362609446827e-02,-1.435757743715053714e-01,-1.429452674194688078e-01,-3.060840336373093495e-01,-1.040392843310377069e-01,-1.983498833414619467e-01,-1.834793650077589655e-01,-4.396480897929551102e-01,-3.060068284177628328e-01,-1.767874162104149383e-02,-2.881907717115126943e-01,-3.917571648749839097e-01,-4.489515201957426371e-01,-7.447827939491151739e-01,-6.212105863806257622e-01,-6.150270955309244947e-01,-3.170607880610482043e-01,-5.386529050703491306e-01,-4.473097657941363936e-01,-1.179422807314263327e-01,2.169107822668633542e-02,1.918872912809696518e-01,1.785520316103599292e-01,1.629675818525093758e-02,2.703764303908694905e-02,-1.449019792582852996e-02,2.212631360792914961e-02,2.543873576095643727e-02,-9.674816649200537744e-02,6.642079892128514677e-03,-3.285167034085395565e-02,-1.421365421481363966e-01,-1.743716333893852721e-01,-1.352460392556926461e-01,-3.086377223281779325e-01,-3.653588112939942234e-01,-5.644192522113392618e-01,-3.252016322941440607e-01,-1.358201357199835535e-01,-3.995556344287208295e-01,-4.441091925528597995e-01,-4.795713132364074482e-01,-4.142839985442557937e-01,-8.690978016420365382e-01,-4.102602405700204180e-01,-5.258048134420102437e-01,-3.467759539498685428e-01,-1.144307617712167630e-01,4.134127935455635117e-02,3.245679591861158619e-01,1.786603220415381443e-01,-3.526420987398841411e-02,1.870498789724745186e-03,-3.103863571228010140e-02,-4.095588465939032502e-02,-1.032792429349337904e-01,-1.662554148656943676e-01,-6.503825259776795098e-02,5.205613718267456140e-04,-1.282428901357366702e-01,-2.746471675293210568e-02,5.936253242484838127e-02,-4.246225079776287381e-01,-3.487607866634846454e-01,-7.295780019499901181e-01,-7.767100963965913041e-02,-3.372583480405411116e-01,-6.105842647645034482e-01,-3.313346100596298305e-01,-4.594690036490648999e-01,-7.438114486335868358e-01,-6.387699246988878254e-01,-4.811708264960686821e-01,-4.608767273479114773e-02,-2.115038541381369652e-01,-1.579386111926337211e-01,7.834251184680410263e-02,2.983918326105690633e-01,1.766078192050336004e-01,-6.052000268859430293e-02,-3.296757050737671429e-03,1.698907730987031864e-02,3.822045353468940792e-03,-6.420149789708334831e-02,-3.489968668299563842e-02,-1.227978001985169654e-01,-2.317900276372380497e-01,-4.606120399599580306e-01,-2.870756576506881541e-01,-8.030538212600481229e-02,-3.079389800917078923e-01,-1.562147486743081237e-01,-3.573466768209386246e-01,-1.686588377252465631e-01,-1.835786894727361174e-01,3.065604750116574309e-02,-6.307400274953098851e-01,-5.327654723447826646e-01,-4.242456068738361674e-01,-3.943925597101272662e-01,-4.215703796967376626e-01,-1.972973087576593565e-01,-2.393177980089937207e-01,-7.418236287977610088e-02,2.333414701851944939e-01,2.171107602722667784e-01,1.377698264874158973e-01,-7.762577795305994344e-02,-2.767394586894622154e-03,3.875663836875110208e-02,-9.610485986408524514e-03,4.297981038146205662e-02,-1.026627266229683810e-01,-1.838993374962901994e-01,-3.182232627468856712e-01,-3.512040658008417915e-01,-4.708838871263749115e-01,-8.849905683185124716e-02,-1.654287176390649150e-01,-8.352051697446634393e-02,-1.443456361816971012e-01,-5.041652299607188303e-02,-3.937528893924545081e-01,-2.065970374532270781e-01,-5.156353343581617787e-01,-1.985511725571153518e-01,-1.555824849948685695e-01,-1.677722749144811287e-01,-8.719121529499006262e-02,-8.488160270612331304e-02,-6.960529058979643413e-02,1.273071028790709047e-01,3.519198128432061701e-01,2.525430050608041266e-01,9.504243348622730403e-02,-2.144309176820530585e-02,3.567290444804376709e-02,-6.478607216462758250e-03,3.460641569594984784e-02,3.059439801778975065e-02,-4.977657876209739228e-03,-2.088660775899640054e-01,-1.857495930892968938e-01,-2.244794713572233480e-01,-3.435763829612659692e-01,-4.065236986122215679e-02,-1.467149016386700699e-01,2.180487194276516105e-02,-3.465877894306886309e-01,-2.907434359956866388e-01,-4.289841748654890652e-01,-5.922484764620312703e-01,-1.816232522709916933e-02,-1.861099984228744772e-02,2.319313737014749577e-01,-7.942950313506859372e-02,2.169428058513689361e-01,3.459412101797854633e-01,2.771427053869343071e-01,1.696086194733986419e-01,2.360444528030746503e-01,7.099110843721012643e-02,3.246964206080053122e-02,4.166544154314221621e-02,2.475286827458595199e-02,1.618459108891304524e-02,-6.365843781010679936e-02,-3.804970564358551438e-02,6.590435007358513494e-03,-5.277962003276713554e-02,8.924236533493407758e-03,-2.329463627371200149e-02,-2.029948450911713692e-02,1.462861434208095239e-03,8.654804713444426423e-02,-1.676990663905545687e-01,-3.297795103419175478e-01,-8.694249104188357669e-02,5.968792749022092808e-02,3.216296558786037041e-01,3.271624467104286560e-01,9.926330151504647592e-02,2.661473928749333306e-01,4.822283930136586627e-02,2.985842264618621678e-01,4.095981409069089918e-01,3.601523610946273934e-01,1.378368278593081198e-01,8.307605599553422038e-02,-1.009646560683347301e-02,-9.658163390718046970e-02,-3.100461857203893039e-03,-2.292002347790288511e-02,-1.283624540835415738e-02,-1.705932503843623702e-02,-4.584930533877817210e-02,-7.719985298180010586e-03,-2.171409117888023835e-02,-4.681840798274242849e-02,7.514055985537700447e-03,7.839291739169440901e-03,1.514349311108477078e-02,1.537292252894481223e-02,-3.291040489742972502e-02,-3.477107442686266231e-02,4.314732221024684955e-02,2.964339727312798045e-02,1.891496340234771478e-01,1.154211351375111633e-01,2.094049029947916141e-01,2.043021584437443305e-01,1.900734365307377716e-01,1.601852163560396614e-01,1.539336344666085710e-01,1.332895217802571586e-01,2.350674295982473072e-02,2.637695994405500621e-02,5.186919135614229820e-02,-1.401369165996415277e-02,-2.583517635468516802e-02,-2.114472009783380582e-02,-4.676280186064275118e-02,2.522643360268058202e-02,-1.211499214574760473e-02,7.382085621865534797e-03,2.379380066366927962e-02,2.415988072159420963e-02,6.388983316967566765e-03,3.459455122716371261e-02,-8.352884691235459846e-02,8.082711082788246112e-03,-5.975661355865268670e-02,-7.580204321194135286e-02,-7.955310876178404988e-02,-7.668780136584665841e-02,3.734507528715444447e-02,2.378105652564187905e-02,-6.699658564456674459e-02,-1.014613710168181387e-01,-1.464388649108676506e-02,1.797830861790231105e-02,1.279531511858951649e-02,-2.693254246352856911e-03,-1.449954873466782236e-02,-1.104628237176678331e-02,-1.051960528917144783e-01,-1.125331717278964076e-02,-1.284601265097991447e-02,-3.479887266144684327e-02
3.157784429516398428e-02,-5.598758241582062201e-02,1.548427920514280562e-02,-2.398715219376831159e-02,1.887421817290681984e-03,-1.426268711575893675e-02,-4.016439141944451452e-02,-2.265669043106287306e-02,-3.148020066780271575e-02,3.367416111098997002e-03,1.420588993799251978e-02,1.033371873099185947e-02,3.742319215240432276e-03,-4.007180399579293728e-02,-2.907244838147359650e-02,-9.793923195251706681e-03,-2.588338269821669618e-02,1.421305859884954004e-02,5.147175402006247402e-02,-8.143978214470957988e-03,-4.497585086550981437e-02,2.808377014153048967e-02,-1.839428541274495260e-02,2.744583717575732433e-03,-3.631025850887899253e-02,4.389859502397913671e-02,9.646811519966397991e-03,-2.519673376635599149e-02,9.591258199015972180e-03,5.226603931573362005e-02,2.697643778259262159e-02,-3.607910479230218292e-02,5.649761506145478673e-02,3.915136918516222767e-03,-7.366968843735922923e-02,-1.757205492594762081e-02,3.031096299487399601e-02,7.788749570040544475e-03,-5.525455789018560203e-04,3.029949498848072756e-02,-4.591308853815896651e-02,2.725784341052858717e-02,-1.243404867773840843e-02,1.035248237620848069e-02,1.519496903922795336e-02,1.595123965311351019e-02,8.192060881925289015e-03,-3.177268003106708399e-02,-3.599016417450151550e-02,2.753997258383517402e-02,1.980308539091938172e-02,-5.066372877605346964e-02,-1.034710290094074947e-01,-7.319018717466840331e-03,5.866835594047366265e-02,-6.447752844661881755e-02,4.637550860436265472e-03,-2.409940808055058281e-02,2.770064625705148317e-03,3.614531513646878497e-02,-8.021152899584915730e-02,2.014150083109263883e-02,3.369290140468864797e-02,6.014424997183276042e-03,1.510734755366609228e-02,5.219164322350314261e-05,-2.532899401213272936e-02,6.121226305352645003e-02,4.696482581448558485e-02,1.570426835299933502e-02,-4.716180272573913118e-02,-3.567097556841126310e-02,-2.678694735870145241e-02,8.652190386759772353e-03,-5.166423773768926558e-02,2.445939398724380348e-02,-3.883618455831500116e-02,-3.207780853546125105e-02,-9.516952285864369032e-03,8.907150746422901055e-02,-1.606844088749045940e-03,7.776308540167386520e-03,-6.412160497530935803e-03,-5.635405813660707142e-02,-1.489971077161042837e-02,-2.267593451246678192e-04,1.880628702101001110e-02,5.323994906342727727e-03,4.515222770383678363e-02,9.879431456204491868e-03,-3.206196590130325208e-02,4.768059771099400490e-02,-6.108783717706645772e-02,-5.599031375288204826e-02,-4.882976800774275344e-02,-5.612176381396988961e-02,-8.890676373245598452e-02,-6.614807952963712434e-02,-1.315245929341059272e-01,-4.591018189120583959e-02,-1.242059327228696719e-01,-7.026420067973621064e-02,-1.285848981807859726e-01,-1.097952468951244598e-01,-3.434720535040299699e-02,-6.076562983179026323e-02,-2.110967328638783946e-02,1.427461329284910284e-02,-2.101449656355555001e-02,4.315409939676876500e-02,1.001913915343146354e-02,-2.742490775565111644e-02,5.337701161490299162e-02,-7.510596679989525737e-02,-2.840550532585481638e-02,-3.329667287298380268e-02,6.812881463862294727e-03,1.643341479139873162e-02,-3.528696458703792227e-02,1.570133687565306100e-04,-7.500148697456261726e-02,-2.151765790112265819e-02,-2.877749992785885377e-02,-6.421858407931463342e-02,2.328092667915870103e-03,-8.512496892806882542e-02,-6.284372704003091115e-02,-4.734678119784965084e-02,-3.274298452553103811e-02,-4.680616196252611327e-02,-1.044933884906342203e-01,-4.757486047962808211e-03,-2.494294255028497997e-02,-3.170493243056716343e-02,-2.271079519677346795e-02,-4.390754714653354847e-06,-4.368963378349362270e-03,-3.403815889762549368e-02,4.648245547057429372e-02,-3.622546937270874901e-02,3.910669123255990087e-02,1.800443315265472938e-02,-1.256196067858716481e-04,-1.280949313420623112e-02,-2.529843623363722815e-02,-2.782850013389106050e-02,-1.994793639398491098e-03,-3.629555040221722068e-02,9.951716689723215381e-03,-4.077500520558129116e-02,-8.476605856161124886e-02,-6.816946405311113955e-02,-1.953518996958144016e-01,-8.953025951315959907e-03,9.984690026947838984e-03,-6.308127090491520705e-02,-2.983106009936965439e-02,-7.880467154233831983e-02,-4.735340928480670508e-02,-6.913160891611076775e-02,2.312063471915828949e-02,-1.561364841399078213e-03,5.586960272647292086e-02,7.762551603143108547e-02,2.298004987257776591e-02,4.307005963964329401e-03,3.546233100074985128e-02,-1.940258462853591478e-02,4.447518558948247713e-02,1.480555645490904716e-02,4.288598902961566345e-02,-4.921017259009164563e-03,2.827592541278760654e-02,-2.731754480515729763e-02,-2.972427180920508838e-02,-3.809849945456422055e-02,-2.999378623976216296e-02,3.320275083064531257e-02,-3.072407625422699656e-02,-2.653716117679447845e-02,-1.574543577179710330e-01,-1.126060216883169318e-01,-1.216559065149896424e-01,-6.110609476246557648e-02,-6.645382474327078681e-02,-1.701490020527515398e-02,-1.056996174710240904e-01,-3.080956762194904733e-02,1.066411457997519796e-01,1.187788264132371742e-02,1.105529352014463784e-01,6.400372957847792754e-02,-1.697986379058984792e-03,-4.461376637916320692e-02,-4.609234640171640252e-02,1.825032638851016228e-02,2.903822329996357671e-02,2.946487912085247671e-02,-1.672446913301472386e-03,5.043166112859526901e-02,-4.058232333933839420e-02,-5.844413353366835484e-02,-6.975682255700403622e-02,-3.872504356780954310e-02,-2.065261532886757470e-02,-6.463575511244566696e-02,-1.430814320551744012e-01,-1.808143003766909118e-01,-1.428744196195130545e-01,-1.081914374250351196e-01,-9.332758153798560719e-02,-6.459712881801649154e-02,-5.972758517350213597e-02,-9.762326236123972101e-02,-2.978076379843363000e-02,3.325156310592797954e-02,2.059584369638543799e-02,9.859503145551501771e-03,2.092429614978628602e-02,-1.994952933080459956e-02,-1.451569485281797162e-03,6.333601215191389522e-02,-5.314136250940832557e-02,-4.369555819086774068e-02,-1.897854958787366375e-02,1.843242664194005148e-02,-1.033088021399787733e-02,1.760505309095874993e-02,-6.769082329860288960e-02,-3.581404548134502902e-02,-1.009862223525421349e-01,-1.018663454183953015e-01,-8.415202476437301515e-02,-1.210932480189037819e-01,-1.112875893859640725e-01,-1.213262369093458942e-01,-1.114217731775125203e-01,-1.063116098889317213e-01,-9.845059215734841204e-03,-5.373697852444132145e-02,-5.279962269776119349e-02,-1.005187777403795668e-01,-1.500461396581443535e-02,-3.092502385332616954e-02,-7.435502164300701600e-02,2.234845690369571120e-02,-3.442142306940803448e-02,4.596206059749052830e-02,7.388909692349501790e-02,-3.098181416875828761e-03,2.861476406156192504e-04,-5.519542329472419510e-03,-3.436311715181097209e-02,3.537934825240659359e-02,6.781352325201920987e-03,-3.227275917352959850e-02,3.548380804136975347e-02,-5.958002847076242919e-02,-8.825001211992862526e-02,-1.314615715055603984e-01,-1.432325450066383732e-01,-1.577142700411270637e-01,-8.135784069461236834e-02,-8.951827354946939597e-02,-1.110858341476085309e-01,-7.005339508957016126e-02,-5.775519137819872667e-02,-7.012289765614887482e-02,-5.841439539345996690e-02,-9.116979031417664359e-02,-8.121684312783690463e-02,-1.287058677710347099e-01,-1.917272570240197149e-02,-1.339005602298094441e-02,-2.795376036003997117e-02,-2.449173249171257213e-03,1.087858722263393557e-01,4.544411343388854441e-02,-2.243049405643689903e-02,-1.837196643224842454e-02,5.878608120757192190e-02,4.561794854325629950e-02,-2.323046876992559961e-02,-2.659031223037906441e-02,-3.692892162377674203e-02,-1.587123096491278168e-02,-1.077592758180007243e-01,4.246318715601775547e-03,-3.994612229123076924e-02,-1.149248924419613710e-01,-6.034447392709756108e-02,-8.126970439556248371e-02,-9.090352549194223586e-02,-5.726995030072203063e-02,-1.112573486273850804e-01,-2.337324034299650966e-02,-8.019561719486190121e-02,-1.709588121654422588e-01,-1.203610901799967714e-01,-1.324795357528859852e-01,-1.572456510460124857e-01,-3.969895813390247191e-02,1.216370449914450959e-02,-2.031985924641303148e-02,5.421624097050303098e-02,-4.063616388342325414e-02,1.853223287865257696e-02,4.822221846191883723e-03,9.915759061704179644e-03,4.388404540163284850e-02,-1.093141754268934195e-02,1.934988911135748779e-02,1.656505664721543217e-02,7.582239819700316297e-02,-5.883198457712249252e-03,-7.854032468574953518e-02,-6.027856176961913365e-02,-1.401864217501289089e-01,-3.427323047199758166e-02,-5.036459349288787204e-03,-8.922881512930869174e-02,-1.461830497056912925e-01,-7.115095416548597451e-02,-9.069960333709088662e-02,-1.170300885175284827e-01,-7.351242965857063272e-02,-1.457918026857730198e-01,-5.620700515490187343e-02,-1.007263992672313146e-01,2.688640794285380650e-02,-1.489906776400117851e-02,-8.287825112459913657e-02,-3.616510637191585817e-04,2.278648673121774770e-02,1.333154123747357783e-02,1.548040221978265506e-03,5.880644431792945298e-02,-5.853054002950381501e-02,-1.812539409643488045e-02,-1.242523031361320723e-02,-4.379209810273257397e-02,-6.557284052895594184e-02,5.719593617483807388e-03,-1.147327918817846529e-02,-3.528710502319691578e-02,-4.245306594643041137e-02,2.460166933545766474e-02,-8.478801021737680799e-02,-7.632526234346381777e-02,-2.978937876012953748e-02,-1.508080732287045769e-02,-2.521117549197587557e-02,-1.287966832406828299e-01,-1.310731883093556316e-01,-1.173525476170121373e-01,4.247087296273008815e-03,-1.344871753191496377e-01,-1.000068466826284537e-02,-2.640313374968726243e-02,-4.002123613398485269e-02,-2.494089994671237071e-02,-7.195012344816979766e-02,1.903352108424719025e-02,4.462061418164271764e-02,-4.097259567245505572e-03,1.473781625419006043e-02,-5.815028588516175240e-02,-1.616535796899204805e-02,-3.022907071660869104e-03,-3.379956174534293201e-02,2.098908245199479147e-02,1.397582171393278727e-02,-8.595640137381427293e-03,-3.546186802132031413e-02,-3.085028928406540090e-03,-1.444830245465112128e-01,-8.771450613932088580e-02,-8.818081069082793488e-02,6.956242299726638975e-03,-6.062391961755823205e-02,-1.305373310160476696e-01,-1.513952848638552839e-01,-8.369977658968051626e-02,-6.708515172101929547e-02,-1.261773671682735187e-01,-7.378026126781742078e-02,1.654648271924955699e-02,-8.453217587776355735e-02,-5.167596008945600505e-02,-5.673186238912825141e-02,4.191259124995220251e-04,6.963037504532639888e-04,-2.759339606622470201e-02,-4.276994239403830722e-02,-3.196214231479675705e-02,1.852739574621337787e-02,2.190094557831197275e-02,-6.852652348853856268e-02,1.014274899007393399e-01,4.931667545909349448e-04,-2.836708378895053465e-02,-4.730395245666808163e-02,-4.837790942522025156e-02,-1.340660225519833548e-01,-8.998787135785220326e-02,-8.698208361992272597e-02,-1.053308370196525540e-01,-1.456086291467854621e-01,-2.304272235786128942e-01,-1.739601734433441349e-01,-7.698660494409739763e-02,-1.328605467571194187e-01,-2.087831935924512952e-02,-8.999921920348794013e-02,-2.629406743390599877e-02,-2.926759720617973931e-02,-2.231614943889214178e-02,-2.157219324203733107e-02,-3.732674486353252871e-03,-1.731198814841519024e-02,8.471704367343286688e-04,2.548255427546246288e-02,-4.822287432847836321e-03,6.832405724318066191e-03,1.790265671062106489e-02,-1.132054218283991449e-02,-2.844792725866954891e-02,-1.972021051709690193e-02,1.044968236739763322e-02,-1.023624498659773431e-02,-9.016822342082006503e-02,-1.958527573216557183e-01,-9.939983989458800462e-02,-3.529959965807666356e-02,-6.383952193821047782e-02,-1.953894434794914703e-01,-1.588148576476226537e-01,-2.014365575087915250e-01,-1.435335184188444579e-01,-1.154759436682300522e-01,-1.642351322771801181e-01,-1.291271628075546518e-01,-8.244897068652523586e-02,3.551554421061938523e-03,-2.750544568334194889e-02,-4.000989025984936359e-02,1.855016553811201369e-02,1.608286266886304813e-02,-1.829970815425774420e-03,5.401080755893828550e-02,-1.979309034468525533e-03,-2.506440769354651571e-02,-2.920105806772153867e-02,-2.283450417114426742e-02,2.934653245510041378e-02,5.298060726286197425e-02,3.493340437166112672e-02,2.410120984355659801e-02,-2.451825049038396098e-02,-9.663636865968379397e-02,-1.118590196206553228e-01,-1.641008611929361052e-02,-6.272990011296383783e-02,-4.901504952664586384e-02,-1.166026178280498843e-01,-1.404577196270173634e-01,-1.389496931931525348e-01,-1.869197829771462871e-01,-1.581921664774919023e-01,-1.210089017022365626e-01,-1.107247519366001964e-01,-4.321727665022485898e-02,-4.015505340619104219e-02,6.701168457107357576e-03,1.124037446683543232e-02,3.591338786955779877e-02,2.635860295468964859e-02,2.669640021498395632e-02,-1.376579249543872195e-02,-5.729616627938877854e-03,-7.140555076621102337e-02,-5.187519237975173059e-02,1.929964132327387921e-02,6.460313773214981792e-02,-1.341087685455693592e-04,-1.146312390268517181e-02,-4.562985234810948421e-02,4.166526468446030834e-02,2.579970260308689714e-02,4.122908926148467074e-02,-5.306997462156567980e-02,-7.687982857360302347e-02,-1.182932281992889606e-01,-1.255524146581900036e-01,-1.490193980141394925e-01,-1.518408322616440487e-01,-1.078077811673318898e-01,-1.422264331958631722e-01,-6.955857649274604926e-02,-1.157255755116469303e-01,2.821922886431569352e-03,-8.405932959827497331e-02,-1.754167680469877200e-02,-4.243768860650058705e-02,-3.975506706218390890e-02,7.070235266200482899e-03,1.625574935015712194e-02,2.639531888142580829e-02,-4.957865580390417859e-02,1.101676013415300165e-02,1.718812878063272600e-03,-1.696536700574213449e-03,-3.608815067071997895e-02,-1.298516655573931367e-01,-1.745173378302578016e-01,-1.750445543365120038e-01,-3.051474352447882538e-02,-3.311591274305894419e-03,2.274094471077928517e-02,-5.396806551543244929e-02,-1.279010553066999289e-01,-1.926261979443293082e-01,-1.428351794264783314e-01,-1.090428360380577139e-01,-1.246646474932888993e-01,-1.280692380956582610e-01,-6.540857996909663075e-02,-4.756293614100878635e-03,-8.477651911040161824e-04,3.957246127190078115e-03,2.679805442005249450e-02,1.214158184469000049e-02,-1.869925327212153612e-02,-3.706680100313703569e-02,-4.511237440344058325e-02,-6.108680432827259810e-02,-1.212959938151923940e-02,1.736035910770240484e-02,-2.477945679595940781e-03,3.528016886889764891e-02,-3.662661793006801586e-02,-1.402051286954727749e-01,-2.168707580929649381e-01,-1.912969007694911017e-01,-1.872694781982663370e-01,-8.778398330235924474e-02,-6.091879459462717916e-02,-4.330521111611385088e-02,-9.341004279416778577e-02,-1.283648315091475145e-01,-1.118260070225370051e-01,-6.880955792677695415e-02,-7.806365903173873022e-02,-6.079901269851067935e-02,1.204783386937369194e-02,-1.069289475342818452e-03,-2.929779893698989182e-02,-2.265666432682035547e-02,8.268654827498767707e-03,6.234109883986757757e-03,4.645452962563199895e-02,-3.527289815145240315e-02,2.767426792178974762e-02,-1.115751990950306603e-02,-4.051619352811883235e-02,-4.490987309369244562e-02,9.006265062219628859e-02,2.491809434576653520e-02,-9.462618814541316759e-02,-8.689482154147042114e-02,-8.041726942410225287e-02,-9.313993702008482867e-02,-9.955774063745173597e-02,-5.185819102592682112e-02,-1.868710956821542368e-01,-1.550419870122917432e-01,-1.195195077649451737e-01,-9.640315299723231646e-02,-1.254906832470341904e-01,-9.528620282579215728e-02,-1.248161611396317316e-01,-3.565603699919731029e-02,-6.081569411755221449e-02,-2.786783568847437872e-02,-4.571829112378087562e-02,-7.871998778808945996e-03,-3.473777726268832775e-03,-2.476739654638399762e-02,2.830234125564055903e-02,9.819130915583477656e-03,2.047591800991563696e-02,-3.486961126713532255e-02,-7.870736553323541204e-03,-6.320912904049601211e-02,-2.750117299081802219e-02,-4.959085670063152762e-03,-3.619397990128844084e-02,-7.128590236399937052e-02,-7.220489969370263994e-02,-1.353304669841072227e-01,-1.902581238414308984e-01,-1.155801587106722456e-01,-1.301079551104342424e-01,-1.267746879253121017e-01,-6.564310043430113262e-02,-1.083439798177551622e-01,-1.160920117036288446e-01,-1.267754074420184285e-01,-5.261624389722035361e-02,-2.126149555978266992e-02,-3.969292930712227472e-04,2.086455507778285211e-03,-6.389063499965213708e-03,5.334894382683665059e-02,3.397407409193295424e-02,9.051848831982199639e-02,-2.644429236425902344e-02,-8.468609365315895796e-03,-7.869651324999063502e-02,-7.445724528714412448e-03,-4.061619005224450379e-02,2.995216353306742046e-02,5.778496579426973395e-02,-3.729551597175311678e-02,-9.194162026419308575e-02,-3.621519851218060054e-02,-1.392280246947550648e-01,-4.245757378251112379e-02,-1.398877948819564621e-01,-1.117927833160948375e-01,-2.676676793916876046e-03,-2.011272027332207946e-01,-8.046919394594535813e-02,-3.629923411027021624e-02,-1.323994241966507945e-01,-6.192091821334373171e-03,4.326745944548674588e-02,1.762122005796410091e-03,1.416145206790985801e-02,-3.723106239259427186e-02,5.841186208861572776e-02,1.608256791544995443e-02,-4.168226250547729661e-02,6.002317933956527463e-02,-7.552754952087198381e-02,-6.777600141928242540e-03,1.077202510456787450e-02,-3.086924572308200401e-02,-7.667503783249819682e-02,-8.205053479876772693e-02,-4.518366214744211351e-02,-1.291654202681086563e-02,-3.118635871289025113e-02,-4.544248194884444036e-02,4.572632726193129327e-02,-9.122787955513649016e-02,-5.406389157653711253e-02,-5.909867301951783614e-02,2.414375981626513956e-02,-2.475088885093932808e-02,-2.551971295754830449e-02,8.888143787866486720e-03,6.636083234059431124e-02,4.074816222504648588e-02,4.249052088918216230e-02,4.836163440763363103e-05,-1.004260551023114512e-02,-4.019586293461951260e-02,-2.875927033897348814e-02,2.030501705799778525e-02,6.227954457883350982e-03,3.303532648675006067e-02,-1.658228438339676841e-02,3.817774423260258954e-02,-3.068693268004642552e-02,-1.522387798436461957e-02,-2.627169881641691629e-02,-7.879508063338007406e-02,-1.303922197836070510e-02,-1.255131778311203150e-01,-8.481720682017876434e-02,-4.325180835729149076e-02,-1.048792400287685417e-01,-1.245573873802794801e-01,-1.166751790974358133e-01,-1.208537122681054427e-01,-8.371652459599805696e-02,-5.377557470875519302e-02,-4.491488484025864952e-02,1.786880092568399539e-02,-3.834719127945313694e-02,3.313682946455852318e-02,5.180305577893525720e-02,-4.193232116378194790e-02,1.976148977680465546e-02,2.288570158273771013e-02,4.160407636752124633e-03,-2.105053963605678716e-02,-2.009129417853112477e-03,4.277833781467786645e-02,-1.898562707501136315e-02,-1.117099896455666930e-01,4.958711208339541821e-02,1.165217431901621921e-02,-9.648160026946601010e-04,-7.333212089367441289e-02,-6.114937650018626575e-02,-4.008494531438167030e-02,-2.396230318853411617e-02,-1.234914826377348784e-01,-1.113507307627171344e-01,-6.553983743618398139e-02,-9.956483704576046811e-02,-4.357652997976860232e-02,-8.691643402329485291e-02,-1.216936941535132349e-01,-1.477124812916499105e-03,3.786391907256687200e-02,-2.229966371876044174e-03,-6.629484553366972455e-02,-2.538117633317877458e-02,-3.454141984646756647e-02,1.129566435413680361e-02,5.060366697809046133e-02,-4.829061839011735552e-02,1.468203818048418458e-03,1.683655923575266139e-02,-1.048353313844977699e-03,-7.743683701793056297e-03,4.489362170477340097e-02,2.254886006970555079e-02,3.391386414939706606e-02,3.919955164846894088e-03,1.068938742994148591e-03,-9.482364043408594498e-03,-4.978972776396332900e-02,-1.804360852223696118e-02,-1.149166315545121358e-02,-1.093101894941269081e-01,-8.485677326807591903e-02,-5.726066561758037105e-02,-4.389352108737464009e-02,-6.049294890508545575e-03,1.161557347376209783e-02,-5.263568622316586870e-02,-3.008941952047300070e-02,-7.085405941688902032e-02,-7.774489533514272743e-02,7.464701689827744902e-02,-5.794121984950986390e-03,2.327414585315428636e-02,-2.151336263355296818e-02,-9.328382759463428597e-02,2.397115880110834568e-02,-1.637096434541198894e-02,-2.433305415649608672e-02,4.402739628150668938e-02,4.590612757414539065e-03,-6.446471460089879535e-02,-1.508921286715045676e-02,-9.305372271064572820e-02,-1.509414851912560009e-02,4.251558551955852278e-02,-1.784553515677518619e-03,-8.574970160490073823e-02,3.788890458748998130e-02,4.272227213586551192e-02,-3.578863461705562854e-02,-3.301781563046309736e-02,-3.618793169227343259e-02,1.686483436999983154e-02,-5.381309697151746146e-02,-3.554903246175845216e-02,-8.370603563913228684e-02,-6.448341201447509510e-03,2.692718256380640524e-02,1.674400169637574537e-03,-1.984954064802046253e-02,-6.793302833144342773e-03,-4.936500716850655140e-02,3.436424170262962485e-02,1.166719039537493161e-02,6.427049367137147029e-02,1.672290440617174578e-02
-9.166410742781565257e-03,-5.474992249695887631e-02,-6.273067114660078880e-02,-4.753509137090398268e-02,2.726335806759004957e-02,7.009030728035921774e-03,-7.818754481791431732e-02,-2.170307576001003977e-02,-3.340957263139476136e-02,-1.523048908776926738e-02,-9.705728346521041300e-03,-1.097162815075380937e-01,-4.630372215092839333e-02,-9.510645832104987207e-03,-1.038397364294222844e-02,5.439226446713894131e-02,-3.890327176464957598e-02,-2.254259563090237409e-02,-2.090751574544958899e-02,4.313552386927421017e-02,-2.013911113250630228e-02,-6.443926526071899578e-03,-2.106118490232382692e-02,2.571548551886300785e-02,4.678434015639589688e-02,-2.166460400347437407e-02,-4.662482623024616184e-03,-5.117350919673994275e-02,3.594816292193366708e-02,-4.503217113967748070e-02,3.708313057985888200e-02,4.952349100639804463e-02,7.546370883524936013e-02,-5.536834427730855795e-02,1.212660524888160840e-02,9.966966342725253405e-03,-6.589472833114773213e-03,5.620787100393865449e-02,5.384827680782994924e-02,-5.519119737544883088e-03,-7.283435042736449705e-02,1.892910090827418582e-02,1.426964050485180456e-02,-2.919530906876748044e-02,6.151218760467718621e-02,-5.803223960387101504e-02,1.453225936466219287e-03,-2.838625830440613673e-02,-6.028984522301210347e-02,4.627019880943323941e-03,7.217781478204762617e-03,-4.674143489622515496e-02,-9.485197882744045295e-03,-4.965079545007457414e-03,-2.645671628215102641e-02,6.878815404448919597e-04,-1.840049320185545637e-02,2.672329303894793381e-02,-6.403203400003315560e-02,4.894694094065669965e-02,-1.606368613959496816e-02,-4.182985594156547055e-02,-8.686045491492936504e-03,1.373889323234387186e-02,3.709607202634489231e-03,-7.767194586512386756e-02,-6.828861251041626335e-02,-9.713650064714794696e-02,-1.124819240403189813e-01,-1.330744990870380839e-01,-6.044474235344313856e-02,-1.237719689481540236e-01,-9.536814876105423333e-02,-6.596537563787711889e-02,-3.984262995254524153e-02,-1.091181484382403311e-01,-2.857802602760068852e-02,-7.165245434546560488e-02,-8.462315719405173742e-02,1.203271955539812581e-02,1.810456445734373934e-02,-8.704876782073572850e-02,-8.353488431690120342e-02,-2.437016911648461417e-02,4.581093133365455455e-02,-2.820894951929893077e-02,-5.820445615989273958e-02,3.722332611798923746e-02,7.950355334054963474e-02,-1.116396424912583230e-01,-4.119376422434922747e-02,-2.553247933910679154e-02,-8.936690908787707499e-02,3.752187212265657018e-02,-3.226638092693819709e-02,-1.039081791538795790e-01,-1.572827366727394816e-01,-2.562573290509568835e-01,-7.445129612641177008e-02,1.507373340241713496e-02,4.603435582387398195e-02,-1.867873685434415232e-02,-9.601360883721789252e-02,-1.782264916554498688e-02,-1.576033645119665275e-02,-7.682363735857727916e-02,-8.270487527885903370e-03,2.147200240733294560e-02,-5.929098523267811033e-02,-9.088524331211884910e-02,9.137097492288446393e-03,-3.722318387788011579e-02,2.152015181084017750e-02,-3.504023614558334637e-02,-4.116061026829016117e-02,4.480027586510871435e-02,-2.299312710117339814e-02,4.003218437367151578e-02,2.442530293190202720e-02,8.591739593585476925e-03,-1.476087252588296345e-02,8.084537120363784191e-02,6.871783294613958981e-02,-8.906361982314428549e-02,-4.076469873100835653e-03,1.202761915154567166e-02,-1.971016033740643769e-01,-1.484981927061515272e-01,1.590359935593378959e-01,5.333865553484871264e-02,-3.610941257722525416e-02,1.721462150547263883e-02,-8.139891612200545259e-03,-1.450161998961458920e-01,1.550402488732704684e-02,5.211770970646093654e-02,-3.694279605695853508e-02,-6.762395881750236926e-02,7.154065520211747020e-02,-9.507731296697813361e-02,-1.080916584065768488e-02,-2.110003557240777358e-02,-7.374970847723193168e-02,-4.909007798880607454e-02,5.426465286453232423e-02,1.228790206810164015e-01,1.247215607006901122e-01,5.129616868135705721e-02,-2.696156176114971464e-02,-7.390131976972622030e-02,-6.862876964481985642e-02,8.010151344837650178e-02,-2.400635784811305101e-02,-2.785439319714527184e-01,-1.486392037742118311e-01,-6.597567023562317390e-02,3.547195971237534357e-02,-2.287248078036689669e-01,-1.269595362286256024e-01,-1.389999757809519121e-01,-1.421389250301608453e-01,-7.256631246175912486e-02,-3.592942305431191113e-02,9.553775992366327074e-02,7.279644235354107429e-02,-9.935846721271100745e-02,-7.265098054824834124e-03,1.055530233643585435e-03,-2.437789600163052864e-02,-1.543085928798144588e-02,-9.255335323734327491e-02,-5.920116953254182628e-03,-8.134716474879738132e-03,-4.776144346198703955e-02,5.449494510323475704e-02,4.168899025495724497e-02,-6.313832546241612831e-02,1.437705296974297990e-02,3.300010571822471761e-02,1.697214460593914620e-01,7.145868968697194346e-02,-1.266587035688423735e-01,1.118456105243621351e-01,-1.749239316681521217e-01,-1.664922913215773626e-01,3.785229668412223858e-02,4.207991093949813854e-01,-3.409110066156458008e-02,1.489706027215055920e-02,-3.209412604652072537e-02,5.338015084508535360e-03,-1.999650285125750132e-02,5.541915190515400019e-02,-2.538661165948481041e-02,2.006926909625027580e-02,-6.045261577159551786e-02,-3.345553190286627149e-02,2.729590753580283385e-02,-1.590292314789866837e-02,-4.985093684637129097e-02,-1.061116220804241422e-01,-1.524234310394430858e-01,-1.751164994451356316e-01,-9.284942862772677108e-02,1.192611006708274579e-01,-4.322344469905904651e-02,5.403094241397953662e-02,6.040987405569634566e-02,-1.024894481451554679e-01,9.334070556631800242e-02,3.332795818063047366e-02,-1.075806046253578729e-01,2.763521418354539239e-01,3.833481823537016608e-01,3.093576092073540562e-01,2.269281330616238768e-01,7.380999736224158614e-02,-5.490972498684042191e-02,-4.313639872731460378e-02,-1.053478704398201210e-01,-1.449512106887823615e-01,-1.055128785251636253e-01,-1.257868254288758113e-02,-3.441142507908682285e-02,2.398138085575683698e-02,-4.191437336189512280e-02,2.055420152455267671e-02,-3.308950289645406356e-02,-5.835650319958472082e-02,-1.003697090597571034e-01,-3.582315598962210190e-02,5.277644399164005407e-03,3.655953226808764805e-02,7.397563981086854867e-02,1.599613585737074961e-01,1.546161025244909837e-01,-9.936900589109358417e-02,-3.012106122740828007e-01,-3.358114623997190407e-01,-1.437124954946621125e-01,3.604084362586490453e-01,4.582005432474938189e-01,3.638850926181842749e-02,7.743782464530739318e-02,-2.229775575137608046e-01,-1.826347696981613367e-01,-2.369415958016417578e-01,-2.996142529596369508e-01,-3.384685943726818413e-01,-1.364103847220271004e-01,-2.573742828965667334e-02,-5.110969173584001962e-02,3.250380590795034358e-02,-4.118864761452254580e-02,-4.956338941699075379e-02,-8.137401535821534027e-02,-1.124370456275875924e-01,-1.423015448126693783e-01,-1.624843298175570883e-01,-4.126069737897148509e-02,-6.620387362344494486e-02,7.665569909708835894e-02,6.545090066883701985e-02,-7.913576846510844698e-02,-2.856674218112527086e-01,-6.913099501055322005e-01,-9.298225338931366268e-01,-7.928285832324004356e-02,5.937888828613452352e-01,6.923594988626419200e-02,-6.586526181207935648e-02,-2.829051865943738031e-01,-2.655095591407833355e-01,-2.000551229028236788e-01,-3.539949681889945077e-01,-5.314978034846362664e-01,-3.482803162463311564e-01,-1.113104822900799901e-01,-2.136532007622699361e-02,1.109787439576014577e-02,3.448182439241410241e-02,4.140454226979808222e-02,-3.199411531472119881e-03,-1.184433187345750559e-02,-7.695843651089293025e-02,-5.376827611367827886e-02,-2.478759606050547071e-01,-2.163902278600041140e-01,-1.247642058550839650e-01,7.736334310581905772e-03,-1.098105191643013595e-01,-5.809505968843670098e-01,-6.308289786761894780e-01,-9.219584425286736495e-01,-5.347518631946437395e-01,2.750363635914051530e-01,5.636864610149406873e-01,2.041079204994567242e-01,-2.529813340819588863e-01,-2.707129861490290557e-01,-2.128258577174100830e-01,-9.935770718556428960e-02,-3.393621679019987458e-01,-3.004415931344375235e-01,-9.393497679801569855e-02,-1.727128457144385884e-02,-2.509920948031611754e-02,2.901115437796808819e-02,-9.719946904572092372e-02,-4.408491162032673188e-02,-2.955927512723449668e-02,-6.297793481652670666e-02,-1.271077152996119286e-01,-6.604165849559340273e-02,-1.897352421209955176e-01,-3.270514647812808318e-01,-2.636896051345591352e-01,-2.069603255838166622e-01,-4.297336817767279382e-01,-6.362539260264296059e-01,-5.468434062280763674e-01,-6.856473645466099054e-01,-1.614834081894036266e-01,3.850930820933810006e-01,6.195567108927483302e-01,-3.288841496156704597e-02,-2.564849729872555884e-01,-2.951960182391363818e-01,-1.578255959072034642e-01,-1.716564805462555410e-01,-2.648296066135514271e-01,-1.111117994691617067e-01,-7.099287693131991171e-03,-1.798830084333323271e-03,-2.656985968192141639e-02,1.839719594257193877e-02,1.320774275773134443e-02,-7.415020117093051866e-02,-6.086168019033580574e-03,2.900860240629905829e-02,-5.279655502735643852e-02,-9.000190345337824582e-02,-3.552043065062121530e-01,-3.775191481094029022e-01,-3.449164168013149068e-01,-2.705513264497214632e-01,-4.692151423338693506e-01,-3.706211427414497495e-01,-4.375927125113805993e-01,-4.324125188439253975e-01,-6.186867000486484525e-02,3.019442876400751929e-01,3.106326908482441862e-01,-3.174648070997868055e-01,-3.922908188681082930e-01,-4.686988126798599108e-01,-1.332677417236335926e-01,-1.321694073170360528e-01,-1.485943785315758936e-01,-3.713769318276614190e-02,2.519674282893996989e-02,2.800149524703751322e-02,-7.607097307433620392e-02,-4.052162726060349468e-02,-1.217792015004913117e-02,-2.803461994372832833e-02,-8.033158018318080004e-03,-4.231920405422389536e-02,-1.305431890901357916e-01,-2.015800300998589756e-01,-2.711049146736037030e-01,-4.337038458930304596e-01,-4.166569552155958145e-01,-4.552181320480211402e-01,-2.596561131858144411e-01,-1.680723261715220407e-01,-2.069501757203208447e-01,1.910649319944911217e-02,9.564771718570280745e-02,-4.788116448090210669e-02,5.045169401442668733e-02,-1.292306018518247779e-01,-6.716529293300844972e-02,-2.111113177658622275e-01,-1.500892671509401477e-01,-1.525350634008606210e-01,-1.129146807257444124e-01,-9.944856674112487194e-02,3.962765093059939653e-02,-1.966891642216506836e-02,-1.034398855412422685e-01,-1.068689785297909089e-02,-2.306148314434513028e-02,-6.169371110027191234e-03,-1.720021636483894112e-02,1.167718210363638889e-02,-5.320302192968163341e-02,-1.638622941255545029e-01,-2.676178213803860340e-01,-3.480050354215175057e-01,-3.089433538918818223e-01,-1.407841002557059552e-02,3.546840037290756309e-02,9.390650979609728444e-02,7.015379188640392949e-02,-1.046809797504224676e-01,-1.829915000260866620e-01,-1.423625029681470366e-01,-7.373188737574283558e-02,-2.931504129194465458e-01,-2.252773091308036824e-01,-3.347550768950282585e-01,-2.116441248184763868e-01,-5.105554388976792091e-02,-3.310656112835969056e-02,-1.090715731814012879e-01,-1.626588189236285176e-01,-9.917475362134962891e-02,2.202534723360152769e-02,-4.256483313515763839e-02,-2.975203274425792729e-02,-2.227824160753862429e-02,5.937291254155871618e-03,-1.120839304563264228e-02,-1.640547960616128842e-01,-2.275712709382136101e-01,-2.253413975186087104e-01,-1.726954729855669501e-01,4.797998923141015559e-02,3.326734697449153511e-01,2.583783441532021552e-01,5.013213674317562596e-02,-2.745653337824490725e-01,9.603471817040433456e-02,-8.956254369613679545e-02,-7.860784495587744281e-02,-2.564350372043223136e-01,-5.329954211831096078e-01,-6.814696851454791204e-01,-5.994630647918093302e-01,-1.969390737913175871e-01,-1.145638546880087955e-01,-7.036940813325000266e-02,-5.266301750511277746e-02,-1.253171927375541506e-01,-6.172170296925983540e-02,-1.084712962021523210e-02,-2.785318859486196619e-02,3.947438342046425547e-02,-4.511840277016144346e-02,-3.918577296121116688e-02,-7.377763795905072086e-02,-1.111652823573616583e-01,-2.119234473227070426e-01,-2.373029351976047308e-01,-1.022198016402030285e-01,3.985539477950247184e-02,1.883095141615390156e-01,1.949009602957512688e-01,6.842288592844272821e-02,3.088567054935099088e-01,4.390090617605777457e-01,-1.367184978849856902e-01,-3.647605755024906360e-01,-4.170223462842592710e-01,-6.872006858562323961e-01,-6.416451795842066375e-01,-3.436850382690196382e-01,-1.989549973353752499e-01,-1.309327279493090190e-01,-1.630202503465230310e-02,-7.868015112690668333e-02,-1.179307673674399731e-01,-3.094125978289967438e-02,3.016923713396715487e-02,6.798952388307888395e-02,5.338664315990602344e-02,1.912862574194489421e-02,-3.437799755126189072e-02,-3.748976187640239849e-02,-1.445780577325570526e-01,-1.089214984352139953e-01,-5.214405918282286057e-02,-1.276036187934278809e-01,6.694209953915107592e-02,2.510997333745427218e-01,3.626998268729983987e-01,3.591822117943576087e-01,4.586583630931311828e-01,8.244628335144160713e-02,-3.306158298609519486e-01,-7.219022723872521308e-01,-6.478332678295897207e-01,-7.009197474843933406e-01,-3.615094688323952088e-01,-2.264616603844925857e-01,-1.029322941810138364e-01,-8.389083380567868842e-02,-2.344879030482495408e-02,-1.457615336381868631e-01,-7.349219020146184611e-02,-3.456011809095777682e-02,-5.493775001970412075e-02,4.965034213813129121e-02,-1.774237793883563091e-02,-5.877797376459522466e-02,-4.809021910072036089e-03,-2.057488786875051601e-02,-3.973467409331628286e-02,-1.282288676658358828e-01,-1.329938077844047550e-01,-5.614981193241278673e-02,1.980173407592588919e-01,4.363711828670370774e-01,2.367441586835509204e-01,2.785673597916686339e-01,3.395002605013647257e-01,-3.293106369979607873e-02,-5.923386008534891056e-01,-8.481377910778750140e-01,-5.843275087469892437e-01,-4.455422012353489336e-01,-1.778435055137551901e-01,-4.858895874530465286e-02,-9.648787293133860576e-02,7.749174358624412451e-02,-1.140783841082517944e-02,5.219976650014264939e-03,-2.079209061683938778e-02,-4.967802179248578115e-02,1.536952810670817564e-02,5.391779637359633143e-02,-7.080842178898907879e-02,-8.634004209504229921e-02,-7.445818376386610649e-02,-2.502381985678387571e-02,-9.342221951798661272e-02,-1.666186194123170927e-01,-1.799861854558198748e-01,-8.736685532648530428e-02,1.126378085418503483e-01,3.503588050128326192e-01,2.368588258679666381e-01,3.523115884533696285e-01,2.669710838680699472e-01,-1.716551236238752706e-02,-4.895889465107041705e-01,-4.977509546859051892e-01,-2.427914317851186110e-01,-1.027554154857636820e-01,6.048969603731169098e-02,-1.324532512046533994e-01,7.521736117365487861e-02,8.145890453480274240e-02,-5.040016464322257667e-02,-4.270076909799370990e-02,3.627844145094640677e-02,9.891881574503577634e-02,-2.402589936675877946e-02,-7.209920383612861139e-02,-4.696618276740730652e-02,-2.711727804280695403e-02,-3.032002558804783657e-02,-6.899818517623036935e-04,4.973424991487064573e-02,-2.942849580635843038e-02,-8.777713124700378677e-02,-2.457839500474324687e-02,-6.655592817915863268e-02,4.025901149969712822e-02,3.439053455330793319e-01,4.413891626148257474e-01,4.899489142199485170e-01,-8.070552906845272767e-02,-1.285897131767077019e-02,-9.784465903489075744e-02,1.574251087707431163e-01,1.803283800854023899e-01,1.139045787582871894e-01,2.475051720848113826e-02,-6.283119707727295722e-02,-2.458071014043050270e-02,9.128276393393564003e-02,1.321159849082293725e-01,1.424622448140856201e-01,1.023489736188912536e-01,4.511466446477945674e-02,-1.795152242401826248e-02,-3.156843634770045443e-03,-2.829990571186481035e-02,-2.418052536008546971e-02,1.187775215997708550e-02,3.103867080589330779e-02,2.240728278547921837e-01,1.067049324935618188e-01,9.419725644296528255e-02,4.150410741279670496e-02,1.489523214913114346e-01,2.014631662912456656e-01,2.559424352842834191e-02,1.144983996475502086e-01,5.351590418547066269e-02,8.817997175604967708e-02,-2.652845284741557896e-01,-1.168273836422202006e-01,7.624809467468268709e-02,2.102076924774063382e-01,2.531000346116272781e-01,1.158589164531131227e-01,8.451747814529456115e-02,2.146101437471181483e-01,2.703623483204173339e-01,1.354183683820514295e-01,1.670105447052386283e-02,8.156787451921443388e-03,-8.037796846380580035e-03,-4.021195232366776146e-02,1.159807088920596779e-02,-2.142527272764743404e-02,5.606613551095441378e-02,-1.698230261625443757e-02,9.227433727768706573e-02,1.296197311144168807e-01,7.153514527627011232e-02,2.883468030031041129e-01,3.735813635822544665e-01,3.101433755549955554e-02,-2.447220434899809727e-01,-1.898608830322720820e-01,-1.188308320845593014e-01,3.140369473354488739e-02,-4.659842577089624571e-01,-2.197885096419003592e-01,-2.382401231176404233e-01,1.738235328746079444e-01,2.882786560370134143e-01,1.818480319450813121e-01,1.778537270267161186e-01,7.066065043927617639e-02,5.773486857381218522e-03,2.103394854880259388e-02,-6.585141401165829807e-03,-1.527500556800136938e-02,-4.147315354939478532e-02,2.749091488689859100e-02,-5.239548084994038839e-03,1.145664758567061653e-02,-3.206416194973139844e-02,-1.846395436611071583e-02,-2.714078619397089845e-02,-7.859070150771027552e-02,-1.749238955995071065e-01,-1.385642131052278736e-01,1.333020160444355409e-02,-1.446192732041814699e-01,-1.086128921844251582e-01,-1.668652572436220560e-01,-4.691825718296877001e-01,-5.306925652238903002e-01,-5.442338332994399730e-01,-3.982296251857458391e-01,-3.144073631972531535e-01,-8.901632940069105493e-02,2.887092905095948320e-02,8.984506528649130463e-02,8.245941761921588009e-02,1.362606954880257459e-01,8.527933308751305119e-02,-2.263983428428281014e-02,3.158554919684637696e-02,-3.163538952365586160e-02,-4.307592019856774229e-02,-2.668865962066333322e-02,-3.896792829067465685e-02,-4.907346091297237756e-02,-4.353133814409154007e-02,1.216124739873235792e-02,-8.208813275376307395e-02,-2.229611915098957120e-01,-2.219437205447144790e-01,-1.647438287584266081e-01,-3.288944094013183661e-01,-3.279631223411482166e-01,6.116512322446821665e-02,1.669899639748503861e-01,3.497918768758620511e-02,-5.996455384283924661e-02,-2.251744833489379150e-01,-4.551292464991054110e-01,-3.380389845536664883e-01,-1.242535524174999684e-01,-1.461486252692403287e-01,-6.140380628017538117e-02,-2.094344152302428028e-02,7.219352678428411600e-03,3.814584351706469534e-02,8.233326788116656150e-03,-6.263836604556953513e-02,-1.529198982365146536e-02,-1.646916602204333627e-02,-7.554072688404273907e-03,-7.316005765816967210e-02,-7.050695524626190980e-02,4.303066599815461545e-03,-5.339693688668921412e-02,-4.421970661692280896e-02,-5.842764452001424774e-02,-2.087771311834407673e-02,-8.598686743134933974e-02,-2.705447814581273241e-03,-1.947217781878743045e-02,3.421260559194670703e-02,4.741805511038198195e-02,-1.225565568054942378e-01,-1.827711198554353711e-01,-2.136784542085331529e-01,-1.409951634974132284e-01,-1.541723745416457847e-01,-1.818806539948550904e-01,-2.776511100268612697e-01,-1.184173078948485558e-01,-2.769332191707469387e-02,-2.156551023221291163e-02,-3.474295811711531484e-02,-4.382008727363747441e-02,-1.302579822240084242e-02,-4.111854067752903491e-02,-2.281383491562942803e-02,2.935873233723058570e-02,-3.155180514501012418e-02,-1.154275130514549885e-01,5.214940019920039777e-02,2.121877855371087206e-03,3.980097590654072676e-02,2.451008914870808977e-02,-1.855954377196370603e-02,1.474502893646322498e-02,-8.748102222026227226e-02,-4.610642810535699881e-02,-4.298710134068505634e-02,-1.500950720282553073e-02,-4.051901290509477699e-02,-6.668735057125120547e-02,-7.320159950023470696e-02,-4.316336263719690314e-02,-4.250346446549223278e-02,-9.445879877072770048e-02,-6.834618438448993027e-02,1.395151865319038849e-02,3.816386511838136281e-03,8.164665582768806940e-03,-4.471102920718623280e-02,2.632182352456199220e-02,2.042805112594594033e-02,-4.209754534136594256e-02,-4.150078515812475471e-02,-6.567082796337879447e-02,-5.044537470994266831e-02,-2.539975657040927180e-03,-3.867942992800774832e-02,3.431472922339923876e-02,-5.223130059672451142e-02,-4.986630832599826119e-02,1.620839245642740831e-02,-3.584898981601038204e-02,6.114134353931392762e-02,-6.143893343522241479e-02,9.278151287275633943e-03,-7.440134269126152076e-03,-4.550671341952230303e-02,1.935451070805331575e-02,-2.556902553431850134e-02,-6.201594587020729278e-03,1.726726890525042205e-02,-3.591798478431469654e-02,-9.689110994604538396e-02,-8.893199109322490192e-02,-5.020767352855678295e-02,4.327705685095419724e-02,-8.146729206364405895e-02,3.334411575550786950e-03,-2.473443257165349254e-02,7.959020861309010902e-03,-1.369016521451481283e-02
