8.352132344276978412e-03,-1.269648608074988236e-02,4.410629889315208912e-02,7.178755031868204461e-03,-5.043291378816826265e-02,8.764616203212587109e-02,-1.621809731704099977e-01,-4.060933718744935694e-02,-1.787241350752813984e-01,-5.357642499942954356e-02,3.666332614301394486e-03,7.195520229482442465e-02,1.053920847835370656e-01,-6.618059470865658885e-03,4.952230179784271324e-02,-5.001271973445841484e-02,5.823017449613000079e-02,4.495652878545065151e-02,-1.654962558631325742e-01,1.189687534532762880e-02,1.055177049556463471e-02,1.636794044923065572e-01,1.543409098719082106e-01,8.324585409436738651e-03,1.079329032165034369e-01,-3.650425039583726078e-02,-1.984587380319198235e-01,-7.652967991047719687e-02,-1.663691780472484616e-01,-1.365059499792647610e-02,-5.160901220495064251e-02,-1.634357180714368727e-03,-3.157117094928185708e-02,6.453612290902381587e-02,-1.566331237702440482e-01,-9.688596174805882977e-02,1.147222400896476119e-01,-1.415985661182662253e-02,1.344285084251283131e-02,-9.451309306373857633e-02,-1.104847446835012931e-01,5.340534304934141385e-02,-8.818533107574978366e-03,-2.663112662046739909e-01,6.861637101256325144e-02,7.801703777633623403e-03,-1.606025659657942251e-01,-6.405052695068139124e-02,-2.919993884464739189e-02,1.455649636116577994e-01,5.528867572736407415e-02,2.746420631903422893e-01,-6.835977786698995036e-03,1.133130170309400164e-01,2.746119638118079201e-02,-2.487705471335651120e-01,5.143140152272201310e-02,-2.708134476056140993e-01,-6.253504695399363100e-02,1.365934755180797933e-01,-8.489275759081370276e-02,-2.967815504957818651e-01,-1.412940655902919854e-02,-3.942615189060596353e-02,6.520601355870150884e-02,8.119618475990000861e-02,-1.451133777265154086e-02,2.368249828390725162e-02,-4.346894254397744295e-02,-1.575829825177919863e-01,-8.049283738288155613e-04,-1.417632696051890871e-02,3.939029848335717787e-02,1.013417590291608786e-02,6.135573816633432126e-02,1.739489311501009605e-01,5.911107353561398381e-02,-1.029506939395225390e-01,-4.732716409897481935e-02,-2.239097411423435491e-01,-1.375600052476782797e-01,-2.524415726882748429e-02,-4.166799158413646287e-02,-1.047180696907144409e-01,3.244821738641099351e-01,8.886628974416221904e-02,7.843183333888524567e-02,-1.534253460159358366e-02,3.243458695989785007e-02,-1.663188551342998645e-01,-6.360999958985952274e-02,-4.838633111226951777e-02,7.765045913497465972e-03,-1.081556849339590856e-02,-3.930565886101935330e-02,-6.458188411406427798e-02,-2.117164515193412644e-01,-1.152882772857106441e-01,6.864832040812617053e-02,9.013808558915556435e-02,-1.858983610670821851e-01,-1.942445630899011788e-01,1.886827848273238059e-02,-2.348315174308652498e-01,-1.144286390383946785e-02,2.249769760461942103e-01,-4.677151777182547709e-02,-2.206783781004713618e-01,1.235036637581801294e-01,9.937703426286881650e-03,3.713948807772088356e-02,1.784454859511132030e-01,-6.051136841275153201e-03,-4.831136283563622347e-02,-5.618684545430088773e-02,1.784959043433810844e-01,-1.490993874601812541e-01,5.028454810857835300e-02,-1.216517754188050499e-01,4.771265126384507255e-02,-9.537325647522774258e-03,1.462738465780066277e-01,-1.870922410154045312e-01,-7.070199680355486460e-02,-2.086449582826242419e-02,-1.952574610103291752e-01,6.552012267408494073e-02,-4.667660552473441860e-02,-8.851460976144653880e-02,-3.190637333171401913e-02,-1.050840017607323623e-01,-7.970063505101920853e-02,1.456621368203524225e-01,1.051894166767269531e-02,2.285239578321563714e-01,9.194503855970734274e-02,-2.644723468538988723e-02,-5.969664093472099725e-02,-1.079662181422777617e-01,-1.309937511690512646e-01,7.872741782311376557e-02,-1.601761100147784112e-01,1.044152210275779875e-02,-2.177232909309157471e-01,2.457154274162204680e-02,1.097869935024103488e-01,1.376183137854966772e-02,-1.017932313882983185e-02,8.323763995612075417e-02,-8.199780811454992005e-03,-1.373178592885039573e-01,-2.235594654609323051e-01,1.196569686622943156e-03,2.779649346634773671e-02,-1.407650791257938905e-01,-8.579903210701160521e-02,-2.491273490891279807e-01,-2.234901642856768067e-01,3.726758208078834872e-02,-5.934834962533395986e-02,2.918982381991330408e-02,-7.736331779503019535e-02,1.499147548098529459e-01,-1.271835996528923873e-01,-1.377412819153357171e-01,-2.424795244538234529e-02,-1.571544517169255750e-01,-1.010846091382720247e-01,-1.530306834005650818e-01,-5.441368471121626332e-02,2.280615847595974521e-01,1.257008255853668197e-02,9.087074385565084567e-02,1.760357799630747899e-01,-5.619580097098878305e-03,-7.665143244670173141e-03,-1.292172349801477549e-01,-1.005616889938419495e-01,-1.464293026706116330e-01,1.455092117565425780e-01,-8.105078489898800975e-02,-3.586777609040674858e-02,-1.469707440815682352e-02,1.480954635937035968e-01,-4.527429479485900465e-02,-2.116919754194148962e-01,-3.193355439759572312e-02,-2.822364730135643041e-02,3.751582982237983144e-02,7.124893701258991352e-02,5.439962914432965035e-02,-7.320188693081276787e-02,1.691301080334291496e-01,-3.333421653984194183e-02,-6.350673455691154337e-03,1.895845634451655617e-02,2.183970091155182716e-02,-1.175640506678790609e-01,-2.246865238207509941e-02,9.831416659675108749e-02
-6.024747340802630302e-02,2.821831751963517834e-02,1.588859653929654628e-02,7.530959212790734082e-03,1.168708536160077277e-01,-1.276034870682603017e-01,-1.603719324053841655e-01,-6.272943612546261205e-02,2.061592799952757793e-02,-1.356630871962838103e-01,-8.715392867737392635e-02,-2.360493874315875221e-02,-2.298341129712533695e-02,4.702610248902915936e-03,-8.647796651842962201e-02,-9.947981228670968457e-02,3.651305586769324624e-03,-1.321523434039734990e-01,-1.814228743036141664e-02,-6.138061722051992020e-02,-1.863595191734725987e-01,1.718475979955541855e-01,5.798685041522864958e-02,1.844399567765792405e-02,1.031615118872917652e-01,-3.595517441962972627e-02,2.428044780825295568e-01,-2.335775814180206592e-02,4.248311703514864174e-02,-4.208149808309395029e-02,-4.860281214772841502e-02,-3.927528938542404480e-02,-2.387905199366892051e-01,-1.131569808057774351e-01,-1.341640349902623649e-03,9.497578858929001111e-02,-8.129772874758618706e-02,9.943128522235689104e-02,2.391483893446077775e-03,5.886647930323540140e-02,-8.096310271927051327e-02,-5.178737741741543110e-02,-2.131100663181496324e-01,1.084402934254723588e-01,3.274908608334353710e-02,-2.148250599115310300e-01,-7.454464489211765077e-02,3.404846817921278884e-02,-4.013157160671065177e-02,-9.847343244135395302e-02,-1.295726568151513991e-01,-3.162813365784555852e-02,7.620746328475684617e-02,9.478089943763486069e-02,1.968993202549003119e-01,-7.396452449433428555e-02,-8.411964275857213014e-03,1.425896979506683926e-01,6.155396917273962126e-02,-9.373470524425316086e-02,1.589929790190069414e-01,1.975753618987659624e-02,2.273615469110294718e-01,-2.886458564580938746e-01,-7.132437065885791072e-02,-2.536222999838747341e-02,1.678501194211717840e-02,-1.029138384667268175e-01,1.308088523463346309e-01,3.196385166300259040e-01,-2.176557587517126413e-02,5.265188454283817321e-02,-5.128775141999326881e-02,-1.294360224508192270e-01,9.431630824937727378e-03,-3.977031737264847405e-02,1.820518348278045151e-01,1.706796643455284895e-02,-8.646732921305199521e-03,-1.387220960212554588e-01,1.101470752095890376e-01,-2.377130881382667205e-01,9.737370763055656908e-02,1.207262248993357795e-01,-1.367531595857941762e-01,-2.179890439933575563e-01,1.544735296391965551e-01,1.210409144232114237e-01,-4.127497868565901430e-03,4.744307301232755097e-02,8.711835622073971566e-03,1.471922902763091352e-03,1.305825273058388858e-01,-7.348106396822651210e-02,1.272339693658551367e-02,-1.363829645972709503e-01,-1.314879895908836749e-01,-2.784141900416360615e-02,-2.304273307228059398e-01,7.945203551739839221e-03,2.032497542488773123e-02,-3.091941217657105320e-02,-7.260532139903613791e-02,-8.261317746007953988e-02,-1.417794487486284949e-01,2.890842988276162012e-02,-1.004370531077646428e-01,-2.426591460133362479e-02,-1.318278077362595169e-01,-2.129526940003954524e-03,-7.335015359706575921e-02,-1.075537464561877599e-01,-7.263909504264244588e-02,2.111752073655046372e-02,1.005808883454523822e-01,-6.179225760237856691e-02,1.268689299008473048e-01,-1.788769089202994211e-01,-2.124167883733997508e-02,1.423687010469245895e-01,6.452108322993466843e-03,-1.541726010958070769e-01,1.278958531715099767e-01,4.590076095270987505e-02,1.187991308370868193e-01,-9.424460423310188073e-02,1.046137292794175611e-01,-1.015593900347721151e-01,-4.524800983089551781e-02,8.652735220268532867e-02,-7.916155639352366602e-02,-2.119681615987993872e-01,7.410385961504065144e-02,1.343468588252972294e-02,-2.248721090247673415e-01,1.087139571692198776e-02,-1.437224277583777354e-01,2.287231873372309876e-01,8.893280152280313988e-02,-7.026062176374765766e-02,2.298631600808161493e-02,3.785986331080801182e-02,1.259757304808883016e-03,-1.822814391771667916e-02,-2.903646429300472120e-01,2.985732005973161865e-02,6.797165396089845102e-02,1.641976427467511102e-01,-1.200978136008265945e-01,5.390222265991934276e-03,-7.412256037697505240e-02,-7.756193102964994979e-02,6.322331555900408129e-02,-3.361987847503035143e-01,1.390024244302346113e-01,-7.704783936217693419e-02,-6.378753228761878391e-02,-1.141413012451187453e-01,2.968887488327155016e-02,1.930824544191600545e-01,-1.115547358163833380e-01,5.142010500496195513e-02,-1.801811674592551926e-01,-5.483431814350710198e-02,-9.209667549977385015e-02,4.899565172582461686e-02,7.469925119452097695e-02,8.217183266670384512e-02,1.020373661546213340e-01,3.457882868928067732e-01,-8.464631229404692703e-02,1.215664799469714646e-01,5.083230329117216506e-02,6.488470530245821211e-02,-4.625322684800936557e-02,-2.071728047099238579e-01,-1.856316165995761797e-02,-2.211798724434158037e-02,-1.283744031841689004e-01,-1.260212140309072415e-01,-7.254663239740280316e-03,-8.465386875348847318e-02,-1.306563874150029267e-02,-3.015345223518246451e-02,-1.545495971675275642e-03,1.879529045543046895e-01,2.031088931798178121e-01,1.353575144912309569e-01,7.121893494124699464e-02,1.642860164828267577e-01,-9.077948965752803689e-02,-1.459725826056699483e-01,4.509849628858427634e-02,-1.113759644909792790e-01,-5.872855327793768954e-02,-1.864282642378583543e-01,2.111539767099427090e-01,2.066762828232464044e-01,2.371958576296529994e-02,-1.285419646338498145e-01
3.712145752820521227e-02,-3.057012448891652592e-02,-9.619455046339243920e-02,4.999193574406118890e-02,1.756215559593468645e-01,3.841589356763090018e-02,4.346083236806897593e-02,-4.637233270253987572e-02,-2.607671892083842646e-01,-2.747690525520942936e-02,-1.543037422329355535e-01,-1.044899680491146038e-01,1.526822798805755610e-01,3.956729123385502311e-02,-2.225816228510353878e-01,-4.858001041639270490e-02,-1.203042941970738737e-02,-4.618793391217717453e-02,1.429974705073208952e-01,2.681908061474964564e-02,1.027377955907392698e-01,-1.653911823908043865e-01,3.106960338862809617e-02,1.284024823708160637e-02,-1.159536197155327242e-01,-6.685072102184731746e-02,-1.230650625270515580e-01,-1.057142616130284096e-01,6.202828019727342490e-02,-1.189451178925118036e-01,-2.652190451781455058e-02,-2.824039955014301384e-01,-1.631595605228217116e-01,7.768959619904058922e-02,-1.906774068872044148e-01,2.345590248539611289e-02,2.531418856722375890e-02,-1.507595878784595278e-01,-9.040054746704546951e-02,-1.567485302619190182e-02,-3.357850672306276086e-03,-1.382291289150937574e-01,2.992727220102566615e-02,2.815988973574387946e-02,-8.222807435469116355e-02,-8.151601018903914531e-03,-1.362867224958297895e-02,6.925715135515692067e-02,-1.266382681858723436e-01,-4.400146635744395934e-02,2.108579271916447562e-01,-1.970159197236767412e-01,3.052324752926592888e-01,4.358027295859270150e-02,-9.981928836125482374e-02,-5.520495901344296685e-02,1.368720415609842866e-01,3.541842620854249862e-02,-4.560064874209533020e-02,3.096134152305334356e-02,-9.271279557883445321e-02,-1.630823401637736814e-01,-1.220793884326179246e-01,-3.148980433719991701e-02,6.049209810428890499e-02,9.195610939685383220e-03,-2.424855382772004575e-01,7.775573479766557938e-02,-2.009870920805909011e-02,-5.213255174876415404e-02,-3.668792923585856292e-02,1.522485689554372579e-01,-9.184965443103523808e-02,-2.099118347058726297e-01,-1.405838515472000172e-01,-7.651978900320492716e-02,-1.619376259111808825e-01,1.295097633955712146e-01,-1.186757621538400975e-01,1.537329866473271037e-02,-2.650925987401905881e-02,2.300922222576190848e-02,2.317147899836773384e-01,2.429744871302816009e-02,9.847397930447310266e-02,1.369851488375576146e-02,-8.974196621787225436e-02,-1.692085535733425447e-02,1.116765785794908983e-01,-1.693466610245580872e-01,-2.868339646651038577e-01,-1.043812413538594414e-01,-1.983176601009182388e-02,2.805283855249018354e-01,-1.090479388273525030e-01,1.591267383887464901e-02,5.898953754211700568e-02,-8.201578245878429763e-02,1.073485106844369458e-01,-3.895871167142603286e-02,-6.017630064673421680e-02,3.999616289075135465e-03,-1.112928457277327469e-02,-9.474444871315951255e-02,2.520099407862899307e-02,-9.912443167718942849e-02,-1.285409139524150979e-01,4.769625357402268451e-02,5.997647007399369706e-02,3.464174092869375110e-02,9.923773431178682658e-02,1.529179523562353149e-01,4.976021292135743290e-03,-1.173466496058137021e-01,-1.806734962252735388e-01,5.477411464079127296e-02,9.296442720820684291e-02,-1.596787945728505784e-02,2.623888855706765777e-02,6.271148569998935551e-02,1.049991689751809121e-01,-9.978011669186095944e-02,2.942885868143889014e-02,5.025755199235050485e-02,-2.538966860333024059e-02,-8.207565614745340743e-02,6.854530116740559231e-02,1.832676454232697733e-02,-5.647737841641883860e-02,-5.075946952101039605e-02,7.922523959934005267e-02,1.798721314896137291e-02,-1.059279480366514675e-01,-4.413474283834299683e-02,-2.191130780346296214e-01,-1.750343939129744009e-01,-4.610663009347097663e-02,1.444997152580299316e-01,5.879795047623768978e-02,3.761388441253041975e-02,-2.611855037413029004e-02,-4.448194494946364208e-02,-3.458031924750566699e-02,2.584793842956089119e-02,-8.634018619106360176e-03,1.628306685394203396e-02,-1.781891834875904967e-01,1.380520790957481814e-01,6.852412737605138859e-02,-1.270967211388092932e-01,-1.243290885319779104e-01,-1.965398059552239673e-01,1.371983606152465951e-02,-9.510374418648577521e-02,2.327316266174566609e-03,-1.928074349102985585e-01,1.034367679821184965e-01,1.984145362219875974e-01,-7.648423206419772968e-02,-9.396936359466189284e-03,-1.189757870848467125e-01,9.023423906951957840e-02,1.435000154629663058e-02,-6.039323285849114431e-02,2.973405704568739955e-02,-4.152466113051414554e-02,-2.299268292811009196e-01,2.206779092897305505e-02,-9.692837080177897635e-02,-3.825263459600181798e-02,-7.752823322793718497e-02,5.595544100203627552e-02,-1.278949722333056205e-01,-1.394038385703781080e-01,-6.086098682751670680e-02,3.524710555803403644e-02,8.803087949271418133e-02,-1.882788066610295297e-01,-1.113775221573081592e-01,1.327849721989004250e-01,1.059127875062279983e-01,-2.922841135886941697e-03,-7.307650203477583650e-02,9.960276115843144651e-03,7.152891239653552669e-02,1.344026949088683864e-01,-1.848315476152855574e-01,-6.208762492812447409e-02,-4.363299871446283534e-02,-7.117656902924052176e-02,2.878273758604257826e-02,1.240663191217996758e-01,5.412406324891586712e-02,5.574342204464288048e-02,-1.139913636979299483e-01,-2.382115615289973759e-02,-7.411207311549279642e-02,-1.431953869717442485e-01,-9.393598392164391464e-02,-1.190856017812251394e-01
-9.695258001847535667e-02,-8.770004011749162054e-02,-6.830409378659041408e-02,-6.482086258979993798e-02,-9.091910103647558861e-02,-1.269806080552774996e-01,4.118988895630471686e-02,-5.530364124724456570e-02,-1.218726808686852389e-02,-8.588288711298447398e-02,-2.700211621262588180e-01,3.631628099627200179e-02,9.224755685884869147e-03,1.898760568704651805e-02,1.288219549179495452e-02,7.130522374939944619e-02,-2.190615724674599696e-01,-1.412552529670165228e-03,1.215892230646002936e-01,1.011721921726110029e-01,-1.170006906083682491e-01,-1.185117146322494557e-03,-7.113974348262414038e-02,-9.634394185346195627e-02,-2.304331786034851878e-02,-1.792755823504086146e-02,4.334707385545835678e-02,1.918573638627855266e-02,-5.450205937497929615e-02,-1.898850705476003986e-01,1.165060780772024518e-01,-1.965445353463562625e-02,1.560673924976197120e-02,-2.365509835246765169e-02,-2.724526982123228955e-02,-3.284342101606443215e-02,-1.022413055240725815e-01,-1.517641440932349095e-01,1.276010194548666266e-01,4.830276627244808885e-02,-1.965909454760578490e-01,-1.539003419945852158e-01,-2.877943946943980688e-02,7.595517816152973223e-02,-1.558126572643428465e-01,2.259568678160968694e-02,1.719340143964023515e-01,-9.439140871632806240e-02,-1.471316099755357043e-01,-1.858291009808581418e-01,-1.618040156324661999e-02,4.781690083551918408e-02,8.840047725497500800e-03,-9.431528044816997469e-02,-9.761427752876422614e-02,1.736608850704300655e-01,2.344792092799518335e-01,-1.745604577191263440e-01,-1.120028581100800807e-02,-2.491318541357437077e-01,-5.978190274642006946e-02,9.647256449546123824e-02,-8.395947610958874596e-02,-1.064875717378867132e-01,-1.384302427064183216e-01,7.280164372940507722e-02,8.252808795443451750e-02,-2.878724897831544394e-01,3.622061848972364662e-02,-1.828373937997597176e-01,1.590488436110784054e-01,-2.649547526648976525e-02,1.063857979038110024e-01,-1.758587693930636631e-01,-7.634215781288682112e-02,-5.920203143644865718e-03,-1.565337675574671461e-01,-2.719943359991412388e-03,7.368268236799012556e-03,7.131244801678394973e-02,1.201517818726764025e-01,-8.273042018591193758e-02,-5.136663673788402495e-02,-2.036422531568983785e-01,1.417259007424801764e-01,-9.185731695085107285e-02,1.337692530098290589e-01,8.457943735225764703e-02,1.105923305172293036e-01,-2.169692497997015128e-03,2.804947693720260399e-02,-2.578887362068121858e-02,3.034450179297830397e-02,6.438431317520107444e-02,-7.511228661636576431e-02,-1.079030553817443699e-01,6.134771412256296436e-02,7.483926439626568949e-02,-1.246428370066529207e-01,9.991544215139865071e-02,-8.638300403659139592e-02,6.421003950376208413e-02,1.324133304206926987e-01,-2.067792656552996933e-02,-4.000213777704899470e-02,-1.827031504494061598e-01,6.422680127367588754e-02,-1.459459629373387191e-01,1.053397546625312042e-01,1.252734433024058069e-01,-8.937207777669542441e-02,-1.731594421753218371e-01,-2.653560235195630973e-02,-1.728583517821532800e-01,-8.081559202354868243e-02,2.953102654857776843e-02,-1.530943470217699665e-01,-1.454964935583067942e-01,-4.743956994697568624e-02,-1.451412089533289373e-01,9.437531048716682469e-02,-5.897648629361412764e-02,1.515547748646503372e-02,-1.069939057239120972e-01,1.634808226454012303e-01,1.441845904227867792e-01,-1.463477458524476693e-01,9.763713239134151622e-02,9.062572468828850036e-02,-6.551177847403404086e-02,-1.313804835212652178e-01,-9.844876222723703864e-04,1.295921540213329226e-01,-1.251509779679098044e-01,1.001347683143340439e-01,-1.167495708659999770e-01,-1.632432559837448116e-01,3.719263887529134643e-02,1.289102948658028824e-01,-1.300938341368322593e-01,-7.062710681651845034e-03,-5.467290714922957290e-02,3.807699901954705868e-02,-1.649636148718349252e-02,-6.428501270245547128e-02,-7.513597566700053187e-02,-1.655125655382195804e-01,-1.259047559398185356e-01,1.269009729760378277e-02,-1.304116373294909870e-01,2.408924976642399796e-01,-1.324850369962205787e-01,6.220006370402261786e-02,-5.474578777081699071e-02,-5.414683519760501995e-02,-1.220881777240090810e-01,8.109613032150388146e-02,-4.884718102237931014e-02,-6.314680398716616960e-02,5.655754762795622836e-02,1.055126372065190721e-01,1.964181721542294645e-01,-7.645028193878179723e-02,5.245665774310795393e-02,2.366730898117004600e-02,-5.316956124192058486e-02,-1.033418538416295690e-01,-4.284105062007097231e-02,3.189384190616189607e-01,1.865941131148811660e-01,-1.189869595792036883e-01,-3.254791313155504517e-01,-6.009811811772833995e-02,-1.223229890214213023e-01,-3.533669684964373808e-02,1.510474568045583610e-01,-1.000304848823294936e-02,-9.486796152738392884e-02,7.039641249920351252e-04,-1.984111823457258839e-01,9.015433335893649480e-02,-6.901741074506761997e-02,1.104056273697337498e-01,-4.990173703713645520e-02,3.934725518812521444e-02,-1.993052659623140432e-01,-2.206662564479024702e-01,-7.115447771008222289e-02,-8.660128541061490326e-03,-1.721987880714270502e-01,-6.991713110642319706e-02,3.530807387407262216e-02,3.345395393576362786e-02,-1.425204341604323355e-01,-5.771724488812821074e-02,-7.860166846730334833e-02,-5.613380055393278611e-02,-1.990751593624266180e-01,-4.326483179109178595e-02,1.325999403180861125e-01
-9.025877663382290972e-02,-1.415913813538791644e-01,3.836052574464813431e-02,5.425298801615532213e-02,1.201482569643672893e-01,8.035291782803856420e-02,-2.017498426638830722e-01,1.368758748318842644e-01,7.648940193477626881e-02,-1.476432088772670348e-01,2.409018664427899428e-02,-7.188365815837856332e-02,-1.802936548787968316e-02,-2.010911578523358056e-01,-5.784330821401365008e-02,2.465300401670965716e-02,-2.530929345402401637e-02,-9.657717876112270616e-02,6.280854461348779616e-02,1.521776078211735904e-02,3.811609890015574958e-02,5.320000740929674288e-02,-1.269722328044314841e-01,-5.750245341380776261e-03,-9.479968730464360949e-02,-1.017554023135694083e-02,-7.201460589573380200e-02,-8.222578652996268000e-02,4.995274228432494690e-02,5.383466134870185105e-02,9.805046006842009498e-02,1.034507031418382787e-02,-1.123400699859069957e-01,-1.288884968248477925e-01,1.777784869169778681e-01,-1.150710727911774672e-01,1.109899000330909213e-01,-5.624346862443080353e-02,-9.306127049734352896e-02,-6.266406250683556611e-02,-1.019276055616923221e-01,8.695079606235384118e-02,-6.077062344250508397e-02,9.262606236244151636e-02,-4.578784224640729435e-03,-1.146164630821224772e-01,-1.810803522857016012e-01,2.040318886050721259e-01,-8.003147798197977891e-02,-3.219564964493593084e-02,-2.303926919709176069e-01,-1.572883494099813484e-01,3.902275565423204105e-04,4.518349250049467219e-02,-1.226169336695929063e-01,-1.035498933871277227e-01,-1.092276319155359166e-01,-1.126314801096772455e-01,-3.296852552709431117e-02,1.468676989328430646e-02,4.954635623034516628e-02,9.538911221432681614e-04,6.490008227794678841e-02,2.200616061255165901e-02,-2.929615970038250243e-03,-3.440317619339449545e-03,1.202729897219161070e-01,-2.055724450603081677e-01,1.515011252277790807e-02,1.670750921564541636e-01,-1.443405095383916703e-01,-1.777650493882965699e-01,-6.233688108905827835e-02,-7.444544996792039349e-02,-5.813513916645195179e-02,1.794191973220028713e-01,9.253466749019591264e-02,-7.311928721172321344e-02,4.446160373696437379e-02,5.882214832873954719e-02,-5.894758934657540889e-02,-4.398809524656003417e-02,1.158546017012402757e-01,-1.588703210537236177e-01,3.194879225934198902e-02,1.097850533707358800e-01,-1.160360948074884713e-01,-2.181167781288616825e-01,2.502180273135199903e-03,-5.327813827840125610e-02,2.563284624955594962e-03,5.883300645016725089e-02,-2.131806526323166973e-01,1.648492854787713124e-01,1.289247255910200562e-01,-1.587955420215319824e-01,1.368566665059904874e-01,5.965340572595918822e-02,-4.563187278159276661e-02,2.986768820195833882e-02,1.612756005967158623e-01,9.241645563275070752e-02,7.111146391372256265e-03,2.822573136478449818e-02,1.144357305756341960e-02,1.912274579907117522e-01,-6.626159005406065394e-02,1.133828852650005242e-01,-3.906837859524388279e-02,5.245876933898574370e-04,-1.885144579264895204e-01,3.997926106040620986e-02,5.409855985353576036e-02,-7.286195259781064193e-02,-1.971031517066105798e-01,-3.846299776785188653e-05,-4.077223768018727046e-02,7.819594237669770520e-02,-1.668526160814533810e-01,-1.292880200121734047e-01,8.581080327713533351e-02,1.812001507639869960e-03,-9.604589534297838793e-03,-6.322167357741464988e-02,-1.133343295826632763e-01,4.463986221361700146e-02,2.088725664521392383e-02,-1.255789982008681804e-01,4.061688453279829400e-03,5.197934480704009819e-02,1.395853806481072157e-01,1.101467570547181273e-02,-1.948470644972863028e-02,1.249946329908391413e-01,7.868327272039139786e-02,-8.044614212397521724e-02,1.843034012400381894e-01,-1.399296363430704293e-01,-2.091946260712196359e-01,1.754421038263817012e-01,6.795099721335418064e-02,-1.920385298794619333e-01,6.978254264152033981e-02,1.167727993475956155e-01,6.566360660309218666e-02,2.535156525100105973e-02,-5.261643228788847465e-02,-2.630442964660551497e-01,7.239854140988004338e-02,-1.355509823103324685e-01,-2.019642587573609004e-03,4.475867315655407755e-03,-2.645731793065010384e-01,-1.724138865544082994e-02,-9.530638136007771322e-02,1.347194648814070139e-01,3.151446375677069422e-02,1.341838285125848684e-01,-5.515837007608217352e-02,-3.998769291807390686e-02,2.465694725608741714e-02,-1.210724020711877874e-01,-6.827724294656707660e-02,1.380166884166640351e-01,-1.088054552259653668e-01,-2.155975121615698042e-01,7.972892870105419139e-02,3.358652552536214170e-02,-6.074514232979488088e-02,-6.439701838372548226e-02,-1.657903135776075260e-02,-3.400702280166941621e-02,1.072876461431044731e-01,6.419665847629991984e-02,1.773451068194117630e-01,-9.018440632706838100e-02,-4.795527024207626998e-02,-4.845539342619254591e-02,6.987622672593825357e-02,-1.711938837479224929e-01,7.421919384538420983e-02,3.465216754776895974e-02,6.017902207323136627e-05,8.412827044930019232e-03,3.516796635887931011e-02,-6.520918263598009246e-02,1.654625549572255327e-01,1.911784079933131486e-01,-5.199535966007729632e-02,-3.337484995649253605e-02,-1.272106884132867821e-01,-2.206852128363299970e-01,1.978185435050038854e-01,-6.179566791091366078e-03,5.542970425584174687e-02,9.791140395642553007e-02,-8.597323000522810732e-02,-2.230658805587690599e-02,1.301605476919624471e-01,1.046734855251010288e-01
-5.044964005947857877e-02,7.139849041104964766e-02,-4.923679847534611492e-02,-1.616800805396256813e-02,-4.597955913994234561e-02,3.195411178818396980e-02,2.907592862747852835e-03,4.412140593585305026e-02,9.417556132062657182e-02,-2.572450982800552829e-02,-8.193482228007102630e-02,-7.336357563860958220e-02,7.701302333929611887e-02,-3.864288475484625035e-02,-1.037575510790139481e-02,-8.975884818581721103e-02,1.970333360997608696e-02,-5.986686248598738214e-02,-4.207999886724650418e-02,-3.459124618068038642e-02,1.008085584897531611e-01,1.103670078801389093e-01,2.079041310243485430e-01,7.927268378903898349e-02,-7.717563651979417270e-04,-1.021512534790330329e-01,-5.771871199526345392e-02,-1.624640830709294104e-01,-1.525938187131143098e-01,4.125519924828134621e-02,6.606367455157298452e-02,1.089567537958158888e-01,-4.150497901476409707e-02,-9.323841012395510386e-02,-1.695844791123124473e-01,-2.326370706511759687e-02,-2.030372666870510212e-01,8.711107944630767930e-02,-7.546665753381409658e-02,6.515468616128818058e-02,-2.234202001427574302e-01,8.734631461443113920e-02,-9.132737448355415788e-02,-1.618459359081582949e-01,-1.700769015776361359e-01,8.651684542293447411e-02,1.141417578695708493e-02,2.225989882931049893e-02,-1.537841561234965793e-01,-8.949295860794360957e-02,-1.045881115007560834e-02,8.989081406724512557e-02,1.285296003488699546e-01,2.039529193283751152e-02,-3.476744805497891666e-02,9.256094284421148566e-02,-2.277235727034752910e-02,-2.066656536093176844e-03,8.940919973857973380e-02,1.096953816470970372e-01,6.273834775367057286e-04,9.156449305816456719e-02,-4.715289415483992636e-02,-7.487946342676630659e-03,-1.272800310984376591e-02,-2.525310891572464869e-02,1.558164285335496800e-02,-3.711110061935090493e-02,1.081015727658119450e-02,5.043018870154843819e-02,-1.023226596406070776e-01,-8.160330130837324669e-02,7.096851235189104157e-02,-8.244030441487055529e-04,-1.445866875651210803e-01,-9.215891758228660080e-02,-7.957649549867870653e-02,-8.612876599760578566e-02,-5.631624167414027438e-02,-3.211689902313361045e-02,4.395949608402623804e-02,-4.803548536443822542e-02,-1.826647697563935080e-01,-3.821948126709991123e-02,-8.032295011590393635e-03,-7.882758194585159917e-02,2.557988689417634368e-02,-9.560471197943028188e-02,9.332633870331592807e-02,6.865374520204047849e-03,1.293404567181977993e-01,-8.745800677535345291e-02,-5.688156677864698169e-02,-1.331219762880977153e-01,3.458174433890692095e-02,-1.186633264619364053e-01,-1.130120336546717313e-01,5.798310560040162778e-03,-9.974227291904864956e-02,1.260548077153900992e-01,-8.048213087771981245e-02,-1.125452468488735980e-01,-7.665081462361700293e-02,-5.199147329313504951e-04,5.445548617542604608e-02,3.641941875385686783e-02,1.316160762185149269e-01,-9.440864286979480657e-02,-1.353647317248442006e-01,-3.303908163448792124e-01,-7.726492059963956105e-02,-4.533319788748010198e-02,-3.021650912961051233e-02,2.293084895133927492e-02,1.285713593797596088e-01,-5.815929286292693262e-02,-8.247880658360011441e-03,-4.123355242018077876e-02,2.012850742606889579e-02,-2.904336014576637884e-02,-1.325058119855307415e-01,3.144410649156157561e-02,1.053580081749051350e-01,6.448896535349042669e-02,3.116417761560557817e-02,-4.290719658258245611e-02,7.217738455300028166e-03,-4.603172780672411951e-02,1.547924999597191653e-01,-1.366527089549796903e-01,2.298025240746163003e-02,-1.809188044832149844e-01,-1.156286494934338493e-01,-6.679729269277542847e-02,9.057431523303464960e-02,-8.618629487828649571e-02,-2.028166610907806977e-01,6.381232027294107823e-02,-9.570669679189552871e-04,-1.290259755044301238e-01,-1.086749784855758905e-02,8.662028677016361811e-03,-6.358292754626862497e-02,1.283392136695726826e-02,-7.401214956320611993e-02,-1.475706688659536581e-01,-1.698488667102510397e-01,-8.420325695405377064e-02,2.530252674797265483e-02,3.177380304863521021e-02,1.588261188872690244e-01,-6.970881330593312226e-03,-1.303276293192119281e-02,9.601181629057968514e-02,-1.688676402507772317e-02,-7.188003060048837878e-02,-3.217567510778867462e-02,-1.814383936421379295e-01,7.172984914636978959e-02,-8.543315189336322946e-02,9.941477755324053256e-02,-9.252580156138333345e-02,-1.425741748034809742e-01,-3.382456274613335201e-02,-1.301631098767432326e-01,2.848444532658434697e-02,-1.051077888042327851e-01,-1.691980671354447255e-02,-9.260482927084449575e-03,-6.140845742230059690e-02,2.634843978099903408e-02,-7.278632345535830661e-02,7.271462434964125199e-02,-5.790516356078558718e-02,-2.230109349864365861e-02,1.023523029544961827e-01,-2.728005010291958410e-01,5.027286030273987738e-02,8.417681689419741209e-02,-2.490696987524312900e-02,5.265474279704676630e-02,-6.894167323224870136e-03,-6.319932287850458207e-03,-2.034785802597513862e-02,4.713741481887229884e-02,-1.937845158967261006e-01,-1.957466747662098272e-02,-7.438900725620482823e-02,-3.286372522455174860e-02,8.913564369036172663e-02,-3.155656098668380843e-02,1.214827552932261356e-01,5.176468908126911905e-02,6.712087902516383764e-02,-1.335840700212150567e-01,6.839256503144784671e-02,7.683523673670721033e-02,-6.876832383664320536e-02,8.204499858421511471e-02,-1.100764215900061488e-01
1.216096707141952893e-01,5.560988344612027151e-02,-1.486418954552351512e-01,7.665351849229679049e-02,-3.741631389738298702e-02,4.525517946573595629e-02,2.370705868290662755e-04,-1.893892594222241765e-01,-3.154915659170532544e-02,1.242223111416222714e-01,1.196649326639609573e-01,-7.324563019378013684e-02,1.398662949405080347e-01,-1.216658671466055441e-01,-5.146520042728535554e-02,-1.843262445168059871e-01,-5.852672154368474683e-02,-1.914114077544016856e-01,-2.170289621836342664e-01,-1.290221275163171144e-01,5.659499117738140544e-02,-2.025609314879704415e-01,1.542375253499765793e-02,7.859876486450997901e-02,-1.578510542249123849e-01,-1.619540234045663274e-01,2.725075120728223319e-02,-4.310079771078616229e-02,1.404781883514663876e-01,-1.480009660250799219e-01,-3.737786171984433525e-02,-2.499860987282926938e-01,1.945554703870472080e-01,3.545685029128903265e-02,-1.638099630249752470e-01,-2.150512831918925671e-01,3.107426153172725830e-02,7.606087447057092998e-02,-8.408970615241162516e-02,-1.433449135471321278e-03,8.435423650549625507e-02,1.500430466782624594e-01,8.853300040307825192e-02,2.290845429192038193e-02,-6.374126845133037955e-02,4.810402578976212540e-02,2.221405815777788006e-01,-1.151945164436466995e-01,-3.561549396751903518e-02,1.663840846707461199e-02,9.540473864430872031e-02,-9.785047975727685643e-02,5.572748133766643880e-02,5.014682320691029455e-02,-1.533266191293932990e-01,-1.149126229038634206e-01,-2.333090054110177336e-01,5.474902372977477616e-02,-2.404908910430217026e-02,-8.441819588933616864e-03,7.283910802344152613e-02,-2.184516639360523926e-01,6.477148117462984411e-02,4.944121553273072428e-03,-5.100855827478251343e-03,5.512975080256079380e-02,2.307178552646441116e-02,6.834935901103184053e-02,-1.582717177639522133e-01,9.690729825455461632e-02,1.336560908297007577e-01,6.825851682796094111e-02,-2.119318884609051601e-01,1.086698948620138522e-01,5.039893635320998738e-02,-1.146050510633046665e-01,-1.505081530798825229e-01,5.894164345695638435e-02,-7.056191955534456099e-03,-7.084472652760595568e-02,4.733109479128505548e-02,-3.914180796473922669e-02,1.908655172292176017e-01,1.081068403280045082e-01,-2.779900818884815661e-01,9.392368650629472071e-02,-1.755647908182208505e-01,-9.940694401532708391e-02,-2.465224697480918742e-02,-7.105745536542512619e-02,7.216523589009896100e-02,2.766089196264173156e-01,-2.075326941518893797e-01,-1.009718371843746666e-02,1.569177292223906950e-01,-1.137516949643179072e-04,-5.900031567460042869e-02,-1.087745500104842500e-01,6.466079407975781207e-03,-1.598719161596925120e-01,4.908355720033782260e-02,-7.803951737755034090e-02,-5.644345922775202001e-02,3.206970623471163545e-02,5.789483973083170247e-03,6.325315462959422291e-03,3.335078079103458160e-02,-8.702519611605619154e-02,-1.769559126264761695e-01,1.981649143368586358e-03,6.209067385468363537e-02,1.467965703895612872e-01,5.159080055244563007e-02,1.404509350409923474e-01,1.371979441123424327e-02,-1.154929758649225480e-01,1.216576024830219732e-01,1.240791302866835061e-01,3.796928452202061148e-03,-3.964348755972186417e-02,-1.502405936495807837e-01,-3.420293047645735218e-02,-1.664270208838472542e-01,5.499724748620907211e-02,-1.038648316224868029e-01,-1.850787275382669017e-02,2.799606973934429602e-02,3.930583654363075524e-02,-1.653768870572131650e-02,2.612721810662458830e-02,8.544258228093645768e-02,-2.228800972630152338e-02,-1.686016652197121213e-01,-1.069577124379230554e-01,-1.316123268472126351e-01,-9.363736816734773150e-02,9.030358683567654698e-02,-1.238422692270961939e-01,6.029464460174171342e-03,8.235888613328454233e-02,-7.275498742484316252e-03,-6.126996903611836576e-02,-6.483926765612009480e-02,-9.173769278298719160e-03,8.411880400664770163e-02,1.306103500367454262e-01,-9.744094893865826862e-03,7.779562840068586504e-02,9.949073082884857255e-02,6.478825123669382235e-02,-1.328443557971442923e-01,9.473736495490762965e-02,7.534494001052598200e-02,4.374555574811220260e-02,-1.878952957234527044e-01,-1.280810234356346833e-01,-7.109675442143928437e-03,-1.146230195364801585e-01,4.070838357065192925e-02,-3.694803007651673021e-02,-7.491311723683960477e-02,-8.553559129969495745e-02,-3.243451560499842129e-04,6.225349262396866895e-02,-2.196483172819447827e-01,4.839484486440469996e-02,1.803041473106561376e-01,1.037439859798449521e-02,-1.505321168386970498e-01,3.778359232702745846e-02,-1.354761880699287824e-01,-2.557117452447509737e-02,-4.993982247595220303e-02,-4.038535476100533019e-04,3.448648619960338890e-01,-6.729468627100505806e-02,6.758574034717858281e-02,2.638172283902116486e-03,6.916348365451176206e-02,5.007459581064480775e-02,-7.617492374540937861e-02,1.214578386409491118e-01,-8.537906120406293931e-02,1.156493519173217993e-01,-5.112581197226223357e-04,2.817034255402476109e-02,2.111261636557627830e-01,-3.642675576511935492e-02,-4.839164112521136124e-02,-1.245283220160212957e-02,1.080602862963433823e-02,1.333030932270576341e-01,-9.673360383347866243e-02,1.078743715353420035e-01,1.452462645261892449e-01,-6.561547112076686339e-02,8.579963183353400691e-02,-9.305433341618452037e-02,-4.232767711857222948e-02,-6.906488857785135493e-02
-4.801158819881359840e-02,6.754002294295480269e-02,-1.123314593754788926e-01,-2.111965548164312922e-02,-4.014141042662385493e-04,-1.667172708572383644e-01,4.293361175213034758e-02,2.592264099395517607e-01,4.879719987277329057e-02,-1.558145185395398979e-01,1.541138826404963857e-01,2.005995855984688825e-01,-2.206786227044893467e-01,1.024306977825323317e-02,-9.800628773814604178e-02,3.597071838998719406e-02,5.524790381655862725e-02,2.709491915989817312e-02,-1.999257929512534768e-02,-1.835010596709219510e-01,-2.703783041375526497e-01,-1.019782557362567260e-01,-6.394574374167721897e-02,1.555453316639137384e-01,5.077732621016214920e-02,3.473334531948004539e-02,-1.460497380404108259e-01,-1.692173473667977213e-01,-1.679628241215361251e-01,3.099906517106523762e-02,-3.371107030465886334e-01,8.958418331416310998e-02,1.126402172394246476e-01,-5.206381865100379036e-02,8.708292018927228650e-02,9.666229260973568937e-02,-2.076145955444904517e-02,-2.342582121885377344e-01,-5.156702514053804198e-02,-1.572324394484463789e-02,1.345269998062287864e-01,1.476025367121145543e-02,4.117120698249825128e-02,2.440194216082017947e-02,7.650012038766047795e-02,-2.242468202125667553e-01,-1.027676712601268832e-01,1.063404169012917982e-01,-2.414171402636231326e-03,8.243724107725977635e-02,-1.406719465066221253e-01,-1.051516770581248511e-01,1.444739993694888966e-02,-6.961277145127177379e-02,1.940957312569146775e-01,1.113772043912209797e-01,-2.512207933680115496e-02,9.042382330659057277e-02,7.835690616293868038e-02,-1.974416545691841038e-02,-1.353335549535873983e-01,1.300834131334271393e-01,-2.812015482510325792e-02,-1.726164247711371724e-01,9.122857693106155297e-02,6.689794440373224640e-03,1.148549377546038142e-01,1.320736366509133730e-01,1.524076250863188042e-01,-1.445026209724051547e-01,-5.469575609875901474e-03,6.858768733656789296e-02,1.029723948850062992e-01,-8.001520214075837079e-02,1.628201709242580453e-01,7.907580447172833649e-02,1.498837335368329304e-01,-3.707571116869565198e-02,-6.607564243773818291e-02,7.491712368739467109e-02,-1.191881593778623821e-01,-8.544441323901615093e-02,-1.101991695118856307e-02,-3.254763734485285193e-02,6.277800833273439185e-02,-8.752133982264961864e-02,-1.674674675873729646e-01,-1.916695628463832013e-01,-9.585932627509349824e-02,4.927697304930084288e-02,-1.560542276159012642e-01,-2.212278120259587311e-01,1.631864060655065785e-01,-9.466282050204955119e-04,-1.213251192519239352e-01,-4.729649554833850744e-02,-1.090251146279862804e-01,2.316013331453299282e-03,1.008265258728065911e-01,-1.694543368325860389e-01,-1.596360244610194393e-02,-8.847699442965303862e-02,4.661449441216594658e-02,-1.650887781299292811e-02,-5.052694035636813574e-02,-1.211608791949613101e-01,-2.072582372126495764e-01,2.613413623980889028e-02,1.495940486306521489e-01,-1.087440891315976099e-01,-1.792437201085002596e-01,-3.234045975224888320e-02,-1.281491795828764713e-01,1.010074453236260439e-01,-1.413578180089438141e-01,-9.633248887845234643e-02,-5.078601362566389360e-02,8.097223348792181863e-02,-9.237944921785064267e-02,-2.703221510913070627e-02,-1.212952691850962272e-01,1.440350243631750016e-01,-9.627597287458811159e-02,-5.262721909882256410e-02,-3.943347740778468252e-02,1.192812303870640911e-01,-1.624954300045415023e-01,5.451713785325822126e-02,4.394188653990753479e-02,2.121830004739474682e-02,-1.788661613057430100e-01,-1.019932709989450209e-01,-4.016300089590425781e-02,1.688169277783976019e-01,-4.635013616568893491e-02,-1.396761222814211501e-01,1.918873489788999187e-01,-8.890696787722185412e-02,-8.232301573606823353e-02,2.678299270045211150e-02,-1.017649395093675607e-01,-9.937342660931831884e-03,-7.514999652525162881e-03,9.554547993440994438e-03,-4.466291428417533405e-02,-1.313252409415621991e-01,-6.418813448549880174e-02,-1.434084679674251517e-01,-3.542422056885392856e-02,2.161454573121405487e-01,2.283086495292390924e-02,9.389880347253701243e-04,-9.572941838115478497e-02,3.428643606903922225e-02,1.193981501550256674e-01,2.734177544785632019e-02,-1.561500487020751546e-02,5.643693733575313315e-02,-7.334879659624085613e-02,-5.680402980147056941e-02,5.245054891645957451e-02,-1.448863380802429841e-03,7.900951761367240589e-02,7.122417850801474049e-02,2.110643936463589554e-02,-2.523639964572322869e-01,-1.342136153466715054e-02,-4.721327450543622017e-02,9.251121895808475659e-02,7.151166906299359638e-02,1.507501661915439384e-01,4.862990264137356800e-02,3.283003628662910234e-02,7.858310685092122216e-02,-1.717773247832418138e-01,-1.077244273740724234e-01,9.101354742413439447e-02,9.777895731395763734e-02,6.995086866938861336e-02,6.596780276733546500e-02,-4.994691798179996811e-02,-1.189822774897846963e-01,3.381277609339632118e-02,1.180988644285682274e-02,-2.959639462646212679e-02,1.527872740710944227e-02,2.320825801148705333e-02,3.987939846707454217e-02,3.027537378286807718e-02,1.450170811050042474e-01,1.467730594081465001e-02,8.027897018617675962e-02,-3.268663536882428049e-03,-1.301374882139554601e-01,-2.169491893468344368e-01,-4.964735865745543465e-03,-2.892441921224613716e-02,1.306091794842785814e-01,-7.331119369481482739e-02,5.791339952409952502e-02
2.058313284490344980e-02,7.012539451506211163e-02,-5.621457825689144677e-02,-1.865181659629089883e-01,8.251278677063106359e-02,9.378311064929983551e-03,9.526155739397394739e-02,-1.966208056405913396e-01,1.510609225356626395e-01,-1.921603433081439660e-02,-1.956832376312657162e-01,-2.261033908578245766e-01,3.463879028824382034e-02,1.053541930716121872e-01,-1.465062748308089066e-02,5.962983292709562316e-02,-1.577443277600480143e-01,-1.253591649888140813e-01,6.642108219464849805e-02,1.244638760579863668e-01,1.020825979036439346e-01,1.457668550694558585e-01,-3.018751947544512024e-02,-1.438500341836357888e-01,-7.549484909813902744e-02,5.503131741468771099e-02,1.332883392312151846e-02,-2.863828761056770242e-02,-7.847922355567533981e-02,-5.750368342254595644e-02,1.375589342629283118e-01,9.167618814430228413e-02,-5.371771247444945968e-02,-1.468481945666716970e-01,5.293586486266185775e-02,1.502429198336720506e-01,-6.945311836539055927e-02,-6.427626857625071133e-02,-1.061279324643238792e-01,-6.129353810542513027e-03,1.427212335703608170e-01,-2.426477785772178722e-02,-2.313538239375017291e-01,-7.021972848419062718e-02,-2.218831045697136073e-01,-1.253979215245573479e-02,1.217662560732835943e-02,-2.632304080155451094e-03,1.130815277980752875e-01,-8.230891151067751266e-02,-1.292245447813034250e-02,-4.302490416176996818e-02,9.878504796093275087e-02,7.621543212931294886e-02,1.153628989322992987e-01,-4.884916251810989679e-02,-7.050286920206448593e-02,1.150682596051617740e-01,6.718393221924541525e-02,-7.651259852363062608e-02,-7.012168905977381184e-02,4.622069942179455465e-03,-9.038192721132221052e-02,-5.536062100869972025e-02,-1.045398382298772660e-01,7.938174275902785959e-02,-7.614328529913551302e-02,-7.457777346074920266e-02,6.303947843386767391e-02,5.985216024342716185e-02,-1.254994033724695923e-01,-1.002556112710919628e-01,-1.226604482474810600e-03,5.730040562209994665e-02,-8.737194651959075478e-03,-1.767482710438202098e-02,3.213225885557509376e-02,-1.412123628732581682e-01,-5.163776393394361314e-02,1.733065600376386406e-02,1.146744335411211957e-01,1.641820943541959787e-01,-6.948994623759410794e-02,-1.522279855603735910e-01,-3.225732266125830999e-02,-6.890766939565926355e-03,-2.736508527752335666e-03,1.051216116209880008e-01,-3.056583002479152820e-04,8.746180444222370620e-02,6.303408280653491694e-03,-7.319258022691897984e-04,-1.587513288078470086e-01,3.095755121798427628e-02,-1.231345707478357782e-01,-2.570227253342123944e-02,-1.220434275613159342e-01,-6.780437221445678730e-02,8.716334471737231804e-02,1.038292594644024402e-01,-2.064992635741015325e-01,1.561277747930387427e-01,-8.307511349754609364e-02,9.481081362751016262e-02,-9.530506638155665511e-02,-1.163477336550831770e-01,-7.802122288848674370e-02,1.002047557548998297e-01,6.679745769031988911e-02,5.825078590990166727e-02,8.136899256103687084e-02,-8.814946880683062480e-02,-1.116660679507414516e-01,2.287233320683914868e-04,-6.330337250076313593e-02,-6.429732104170853002e-02,3.654945977884805491e-02,-1.794233736240264665e-01,8.199845837473143662e-03,-4.651128018713673179e-02,-1.223238322200189687e-01,1.204832207246459425e-01,-9.526045341126558597e-02,-5.880100250860925866e-03,-3.099268002992608406e-02,-1.487459807367726705e-01,-3.380505112189366446e-02,-1.028621263214753584e-01,-1.034754379724937834e-01,-1.706900424107952313e-02,-2.371791451777244351e-03,-5.779818932579113000e-02,-5.870181282094048825e-02,-6.626064281725189964e-02,5.945926499126285431e-02,3.657043653719663917e-02,-1.470943446324949055e-01,-1.339620477072942656e-02,-6.365154999696973070e-02,-1.220557934321548632e-01,-3.480681591617702797e-02,-1.062994712811541759e-01,-2.846423382437981431e-01,-9.233614752637224476e-02,6.599633755609250751e-02,6.368909708192696528e-02,-2.307356218713411521e-03,-7.740760861788791025e-02,-1.493432532654377642e-01,-1.036684447001439899e-02,-4.031310771026489631e-02,-1.686113985671337800e-01,-7.431120738866660302e-02,5.789944684865908769e-02,-1.975837608916000132e-01,1.209309237255417301e-02,-6.346173815218531661e-03,-4.655976511959146469e-02,-4.862806778797882507e-02,-3.631431674165937120e-03,-9.260920262027287631e-02,-3.633012139666443735e-02,-3.100993558699335212e-02,-2.119126389206453798e-01,-2.153900307571817926e-02,-9.609642975214298388e-02,-4.638707324646968583e-02,1.115555163362556002e-01,-2.753788125685413882e-02,2.608149714115909346e-02,-5.512701910190452581e-02,-2.287494867675206670e-02,-1.373804407141914763e-01,5.937587503784713672e-02,-9.739474328656086421e-02,3.445625145893776303e-02,2.311737314861960976e-02,-6.858884549329873070e-02,-7.742618588161864768e-02,-3.717904504436544966e-02,-1.561773861432400696e-03,-6.094986673562854257e-02,-1.558027911795170084e-01,-2.283950432500631705e-02,-7.996707260605259715e-02,1.879574031267328832e-02,-4.111859443068292125e-02,-1.462121870841172067e-01,5.652477739115464514e-03,-3.351593837521746333e-03,1.531586138566662370e-02,-1.166113194005463649e-01,-5.394049574235292716e-02,-1.041779719560433221e-01,3.092858886935957383e-02,-1.407126930709211576e-01,5.668645473844562133e-02,4.305459963089530023e-02,-6.132304751154851047e-02,-5.356680177970905843e-02
-1.435714742649375764e-01,1.928869738024344693e-01,1.350212581876892096e-02,-5.220598796972038269e-02,-1.095549185877118248e-01,-4.229024415019758121e-02,1.296318694485358025e-01,1.448065874424080413e-01,3.980216863853119902e-02,1.524009757718548519e-01,1.396911521128443856e-01,-1.783471551220666973e-01,-3.542546778170098665e-01,-3.413329990019835225e-02,5.764922579518023255e-02,-2.002937300149508493e-02,-1.180328653006743889e-01,7.821303782287198497e-04,-9.162386083812650017e-02,-6.117950515472862089e-02,1.021403384045654616e-01,-1.350993522069457720e-01,-5.820919639697781645e-02,3.914216108529365926e-03,-9.513444862908426725e-02,-6.392934763628817241e-02,1.987517540522708293e-02,-1.434589533855422094e-01,2.205898548992203667e-02,8.872497637995137298e-02,-3.513160722020686882e-02,6.055040021052622567e-02,-6.263736396209916568e-02,-1.196143457639082530e-01,1.944572153072216814e-01,-1.085968353020134031e-01,-4.599150263181241149e-02,9.337115550857926979e-03,1.429556404465559816e-01,4.724345391278665651e-02,7.848831688535637396e-02,-1.768948956409550632e-01,-6.860511706759438166e-02,-1.197770728331013640e-01,2.290473109102580257e-02,-1.513716420707657551e-01,-7.265447913364267429e-02,-2.436386676102524074e-02,-5.012137869209043473e-02,1.013620558950881732e-02,8.864679361218696929e-02,6.375503358595813186e-02,-1.016448680720515585e-01,-2.507100342940023555e-02,-2.415266795983745177e-03,1.714871477128178112e-01,-8.085864722661131876e-02,-3.907661923309861673e-02,3.396249352793260373e-02,6.172448338497672771e-02,-1.936132316065816983e-01,-5.807936843677691252e-02,-5.526894759142831487e-02,-3.316751335278422808e-02,-2.031880999735849458e-02,-7.145287815228651418e-02,-2.766889785347391960e-03,-7.720096596345453477e-02,-3.568198215427388631e-02,-6.222598383409012196e-02,-2.217371517581206292e-02,-9.733158692931266620e-02,6.256722937843104543e-03,-2.220327485542907334e-03,-1.060976910595119588e-01,3.934335268678493952e-02,9.455049978918567827e-03,-5.374321208891987695e-02,2.074745717247915289e-01,6.708755096718677091e-02,2.657869053114616034e-02,5.479209094132791308e-02,-1.710510374608025241e-01,-1.279853484256964109e-02,-1.336583571303557594e-01,-1.214333732872816679e-02,-3.724926839762546932e-02,-7.184072476455576062e-02,-6.763956175698812578e-02,6.176721129109582348e-02,-1.664761523340032023e-01,6.023001723383262368e-02,-2.363286083806016846e-01,2.190249314138754608e-02,5.927653265433183161e-02,-1.717505791338060084e-01,-1.459670279965191442e-01,-3.759981727402395696e-02,-6.080893435337158398e-02,4.772772637755273717e-02,6.416921965552052631e-02,2.607903537399676799e-02,-1.234891864173830039e-01,7.696363286880262937e-03,-1.170597641267848710e-01,-3.148919107990267446e-02,9.041541142395272124e-02,-4.679321552416099150e-02,-1.797869949761675412e-01,-1.244950401447793842e-01,-8.741684654003036015e-02,-1.862040682628794130e-01,-1.178253050027312648e-01,-1.086497595127287191e-01,-4.656601738289369019e-02,-4.666010317547517744e-02,-1.563940400327719082e-01,-1.665190885886344285e-01,1.379408012013741136e-01,-6.347609649785762587e-02,-7.737669552130208017e-02,4.862281168958275390e-02,-1.977394418297047374e-01,-5.838685458228295988e-02,-1.999433579507077785e-01,2.099853264456844060e-01,-1.108238731527659698e-01,2.011520931702894255e-01,7.646332466488071911e-02,-1.954601739116406181e-02,1.496406648384889237e-01,-6.620216835019758495e-02,-1.117320770167965771e-01,1.937090460631797906e-01,-9.011376633247392132e-02,2.375209556105724665e-02,-6.767015312091417822e-02,-3.468690092870729130e-02,-1.666516784755246727e-02,-5.898774250542572484e-02,-9.463990284999375391e-02,-1.315179531205890560e-02,1.130397921404711625e-01,-1.339643896761839037e-01,-4.470411687538640433e-02,3.379585412440557629e-02,-5.671674072504138270e-02,1.609849701782268411e-02,-6.613368048233671248e-02,5.608045799133427878e-02,1.033116090056563074e-01,1.191069227552069981e-01,-7.519222609636969090e-02,6.627180188318776421e-02,3.505705000887997594e-03,8.652096022414486332e-02,1.049901739667020995e-03,-1.786568619595250290e-02,-1.305357402005214995e-01,-6.776058982597386871e-02,4.994028895334884366e-02,9.268306572794636489e-02,-1.707487038387009159e-01,1.967028156164134511e-01,3.379524305896819403e-02,-2.613433415413466548e-02,2.265685484626903667e-01,2.888739553580847719e-02,1.940247963404238274e-01,-8.497479568038014686e-02,-1.921595454230624056e-01,-2.845205525020471152e-02,1.468245436678386195e-01,-9.759187531226651280e-02,5.803943702630717100e-02,-6.047937543956098672e-02,2.492984534336340624e-02,-9.643535625511887033e-02,1.945847837878442871e-02,-1.764395334936227633e-01,2.099858913812633343e-01,-2.957771817673151074e-02,-1.232026405214140807e-01,3.648599722452118554e-02,-1.816364394806532431e-02,3.849269889322702587e-02,3.213152727110270279e-02,1.843315570794702152e-01,8.983941761382137348e-02,1.012082344889760760e-01,-9.653308051960993175e-02,-1.798973874392073846e-01,-1.067208764749788819e-01,3.104322924898299599e-02,9.791238309782544780e-02,-1.102886423184215176e-01,3.806796717100802835e-02,-2.832575666947845933e-02,7.094521199442228865e-02,1.431209654883938698e-01
