-4.704510613595882379e-02,3.559352483796784320e-03,4.819513474092034823e-03,-1.301763623474062534e-02,-5.358129422637833428e-02,-4.102387894573929217e-02,2.208750174317864259e-02,-3.321654449893597649e-02,-4.947099263521351903e-02,5.192911407707651028e-02,1.078299827390245824e-02,-3.894032824616957406e-02,-2.202714383767325271e-02,-4.876682778583369543e-02,6.121222926791876351e-02,-1.582499756866309615e-02,-6.035039499302063092e-03,2.496857665390274719e-02,-2.044233749367205602e-02,-2.245323627261932361e-04,3.314029201235059452e-02,3.606437650050117738e-02,-2.955002934231354753e-02,-1.189659780279657538e-03,7.207740938571709742e-03,1.327238980605799368e-02,-6.300162274216669633e-02,-4.130767607656842845e-03,-2.787337578264143315e-02,-6.494260776716620671e-03,7.897179161350010440e-03,-2.267786923180070344e-02,3.474028854588663562e-02,-1.011804832350131182e-02,1.905976288193163325e-03,-1.797036365317152343e-02,2.868146516412427294e-02,-2.424944785757308235e-02,2.788572648830426812e-02,-2.592447394535679281e-02,-2.906128366186154499e-02,-2.690359470890339028e-02,2.426627144849947612e-02,2.108975566498910367e-02,2.293458870195536677e-03,-4.332237956957326469e-02,1.992809470733119745e-02,1.438861403931213610e-02,7.302071584845104242e-04,4.363740363649154692e-03,2.118156175137857200e-02,1.285475037519118006e-02,-3.380196070739136666e-02,-3.041195514738547802e-03,2.199940649848134214e-02,-1.101247054746453194e-02,-7.762153356390627534e-02,-3.100585115707460079e-02,3.448759973428461995e-02,-2.208623077919660838e-02,1.115507892976271009e-02,-4.935515755875345689e-02,1.766022538492470137e-02,5.585390723700309201e-02,-8.406887909311952164e-03,-2.808847662496318648e-02,3.078157876182474259e-02,4.683721197843220495e-04,6.656582852210375656e-02,-1.358591407195689979e-02,4.753252662093124248e-02,-5.504781278612252970e-02,5.617106850073412018e-03,7.115706942013916292e-02,3.976644233804019213e-02,1.993293349384182497e-02,2.916279809762961465e-03,2.905663668768678279e-02,2.617528040415097873e-02,6.276711405540216782e-03,-4.468266688615492310e-02,1.518153503172668325e-02,-3.255664554549998063e-02,-3.182573605896459740e-02,2.393253928030315489e-02,9.646516080707354807e-03,2.132014937045532618e-02,4.951030328698400457e-03,6.581131160862925024e-03,-4.542228073042038497e-04,3.413299160031912916e-03,-6.389122267945580337e-03,-2.736956963511471067e-02,2.103818194209306283e-02,-1.192189744351587581e-02,9.604621903551364970e-02,-2.691944761474797387e-02,-2.270821155052906576e-02,-6.944962537141535774e-02,2.499779650394973532e-02,4.289034417677994176e-02,4.291232229799985670e-02,5.773361676238739082e-02,7.534426212362968500e-02,4.951792478858663138e-02,5.056498247208080637e-02,4.844953881470223135e-03,1.066118763601517187e-02,1.232218677216086362e-02,-3.005931164634707484e-02,-1.330315824153482235e-02,-9.653927198352167671e-03,1.380296431763179330e-02,-1.109160110819354048e-02,2.825752205195592587e-02,-4.958874806029626298e-02,7.064141681032506948e-02,7.099512546381792771e-03,5.412908916128218034e-02,9.039340769685539137e-03,-1.153269552018149763e-02,3.197932595729478106e-02,-5.825265005335457380e-02,-1.510576051280013675e-02,-4.123387649019220891e-02,-1.028239452208860594e-01,-5.977613264687620023e-04,2.251556099141055478e-02,-5.432334628770809325e-03,3.610983058317457361e-02,-6.143134543102413830e-02,6.810335894813061841e-02,2.802154065932370777e-02,5.995274265251742535e-02,3.086381731255670793e-02,-2.903837782915710472e-02,-9.393207618908015755e-03,-7.050115804836466771e-02,1.285170036457950089e-02,-2.653086641353442215e-02,4.972191142220690890e-02,5.665076068483346911e-02,-5.523922169430212602e-03,1.596751378667043628e-02,8.045440120361969580e-03,3.429553534226386876e-04,9.791144179361273986e-03,-1.595428808866023243e-02,-3.140819016737658037e-02,-3.557702823504417522e-02,-4.466194128629617094e-02,-4.224462353990948021e-02,-9.024484460013967868e-02,-5.576846571988602896e-02,-2.396140427814655392e-03,-3.202925994934731346e-02,-7.565504150336596623e-02,-4.225526488096272015e-02,-1.809114191525031112e-02,-2.549011665065113556e-04,-1.297442065233741365e-02,-6.162754593132992176e-02,-6.257164098058896895e-02,2.984237560784998994e-02,-2.236019863483936377e-03,-1.408567950347299445e-02,-3.084734019847103215e-02,1.501865787887555689e-02,-5.670528677199541262e-02,-2.447022741884025132e-02,-4.148359737447539913e-02,5.008526336980706484e-02,-8.059093096631742351e-03,5.417271672565822675e-04,-1.307080870450905152e-02,1.945776524492439860e-02,9.607026106693781695e-03,-4.911027000572738832e-02,-1.139029590252213370e-01,-9.361479614882721456e-02,-7.091092628327579084e-02,-8.141374834687838125e-02,-1.210998622593671969e-01,-1.750878211326754863e-01,-1.195976397246086287e-01,-1.270722249934488901e-01,-1.245903323983601901e-01,-5.488339141025621454e-02,-1.176417263010453573e-01,-6.519571707848365039e-02,-6.494254214494879843e-03,-5.687634441260920604e-02,6.580476995211033409e-03,-1.430688655535958947e-02,-5.791538533904041358e-02,1.426980624495626654e-02,-9.735848470588965436e-03,1.916513973876551868e-02,-1.797968298420843380e-02,-2.502037756216281359e-03,-3.482811479854477921e-02,-9.130122869863494667e-03,-5.534875886683257584e-02,7.269976874150690938e-02,4.858108844979601025e-04,1.447022697166720773e-02,-8.076002701993442723e-02,-1.125381086227787708e-01,-8.146250374075962586e-02,-2.027923189189151931e-01,-2.216459362127580490e-01,-2.138722041928984574e-01,-1.885012895255089027e-01,-2.134444961040924960e-01,-1.863525345746530060e-01,-1.976476354668881830e-01,-1.502751115846374941e-01,-3.829649797147319235e-02,-7.986848031268387049e-02,-6.395951627302154385e-02,1.545107843880256550e-02,-1.298754022341514327e-03,6.458379753727897139e-03,-6.815043714778304049e-03,-3.329444549028220957e-02,5.556488129501808981e-02,4.233107083166196688e-02,4.407801615417204777e-02,-6.955656835839265154e-03,4.286383347517948826e-03,-2.981126026410818586e-02,2.271544131545353076e-02,4.085505698363854632e-02,-3.730362367960555776e-03,-4.662512156992948409e-02,-6.317962269390860197e-02,-1.173241684652051448e-01,-7.330375406449851639e-02,-1.025597809889251810e-01,-1.524111133066605450e-01,-1.872068436880139630e-01,-1.254263302665715452e-01,-1.651743494365963127e-01,-1.078162687705473827e-01,-1.034386758337320217e-01,-3.104041555000719432e-02,-3.512377121534723812e-02,-2.935835226366827894e-02,5.722258874726048050e-02,9.867394535877465050e-04,3.370519465943402557e-03,-2.012675017920517034e-02,1.304829196015400150e-02,7.359261509381934130e-02,1.841412111571297597e-02,8.233954362132742122e-03,-4.404349198398278126e-02,-3.782315724935755852e-02,-6.184366124290821727e-03,1.130171995060132509e-02,1.453289253687152201e-03,7.356472860636522303e-03,7.195108718928552513e-03,-8.245654650870885838e-02,-6.637298559193935410e-02,-8.444077022913280828e-02,-5.465824133208976865e-02,-7.971377198440138256e-02,-1.430124396606662907e-01,-1.279639721594404145e-01,-1.195537648079139231e-01,-1.005711022622906570e-01,-4.220030725189616999e-02,-2.171516227123784087e-02,5.817305350762880939e-02,2.078387281422151497e-02,-2.178451263544237820e-02,-3.234543236341314455e-03,1.144867550133369348e-02,-3.396307044293205013e-02,-5.554687179519977869e-02,-1.640154256645947120e-03,-8.030199934324924738e-03,4.685784124433987896e-02,6.751176397113245464e-02,5.978460645914707855e-02,3.590679932396024371e-02,2.252436095304478567e-02,4.771321120308017263e-03,3.517410845708326961e-02,-2.391041128177302105e-02,-8.052701911859623529e-02,-7.941757276551345002e-02,-5.403605468288673330e-02,-8.074982732501627403e-02,-1.440863519350924216e-01,-1.263205364497071992e-01,-1.449480030474032677e-01,-1.234942420160193843e-01,-1.210689868216331261e-01,-3.614502036212867420e-02,-1.785915909556038544e-02,2.736122982296635905e-02,-9.970975678182445942e-03,6.370010651123083137e-03,-1.702960797345607485e-02,-1.477222134135429236e-02,3.289725987096034105e-03,-1.064366632349989135e-02,-5.958975525118211103e-02,3.601906891669541685e-04,2.562923535690562159e-03,6.689145325134737696e-02,-2.180839505840732190e-02,-5.339790705980730634e-02,-9.225869853350031347e-02,-9.478360784533051281e-03,-1.166182394752933726e-01,-8.760576214893142644e-02,-1.400985260227195217e-01,-3.303997315744967161e-02,-7.491608154100910799e-02,-9.987716987680249348e-02,-2.003725296621075846e-01,-1.699335683726789781e-01,-1.627643132751449284e-01,-7.777789133619676665e-02,-3.028034859520471744e-02,-9.931387816700575077e-02,-3.453768695041624370e-02,2.896126813650548235e-02,2.426493878153743872e-02,8.415604627698161644e-02,1.950218690124820922e-02,-4.481692133238408121e-02,-2.331646552631970112e-02,-2.428020236291934461e-02,-2.978199307162947285e-02,-3.829832255522761658e-02,-3.489335435678932174e-02,-2.302018347130154949e-02,1.386018987714245955e-02,-8.257540873583377183e-02,-1.193981006253837518e-01,-1.475654713715042754e-01,-8.864165931166223533e-02,-1.543940779278178410e-01,-8.730638903010912166e-02,-1.736384000708646527e-02,-1.496614882328576313e-01,-1.481940082885652987e-01,-1.433035028105583697e-01,-1.752036173146114539e-01,-8.224237800117385755e-02,-8.465891552534313136e-02,-1.343057719018408425e-01,-2.472433729477686165e-02,1.918756554981479109e-02,7.748261898355272848e-02,1.052343691784591306e-01,5.824424019964635074e-02,4.091064675288809405e-02,-1.823265043092544765e-02,1.784032924746890500e-02,2.625786236568481563e-02,1.024524699514724755e-03,-7.965017261605403590e-03,-3.081381879225866469e-02,-3.421176866576051967e-02,-1.394290241700411187e-02,-5.595063298253123707e-02,-1.180785753917189956e-01,-2.111426139694668747e-01,-2.115083801121378226e-01,-1.109247057529065827e-01,-2.537479360261611985e-02,-4.014768234678460501e-02,-6.812379408774878187e-02,-1.535094041268543208e-01,-9.365022971564548881e-02,-1.455816631499430025e-01,-1.276379950734167212e-01,-9.478348115225770920e-02,-1.308024729558706079e-01,2.101921240545412232e-03,1.433873833093920330e-02,1.608604462092428494e-02,5.540070664787008492e-02,4.484990324982293664e-02,2.695762636212982802e-02,1.018195449581923567e-01,1.993050301057361709e-02,-3.162189316100523506e-03,3.128810279232450975e-02,8.340227186809663629e-03,4.563034063344207150e-03,9.409892551129219948e-03,-1.225288895313781379e-01,-9.814270736849259325e-02,-1.577285563869284812e-01,-1.487367963603900278e-01,-1.007664742801964858e-01,-3.698413659587120039e-02,-6.634206245216257847e-02,-4.246760910488543012e-02,-1.170508807595488643e-01,-1.164407033858717855e-01,-8.198849549568600070e-02,-6.794176970413325078e-02,-1.666623612028593771e-01,-1.469848277291117833e-01,-1.102099658918037767e-01,-1.310314812306279664e-01,-3.164545863669519093e-02,-9.366743481310928904e-03,2.546210174823079417e-02,-1.348294878989257650e-02,4.061844320285367023e-03,-1.537250481388673963e-02,-2.868001420154438902e-02,-4.847415328112476308e-03,-6.162928207328002665e-03,-3.144052481441240998e-02,-5.308102299446283007e-02,-7.941135991880818312e-02,1.419077407194280563e-02,-2.503087302151071544e-02,-7.658220484658270766e-02,-8.193329134173699124e-02,-1.000838438962251969e-01,-4.743458595429291685e-02,-3.145604081016638992e-02,3.541056282368487684e-02,-9.999568416334148058e-02,-1.286095102424657521e-01,-8.436218929594008209e-02,-8.615451856824465904e-02,-6.123537880828538310e-02,-1.096467049880672229e-01,-1.041181452149489844e-01,-2.625031434693052973e-02,-1.658254151069809418e-02,-4.331246817994008867e-03,2.673420304192923938e-02,7.891943075195829993e-02,5.038328015478662353e-02,1.706894149226407739e-02,-1.582163835308133398e-02,6.869216124425789154e-03,1.287089925717512830e-02,3.893534817812868698e-02,-3.213954722403730702e-02,-3.367031860034096907e-02,-2.954894254908316253e-02,-6.399208190065500124e-02,-5.443581434864049051e-02,-6.121860175585110836e-02,-5.146767133615223061e-02,2.467086471008067550e-02,1.480698671291152957e-02,1.205862212432387559e-02,-1.531074033353347630e-01,-9.319455619427317872e-02,-8.985025531796665688e-02,-5.460887370033717936e-02,-1.171272989597777897e-01,-9.643806489691428285e-02,-7.924915685969932677e-02,-6.138141601895974464e-02,-2.952239946589424111e-02,-6.881789700488678829e-02,-1.418993351976805895e-03,3.102135056792675732e-02,1.568713101412098909e-02,-5.369870104116515608e-02,5.464475636964498395e-02,1.426774018298894746e-03,4.996786592226075407e-02,-1.811581087918742380e-02,3.587490884633792038e-02,-6.974093492967375907e-02,-4.144054569625744283e-02,-4.749111176991955424e-02,-9.107214601884520977e-02,-4.600607474379581757e-02,7.429360025798445455e-02,6.467327183935661639e-02,7.562075689277231172e-02,7.825804342888070808e-03,-3.049433101384362022e-02,-2.093497942118029698e-01,-6.417166731441086014e-02,-1.334430692095426862e-01,-1.137959975666072293e-01,-8.354382405165772241e-02,-1.259636347057931649e-01,-1.797140649445747376e-02,-5.230348938733692110e-02,1.825398746060092475e-02,5.629249404209937455e-03,3.405552931579990811e-02,-2.741620203197122924e-03,-3.751394444744680229e-02,-7.362563291044846303e-02,1.922084478968309057e-02,-5.032029904162702710e-02,5.322985656000141230e-02,-4.119432065818751099e-02,-1.374935031316743342e-02,-3.759578813216911397e-02,-2.193902797664390100e-02,-8.596233921986279336e-02,1.726937276598216123e-02,5.575913217679880768e-02,1.361847238034659680e-01,8.149727631405390138e-02,-3.297136160819644484e-04,-1.155955941919406954e-01,-2.887637463690635384e-02,-3.096239891715972872e-02,-3.716209044024429420e-02,-6.111349620896299600e-02,-4.946044603691857749e-02,-2.416949852014891459e-02,-1.198999971582559443e-01,2.404190282904432319e-02,5.316959063293267423e-02,4.376348102090717174e-02,2.950625040870593144e-02,5.320801482827732659e-03,3.165530968934555239e-02,3.836293529562577465e-02,4.504399697219831772e-02,7.239315859441698697e-02,2.691660320378370594e-02,5.398740204077732280e-02,2.062328200192161884e-02,-6.314739863284893340e-02,-2.372563801324613364e-02,-6.813886784803910301e-02,-3.760729956370228999e-02,4.421894559977978395e-02,6.171469341761368771e-02,8.903255915046953684e-02,3.209705000680789649e-02,-6.958587108660135856e-02,-4.803937514462015834e-02,-6.801779874484938093e-02,-1.624643746327083388e-02,-6.480903025144916195e-03,-7.411310863088688139e-02,-8.083386495720595866e-02,-1.042376970174450634e-01,-7.898148195541285221e-02,-3.347914441310574640e-02,3.551243040154199865e-02,3.778130752984967811e-02,4.818777207349293767e-02,4.191027143270709826e-02,-3.391135116762385854e-02,-1.251963825861415400e-02,5.114433788241751428e-04,-9.549066994772936051e-03,2.241089237109922944e-02,-7.244009413851590362e-02,-3.106545927307802560e-02,-4.828796935831916604e-02,-8.056415785832424237e-02,-1.482902307025059027e-02,-4.453055841738109977e-02,-7.311769084929495288e-02,-2.143398773383239225e-02,6.626134664729534107e-02,-1.054954364779549757e-02,9.072130836514365887e-03,-4.616661189147335670e-02,-3.016498796482773234e-03,-8.568855499590147251e-02,-6.207590786430284419e-02,-1.331291032823509746e-01,-1.565275898658650966e-01,-4.436659619613478323e-02,-3.214768176891362461e-02,-1.738463662114287517e-02,-2.233100319006716891e-02,1.261925232162973420e-02,9.916479429253574271e-03,-9.240674736788873772e-03,1.069809989737991601e-02,-2.001954243677183526e-02,-5.490180722297305360e-02,-7.546860652245150104e-03,-2.300261021039106540e-02,-4.161655808085957392e-02,-8.274700508077512118e-02,-4.344607778196412501e-02,-9.447655038896554669e-02,-5.142200859651774314e-02,-1.186146572525050152e-01,4.113856924164441264e-02,5.042886657609284978e-02,2.738917376468566131e-02,-1.591324626137011200e-02,-6.210757752591563458e-02,-4.285092034717851578e-02,-2.262644543286268864e-02,-7.901943506860084621e-02,-1.393811900176440514e-02,-1.775419650521035259e-02,1.686523335518717512e-02,-8.106235782333912065e-02,-1.009068724726419446e-02,-4.629015728631290932e-02,1.042952487161777873e-02,-7.394661523294515648e-02,3.381013115687083598e-02,-7.785543025083965958e-03,-2.494120114950178907e-02,-3.596867891185472066e-02,8.494742180236742202e-04,-6.988331536971169322e-02,-3.433231214594327507e-02,-5.432642461233597175e-02,-2.814738152487711309e-02,-7.715026833398257178e-02,-8.265504555801063066e-03,9.786074617447735810e-03,-7.206238116520317927e-02,2.754919415924233020e-02,2.023309070926819497e-02,1.243348991943559953e-02,-4.547896730688511663e-02,-6.157302573562407205e-02,-8.166875614050359000e-02,-1.052858088557473981e-01,-8.472459860812833754e-02,-7.982773001391223200e-02,-3.816031982912070075e-02,-6.637878284851016220e-02,-3.411200363354002785e-02,-4.867214329916969007e-02,-1.884941440855707195e-02,-3.244364868312756001e-02,-4.123314766744395725e-03,-6.529598973152514474e-02,1.075797275617381213e-02,-6.387452476783291033e-02,5.809170335214485642e-02,-1.034625129721579960e-02,-3.260836535145338749e-02,-5.739803222709952829e-02,-1.789375410327199989e-02,-1.322960281627681223e-03,-3.882552186498190033e-02,-6.319781723501316159e-03,-4.972990525985944432e-02,-1.808326971763805219e-02,-1.291971308507738024e-02,-1.094559878086878990e-01,-2.658279436115053643e-02,-1.873515413914194835e-02,-1.005359205780082810e-01,-3.181782943170433000e-03,-7.706511955335344777e-02,-9.742775770743763997e-02,-1.529361405006427789e-02,-6.329877255980376205e-02,1.142511398449305715e-02,4.404592053577627286e-02,-2.260894309417379316e-02,-5.662020742865832290e-02,-1.904278634219365093e-02,1.893549897412568142e-02,4.596620423131017596e-02,1.599086809893433825e-02,2.181966871934237079e-02,-4.884749341135594461e-03,-5.327308032202705823e-02,5.601264744685507599e-03,-2.216127009439886400e-02,1.705573599229493961e-02,3.273404676249858786e-03,1.845578821462009675e-02,-4.043524484231596217e-02,4.696418492984545494e-03,-6.828539791008807723e-03,-3.839485219019182077e-02,5.549002810722386547e-02,-5.223161868352838022e-02,-5.725147833902233946e-02,-6.635525896234234153e-03,-6.230486238166631913e-02,-4.495195693763157085e-02,-1.296418303025626169e-02,-1.866177617696485394e-02,1.459468064223319247e-02,-1.642579972785426778e-02,2.397568369314722128e-02,-3.615183302282894834e-02,7.644021740530040042e-03,6.196161561894436738e-03,4.705580928595979456e-02,-2.838166435611734831e-02,2.345936787134230567e-02,7.172404104848761897e-02,-7.552592961544853621e-04,-9.149561576307449484e-02,-9.362624603386125732e-03,-3.276729460577192804e-02,-9.625311054175637177e-03,-8.415112271883820605e-02,-5.877076999800930068e-02,-1.520025565011943504e-02,-2.843010599678538752e-02,-1.009758076630918461e-01,1.439071914425331996e-03,-3.317543233918760631e-02,-3.259123252630541541e-03,-1.381389819406915465e-01,-1.126273922230216357e-02,2.758161608738764550e-03,-9.617634162586449764e-02,9.832806417106369767e-02,-8.620779660454293974e-03,-1.084408260518073264e-01,1.905161045919120250e-02,-8.529893502917329506e-02,4.598438143188914029e-02,1.107278869220557418e-02,4.737024162375584602e-02,-5.770071107737842486e-02,-2.131620913841921275e-03,-4.280401735864416274e-02,-4.411652404481178347e-02,2.930589588204876236e-03,-6.457889216332425575e-02,-2.120273228374316195e-03,-1.381789551047202941e-02,5.106372553423192684e-02,1.399790253836601973e-02,4.897781594054061854e-02,1.715545221643607898e-02,-6.046443443689648693e-03,-2.951994804660976884e-02,-4.415802530700327355e-02,-3.362065504597258614e-02,-2.006986621640515639e-02,-4.310588642288965683e-02,-4.902250975091750756e-02,-7.127318824074620196e-02,-2.438987057521169524e-02,7.678607152164530769e-02,1.205546054177603597e-02,8.650752196594984483e-03,2.935702879204487963e-03,-1.827292710695546316e-02,-5.970298086535937715e-02,2.856097274791298372e-03,-3.725858874060967302e-02,5.725242638871075318e-02,2.685788018994708301e-02,1.188781445489542343e-02,3.472773348052372866e-02,-2.684271112462738654e-02,9.279576901515044357e-03,1.765570005297114687e-03,8.483129117334215537e-04,-1.556268048788925391e-02,7.788325550132412303e-04,-1.045276168841491674e-02,-3.999303333730718640e-02,9.933355763561227750e-03,-5.126247667178469164e-02,5.139493958305935833e-02,1.607907273512247659e-02,-1.574353948978524098e-02,-5.511584327911938172e-05,2.215187409443675117e-03,6.910397681635592482e-02,-3.104626358155118324e-02,3.177981335417241759e-02,-4.506055534152720449e-02,-6.049086401975173333e-02,-1.606445806665777673e-02
-2.338228001654233529e-02,-5.425881757310105358e-02,4.132955248272114634e-02,-1.788982057398369636e-03,4.238940003110075461e-02,6.620086018608146994e-02,6.397591282043309235e-02,5.693578085478216699e-02,-1.571990719282849534e-03,5.940624827743602732e-02,1.873803072336283071e-03,1.935609575540713639e-02,-1.917944102152487756e-02,-8.076910071811032460e-03,-2.103552225191567676e-02,4.352476104233170273e-02,-1.913693615781199980e-02,1.641617360616061481e-03,-7.086518095854961452e-02,5.758924037075410785e-02,-3.909991370211431116e-02,-9.256370353352808694e-03,-5.998387513680078498e-02,-2.957325705878723001e-04,-1.807111651146775305e-03,-3.162493950442223783e-02,2.390138947028683930e-02,-7.485889486897993883e-02,3.352152413655053176e-02,-2.221687795948967814e-02,5.851082805639173934e-02,1.310123029752015365e-03,-5.686629453627242703e-02,-3.538566793800108912e-02,2.446944788977788166e-02,-9.583016185565449915e-03,7.492483368002638214e-03,-1.801220211109118979e-02,-3.183894539512158520e-03,1.606573489614981573e-02,-3.243682261040688186e-02,1.897294320199696509e-03,2.866455851855497124e-03,-2.701775919449190058e-02,7.290572948711493417e-02,-1.886678564093776170e-02,1.458322563520448797e-02,-3.987459210377484325e-02,1.017604951748781947e-02,-3.588155448867252212e-02,2.652360650998924346e-02,6.251758930141863846e-02,-2.493098198301098301e-02,-5.492648810080891231e-02,3.129511838671059781e-02,-3.782872023378665294e-02,-3.458527818567586412e-03,2.211213375074200065e-03,-1.216852722202407810e-02,-1.451843957249657202e-02,-4.692455429100460262e-02,-3.405495643970281316e-02,-4.339953990858087807e-02,-2.127638927834374707e-02,-1.121213268556536802e-01,-1.918352446947298520e-02,4.709115500679118653e-03,5.857771483891196368e-02,6.790606445356563159e-02,4.359053434310665442e-03,3.772770703891371868e-02,-2.533575484295198105e-02,-8.476781154153838205e-03,1.730225249485303068e-02,2.193054332734810374e-02,2.644674696194255527e-03,-1.497688686049415512e-02,3.329002164186717350e-02,-2.091682810790043007e-02,-1.239622464390291966e-03,6.260214781565937026e-02,2.003835764671247494e-02,1.879889771768360890e-02,8.448580939747606794e-03,3.509439339656603152e-02,-2.681775371602701519e-02,1.917063280104705503e-02,2.908418622128033232e-02,1.205873720602974701e-02,-5.496035705635757967e-03,5.638624114651202140e-02,-4.508957502801134304e-02,-3.910546705790851618e-02,1.090373273984497366e-03,2.872289671217048007e-02,1.199043951076753708e-03,-5.767877170877011572e-02,3.781553628431238469e-03,-5.228912395914796923e-02,-1.411042888026461418e-02,-3.863785360136028080e-02,-2.880061647562628252e-02,4.650141683442658713e-02,5.836628508725816289e-02,1.358186667115733777e-02,5.555660809971992714e-02,4.354555530314396100e-02,-9.837240052941769591e-03,-4.695295349408488278e-02,-5.064704646821806266e-02,-4.340712307281474613e-02,-8.008746693631720384e-03,-1.146152436809749070e-02,4.167544425595953728e-02,-8.533218004263118037e-03,-2.855431210219191301e-02,-3.302369386992218270e-02,2.065292406749446794e-02,-3.960627950230924399e-02,-1.159410472433834854e-01,-7.273564408759095046e-02,-8.610687894943998277e-02,-1.200751386995168452e-01,-9.198147249872454245e-02,-1.470191318548966786e-01,-1.003839048233535480e-01,-3.646817883622128359e-02,3.228791544845145689e-02,6.223975193077808943e-02,7.076520912887407366e-02,7.504718111091800148e-02,1.543562624365678870e-01,5.110146610560557801e-02,1.827377497052236344e-01,1.072192796138646820e-01,6.059121858568056185e-02,5.061226833235592248e-02,8.545635472998011628e-02,-4.371070880399707467e-03,3.235379810903345199e-02,7.760868746079646607e-03,-3.100216101568981780e-03,1.430259491365716562e-02,9.035288359595017652e-03,-7.854131428861950426e-02,-8.888945633587226614e-02,-1.776561107025109998e-01,-1.665085906248238989e-01,-1.834775655682258921e-01,-1.633264249629357567e-01,-4.902510830964335042e-02,7.580519087069034767e-02,1.154153441049402956e-01,1.611222384001104180e-01,1.612015873251237685e-01,1.180208662367296657e-01,-8.825198526750545336e-03,1.102165378017074260e-01,1.731187975254120937e-01,6.137120931852156624e-02,1.281151529981022219e-01,8.543129671531549119e-02,8.764431659129261198e-02,-1.947095894370899291e-02,3.304626683190524383e-02,-4.703023705119695197e-02,-3.590495088046065375e-02,-2.467735734268524522e-02,1.093069799550371729e-02,-4.490370083313487137e-02,-2.879138539814810743e-02,-4.266469379105844971e-03,-3.628327653705295391e-02,-1.175804261988163957e-01,-2.159039649140455930e-01,-2.022765260647700347e-01,-2.111327530971031374e-01,-4.208591522453453831e-02,9.227498382458217130e-02,2.048259642648159184e-01,3.594955778317056039e-01,6.223598684966294980e-01,7.019535063625554905e-01,5.370980159115831265e-01,5.578322165240596764e-01,3.432757357044586843e-01,1.278116653065780872e-01,5.010684881472587254e-02,-6.736710458248997002e-02,-2.491209685089972384e-02,-1.144505218321767784e-02,-3.181768974864619681e-02,4.412082280611449858e-02,1.779068827970714528e-03,9.163243536015977866e-03,3.287890257247168269e-02,-6.173393667026490228e-02,-5.736936726428222902e-03,-7.030111801416333815e-03,-3.542955197317460697e-02,-1.370134622879516650e-01,-1.854308526187169737e-01,-1.695182612064024263e-01,-2.042400168566101404e-01,5.548518283522967803e-02,-3.208191277484466475e-02,1.353601919002858922e-01,2.849988042627274454e-01,4.040327288319496279e-01,5.495589109705618647e-01,5.008333481833069367e-01,4.306780316612184301e-01,2.935509154261808362e-01,-4.122178494817595185e-02,-2.454289622962981532e-01,-2.649231225804701273e-01,-1.884222562172507554e-01,-2.177665138948346180e-01,-2.918519694384232310e-01,-1.743163663036857436e-01,-1.457838650392113966e-01,-2.691308335603707219e-02,-1.178727184402248232e-02,-5.901971190490642311e-02,-8.526985494209168848e-02,-1.633890958942182947e-02,-3.702091308090892097e-02,-2.932608857810845016e-02,-1.612694599322685995e-01,-9.428218823266569515e-02,-1.858386382672665427e-01,-6.866565589022459448e-02,-5.746814658353541910e-02,-1.317101978866076599e-02,1.762315348473088017e-01,2.227915095185439287e-01,9.552328219394347342e-02,-1.004964361274878204e-01,-1.076945167226901479e-01,-2.541073950383819779e-01,-3.127752440559023461e-01,-4.156362213420534135e-01,-4.962582732198363433e-01,-5.012124085214031410e-01,-4.855668623917033799e-01,-4.851665104672716056e-01,-4.084204810193541313e-01,-2.945232037553094928e-01,-6.452949422929242507e-02,-2.767659086476672442e-02,1.388530507544952480e-03,-3.439967383969189801e-02,-7.029119488278980088e-03,1.035560605631275465e-02,1.277014745890637376e-02,1.685199389058041064e-02,-1.058140953093670011e-01,-6.022137483701530541e-02,-6.771041866754715088e-02,-1.052502687296406336e-01,8.596907843940919738e-03,1.250111159239292169e-01,1.439154427051653473e-01,1.638342262624729317e-01,-2.687357379068790464e-01,-4.706360258095581006e-01,-5.970456182067532813e-01,-6.233992278011547539e-01,-5.643691775637689201e-01,-4.782513278041113924e-01,-4.986384692410909536e-01,-6.162462140459004090e-01,-5.449784217941823217e-01,-5.732725803527101149e-01,-4.615557178825789308e-01,-3.543465689351950054e-01,-1.236974512062495452e-01,2.248985257955823241e-02,2.896838017685304800e-02,2.696131454889131793e-02,1.108912937754951908e-02,-1.369291796427175682e-02,-9.311847169806229674e-03,-2.375245842785906822e-02,-3.659714808332330260e-02,-2.771751697273852968e-02,1.675372721758414118e-01,3.794912346037013218e-02,1.560399019076815497e-01,2.475486943185645772e-01,2.392011454649390634e-01,3.930725181686302305e-02,-2.633432866850629051e-01,-5.058661877782273386e-01,-4.101089481672047232e-01,-4.210908214333767829e-01,-1.739557195384149602e-01,-1.355187566333720395e-01,-1.627033494761821186e-01,-3.207856724767005341e-01,-3.922485486040325764e-01,-3.496885892941036800e-01,-3.326643347613358892e-01,-3.004002205046868990e-01,-2.071477854038343003e-01,-7.147061286486146130e-03,1.828621794787135303e-03,-7.422122634722216894e-02,-1.853861886091258794e-03,5.195089207564139444e-02,1.052559403482530159e-02,-7.175850277449428993e-02,5.345540485883269743e-02,8.374697189621541082e-02,2.559781322444606433e-01,1.870170064574819269e-01,2.566977147426348083e-01,1.720215071327370060e-01,1.759157489097107896e-01,-4.831143227874897667e-02,-1.498368803076171873e-01,-6.321717544473624828e-02,-7.150341181856924300e-02,1.251612736279142102e-01,4.221338606278277061e-01,3.795454038032570199e-01,3.573354836893871123e-01,1.719632278982230200e-01,2.197609001936272691e-02,-1.550861972475513773e-01,-2.019951370689557490e-01,-1.209909605865677196e-01,8.549121568145797573e-03,4.390032235766543750e-03,3.514829625237443633e-02,-7.274434313806909039e-03,-2.415401482828115343e-02,6.282603569307435021e-02,1.495259560367563807e-02,7.165900014769921444e-02,1.571557863705402569e-01,1.463146220305487910e-01,2.634127087084175978e-01,2.326522862640922618e-01,2.750808534220011148e-01,1.053598124833877853e-01,1.406789675115844851e-01,1.091786605202326593e-01,-1.608212810553538152e-01,-1.305905819485785879e-01,-4.885733650063356359e-02,2.532007036899936447e-01,3.070344702477054710e-01,4.608051441802170078e-01,5.324039222506486979e-01,4.332814497943761611e-01,8.506030148251345069e-02,-7.937413965518473613e-02,-1.566670828259915382e-01,-7.696251012189511687e-02,-6.985640096006574817e-02,1.822493402516762312e-02,4.391378866563085126e-02,2.889713534837996399e-04,8.004605597862197996e-02,5.376393418728634549e-02,-9.025838156489791875e-02,5.683965931811208946e-03,1.431327021295549229e-01,6.944738026838832845e-02,4.060493309766199932e-02,1.799106324128581791e-01,1.141850015081826153e-01,1.539376089040309370e-01,2.212824442577837891e-01,7.385467479920386491e-02,-1.184982071142009485e-01,-2.343785346224669941e-01,-2.574397048675650113e-01,-2.573734011915949915e-02,1.126049780697073038e-01,2.112647651624951495e-01,2.955149329290913118e-01,3.143794608665780310e-01,-2.438677929214967764e-03,-1.669158947193939979e-01,-1.811002561362070606e-01,-2.454363282818594616e-01,-1.030514582181477484e-01,-1.691923300349961335e-04,-2.425335057163735195e-02,4.153931188742862948e-03,-3.110712902866205262e-02,4.181356675839172088e-02,-2.549760703283766600e-03,-2.474585036754521628e-02,-1.428879216958118918e-02,-7.781770899415676838e-03,2.116775000435792281e-02,4.627901127606880854e-02,1.712579631765936694e-01,7.541147549103482950e-02,7.425559442338597327e-02,-3.675170353262714826e-03,-3.128153037284675531e-01,-2.348556748963105678e-01,-3.271748635288790896e-01,-1.537255528032809848e-01,1.353569605306517432e-01,-2.809918026693044267e-03,1.069923955443732866e-01,1.055607309791017079e-01,6.572900438427012153e-05,-2.053494919962656207e-02,-1.418762801479760138e-01,-6.595223732690178031e-02,-8.603826413962578634e-02,-2.703954829264909945e-02,3.597268520094101807e-02,-2.347841730970612328e-02,1.594851636534048989e-02,-2.963132845023980916e-02,1.137468359450206912e-02,-3.334143177508670786e-02,-1.347237148689572547e-02,-8.009273173842049176e-02,-1.428926237939869004e-01,-6.597081890570614948e-02,-9.120051273049507856e-02,-8.678910542738510481e-02,-3.228056457776014992e-02,-1.470285233465011832e-01,-1.805856567057087525e-01,-4.373802497423224245e-01,-3.141655990559850675e-01,-1.508838838927309134e-01,1.186585510602905097e-01,1.616830692634801392e-01,7.645398931726861413e-02,-2.277144965306527810e-02,1.548016633071836422e-02,-6.568988350588444991e-02,-2.036118097096330515e-01,-1.306047061021761435e-01,-1.290863768072997297e-01,-9.725638393791099113e-04,5.651212142162028579e-02,9.709102685850557607e-03,3.316771760550406289e-02,4.072407105039270794e-03,2.257926481153198217e-02,-6.001466348282778057e-03,-5.864188716955386765e-03,-5.126152404586179628e-02,-2.187390424909012587e-01,-1.810910652686580913e-01,-1.131834878871904038e-01,-8.224670697355772331e-02,-8.047760353132546451e-02,-5.778744874805523402e-02,-9.762011615750493254e-02,-2.535883172166853439e-01,-3.688496560866584284e-01,-4.434381021113144306e-02,9.723483654439462470e-03,8.009586216335658204e-02,-4.079777135385606601e-02,-1.244111445105237079e-01,-1.913754386863759926e-02,-2.201870608273727992e-01,-2.219310084081807521e-01,-1.888768778276387894e-01,-5.226575638360912712e-02,-3.687048774209731455e-02,2.224311090368412749e-02,3.924192430818775057e-02,3.517473165021797743e-02,-4.406216541251321145e-02,1.527506235499886435e-02,-2.642783264857825193e-02,2.490981521688146599e-02,-1.032641998655336318e-01,-1.062802195752650669e-01,-2.256234567968219418e-01,-1.938235081624595790e-01,-1.613328661326481339e-01,-1.501092604071404268e-01,-6.850517697823249250e-03,-1.051423751903625275e-01,-9.343777939794514764e-02,-2.055623306504379688e-01,6.622902943048109177e-03,-1.152607808868986589e-01,-2.220772636447932574e-02,-3.789391285647401159e-02,-6.083326615680605814e-02,-3.834312636695775406e-02,-1.155679878619838286e-01,-1.753666917028092465e-01,-1.074037579292178440e-01,-1.075847581727810975e-02,7.584998768924147358e-04,-2.815579833753900987e-02,-5.196189400914429796e-02,3.525360643945023992e-02,-4.544580301587789611e-02,1.183774594097037301e-02,-3.230349755460786010e-02,-1.508100125063267238e-01,-1.199049155314652615e-01,-9.113366201147803103e-02,-2.074456686085709434e-01,-2.212358228078808720e-01,-2.373880211133938545e-01,-2.411855197082860280e-01,-1.469474635779031146e-01,-9.690827436238480530e-02,-1.574323075116922654e-01,-7.250907438126137639e-02,-1.129796232266136458e-01,-1.788675412219054572e-01,-1.162263002928069777e-01,-1.024172270131609164e-01,-1.489421967531496527e-01,-7.696679848001748703e-02,-2.218917096223971819e-01,-1.840152397855144006e-01,-1.223107931277254935e-03,1.356839409527213665e-03,9.628140117158555736e-03,6.237821099794413349e-03,-2.142058203976284284e-03,1.246042326930606181e-02,1.740459196114647195e-02,-2.767155900646455641e-02,-1.302901214257848740e-04,-1.118448009121010139e-01,-1.502915693913456918e-01,-1.874639839817628384e-01,-1.510595838943129821e-01,-1.838618006574486707e-01,-1.998897774866836285e-01,-2.750958032847228840e-01,-1.584975350173021547e-01,-8.064368972008816028e-02,-7.058048791673925126e-02,-1.552692128430542273e-01,-1.302971700260791010e-01,-1.755356875152610241e-01,-1.678855918506090561e-01,-2.268781160119534845e-01,-8.572447730056759196e-02,-1.788991874242641389e-01,-2.259495217039765858e-01,-3.883023076935461504e-02,6.455458106717539002e-02,5.601474034210327663e-02,1.011269006720647845e-01,2.033636067836207262e-02,3.175949163519117824e-02,-9.801238206237641859e-03,2.686223670486894560e-02,4.419912734177135899e-02,-4.158464671952815522e-02,-8.421101848042239144e-03,-1.214012583410277735e-01,-1.529885052854992045e-01,-1.380584321071652576e-01,-1.273667112897680365e-01,-2.262411413059885468e-01,-2.107058903796229510e-01,-1.007345910896285807e-01,-2.630543403030040014e-02,-4.388923312224824597e-02,-1.382073011518547001e-01,-1.720899385114192659e-01,-9.473277298204753338e-02,-1.854192982015712421e-01,-2.650415566619443442e-01,-4.499833020122153554e-02,-1.175132703439381449e-01,-1.854919177961845689e-01,-3.204960075323673441e-02,6.206253597451605319e-02,8.200225303116068232e-02,-2.581296404973588976e-02,-2.788886498320051685e-02,6.561701380750246948e-03,-2.633413825982566792e-02,-3.626260911406881116e-02,-5.528258549411885214e-02,-8.434281061566316351e-02,-7.541903400309038497e-02,-6.662470109728979573e-03,-5.238501208773047729e-02,-1.366309372679518352e-01,6.097709570585621054e-03,-2.085695942306872441e-01,-1.524491709460216726e-01,-1.826762797692118578e-01,-2.291524055117211134e-02,-1.642639761470160442e-01,-2.281743257030403593e-01,-1.200189989940095292e-01,-3.055094132189638267e-02,-2.102038298132717919e-01,-1.570745692837931251e-01,-1.150969989377629843e-01,-2.594606748894363879e-02,-5.880880930697359593e-02,1.078392831834540898e-02,2.390544424589460121e-02,9.953729377017266067e-02,1.025902482190733413e-02,-5.569339606177014373e-02,1.387953544403446298e-03,2.169308920817277636e-02,8.466587494047418672e-03,-3.948767270124244749e-02,2.043250875139738382e-02,-4.914980479287858750e-02,-3.142863169422467629e-02,-1.509837102534289099e-01,-1.569318738792727930e-01,-1.304631618375084734e-01,-1.122899349780517864e-01,-7.266171585454928028e-02,-1.180270547799757049e-02,-1.077249088676716232e-01,-1.287161681870226115e-01,-1.864060276684813278e-01,-2.125004521775303301e-01,-2.713657295537791336e-02,-1.101793004647529661e-01,-1.217133824209143261e-01,-1.501740278741191259e-01,1.057163019129446491e-02,3.396900586605852007e-02,4.521800905368794123e-03,4.777189228926555925e-02,1.715517985842460874e-02,-5.336502177225077624e-04,-9.517325570969080439e-02,1.913720595250292464e-03,4.344559808834240477e-02,-4.921526266817421308e-03,5.083894905700982181e-02,-6.832132960705802893e-02,-6.274562810001831081e-02,-1.297002250816363111e-01,-1.170340777066280619e-01,-1.811332762081364067e-01,-1.468892805325692497e-01,-1.799146453332770568e-01,-9.319410875921460558e-02,-5.443107831310715905e-02,-7.259467814229087282e-03,-1.105331798169297414e-01,-1.209715467119837490e-01,-7.550051730286662377e-02,1.046327104417542515e-02,-1.639234590792187640e-01,-1.147283870350559176e-01,1.958484300642303940e-03,3.761715248890201702e-02,9.427485298359664090e-02,6.283245686603415592e-02,1.050383498995329096e-01,2.331928462023884208e-02,1.086639874305416961e-02,-3.038043497105425567e-02,4.036186416763506979e-02,-1.789647496871758260e-03,3.929537541554115054e-02,3.667290394037826112e-02,2.773756480287604270e-02,-1.360376799087852917e-01,-8.679919900122504139e-02,-8.133364816498986349e-02,-2.103058046271865100e-01,-1.702519244064499004e-01,-2.475736627178342086e-01,-9.932989718146413571e-02,-7.307687293594357369e-02,-1.239266637669792920e-01,-2.172287743274236016e-01,-1.526262092930171510e-01,-7.186256875251560705e-02,7.383377984078735162e-03,9.946658856345130806e-02,-1.365528869427838632e-02,9.549682729887776222e-02,1.831181539703231886e-01,2.011667971093817620e-01,5.485177857243624111e-02,1.033321345740141617e-01,8.837807118402660547e-03,3.385109392162465036e-02,4.642881830160434931e-02,2.944182799417712632e-02,2.087355080850421957e-02,-5.896947809051579503e-02,-3.350844826440328023e-02,1.190456714643140651e-02,-3.702190866686542320e-02,1.587577796877314915e-02,-3.349140719224243806e-02,-6.535124712808527969e-02,-4.251415924295162685e-02,2.730133841079073961e-02,-4.212964488099953803e-02,-5.533781954454835422e-02,-2.441394580853861913e-03,4.623721823458971925e-02,1.269901389760983157e-01,1.552086534436472598e-01,2.175459531084777409e-01,3.350300506439101156e-01,1.966331675600482831e-01,2.260729027430510019e-01,2.360709295250200679e-01,1.762389820795216555e-01,7.009277552347248363e-02,5.015901435183858781e-02,-2.093815319863212565e-02,-9.345144776075699211e-02,1.665107172218024435e-03,-1.823106375831171078e-02,-8.147285688763277953e-03,-1.237036531884588494e-02,-4.116034561918686940e-02,-3.031433101158474003e-03,-1.704903024365562320e-02,-4.274709697266250441e-02,1.075924017158348678e-02,9.067365364086419841e-03,7.321651170329817292e-03,2.193820372926759063e-02,-8.155795383693339659e-03,-2.737936839326718039e-02,4.382664040343655504e-02,8.147620575209077454e-02,1.354776424574578864e-01,1.344164746033572611e-01,1.986681058916384690e-01,1.182119013008069291e-01,1.195355274213966701e-01,1.518207703318565915e-01,4.743877264089601392e-02,6.498928183232847901e-04,7.537458426213590815e-03,2.175950206150273347e-02,5.502886692870120888e-02,-9.324732162223011572e-03,-2.114621663509399369e-02,-1.645576037824263149e-02,-4.207384214105144848e-02,2.991539332227175635e-02,-7.426032426156732244e-03,1.207104534145641422e-02,2.847893871181476910e-02,2.884806439031194908e-02,1.108543945522446825e-02,3.938923986134695854e-02,-7.276571309373840168e-02,4.029315150189706485e-02,-1.912568967305066162e-02,-5.036408384067154326e-02,-1.420374548158248075e-02,1.095658926698611819e-02,6.228625025463508519e-02,3.360724900132432136e-02,-1.985137237701375609e-02,-4.035291759428314556e-02,1.310650036522967646e-02,3.831159409804228699e-02,2.942444039692260205e-02,8.811621416548044705e-03,-7.792851743453569485e-03,-6.407183399908426141e-03,-1.005070931721254307e-01,-6.564357453198728376e-03,-8.157052931389036782e-03,-3.010991294185568629e-02
3.254685626549178729e-02,-5.501857044549281900e-02,1.645329117547108741e-02,-2.301814022344003327e-02,2.856433787618695326e-03,-1.329367514543099496e-02,-3.919537944911671151e-02,-2.168767846073459474e-02,-3.051118869747486764e-02,4.336428081426999502e-03,1.517490190832046157e-02,1.130273070131980126e-02,4.732983798564584753e-03,-3.905301940537823230e-02,-2.810080922117073193e-02,-8.824801758674824526e-03,-2.491437072788841786e-02,1.518207056917748182e-02,5.244076599039027703e-02,-7.174966244143252993e-03,-4.400683889518201136e-02,2.905278211185876799e-02,-1.742527344241667428e-02,3.713595687903760954e-03,-3.534124653855118953e-02,4.486760699430693972e-02,1.061582349029433978e-02,-2.422772179602771317e-02,1.056027016934391397e-02,5.323505128606142306e-02,2.794544975292089992e-02,-3.511009282197437992e-02,5.746662804831038224e-02,4.884306162851909626e-03,-7.267969775600764681e-02,-1.656974556934354484e-02,3.134300262079434823e-02,8.755816358735747304e-03,4.168048332110230202e-04,3.129207911021815447e-02,-4.488955247090160167e-02,2.830723124356153420e-02,-1.157963530965387851e-02,1.152213527210303561e-02,1.611505033815966575e-02,1.684983514895869311e-02,9.248542032095704787e-03,-2.993673278251214598e-02,-3.446219143057117906e-02,2.870326126147501253e-02,2.088724261086387368e-02,-4.967437880019195257e-02,-1.025020170390786717e-01,-6.350006747138879463e-03,5.963736791080146565e-02,-6.350851647628999452e-02,5.606562830764226339e-03,-2.313039611022230449e-02,3.739101997260125924e-03,3.711439617957664611e-02,-7.924326282009162836e-02,2.111118667024830878e-02,3.466435292324714090e-02,7.048664497923061781e-03,1.625324292026847708e-02,1.373616637754228580e-03,-2.375321223291807990e-02,6.301549411013224189e-02,4.830011452883060941e-02,1.687651128909276391e-02,-4.553565429518133256e-02,-3.388414177184750908e-02,-2.527846878785999438e-02,9.970191174595483680e-03,-4.994064824478270520e-02,2.656993869466815414e-02,-3.735263021287327928e-02,-3.060995594331200262e-02,-8.094720386364159109e-03,9.016151014806630948e-02,-6.300736030378024021e-04,8.740201897608518289e-03,-5.443148527202974936e-03,-5.538504616627926841e-02,-1.393069880128248658e-02,7.422526252033383133e-04,1.976972218124807557e-02,6.295516143600366973e-03,4.619873574179703124e-02,1.092953479343037985e-02,-3.089507933437963400e-02,4.903209951651177345e-02,-5.988738087326887782e-02,-5.393690775473593962e-02,-4.639343251961445397e-02,-5.273118903579230438e-02,-8.649747448650484116e-02,-6.458622010296757865e-02,-1.292592828958962770e-01,-4.446883587839492447e-02,-1.226933953386514231e-01,-6.962346034311134302e-02,-1.262595180687047791e-01,-1.074179990598041201e-01,-3.115222171903630349e-02,-5.869048977689221569e-02,-2.034025889399667872e-02,1.558597946921839832e-02,-1.916982823311283446e-02,4.388686184847732236e-02,1.103949317095473219e-02,-2.645589578532283812e-02,5.434602358523079463e-02,-7.413692983504741041e-02,-2.745434238824015494e-02,-3.238870195868321505e-02,7.928652450866267506e-03,1.752095463489019775e-02,-3.360521853870301889e-02,2.960600602635395442e-03,-7.274883018922333189e-02,-1.863846777441418787e-02,-2.488321862024507267e-02,-5.724994249222199044e-02,1.416157705757670540e-02,-7.250088622795351767e-02,-5.541579736854926330e-02,-3.944702537968405864e-02,-3.245705524651303076e-02,-4.945853805101062955e-02,-1.057306586442281066e-01,-3.995515220668720106e-03,-2.307680609510583819e-02,-2.916046928803535734e-02,-2.459833500449725222e-02,-8.080881398166311382e-04,-3.202118006504634396e-03,-3.342802965037453694e-02,4.794924427221449598e-02,-3.458584527579251083e-02,4.007570320288770388e-02,1.897344512298300770e-02,8.455897927765859126e-04,-1.183472904015161337e-02,-2.300278950539851042e-02,-2.607806001499908544e-02,1.491292826122045520e-03,-3.210698948009892140e-02,1.669605633841339878e-02,-3.409377792983312588e-02,-7.595267070891718875e-02,-5.145924831294185903e-02,-1.659727002107823091e-01,2.517244544621568408e-02,3.446382455850048598e-02,-5.470656335171923679e-02,-2.996765679836640994e-02,-7.656614701367904507e-02,-4.285072913909885456e-02,-6.480187218172019092e-02,2.557637963803683842e-02,1.542612659314981363e-03,5.655071115195244025e-02,8.009598965642118762e-02,2.657314116962816719e-02,6.120903966687796238e-03,3.873217257881771125e-02,-1.741236972135375843e-02,4.544419755981028014e-02,1.577496119263572388e-02,4.374895051776302862e-02,-3.965328547654519559e-03,3.072294668697269499e-02,-2.546668730515850090e-02,-2.592147974547189676e-02,-3.285812715168539427e-02,-2.355271787931860483e-02,4.113369630733812454e-02,-1.637917821391318002e-02,-3.866838370037229745e-04,-1.201933527456830880e-01,-6.608639697774219834e-02,-8.340173771271805481e-02,-4.586214048940628202e-02,-6.400027012324811804e-02,-7.027710378117923637e-03,-8.850666488282230016e-02,-1.357685006653568116e-02,1.184359729969746422e-01,2.254702190459994746e-02,1.209046672682925067e-01,7.231859934956723357e-02,4.747089060350274600e-03,-4.122529875532043170e-02,-4.542465297365298749e-02,1.898127785323531699e-02,3.000730546686190131e-02,3.046175806450740139e-02,-7.220063983771677057e-04,5.152851957453926518e-02,-3.953249575243960451e-02,-5.835072962433313082e-02,-6.622343441714710621e-02,-3.364964761063008597e-02,-1.480521123706778942e-02,-5.407342168809416844e-02,-1.235979972556186524e-01,-1.534067653723195368e-01,-1.078360930942666440e-01,-6.868610222825982659e-02,-6.157667891670522142e-02,-5.407312110835601343e-02,-5.438532920309457203e-02,-7.606613005776451109e-02,-1.111137833377551318e-03,6.086403627139508332e-02,4.116325329121834492e-02,2.405432130543134692e-02,3.297837747526034119e-02,-1.081139290933885722e-02,7.841634775237882674e-03,6.876118015930381133e-02,-5.176339192620913604e-02,-4.293887221202494914e-02,-1.800277366561554154e-02,1.943530190724292520e-02,-9.286267640534704229e-03,1.878784219694357854e-02,-6.662363800447564099e-02,-3.376849581168088477e-02,-9.493829224396239941e-02,-9.365621779877164599e-02,-7.663223122059176218e-02,-1.038348962329301850e-01,-8.498012839767096760e-02,-9.146977074515671990e-02,-7.855234533841487510e-02,-7.114560658822191574e-02,1.619978087037630618e-02,-4.872166468283136570e-02,-5.054613562940801774e-02,-7.784810268188904758e-02,2.112926974937251109e-02,8.984675340820669990e-04,-5.200784998910466111e-02,3.963323519294571079e-02,-2.114851773445039496e-02,5.749811547208093232e-02,8.035529322845988420e-02,3.461621225791292170e-05,1.160189483086408605e-03,-4.701009841021036584e-03,-3.334351976543802748e-02,3.651869974382668249e-02,7.846948133093891234e-03,-3.090032393290866389e-02,3.668935414243710419e-02,-5.602299690150359252e-02,-7.888358888170279859e-02,-1.216909031983667705e-01,-1.320306323668061499e-01,-1.382727518695507085e-01,-5.569595497847279475e-02,-6.077951123984187687e-02,-8.305556094202144746e-02,-3.798840618903040478e-02,-3.776248371459715869e-02,-7.840388098869632838e-02,-6.460483563646719773e-02,-7.067236509260009514e-02,-5.013878516824150922e-02,-1.047095817912493260e-01,-1.157016985761757455e-03,2.689689898932394550e-03,-1.399273117908911290e-02,4.064694442214360388e-03,1.094324160428262749e-01,4.466790984473503062e-02,-2.201960353888947688e-02,-1.676213055493537898e-02,5.981472447967045580e-02,4.666709997802537258e-02,-2.165556437501591977e-02,-2.561929991618858843e-02,-3.663100834935055505e-02,-9.813743134567308457e-03,-9.480978750924966281e-02,1.926227465839324901e-02,-1.957449397920061132e-02,-8.922410075328107704e-02,-3.237571369493116163e-02,-4.956563581881420766e-02,-6.386191176765899924e-02,-3.124828865516040069e-02,-1.012050304046531318e-01,-3.593052767183097657e-02,-8.265572737518907254e-02,-1.519456505864280604e-01,-9.556680715746249111e-02,-1.168057940904758119e-01,-1.438583195812932480e-01,-2.753593353144894243e-02,1.727422013818451230e-02,-1.740752001804006521e-02,5.494165503177178556e-02,-4.095550929261134593e-02,1.950846854070202238e-02,5.915613616907734219e-03,1.090290176538056752e-02,4.503330390363600999e-02,-9.430704306650583221e-03,2.090979615237551284e-02,1.848165007743060584e-02,8.537798400700793988e-02,7.040539085559269043e-03,-5.383113782798604197e-02,-3.062682609321425511e-02,-1.094819284414524779e-01,-2.317945696236162548e-03,2.746766844645217101e-02,-6.244814471047957505e-02,-1.122150987454968857e-01,-4.966284963416504883e-02,-9.803839299825216347e-02,-1.154826457942524226e-01,-5.326095116618723146e-02,-1.230995409943972524e-01,-3.938856731538749323e-02,-9.144541525971629226e-02,3.150638053876438777e-02,-1.184057071826406793e-02,-7.672785008718745192e-02,1.685400982755764446e-03,2.453428612875448167e-02,1.494324528040599613e-02,2.803775820269583698e-03,5.978160886280195485e-02,-5.747356979180871794e-02,-1.687985840397976042e-02,-1.087792482024001021e-02,-4.218409961624287191e-02,-5.501541786726464600e-02,1.996536933889945034e-02,1.097445732339178727e-02,-3.367514290679938724e-03,-1.095335686319125201e-02,5.551516538869964712e-02,-5.321010169103725096e-02,-4.966779253820989559e-02,6.422389393309890435e-03,7.866683074583503618e-03,-2.589584370163417956e-02,-1.176252588822205847e-01,-1.096306314389973446e-01,-9.159780154999005997e-02,2.305305368661438384e-02,-1.237378038051395873e-01,-2.776255014186990167e-03,-1.624939213305113747e-02,-2.735892247067218952e-02,-1.378763048803632874e-02,-6.418841551133917800e-02,2.263978101305303553e-02,4.674825752115688293e-02,-3.136606527553068187e-03,1.573003910354687368e-02,-5.675427996534605779e-02,-1.552892151069555117e-02,-2.172595587228689162e-04,-2.161894376142237464e-02,4.150538567325289668e-02,3.223978346136422563e-02,9.386346552799556403e-03,-1.684813508153610098e-02,2.483715229131029656e-02,-1.119558371519535217e-01,-4.834461710216270136e-02,-4.498697836860642008e-02,2.829259746225665575e-02,-4.945130654545785293e-02,-1.047869431786986744e-01,-1.185204925707563361e-01,-4.882435170831825322e-02,-4.314253595281267867e-02,-1.161948079949922524e-01,-7.082964937312925813e-02,2.462847951911785807e-02,-6.778149426818064205e-02,-3.830006041651203008e-02,-5.010938964911181015e-02,3.750238264716364636e-03,1.585074812283406237e-03,-2.662248291077204052e-02,-4.175679530045008775e-02,-3.073339917725196810e-02,1.808074247308151181e-02,2.224149400511489863e-02,-5.706787575970908438e-02,1.194726926741608991e-01,1.539865909681829154e-02,-1.555996341297796043e-02,-3.597664600201792157e-02,-2.765251252550321448e-02,-9.527441409970614783e-02,-4.694772112640470396e-02,-4.520381788635646769e-02,-7.550502073025912309e-02,-1.164976406797632175e-01,-1.920846921674037311e-01,-1.378083571182171785e-01,-5.078035855202243931e-02,-1.201371431569505793e-01,-1.686846476438611658e-02,-8.769115475852860830e-02,-1.528597822352514325e-02,-1.497475659694557856e-02,-1.733711297292124878e-02,-1.872611203458625015e-02,-2.402181240240064148e-03,-1.635335426270005665e-02,1.816901024199687499e-03,2.649285648747797678e-02,-3.914664422949847879e-03,6.987614840679344345e-03,1.643680432445069825e-02,-3.906197904009528401e-03,-1.561133644041038000e-02,-8.721646109960141252e-03,2.018676660596516875e-02,6.216756587489987362e-04,-7.259070043569273989e-02,-1.641612308363488704e-01,-6.586813697008561674e-02,3.867082138690332641e-03,-2.961604839416754134e-02,-1.576954777565841570e-01,-1.165279632947892885e-01,-1.622190960085044265e-01,-1.187656669815421590e-01,-9.901084870461897280e-02,-1.528413801616233247e-01,-1.253485465543210109e-01,-7.536135122728440661e-02,8.574168408068150518e-03,-2.497290212302550813e-02,-3.651604942251883423e-02,1.999815932534154683e-02,1.708716630020122237e-02,-8.604096725606664694e-04,5.499939334054106121e-02,-9.999962338843222404e-04,-2.406957969888729246e-02,-2.816942676622617367e-02,-1.961210718952991275e-02,3.631209204164202037e-02,5.993579201678224389e-02,4.456226327821373456e-02,3.530936455333199414e-02,-9.088066176162057710e-03,-7.835680816908706381e-02,-9.726906731590048705e-02,8.399056996903901673e-03,-3.370376095095276719e-02,-1.588104837769789904e-02,-6.908059750070252858e-02,-9.830929054845577442e-02,-1.078579884419003515e-01,-1.721317852821613315e-01,-1.509853532979823498e-01,-1.169709781651134539e-01,-1.068070516763489075e-01,-3.999482802540185039e-02,-3.663261565688220867e-02,1.024338568544497403e-02,1.339381099183039464e-02,3.696065615559544770e-02,2.732761492501792691e-02,2.767302937971408139e-02,-1.264786626147778106e-02,-4.378821231853011371e-03,-6.945228702831435230e-02,-5.019983092816672487e-02,2.745447689698499519e-02,7.028804205266792060e-02,1.279811631189855430e-03,-3.188428910047858781e-03,-3.504369938439882287e-02,5.026573210532234853e-02,2.785108964745574775e-02,5.487426210591046100e-02,-2.875789206082880745e-02,-4.161852264400919127e-02,-7.037793060748122331e-02,-8.684302182644132451e-02,-1.243585305495454874e-01,-1.410803231564054794e-01,-9.823180780896972886e-02,-1.329139553288526399e-01,-6.703496250226663455e-02,-1.129825638523650061e-01,5.268220573388044184e-03,-8.177699112867331532e-02,-1.624841595594992208e-02,-4.147254144179557400e-02,-3.876738476683688761e-02,8.040212808687878521e-03,1.743507093581440209e-02,2.708355768728316557e-02,-4.808540915187134446e-02,1.342230646615706451e-02,8.197779656329822612e-03,9.743636483102072199e-03,-2.136513972813716342e-02,-1.115302427064431140e-01,-1.581138577114220567e-01,-1.648030764213728738e-01,-2.178564608366889005e-02,1.361465369541182448e-02,5.147136797203419323e-02,-5.384699629859429973e-03,-8.663631022043039032e-02,-1.633746278913058569e-01,-1.204934015362572192e-01,-9.360767567879903217e-02,-1.147655197535339677e-01,-1.213612294030290695e-01,-6.512620786870623735e-02,-4.834009259649265852e-03,1.317790330052727010e-03,6.036071723574173292e-03,2.823589095227794360e-02,1.331214646979635846e-02,-1.772994808863976798e-02,-3.608638892006933718e-02,-4.396380155810563489e-02,-6.062202090819293621e-02,-1.031051419575097772e-02,2.197266666992175183e-02,3.670131197673209920e-03,4.660652019823366410e-02,-2.137924289086518687e-02,-1.213004442894828200e-01,-1.948951810575580146e-01,-1.754336304715407580e-01,-1.794478032019644620e-01,-7.560592361662679672e-02,-3.525761510322732856e-02,-6.445556612419539415e-03,-6.818294901146075560e-02,-1.024858880859381843e-01,-9.330270880714212900e-02,-5.400495619439665829e-02,-6.811254844385089546e-02,-5.660217250109348536e-02,1.252800706478623786e-02,-2.584499250994589780e-03,-2.817924516812160551e-02,-2.140004907557155681e-02,9.488514207286628810e-03,7.187361788194564054e-03,4.742354159595980195e-02,-3.430635116687538039e-02,2.864612532598056691e-02,-1.070390738848556872e-02,-3.992402482778650841e-02,-4.150966603074338762e-02,9.637543097558014249e-02,3.548069432015137775e-02,-7.818725452056320135e-02,-7.006831593783441336e-02,-6.413136633841856615e-02,-8.801640826193909972e-02,-9.915700064658934665e-02,-2.925507909450816499e-02,-1.581221783132464309e-01,-1.249460505255641923e-01,-1.025635651483409322e-01,-7.778936011900811076e-02,-1.090492256567418966e-01,-8.143103842343279997e-02,-1.167251624469109184e-01,-3.118754396055676767e-02,-6.056945917338200230e-02,-2.865447196356188733e-02,-4.641694965307627957e-02,-8.140260639618927124e-03,-2.430761547679650362e-03,-2.378863887593882925e-02,2.927195981242383324e-02,1.079103061613712403e-02,2.150905008705571164e-02,-3.451563777534859961e-02,-6.952503290452934775e-03,-5.956844782555616169e-02,-1.967698143370309391e-02,6.005297931443678849e-03,-1.703049816572757211e-02,-5.261463429750598553e-02,-5.791979454776115255e-02,-1.332844880837071588e-01,-1.883151828970885955e-01,-9.608259753766570932e-02,-9.953854657789398819e-02,-1.019045123183110468e-01,-5.171686871234961597e-02,-9.622902791109430587e-02,-1.022904534931442233e-01,-1.160029665574691810e-01,-4.601858942519142237e-02,-1.669568559002205729e-02,8.582951034500026005e-04,2.714260792100885774e-03,-6.111066669290141605e-03,5.434457722141412817e-02,3.505476527259997199e-02,9.148749823967632089e-02,-2.547469276330246654e-02,-7.498929304958532917e-03,-7.770068633988597151e-02,-7.341580517461167993e-03,-4.059502814141387195e-02,3.250504779438440073e-02,6.289146743954496244e-02,-2.618865981170769019e-02,-7.160966786329674150e-02,-1.547544564922541388e-02,-1.251171218470023550e-01,-3.493753365951614287e-02,-1.239907681128500777e-01,-8.522198194434550678e-02,2.880516370456294786e-02,-1.726686086670079223e-01,-6.413720481027153364e-02,-2.317704825724262174e-02,-1.217220294402011904e-01,2.467024932186194074e-03,4.782460257328428888e-02,4.966889602110951749e-03,1.374246222937289784e-02,-3.740380528839325897e-02,5.897425210698654940e-02,1.702571104851178033e-02,-4.072710110206236717e-02,6.099218752440168506e-02,-7.455853755054316079e-02,-5.808588171600281673e-03,1.173622445625904266e-02,-2.960280360648747874e-02,-7.488953336995804455e-02,-7.896055025702131136e-02,-4.125219918955536774e-02,-6.536754004029352028e-03,-1.913412981878728075e-02,-2.949131985098704667e-02,6.011108971652461691e-02,-7.304522044834399486e-02,-3.106412088981495151e-02,-3.222832428270051147e-02,5.500171787994317246e-02,-1.117800292550077084e-04,-8.454644603481182435e-03,2.183053231881810705e-02,7.439733181111297944e-02,4.624589373636815021e-02,4.501693873427293352e-02,3.255803433492797036e-03,-9.792803292022696920e-03,-4.021375998022659604e-02,-2.811819396909448834e-02,2.124600760758396656e-02,7.199936511804865512e-03,3.400433845707786368e-02,-1.561327241306844499e-02,3.914675620293039254e-02,-2.972230039279712133e-02,-1.409351537748884838e-02,-2.368168753367787260e-02,-7.391648638203840438e-02,-9.520117789168400582e-03,-1.191469613268524991e-01,-7.628287197731822844e-02,-3.564683220920321360e-02,-9.370137305550527151e-02,-1.102560224652710807e-01,-1.007135648809200368e-01,-1.017907843208933072e-01,-6.432177074870928934e-02,-3.807488105979283527e-02,-3.279539280066633145e-02,2.653646293706160911e-02,-3.417471879667149937e-02,3.598405612260669600e-02,5.354549401819883730e-02,-3.878527028001634014e-02,2.064130586531882569e-02,2.270462950968314686e-02,4.995663446422877844e-03,-2.007932202786283371e-02,-1.032635890973965243e-03,4.374734978500566945e-02,-1.801661510468308483e-02,-1.107409776752378699e-01,5.055364738647073058e-02,1.297165124310038602e-02,2.765162075512455492e-03,-7.065522087848080668e-02,-6.031927111035972899e-02,-3.800239789470703095e-02,-2.047490522886273243e-02,-1.188468796265027827e-01,-1.047635899941024573e-01,-5.618372778782325383e-02,-9.053583302090184581e-02,-3.545601365243992997e-02,-7.959087217304697259e-02,-1.168733474885156054e-01,3.623053589351956337e-03,4.162315976239206600e-02,5.661312519182661865e-04,-6.412510288201611619e-02,-2.435379574400475464e-02,-3.251022828890228616e-02,1.284476519856568230e-02,5.100479871647434216e-02,-4.734707335436505460e-02,2.442813470032357930e-03,1.781244933481599194e-02,-7.934134351697617448e-05,-6.774671731465095430e-03,4.586263367510120398e-02,2.351787204003382911e-02,3.487159176523377951e-02,4.715993541004053109e-03,1.593724301403601652e-03,-8.746093333071011666e-03,-4.851610071085403486e-02,-1.595640808004943761e-02,-9.357305724905116626e-03,-1.069166300213708620e-01,-8.176329449508816516e-02,-5.336559640826057244e-02,-3.966707661757269687e-02,-3.483742794184294458e-03,1.434102747412143233e-02,-4.948324951822823808e-02,-2.746998248510229557e-02,-6.890657257976351424e-02,-7.551851347590649022e-02,7.669608006483685791e-02,-3.597160888050678854e-03,2.549090228070095138e-02,-2.057554613607409655e-02,-9.231498171091861993e-02,2.493997290033983863e-02,-1.540195237508346429e-02,-2.336404218616780840e-02,4.499640825183449239e-02,5.559624727742499932e-03,-6.349570263056997232e-02,-1.412020089682251497e-02,-9.208386945381108468e-02,-1.411792286559713019e-02,4.346308464116017262e-02,-1.010728892816713156e-03,-8.493346858058775650e-02,3.887101118230944924e-02,4.382318170239572069e-02,-3.486168719904510910e-02,-3.186818293985570205e-02,-3.477426866116668097e-02,1.793316192167323728e-02,-5.285257341961453748e-02,-3.425798710406775804e-02,-8.232571649318728979e-02,-5.500460415783232047e-03,2.805246381294702190e-02,2.799323486015583944e-03,-1.799604171034228928e-02,-4.467590775944232061e-03,-4.806787266857163315e-02,3.533325367295742786e-02,1.263620236570287339e-02,6.523950564170029331e-02,1.769191637650002411e-02
8.057755348186665043e-03,-3.752575640598954793e-02,-4.550650505563162002e-02,-3.031092527993485899e-02,4.448752415855991571e-02,2.423319681900388753e-02,-6.096337872694777144e-02,-4.478909669041418289e-03,-1.618540654042770893e-02,1.993677003198868810e-03,7.518437744447025069e-03,-9.249211541657180458e-02,-2.900594361925779366e-02,8.000075838614945437e-03,6.979704957334795408e-03,7.162224357932524266e-02,-2.167910567368180538e-02,-5.318429539933983326e-03,-3.683349654480941923e-03,6.035968996024353855e-02,-2.914945041537571075e-03,1.078023956489651720e-02,-3.837018811355237969e-03,4.293965160983232582e-02,6.400850624736496852e-02,-4.440437912505735239e-03,1.256168346794380407e-02,-3.394934310577062131e-02,5.317232901290299546e-02,-2.780800504870882192e-02,5.430729667082820344e-02,6.674765709736581176e-02,9.268793268406812225e-02,-3.814400495534396585e-02,2.935193157604215272e-02,2.725303934336338260e-02,1.262937432040147842e-02,7.828145292269891864e-02,7.676977153278402577e-02,9.886740894518521519e-03,-5.604370256130853517e-02,4.007332200217357532e-02,3.898876696596668967e-02,9.624629468225394001e-04,9.462528976551148885e-02,-3.390486350899870466e-02,1.932359125277165884e-02,-1.099663319111792228e-02,-4.284547161611045041e-02,2.199122356173589463e-02,2.441212237518798969e-02,-2.961569036671069313e-02,7.738968208224113882e-03,1.225908654596088131e-02,-9.232550191182775298e-03,1.791204763141298131e-02,-1.176327110886657727e-03,4.394745912991784853e-02,-4.680791612812581354e-02,6.617110727697225747e-02,2.180669889877306488e-03,-2.470154615816384097e-02,6.804847975978710328e-03,2.905261741614245316e-02,2.505651596393825009e-02,-4.315474908845488150e-02,-2.379287691642129315e-03,-4.194713279647323961e-02,-7.565913721428886574e-02,-1.011928182916514707e-01,-2.687644878719427401e-03,-4.242043861816455208e-02,-2.440329160400507742e-03,-4.523065956087850975e-02,-3.800508278780682925e-02,-6.114694680137270494e-02,2.422106995376735808e-02,-3.732906445810314083e-02,-4.811391114129417307e-02,4.829227293398199311e-02,4.207255156271193924e-02,-6.984379597147270802e-02,-6.631071822593491427e-02,-7.146003025516353517e-03,6.303509742462350129e-02,-1.098478342833082537e-02,-4.108348831501618115e-02,5.441364662043969569e-02,9.623649562278482894e-02,-8.638694049912630513e-02,-1.943727474559684559e-02,3.193017083285842449e-03,-4.547015586903785378e-02,4.160466853107371715e-02,3.732253771676245519e-03,-4.287575450168375213e-02,-6.352578338935092883e-02,-1.260529949480039824e-01,-5.991310664631861738e-02,-1.192533532833934262e-01,-9.860610260108125524e-02,-5.482377220683665175e-02,-7.042989434848898056e-02,5.135022248754407418e-04,6.333132300652130620e-02,-6.716707653585279880e-02,-1.435234013709209278e-02,3.618152120207793199e-02,-6.155461999765154263e-02,-7.244659301502165416e-02,2.718716395744888784e-02,-1.999901778691242152e-02,3.874431790180908608e-02,-1.781659423658970079e-02,-2.382277610271706439e-02,6.388615016178185446e-02,-7.673654469183419026e-05,4.499642477090134984e-02,1.056735446790067062e-02,-5.329464941321897069e-03,-2.297909853610377237e-02,5.999755494164380615e-02,7.384662308827331934e-02,-6.814408894772371050e-02,-1.819723567100316186e-02,-8.942341944099863743e-03,-1.563606710546983913e-01,-6.219083404655582209e-02,-1.031895501381561824e-02,-8.825973985291107882e-02,-4.859749183868643935e-02,-1.535932511134111868e-02,2.078836558974242119e-02,-7.108892680600360781e-02,-2.406372422975021005e-02,2.704742914819021314e-04,-1.603965423513897814e-02,-2.911468377613619929e-02,9.226533356841211397e-02,-7.730853176416711825e-02,6.415000250310293022e-03,-3.875869481439214986e-03,-5.667641980872387131e-02,-4.129499953668022000e-02,5.451853590129136784e-02,1.033854416289233108e-01,5.464578049933722231e-02,1.744093190704260748e-02,3.974956228537805669e-02,3.756321218150136809e-02,1.067809381445528200e-01,1.062125017593668341e-01,-2.834089472497805517e-02,-7.544924767190666626e-02,-6.272234169104316803e-02,4.788132661630824238e-02,1.273399921571994331e-01,5.097680659427319960e-02,-3.818813706370943750e-02,-4.787764905009027350e-02,-8.323735026583532759e-02,-8.174372034931520759e-02,-3.179120446956654189e-02,3.713480583460774392e-02,4.529911047836081978e-02,-3.669483350630754065e-02,1.275593711032016637e-02,1.838495703494368028e-02,-7.153729910662281859e-03,1.793961603444982301e-03,-6.540811588169428981e-02,-6.681122204238952415e-03,-9.009160534511336665e-03,-2.425735358443116205e-02,4.104141093798371193e-02,4.887571622913627206e-02,1.379862066363495531e-02,9.549340013950714801e-02,2.625822089053121700e-02,5.196270260175009370e-02,-2.104613642654914324e-02,-1.135225557495930654e-01,-4.129404524305683305e-02,-5.339733758494868282e-02,1.754060953463847106e-02,3.826177132792150937e-02,1.033280378406756517e-01,-1.013003072711840535e-01,-9.646333693691959421e-02,-3.873232080412650907e-02,2.413091382959250963e-02,-4.499037483515959390e-02,1.908492180316195483e-03,3.159826908995551353e-02,3.956032970881286082e-02,-4.398665533033149083e-02,-1.623136318762229482e-02,4.448594316220942646e-02,1.158963450572879882e-02,-2.966234250600009378e-02,-3.802089952415891455e-02,-4.331544561010976929e-02,-7.747291636444195639e-04,-4.882573113288945360e-02,8.207472346285177300e-02,-3.455378064617841555e-02,-2.348110823506195655e-02,-3.960411994923511252e-03,-1.596547076856303093e-01,-1.650557441026197225e-01,-1.606804438070915941e-01,-1.360758228052089958e-01,8.859990952971784350e-02,1.177191857750503334e-01,4.086997228632828494e-02,-6.951722803324809907e-02,-4.314610769993767331e-02,-9.402021501927647351e-02,-2.233861957656420316e-02,-6.334341797105577654e-02,-4.349791620617689258e-02,-8.803647512310379397e-03,1.021499028850174524e-02,-1.497054238505095107e-02,4.120409019767708875e-02,-2.475115910565169400e-02,5.167035167401561740e-02,1.415489797959456827e-02,2.831689876859258548e-02,9.146738804282461555e-03,2.326381113866234085e-02,-3.365049447219234380e-02,-4.880770274076340343e-02,-4.517156323855316818e-02,3.235140589575007108e-02,-6.296945678941369418e-02,-2.738189780977354215e-01,-3.523971845799755420e-01,-2.278318798418302593e-01,-1.110543186881764455e-01,1.148614556541105169e-01,1.369650952692740564e-01,2.235691517396033289e-03,-5.635394610879762740e-03,-1.253168871509310889e-01,-1.049276435143064456e-01,-1.531239138924735399e-01,-1.698580699080868006e-01,-1.293253307393336937e-01,-2.660563548045073202e-03,2.591237676370859375e-02,-2.870714316757903492e-02,4.972789454852795388e-02,-2.395500840333952830e-02,-2.501559656489071859e-02,-4.332124054923949114e-02,-2.658940876084455243e-02,-7.149117392870880938e-02,-1.111949407561474423e-01,-9.478136334940398533e-02,-7.704900580465266768e-02,-5.046308911755727211e-02,-1.883648041540486595e-02,-1.882807723300555514e-01,-3.457959965032200711e-01,-3.852387933251820162e-01,-3.261191016164396439e-01,2.601127168173066398e-02,2.020091813265824099e-01,9.867151642797837574e-02,8.773296954569981265e-02,-2.575460854164547328e-02,-1.088599973670722337e-01,-1.152534358932957720e-01,-2.132893108062312859e-01,-2.644767219767186206e-01,-1.339188431460159590e-01,2.691463097884934375e-02,7.708090248736399440e-03,2.566681585155948173e-02,5.170589565009089950e-02,5.865884229843758291e-02,1.587147753877969289e-02,2.073768831921355901e-02,-4.580630100202085636e-02,3.433607908060048140e-03,-1.742837059907722530e-01,-1.729345665065362692e-01,-1.278891123246066186e-01,-1.184884422830615180e-01,-1.386088694271813415e-01,-3.614009351508030154e-01,-4.032433071229542532e-01,-3.746095977385680564e-01,-1.598202434961883134e-01,1.543249383858201762e-01,3.007729495830587796e-01,1.890529201416943639e-01,-2.522658550796903071e-02,-1.349580847383814453e-01,-1.276939874121405250e-01,-1.286998654730775737e-01,-1.520587418818613590e-01,-1.433179161469467500e-01,-5.978888822314232937e-02,-3.285749738942620986e-04,-2.752811221854071979e-03,4.492076298219740277e-02,-7.997497115832191694e-02,-2.686161977986652877e-02,-1.006563003365834423e-02,-3.335025178504412435e-02,-1.001376162153786997e-01,-5.063924831354758155e-02,-1.039364822903524888e-01,-1.503722961920054557e-01,-1.962434627200931037e-01,-2.498082970003985825e-01,-3.456609258907350490e-01,-3.677976402020915470e-01,-3.691610632813825399e-01,-3.783306424325693640e-01,-1.905216480209452057e-01,1.479226306000296365e-01,2.695893202114679199e-01,1.718272391391481302e-01,-1.523872619899247112e-02,-1.054422524732901156e-01,-1.317376578574793455e-01,-1.690670703398180208e-01,-1.444762450992143621e-01,-6.532756656620852809e-02,-4.509965151219742785e-02,-1.892333185968678166e-02,5.129044787252377141e-03,4.031300607421821336e-02,3.043189318842665428e-02,-5.695465964413604781e-02,1.270273791819336202e-02,5.107286314341174388e-02,-1.215345649747734749e-02,-5.857560101006874242e-02,-1.895728267722976423e-01,-1.313228985540042804e-01,-1.995056532339443689e-01,-2.248618042949592777e-01,-3.039005086373720577e-01,-2.813352085837610428e-01,-3.300849253300422448e-01,-2.581750729686256296e-01,-1.910777948273763571e-01,-1.710279315648993020e-02,1.447231657278570671e-01,-5.360582169499605171e-02,-1.444607293976511719e-01,-3.261581437458295207e-01,-1.772193475677628638e-01,-1.417136872934298686e-01,-7.308402984642882461e-02,1.896884935160228925e-03,1.604705567733426610e-02,9.164899216702953114e-03,-5.032282187790307337e-02,-1.847520023855984614e-02,5.063017776106063482e-03,-1.086552537533195216e-02,9.174755205030579036e-03,-2.786928248372381664e-02,-9.728442362341066518e-02,-1.552505729507352716e-01,-1.073129246837935674e-01,-1.711466773806887276e-01,-1.614003360244207486e-01,-2.335369371708281849e-01,-1.658556355511389135e-01,-8.502313316358854622e-02,-1.098898591753214304e-01,-6.983243661454889561e-02,8.793307653385007763e-03,-9.420738253133514916e-04,4.652651621148559680e-02,-7.355256105899340979e-02,-1.439189078310457448e-01,-2.181956864197342749e-01,-1.702900851081646794e-01,-2.018881907858610658e-01,-7.404610009382556202e-02,-2.406670898170272174e-03,9.531821433576698199e-02,-5.063348250890177191e-03,-8.162627822512302789e-02,5.353913268354776843e-03,-5.836218869188634049e-03,1.110565905901409085e-02,-1.800617409507416762e-04,2.376654203250658931e-02,-2.638126706240141728e-02,-5.062932959654500159e-02,-8.772979906209811551e-02,-1.454283403326069313e-01,-1.628157982787932778e-01,-1.047720872028946038e-01,-6.656075156813263949e-02,-6.872075862889524822e-02,1.952707205941982618e-02,6.227755503046000091e-02,-4.374415333643134202e-02,-8.997401113764276481e-02,-8.134592498271531191e-02,-1.265973725157700513e-01,-2.062929725913832391e-01,-2.002173108833512072e-01,-1.691755305903278050e-01,-4.758155887745453561e-02,2.699391061360425365e-02,-1.057399208262477935e-02,-4.237566933464213120e-02,-6.080132557784805047e-02,3.484011774847469572e-02,-2.827844547471705661e-02,-1.252750686087269506e-02,-5.024683250297514760e-03,2.228068463383937881e-02,8.321610548784297637e-03,-1.010915834264392993e-01,-6.627871320545072886e-02,-3.357455080786784368e-02,-2.759612722589691036e-02,-3.794528932438057112e-02,8.792555308635017358e-03,-1.246363549437897941e-02,1.402443229923623115e-02,-2.775525622041855045e-02,5.901365085706464925e-02,-6.160872235749887543e-02,-4.169138120201622277e-02,-7.759558358154913793e-02,-3.200505011004561307e-01,-3.134402673466030742e-01,-2.962825064322587298e-01,-1.799317138571988883e-01,-1.091549362644932408e-01,-1.458869181489066448e-02,6.261595364275569786e-02,1.472518994999532337e-02,-1.451244414885313923e-02,-6.073311562020335293e-04,-2.788903023121265187e-02,5.669855071134211055e-02,-2.787963953893867267e-02,-2.230973417817990606e-02,-4.357615709243402302e-02,-5.123064833267811091e-02,-5.434903560040971193e-02,-7.263044407487694032e-02,-1.459529094364249609e-02,-4.869928018972231702e-03,-9.015543537454980688e-03,5.303120686811403639e-02,1.211529320056909109e-01,1.334999703245955682e-01,1.698660991601370629e-01,2.201232004402857434e-02,-1.280921854296089568e-01,-1.895263125428584272e-01,-2.747557614787908276e-01,-2.732738600020360176e-01,-1.845660249631536631e-01,-1.381804304825702823e-01,-1.254389713526062600e-01,2.132715398209360930e-02,1.055269397499715434e-02,2.029219147490673655e-02,-1.503557332068280843e-02,6.659048773808817247e-03,5.860925519231854203e-02,7.061080925087269422e-02,3.623772331345893882e-02,-1.707886610039524231e-02,-6.404488358753230096e-03,-8.298531057501364050e-02,-2.020920797348859169e-02,4.150520712560598624e-02,-5.697029016924089195e-02,1.747895188691659871e-02,1.397516371850353600e-01,2.126078084649150046e-01,1.872525870590861230e-01,2.922972142417754604e-01,2.490480706483854667e-01,-3.912675726530119059e-03,-2.128086065265744065e-01,-3.076926642081471153e-01,-3.317636540821642943e-01,-2.461360759889366645e-01,-2.109157320851366146e-01,-1.100778376708168582e-01,-8.847578185259974415e-02,1.376946946920062052e-02,-1.669097661083277298e-02,3.257625716523514237e-02,-3.602209469993156860e-02,-4.695790310665772654e-02,6.472547362555501615e-02,-5.180788064212273709e-04,-4.174750078117032970e-02,1.511743725808368903e-02,8.982286267949403033e-03,-5.640595885266903170e-03,-9.618037103045736294e-03,-2.170739042794480461e-02,2.919980298524159010e-02,5.993493500317906286e-02,2.484173347617856797e-01,1.975654806135438979e-01,2.396749754666553378e-01,2.823390486139781830e-01,1.466087284368772503e-01,-9.704035372267166837e-02,-3.241619513814580911e-01,-3.152914525629422760e-01,-2.463939694839618888e-01,-1.836653647072395701e-01,-1.102230428996343603e-01,-9.874661711890755922e-02,2.189217638714194974e-02,4.355958977838762271e-03,1.059922688779313393e-01,4.031866810715447474e-02,-5.538016145065146473e-02,1.850268576459129788e-02,6.950039032375200654e-02,-5.358413437874900292e-02,-6.926882756622591841e-02,-6.168845896284688018e-02,-1.930759777921452550e-02,-2.635989850888664082e-02,-4.660884144279728303e-02,-8.117953190797917717e-02,-6.858385738146413613e-02,1.358751891276848422e-01,1.608870221651360344e-01,2.071915639202134285e-01,2.682007339980451710e-01,2.580885607110818269e-01,1.177258872173229942e-01,-1.362905362672708343e-01,-2.113222516948368712e-01,-2.200122192078924899e-01,-6.169868623649046868e-02,5.075239253316479043e-02,-6.348649255445967809e-02,-1.741842699620590367e-03,7.083011572031178149e-02,2.580829151010203409e-02,6.609028151435700216e-02,6.549675860202620881e-02,9.719941197949770462e-02,-1.757479081604939111e-02,-5.513232934932690843e-02,-2.974201667643815508e-02,-9.883369037671936239e-03,-2.000561493287294351e-02,-9.061140312141387904e-03,4.711665670765891739e-02,-2.984344036018753490e-02,-6.570804083262996032e-02,-3.908638735517300233e-02,1.134657501579416396e-02,8.469227396163869770e-02,1.688384479326180132e-01,1.946151566846956171e-01,1.921602775449344769e-01,-3.838309932331626650e-02,-9.357963887459626318e-02,-1.075302221777385825e-01,-1.464718034624441605e-02,7.858421223275527390e-02,1.221335152217284392e-01,1.290245718136296404e-01,4.280840902874714221e-02,4.476099818668941022e-02,1.431144021873110295e-01,5.435616353697629577e-02,9.860261628132886702e-02,7.187304946936230732e-02,3.984220755562034588e-02,-7.248946976857948950e-04,1.408458822383996424e-02,-1.104471243857034317e-02,-6.089635843742911836e-03,2.957285684794648192e-02,1.995105481123311125e-02,1.589382789396400972e-02,-2.575306684362971624e-02,-3.961025132204482567e-03,8.236488600021929507e-02,9.710615292321853054e-02,1.744565862107304854e-01,8.152445452350236266e-02,4.456895059284845390e-02,-2.593833420925314385e-03,-8.941477084121257635e-02,-1.517340356796286205e-01,-1.459902413416446464e-02,2.929575024740576489e-02,1.495508268141557684e-01,1.434433586785893999e-01,1.083992040379053723e-01,1.019533171603845129e-01,1.720911106213137143e-01,1.718000432957813572e-01,6.977623570987315227e-02,-1.566544261269882691e-03,1.942463702287775679e-02,9.191716511074249710e-03,-2.297106002029701902e-02,2.882082882166412882e-02,-1.073898546800566324e-02,7.112512021288107389e-02,-9.042189154045124702e-03,-4.513158604547352210e-02,-3.018684763375473201e-02,-3.577411403123929162e-02,9.986002956280493059e-02,1.446177964644990710e-01,8.294147056207973323e-02,-7.712956683736064967e-02,-2.289288942163269711e-02,-9.121323399670656917e-02,-2.425592921101123178e-03,-8.196367842550940364e-02,-7.595018155451209452e-02,-8.333543819234004446e-02,8.955215534883353978e-02,1.883308135420727059e-01,1.242450879176167644e-01,9.055388432237095053e-02,5.352590779505358998e-02,6.428396790798092224e-03,2.847365218049293864e-02,7.053685113723492071e-03,-1.942528288048074115e-03,-2.423911558183601891e-02,4.471508097786885266e-02,1.198461800597429815e-02,2.564689779391714219e-02,7.875314482493856946e-03,3.021700993974212740e-02,-5.513615074231609930e-03,-4.640757212282927563e-02,-7.883387861394008933e-02,-1.574808346618341848e-01,-6.416356133872813672e-02,-7.916281114954540343e-02,-1.035760265585187745e-01,-1.101531735529718836e-01,-1.962920266474915687e-01,-2.184407688397630998e-01,-1.899579993081168261e-01,-1.501955119349316914e-01,-9.927745294805080667e-02,-3.589553302632128573e-02,-1.974925967605615368e-02,3.995378341990522136e-02,3.805543941941192526e-02,9.775716742095580392e-02,4.602078760386695694e-02,-3.656735370324174644e-02,2.061703053407856409e-02,-3.890465959198279727e-02,-2.585175410759899331e-02,-9.464493529695127208e-03,-2.174376219970717075e-02,-3.119718644297114415e-02,-8.077444599096266983e-03,4.667335589988767797e-02,1.970471564709895540e-02,-5.510840543148531889e-02,-1.042058051463148477e-01,-1.221689750033835564e-01,-1.316519579605714696e-01,-2.247551176794065353e-01,-1.387028040549267149e-01,-5.641357116078177941e-02,-1.127077376685165916e-01,-1.590346103143322753e-01,-1.460073329638807704e-01,-1.899230568437891842e-01,-1.247143720079334356e-01,-5.002152919858229158e-02,-8.785130295260241973e-02,-3.163568991805251751e-02,-2.837868717660537235e-02,-1.448190461926929934e-02,3.618084266544666083e-02,1.761682269513187987e-02,-5.192953130498113162e-02,-1.065853075999441619e-03,7.550000689254332065e-04,9.670093402564089100e-03,-5.593589156720038535e-02,-5.318087658011937113e-02,2.095017870342408620e-02,-3.880247980552217063e-02,-2.094823703202058213e-02,-3.481593355196933165e-02,-2.415498389959586101e-02,-1.302842647118485353e-01,-2.630035122830860425e-02,-3.865247777680547864e-02,-8.305146297331517102e-02,-5.176470911574373307e-02,-1.283503877804805515e-01,-1.092253392327541400e-01,-1.162922190791771393e-01,-5.548991048841629692e-02,-9.144990985468672007e-02,-5.641472608167037023e-02,-1.022883036362369630e-01,-4.226175655628044980e-02,4.681714166410454875e-03,-2.117820489419429061e-02,-2.490867162066025611e-02,-2.727538832641827893e-02,1.537509696314788869e-03,-2.707516352199684437e-02,-5.589668824661052880e-03,4.658289842820073634e-02,-1.432763905404220613e-02,-9.820334696048869938e-02,6.936547628908563967e-02,1.996994192148373107e-02,6.083861632687921628e-02,4.306307113889856764e-02,-1.137313020000222438e-03,4.037479341929863658e-02,-6.322163249207508884e-02,-3.540875145491464288e-02,-4.032251719140705903e-02,-4.284672246275140692e-03,-7.738540580148923174e-03,-2.321219258742067762e-02,-3.372823587939297735e-02,-3.695559712248994329e-03,-8.416893547423295874e-03,-5.203940242931789917e-02,-4.130858612231651933e-02,2.839950593483970762e-02,1.693407117794852937e-02,2.522417181874492612e-02,-2.746289933369715566e-02,4.354619356481172210e-02,3.765213700756056547e-02,-2.487337925039792910e-02,-2.427661906715646370e-02,-4.844666187240771749e-02,-3.322120861897334687e-02,1.468419043392761060e-02,-2.145526383703986670e-02,5.153847173732359344e-02,-3.500819649197774164e-02,-3.264105565521976948e-02,3.344472695816321645e-02,-1.861878380710521586e-02,7.834706562508618466e-02,-4.412342102565686153e-02,2.744014680083325941e-02,9.922238422206791988e-03,-2.825119764667829991e-02,3.667009715205222370e-02,-8.318508241073042236e-03,1.104336471795757182e-02,3.917985593778938042e-02,-3.465575844906843526e-03,-7.947746606298004834e-02,-7.156959202101229045e-02,-3.289082120466501474e-02,6.098504769230702477e-02,-6.426391765908288922e-02,2.055857766651906712e-02,-7.510266480685235356e-03,2.518318695227669476e-02,3.534000876453341575e-03
