-4.508093364817678667e-02,5.523524971580020572e-03,6.783685961875353908e-03,-1.105346374695742769e-02,-5.161712173859629715e-02,-3.905970645795725504e-02,2.405167423096198770e-02,-3.125237201115394631e-02,-4.750682014743148190e-02,5.389328656485854740e-02,1.274717076168565590e-02,-3.697615575838753693e-02,-2.018867967068033176e-02,-4.708454137490071523e-02,6.316902583503632151e-02,-1.386113241090767938e-02,-4.070867011518744007e-03,2.693274914168609230e-02,-1.847816500588871091e-02,1.739640125057044778e-03,3.510446450013263164e-02,3.802854898828321450e-02,-2.758585685453020242e-02,7.745127075035670040e-04,9.171913426354998469e-03,1.523656229384119133e-02,-6.103745025438361838e-02,-2.166595119873617001e-03,-2.590920329485808804e-02,-4.530088288933301587e-03,9.861351649133208094e-03,-2.071369674401735833e-02,3.670447324876847245e-02,-8.161987698307310302e-03,3.428770186259640345e-03,-1.677859886726255564e-02,2.992164804809128997e-02,-2.267239550761240841e-02,2.943638997069290483e-02,-2.500766696330851413e-02,-2.816543504085591842e-02,-2.576205622657052122e-02,2.604718082826552872e-02,2.215858458011836160e-02,3.609241959825669911e-03,-4.167393720677430718e-02,2.129494243009975862e-02,1.506530142065102586e-02,1.978540717952261430e-03,6.058708285857775273e-03,2.275997618533313893e-02,1.446791639626737562e-02,-3.183778821960932953e-02,-1.077023026955376602e-03,2.396357898626468724e-02,-9.048298059681334285e-03,-7.565736107612279493e-02,-2.904167866929125569e-02,3.645174018842482072e-02,-2.012470170894310045e-02,1.312776183733097533e-02,-4.742806188889385488e-02,1.907666272065063756e-02,5.626876045574472074e-02,-8.511578664590079696e-03,-2.912963166284218697e-02,2.814757975318816011e-02,-2.531194855620879335e-03,6.372182044546416402e-02,-1.427735093071241627e-02,4.681691809597579579e-02,-5.217606791516277154e-02,1.200865718633755200e-02,7.414511288267436329e-02,4.271269687290329964e-02,2.085112485692152892e-02,3.356329076484444122e-03,3.011719991769997232e-02,2.788626320170500134e-02,8.066495727248360406e-03,-4.262672465154340035e-02,1.718305003142038545e-02,-3.059247305771773534e-02,-2.986156357118231741e-02,2.589671176808649999e-02,1.161068856849055246e-02,2.329036347172099702e-02,6.897060375983012949e-03,8.350333109461554118e-03,1.383013196342584112e-03,5.408878710523801030e-03,-1.222753332485365880e-03,-2.271845183470982271e-02,1.963566477455509773e-02,-1.536898896942658944e-02,9.281459464373524593e-02,-2.274690567238511069e-02,-1.227233459745429543e-02,-5.420209218623776165e-02,4.516602230271100221e-02,6.197177685388159663e-02,5.628883287224725751e-02,6.704690140644999075e-02,7.543352599207048259e-02,4.862783237074189135e-02,5.344490399330097119e-02,1.145577673247863935e-02,1.481768134460004563e-02,1.539397994815754067e-02,-2.803740855171639457e-02,-1.136192630129530083e-02,-7.689754710568972619e-03,1.576713680541501350e-02,-9.127410773061140140e-03,3.024449313164075462e-02,-4.752552741422129412e-02,7.242469207576171519e-02,9.033209391388158371e-03,5.866043916312175394e-02,1.580298195080321808e-02,-2.071344792489541141e-03,4.035379198735981887e-02,-4.904996891962327271e-02,3.324750098320271210e-03,-1.295012595733330101e-02,-5.912720222559161160e-02,5.390424228248275745e-02,7.874078051769588249e-02,3.256446191620148561e-02,6.598794818572076282e-02,-2.915388540378888518e-02,9.463293566805774937e-02,4.375736839372153936e-02,7.308475665411899580e-02,4.989448340722321684e-02,-1.437375498212955550e-02,-2.400814833036088274e-03,-6.732609400104624942e-02,1.461725713805604211e-02,-2.477687367092743648e-02,5.168608390998894603e-02,5.861493317261550623e-02,-3.557829010053188950e-03,1.830529923836437395e-02,7.951771372909423666e-03,2.589987229413795011e-03,1.583838751012289769e-02,-3.037281897067599205e-03,-1.990179332729125755e-02,-1.968611034827381923e-02,-2.098391264992038874e-02,-5.576469018210699138e-03,-4.765179436660552798e-02,3.988462135238434077e-03,6.664254650260277579e-02,3.303546216361989002e-02,-1.990106844272471198e-02,1.930206671980280297e-03,2.391347588043703579e-02,3.741476628177213548e-02,1.592200519912293638e-02,-4.014574157473015797e-02,-3.888752557855645886e-02,5.035218730947581267e-02,5.994066228601350674e-03,-1.072440566606937956e-02,-2.988135976158744211e-02,1.670551775642002690e-02,-5.474111428421337550e-02,-2.250612741926433236e-02,-3.876982427648823643e-02,5.437047526715983042e-02,-4.101843318965658555e-03,8.813021897738559582e-03,-2.835834387570812000e-03,3.326283565412909565e-02,2.740467180189561786e-02,-2.100135806765488292e-02,-7.386525214995126598e-02,-4.894021825608541737e-02,-1.577251313282241121e-02,-8.018217000576494807e-03,-4.760963897047319759e-02,-1.134785993454865832e-01,-5.327416760362777698e-02,-6.685446261143779267e-02,-7.409152590088417811e-02,-8.564616871939621789e-03,-7.647822342927264316e-02,-3.155138341094028409e-02,2.592657221473446127e-02,-3.537121105819987510e-02,1.109155356454886478e-02,-1.232224924153459480e-02,-5.629440006675006519e-02,1.573203825968337577e-02,-7.775251737356045530e-03,2.109878889822035947e-02,-1.606713976795303561e-02,5.192075568769750904e-03,-2.999860291294511455e-02,-7.811076193265597233e-03,-5.026609809649171950e-02,8.587486597586789505e-02,2.428639419545323974e-02,4.763901481771452839e-02,-3.939645852361858130e-02,-6.418603790960364375e-02,-1.705625900697881753e-02,-1.253512219318454468e-01,-1.444343574707295519e-01,-1.544083630581268296e-01,-1.213937397607623425e-01,-1.518337577622373424e-01,-1.268547799102793805e-01,-1.376735303283596890e-01,-1.036225339041200594e-01,3.956884601431304854e-03,-4.082146148553500442e-02,-3.923843268463234057e-02,1.728607222894041826e-02,-7.174714527143937664e-04,8.229055919249878351e-03,-5.238370004873728163e-03,-3.134856335300557212e-02,5.746045840791347281e-02,4.390087103921370276e-02,4.867353968607182613e-02,-7.117118691278322314e-03,-3.049075531153283732e-03,-2.999073224001070140e-02,3.974106268870904179e-02,6.011661295172195801e-02,2.055087331878442322e-02,-9.162571629565439274e-03,-2.036568634069632969e-02,-6.384080906363200081e-02,-7.639285944253475756e-03,-4.593614919404973712e-02,-1.048780680092799011e-01,-1.267821565424887276e-01,-5.703236637009557325e-02,-9.154713707846191817e-02,-4.636950391526691029e-02,-5.698977264348422528e-02,1.034148037186362855e-02,-1.660384160157290633e-03,-1.230162634702876637e-02,6.034812933759721443e-02,4.338690437262874428e-03,5.382628234695680837e-03,-1.825727576124807836e-02,1.500152159454533340e-02,7.561580665420350456e-02,2.024520326833063183e-02,1.300554406260388124e-02,-4.299106658481714749e-02,-3.988016434659186898e-02,5.848638209337493924e-04,2.777334838412351750e-02,2.021345576970283095e-02,3.587407823230632370e-02,4.973694007236624526e-02,-3.821993585047130104e-02,-1.238088582777585427e-02,-2.166257552159761221e-02,-5.066659286676735569e-03,-2.928331183459119066e-02,-7.899380648877099564e-02,-5.895693212421170698e-02,-5.190876999703458033e-02,-4.535642069772748836e-02,1.661156649206478294e-03,1.152955795398897740e-02,7.716960708451074680e-02,2.894712183224552871e-02,-1.753840256722305480e-02,2.610872266516055945e-03,1.584636656513516151e-02,-3.104922801668170973e-02,-5.359281137610932833e-02,3.602603263372585905e-04,-6.890957025448225630e-03,5.250067178477860891e-02,6.945934471737032212e-02,6.100781655029375444e-02,4.835947583176502390e-02,3.424030283118954798e-02,2.030291652743829861e-02,6.521164222813764788e-02,1.995061185558124478e-02,-2.617757881130980749e-02,-1.551998003083564052e-02,-2.633580389399623172e-03,-3.727436357916630999e-02,-8.636621957977423658e-02,-5.818116867117947844e-02,-8.106830092958416945e-02,-5.778324369883748590e-02,-5.940261509335942325e-02,5.621121211673326193e-03,1.628391555187471210e-02,4.952174398279372142e-02,-4.950438376657910304e-03,1.245631956686078790e-02,-7.838502465272631850e-03,-1.056228315597519674e-02,5.591376078758719496e-03,-8.682328717413546545e-03,-5.766048657791137538e-02,1.565530261006727389e-03,6.962665938566147371e-03,7.191266829006379147e-02,-1.470960465351829442e-02,-3.844765201142005123e-02,-7.887527704364595549e-02,1.429733370318850456e-02,-7.632630690799657724e-02,-2.964538719456628890e-02,-6.745043426181587809e-02,2.797550701600491282e-02,-3.077733852786089866e-02,-4.348663577878111863e-02,-1.280887179986748003e-01,-1.062476641497437091e-01,-9.693865742640779548e-02,-1.571766283109308701e-02,1.894542865019403430e-02,-5.855960048172367816e-02,-8.404405191967656281e-05,5.216400843932986892e-02,1.632627531654082600e-02,7.408279207960562218e-02,2.166652461757496290e-02,-4.169300957513670525e-02,-2.129516159368353978e-02,-2.231427417860524370e-02,-2.785833865082758612e-02,-3.666261153258193461e-02,-3.126942202319605429e-02,-1.120454210885519185e-02,2.367551071612420885e-02,-6.672977080525142879e-02,-9.730487224992348527e-02,-1.207243562216847449e-01,-4.846707995227115401e-02,-9.793668351795442595e-02,-2.170712330374215820e-02,3.088017172590686726e-02,-1.070583823589272843e-01,-7.991383222415182619e-02,-6.796027877722043975e-02,-1.138816189560203362e-01,-2.428809942324887394e-02,-4.366719798472543795e-02,-1.052788246543150535e-01,9.323943203274927391e-04,5.068593398197832750e-02,9.215240228544330225e-02,8.406360613252178426e-02,3.787725790152925848e-02,3.631092696574144546e-02,-1.695327652049658310e-02,1.954500949684561881e-02,2.822133742997490202e-02,2.958788575846049620e-03,-6.541328628890679883e-03,-2.562854217878239235e-02,-1.811732636407587665e-02,-4.693526947844025438e-03,-4.271148088752815819e-02,-9.191206026076133295e-02,-1.802374416332483131e-01,-1.676666816300755314e-01,-6.281250992694015212e-02,6.409509443290881299e-03,-2.254473710191601601e-02,-2.708089366381130972e-02,-7.486300541163656841e-02,-2.616752658216341468e-02,-9.880789722761448846e-02,-8.693691348186211032e-02,-7.237835048107886526e-02,-1.114770493003098689e-01,3.332809180453222969e-02,4.997479890399511571e-02,3.233759593192513798e-02,2.725616630184720182e-02,2.206293726651555390e-02,2.044108182322011691e-02,1.002939763585841138e-01,2.071966547091002447e-02,-1.207742855380368463e-03,3.329045241678402212e-02,1.025096758757661555e-02,9.880212681789497450e-03,2.711774913112882657e-02,-1.116895888505000239e-01,-8.453766015287517144e-02,-1.314411206015576317e-01,-1.130103662975547735e-01,-5.819857652873377390e-02,-6.945046111535229695e-03,-6.266995783310720658e-02,-3.635797618952994747e-02,-5.742949382718386120e-02,-3.854156218559590119e-02,-2.453698591376096347e-02,-2.924253284420731680e-02,-1.374531593216586078e-01,-1.257701317478282788e-01,-8.416323311129350615e-02,-1.032245668346113143e-01,-1.231704087595904187e-03,1.333144988036880259e-03,6.469664268024261609e-03,-3.196621934457027220e-02,-2.714980324222496157e-03,-1.533446317838797930e-02,-2.684261707623260967e-02,-2.886431648355235451e-03,-4.098059164172998363e-03,-2.936963007794681640e-02,-4.905487897987350493e-02,-6.565597208587717337e-02,2.420657513934440855e-02,-6.490660328361151296e-03,-4.794596521980598602e-02,-4.338878452870695984e-02,-6.325774811978741863e-02,-3.261936530832724307e-02,-4.467901526283694913e-02,5.040407068147963882e-02,-3.293746509634150332e-02,-4.905890406486282385e-02,-3.979574449696192395e-02,-5.515830436033736933e-02,-4.685746737014211821e-02,-1.091341182401211474e-01,-9.062820997030376913e-02,-8.001071007801251189e-03,4.030560487268353143e-03,5.461555683669416100e-03,1.945392045142994158e-02,6.829569241053030926e-02,4.369208423446530737e-02,1.790743004531912888e-02,-1.398886261296829712e-02,8.833364728233634652e-03,1.488842431165242168e-02,4.123670615714009752e-02,-2.964224504417618464e-02,-2.642662154916826031e-02,-1.660902585363940170e-02,-4.457762995660401184e-02,-1.500168158519215797e-02,-8.578670071232879016e-03,-6.823141830271666972e-03,4.055443590367985296e-02,1.078551516329738849e-02,4.682239259669776499e-02,-7.142839965329433882e-02,-2.743597214498692122e-02,-6.270151560780090616e-02,-4.297835232989673238e-02,-1.111529494243588961e-01,-9.101984268075183349e-02,-6.104142238289270855e-02,-3.062759046190707823e-02,-3.142226859393185655e-03,-5.176533843922113964e-02,1.728370818310598443e-03,2.841032987257944772e-02,1.105670937059776739e-02,-5.523148145232097822e-02,5.654830721702818613e-02,3.390946506082113000e-03,5.195359192991543668e-02,-1.579247012103755787e-02,3.822984181771216933e-02,-6.422346695280962969e-02,-2.341549848290229788e-02,-2.630873661554836498e-02,-5.082057798984686986e-02,1.324604764814448984e-02,1.294455440406062918e-01,8.441796238742667324e-02,9.259133948659963032e-02,6.371976635478697470e-02,5.941204589215424992e-02,-1.404107294376960857e-01,-2.576484356681623539e-02,-1.136639650731537804e-01,-9.299928791380805693e-02,-6.098023150149688848e-02,-8.579749451521243020e-02,1.922699886337951927e-02,-2.057170095778447852e-02,4.229750502358619463e-02,1.426194860153371866e-02,4.079691942662434789e-02,-2.209757763150220662e-03,-3.643984353610216220e-02,-7.182759353559263482e-02,2.117665164850245085e-02,-4.835537587617705357e-02,5.514946411976432566e-02,-3.745600624865465245e-02,-6.940060527384037115e-03,-1.958431467056912997e-02,9.951460013135141058e-03,-4.200833861058303476e-02,7.276995774616883128e-02,1.137897139796709006e-01,1.824447622312360406e-01,1.353042025465318599e-01,6.189401732662615924e-02,-3.627913558255269066e-02,3.655294902954889930e-02,-6.008945325800015350e-03,-1.588894562325650697e-02,-3.491205161575495347e-02,-2.644599689851825225e-02,1.641335490592388952e-02,-6.992002847948511346e-02,6.333677603246380683e-02,8.267355072568285945e-02,6.091920324030181133e-02,4.095792994413630095e-02,8.613041215770203887e-03,3.381751834920608546e-02,4.020515041174733961e-02,4.700822665437612291e-02,7.435514498158225793e-02,2.734011645386513756e-02,5.694503512331041545e-02,2.872588792669957675e-02,-4.600596328039895794e-02,6.612913830012903671e-03,-1.457361245143908718e-02,2.694453924619590740e-02,1.026602920522222268e-01,1.293395046885844613e-01,1.425680916124770492e-01,8.662540866525131333e-02,4.270154837899924755e-03,6.954696645090237099e-03,-2.748517166957965829e-02,2.888687727882461101e-02,2.948978907385493495e-02,-3.420729614572575600e-02,-3.310646953351867317e-02,-6.051653871466349671e-02,-4.030238381404453729e-02,-4.314214211745957817e-03,6.056049182697238742e-02,5.328939792890381721e-02,5.107423071601906173e-02,4.367904195474414664e-02,-3.193980437821116597e-02,-1.055546577083095634e-02,2.477195594521482570e-03,-8.655265145656555054e-03,2.496315580992079439e-02,-6.628637608654262825e-02,-1.814025355518035509e-02,-2.483731559559046800e-02,-4.111999281744943557e-02,4.637483889573532775e-02,3.550765197789937377e-02,3.699388979820613602e-03,4.580550680468617464e-02,1.334133376500731549e-01,5.635027289932616895e-02,6.375210177501890174e-02,4.710962733801620991e-03,5.201544886599675233e-02,-4.354056591630905276e-02,-2.529501299872161796e-02,-9.645732652991942380e-02,-1.179322810698828911e-01,-5.486995096472304691e-03,-1.417192190683308831e-03,6.960462253204093702e-03,-7.981915003508208498e-03,1.633310144743397446e-02,1.159331692075875157e-02,-7.278038837001780080e-03,1.266280926956489354e-02,-1.805101793379922104e-02,-5.297959858492178042e-02,-4.715518265774053946e-03,-1.755971767297543826e-02,-3.364922124526176922e-02,-6.453201117713595891e-02,-1.129460463160974169e-02,-4.079620333765645451e-02,1.634085236215462519e-02,-4.324800860547040743e-02,1.026403749095186613e-01,9.940818968141415524e-02,6.755798365917847770e-02,2.950217268205316407e-02,-5.423723077716578918e-03,1.291265751429104477e-02,1.590516814415152483e-02,-5.032763213562749943e-02,1.180715559598925594e-02,8.829991023023193303e-03,4.767469320324081716e-02,-5.392943160945816439e-02,1.089779537530473873e-02,-3.646738736538895909e-02,1.243508770327982418e-02,-7.207983201235024229e-02,3.577434569213181620e-02,-5.820850430536424029e-03,-2.297690451107763793e-02,-3.397336566383298007e-02,2.838390441126758916e-03,-6.659675535734901897e-02,-2.788259847584704729e-02,-3.923225236274126976e-02,-3.684298992365419786e-03,-3.776301259400294263e-02,3.930563589841528510e-02,5.513829247060340888e-02,-1.746733857349115279e-02,6.763300977514809242e-02,5.218424048925336678e-02,5.134146761025581290e-02,-7.445227536690434723e-03,-1.779645935838706713e-02,-3.891987485163117544e-02,-7.326030605609742952e-02,-6.208586259956449388e-02,-5.666820294180273387e-02,-1.438812099373161686e-02,-4.616298110074647243e-02,-1.511400617161128349e-02,-3.962363064613517311e-02,-1.694874654013492354e-02,-3.049772744277082920e-02,-2.159064652846199011e-03,-6.333181724374166433e-02,1.272214524395700978e-02,-6.191200682229480029e-02,6.031679722728261472e-02,-6.179918653595648480e-03,-2.551122744800026279e-02,-4.129793436568522658e-02,6.698338528216586651e-03,2.654097215157351017e-02,-1.147976773999258467e-02,2.617892555660370282e-02,-1.374716859132285758e-02,1.137313212834296580e-02,2.097652207630665636e-02,-7.209591704236974208e-02,1.186653782006092360e-02,1.771155745495049325e-02,-6.560254155034862811e-02,1.763169517031991027e-02,-6.202975724093051646e-02,-8.270239494560113758e-02,-4.762572503245150052e-03,-5.432973499298405368e-02,1.819315019378836551e-02,5.016505151919208733e-02,-2.077346174836381884e-02,-5.473988755893006986e-02,-1.707861385441030583e-02,2.089967146190902653e-02,4.793037671909221309e-02,1.800294093302635262e-02,2.459385277747888621e-02,-4.854037650441925483e-05,-4.472139464911682738e-02,1.982678127918766076e-02,-8.701454754941670769e-03,2.847331753475632402e-02,1.362092843173348493e-02,3.405617461556419145e-02,-2.516346078829669042e-02,2.118173769982603302e-02,1.263789927284402620e-02,-1.415171732928322858e-02,7.812245995339646421e-02,-3.291312654903617158e-02,-4.064907745926325117e-02,5.993666286883422324e-03,-5.269130992596196550e-02,-3.833158576788490979e-02,-5.602921315734451894e-03,-1.225100085992053035e-02,1.845301195404820335e-02,-1.429751041341419462e-02,2.588892281289787919e-02,-3.419214416463230155e-02,9.608194228313224686e-03,8.160334049677772303e-03,4.901998177374183169e-02,-2.641742008456873791e-02,2.564849132039209723e-02,7.630721063516533731e-02,5.034588884870321544e-03,-8.553516346017658867e-02,-3.801573527551258252e-03,-2.697078805045016389e-02,-4.647978361297913120e-03,-7.700463045067298951e-02,-5.111237455452192352e-02,-7.107053644422912930e-03,-1.482806937974909256e-02,-8.802796593071617048e-02,1.317141140787422664e-02,-2.486009440420548430e-02,4.324817985937898061e-03,-1.281174886752340092e-01,-3.336191512993687529e-03,7.947763657118528044e-03,-9.171608207313498851e-02,1.022971269965991942e-01,-4.960612625621731164e-03,-1.061245756693006415e-01,2.100910132603800440e-02,-8.334346487158021677e-02,4.794855391967117741e-02,1.303696117998877184e-02,4.933441411153788314e-02,-5.573653858959638774e-02,-5.001049487839107793e-05,-4.002026828377994866e-02,-4.123929818557684618e-02,5.467535881799775489e-03,-6.218330397170352547e-02,1.016130607217446101e-03,-1.085328875889231617e-02,5.318531529779150363e-02,1.765345690990535385e-02,5.269270646465559066e-02,2.029659436986153490e-02,-2.507410924495060214e-03,-2.609784815091161989e-02,-4.080853541857508426e-02,-3.002245441077116411e-02,-1.528295979589059175e-02,-3.982571128295372270e-02,-4.578171667687231522e-02,-6.829948435466917656e-02,-2.187751689555433171e-02,7.874929226981133845e-02,1.401951911095505009e-02,1.061492783301000963e-02,4.899875366987643983e-03,-1.630875461917211805e-02,-5.773880837757734003e-02,4.820269762574452659e-03,-3.529441625282763589e-02,5.921659887649279030e-02,2.881932444732421272e-02,1.375138555361598257e-02,3.651749096179832121e-02,-2.504009985761214419e-02,1.122732513527456046e-02,3.791572442605267972e-03,2.852431466905956930e-03,-1.359800755691750566e-02,2.860587081679829072e-03,-8.252720129760962239e-03,-3.736524023552077745e-02,1.234053858007565924e-02,-4.939775217260256035e-02,5.316193032841370902e-02,1.878814944928501943e-02,-1.342563781364642002e-02,2.143883176097285698e-03,4.194711850058680837e-03,7.163531614318266461e-02,-2.904201638632424032e-02,3.374398584195445472e-02,-4.309638285374516736e-02,-5.852669153196969620e-02,-1.410028557887452356e-02
-2.120413393089189136e-02,-5.208067148744958963e-02,4.350769856837261029e-02,3.891640282522323708e-04,4.456754611675221855e-02,6.837900627173332246e-02,6.615405890608494488e-02,5.911392694043363094e-02,6.061553663677439084e-04,6.158439436308749126e-02,4.051949157986885729e-03,2.153424184105758032e-02,-1.735556632869559440e-02,-6.686810192962868403e-03,-1.887107931344506745e-02,4.570233616351733474e-02,-1.695879007216155587e-02,3.819763446266661536e-03,-6.868703487289776199e-02,5.976738645640557179e-02,-3.692176761646284722e-02,-7.078224267702162668e-03,-5.780572905114932103e-02,1.882413515062695934e-03,3.710344345038268108e-04,-2.944679341877112083e-02,2.607953555593728323e-02,-7.268074878332808630e-02,3.569967022220199571e-02,-2.003873187383923421e-02,6.068897414204320329e-02,3.488269115402592869e-03,-5.468593105958251266e-02,-3.327060808716222895e-02,2.282487910733038000e-02,-1.465138738351814095e-02,3.243585775331798548e-03,-1.840257343530849257e-02,-2.702039732244498373e-03,1.471525418111647825e-02,-3.752021829890649779e-02,-1.942824560091643100e-03,3.474878907944169756e-03,-2.516025978003642513e-02,7.556919641056673853e-02,-1.605090218472230226e-02,1.505160623063646515e-02,-3.889228749700990306e-02,1.258166834931704996e-02,-3.374053539113829048e-02,2.720492801197814392e-02,6.271734933427272618e-02,-2.275283589736053907e-02,-5.274834201515744836e-02,3.347326447236188829e-02,-3.565057414813518899e-02,-1.280381732917055529e-03,4.389359460724789712e-03,-9.849551535858621157e-03,-1.234440938036792355e-02,-4.471293962116003329e-02,-3.213292434990863700e-02,-4.453300991065455017e-02,-2.949564142723136786e-02,-1.200347631828423967e-01,-2.429140081789659539e-02,-1.342932471454350843e-03,5.453542956864215752e-02,5.602825319853103198e-02,-6.496257147883537086e-03,4.028766374401656497e-02,-8.770276404889329122e-03,7.838644591355815525e-03,3.107726162139225895e-02,2.005431280856159390e-02,2.224262337580312516e-03,-1.281336005062675212e-02,3.658550834802887924e-02,-1.946282471811670162e-02,-8.634198693271670369e-04,6.473948920529401518e-02,2.221716164310449937e-02,2.097704380333405283e-02,1.062672702539818777e-02,3.727253948221749547e-02,-2.463960763037657126e-02,2.165910464478858904e-02,3.122106821663771584e-02,1.400931335006751731e-02,-4.063312483228669232e-03,5.577407253041861968e-02,-5.163575216535159357e-02,-4.446512965559942798e-02,-3.256937853130971363e-03,2.720848668949207155e-02,2.177300187767981787e-02,-4.272512841936790262e-02,1.295969444504020684e-02,-9.499789058178968390e-03,3.705536622866112406e-02,2.647996487137204563e-02,4.959601322664501134e-03,2.854080595177914056e-02,2.540920964187615150e-02,-1.863524222988005314e-03,5.301961832556302545e-02,4.940853744722777802e-02,-8.221656633755732718e-03,-4.792930236540808575e-02,-4.852831237970081646e-02,-4.123374649122830971e-02,-5.830600607981200993e-03,-9.283378282446909727e-03,4.385584894726572702e-02,-6.274644340949119860e-03,-2.633324996399377324e-02,-2.926627195419248539e-02,3.207744475549877128e-02,-2.269566467154473730e-02,-9.537002453172355176e-02,-1.436828316781485135e-02,-8.288999543334755679e-03,-3.843465045361210003e-02,-2.239062097093095019e-02,-7.736953933682241824e-02,-1.696361913712273947e-02,-2.324010704755905335e-02,-3.702472334609305249e-02,-3.608786522971515337e-02,-8.297047025976379830e-02,-8.803758356277884001e-02,1.388768185590882366e-02,-5.203564094448738520e-02,8.368163327014929709e-02,4.299257013015255618e-02,2.611262541341476118e-02,3.566578524633853831e-02,8.513581906091166607e-02,-2.018079419251556528e-03,3.453419874093693887e-02,9.939014831730296970e-03,-9.220700159184295379e-04,1.654065320566297861e-02,1.477368904532862584e-02,-5.784861087333730001e-02,-3.951047859452872651e-02,-8.880927654843269459e-02,-5.487208749723584272e-02,-9.580663415020344853e-02,-1.384723752876506064e-01,-1.040834330744948300e-01,-3.535884540456838560e-02,-4.509706794432402632e-02,-7.272873524206727169e-02,-8.409156569733054754e-02,-9.457506534982056123e-02,-1.770167482824146765e-01,-1.257053221815774280e-01,-3.780953893812155631e-02,-5.074639871237180550e-02,-1.435244508250035737e-02,-5.389511177294992877e-02,-3.239247522651574757e-02,-7.882147605751524400e-02,9.487707845228558756e-03,-4.950535855417202702e-02,-3.451679436565407294e-02,-2.252889911703336717e-02,1.310884408115429826e-02,-4.246566009663427232e-02,-2.646265467524775220e-02,1.203685977397577107e-02,1.556396471444413190e-02,-2.499112859028557870e-02,-9.653307500244316663e-02,-7.383342025824786437e-02,-1.407069757130740006e-01,-5.858469026267177499e-02,-2.241410258439130443e-02,-3.725746946432678675e-02,4.627817097287852469e-03,1.305445488396437814e-01,1.475445181343844336e-01,8.369414289603586965e-02,1.108553936695042957e-01,9.197659145153511129e-02,4.460821714400915391e-03,1.381670120451312066e-02,-6.187348414911664207e-02,-1.939763922246757338e-02,2.392474491416119592e-02,-4.045738386615958110e-03,3.705401612566985858e-02,-6.107328039018707511e-04,4.337395230895123299e-03,3.551991895342969385e-02,-5.958097367901929453e-02,2.450179628330642536e-03,-5.182269487391211356e-03,-8.847744790122704511e-03,-4.989878692814196659e-02,-8.523503735323351149e-02,-7.523980808556587907e-02,-1.004213087236602298e-01,2.375966859533665265e-02,-5.391936437920234054e-02,-4.345860476321728588e-02,6.521905669300231967e-02,9.156927077089763167e-02,2.358527088084160228e-01,2.282384035507569464e-01,3.178659557442081174e-01,2.673501080068599878e-01,1.655337902907683956e-01,-2.752775764123853441e-03,-3.169820512924136774e-02,8.249871948288483203e-06,-6.429809810154443750e-02,-8.938130534749968992e-02,-1.203405498256233767e-02,-6.887401826892688983e-02,7.978466699357023711e-03,-2.045130629332468121e-03,-5.635729052168518549e-02,-8.319085020528307894e-02,-1.500022704579474959e-02,-3.184585360663848286e-02,8.654862594723703589e-03,-5.939671178287785069e-02,-2.124654100026917430e-02,-1.147098939145805296e-01,3.292931440714405578e-02,-4.440660967303923512e-02,-1.373949733868458367e-02,7.319683262257023482e-02,7.518711192212791661e-02,9.298404408150361122e-02,1.100054011893995681e-01,1.609635692470401946e-01,1.260972362052721896e-01,3.153985819976158622e-02,1.015965288359478441e-01,1.277841476477197674e-02,-2.608399044831315530e-02,-7.712522664186831356e-02,-1.400218375535706439e-01,-5.710852263228204106e-02,-4.056406869632393775e-02,5.883481243315968889e-02,2.476976726155058484e-02,8.593956543528062653e-03,-3.246126476434016417e-02,-4.840385229659227399e-03,1.236664958689834455e-02,2.543135554959774156e-02,3.654245894408057055e-02,-3.471144419770624129e-02,-3.893927813238170967e-03,-3.713656508233012521e-02,-5.674281264457413853e-04,1.011368155524614426e-01,9.849302158167067001e-02,3.702579494892359324e-02,5.891854263759888771e-02,-1.396399137654782095e-02,4.534042336537714990e-02,-6.295359068197892149e-02,-1.165318026246985189e-01,-1.567862931814902883e-01,-8.627335974555022657e-02,3.437365449695915440e-03,-1.061511122843600552e-01,-7.057094668929390913e-02,-1.286524797368534812e-01,-6.527318302074661127e-02,-5.680093709773149924e-02,-5.201384327475557824e-03,5.754405453103512286e-02,2.621171383590574847e-02,2.900560006576387295e-02,1.330669262524755876e-02,-9.855171695723472999e-03,-6.587481412176530386e-04,-1.203569060134476731e-02,1.373192700768267362e-02,-1.102617454995622782e-02,1.171682544890805949e-01,8.580316654065928139e-02,9.834781736556320875e-02,1.428161291094082186e-01,1.490958792212378481e-01,1.363141384939324519e-01,6.117766115921907666e-02,-1.274325550024244802e-01,-6.309722395580404097e-02,-2.071482945699321676e-01,-1.747699183310385262e-01,-7.520444591320242511e-02,-1.994731585085447734e-02,-7.632790881465625898e-02,-1.212471418042850857e-01,-5.425265096267724296e-02,-4.999991995131942979e-02,-6.336004957678290084e-02,-1.011861898307875041e-01,6.603917403398230565e-03,-4.224064237774541623e-04,-7.218026319383902267e-02,9.381166700602901459e-04,5.962125452016085736e-02,1.922529264805480573e-02,-5.753633370104628553e-02,3.633974094647184072e-02,2.231878425513945940e-02,1.441053924274626197e-01,1.127462982306277617e-01,1.260317740618557558e-01,7.404259086030802461e-02,3.291062347809885213e-02,-2.225275243230204897e-02,-1.473111558508964115e-02,-1.097692645333489016e-02,-9.602227597024642902e-02,-1.490976210970324511e-01,-5.972529008619594654e-02,-4.938761085361178388e-02,-1.489123850500381589e-02,-6.152124538304803991e-02,-3.355569501149534284e-02,-2.044358729970811861e-02,-6.253563272670165096e-02,1.299453119380564875e-02,6.741122720885188435e-02,1.908322596632561208e-02,3.246887147030754622e-02,-6.668284692422385938e-03,-2.180828282190043488e-02,6.384557361483431115e-02,1.319926869497035048e-02,4.221241337554534900e-02,5.368370750493253046e-02,1.108392407337321570e-02,1.590198380217164864e-01,1.724350233480574091e-01,1.588571486661861376e-01,-3.815776197115573060e-02,-6.877151719849088074e-02,-8.280586654430295915e-03,-4.965696645236238049e-02,-8.549275919513837918e-02,-6.911032239006945077e-02,-8.696272066818467542e-04,-6.160006165072148820e-02,3.848199814285135217e-02,2.607244094692872868e-02,5.904920110756732565e-02,-1.139757870399371771e-02,3.826780192737926772e-02,-4.117357308886438610e-02,1.900147800597229084e-02,2.190337079199776438e-02,5.340449413723819677e-02,4.642944059968390214e-02,2.537063741878704728e-03,8.222579337080701545e-02,5.165538041267700442e-02,-9.289360871064941683e-02,-2.521121310299530294e-02,3.856922831806726404e-02,-2.012683707595619778e-02,5.424329524129627156e-02,1.169408658899463299e-01,8.693371152024642612e-02,2.920200342534486765e-02,-1.022039279546568397e-01,-7.896494858962853358e-02,-2.153385504989928020e-02,-4.033675921958389948e-02,-9.625170087276092856e-02,3.498760143895378316e-02,-2.335236397449999557e-02,7.227640335728466314e-03,2.223541289531173401e-02,9.749029677410772643e-02,-3.863829381827999648e-02,-1.775122773996668304e-02,-4.455638359713631758e-02,-1.026286432081414124e-01,4.778907954992442537e-03,4.438080390576550072e-02,-2.048079468834885022e-02,6.117681025545908084e-03,-2.876338514326780282e-02,4.296673088430728871e-02,1.268791135349929414e-03,-3.270397011905225304e-02,-2.769471027005464617e-02,1.661475777313742991e-02,6.741349349527001045e-02,4.703251095113555880e-02,9.375908275553075655e-02,-1.274822086070558427e-02,-1.168075728805002128e-01,-4.488571900237978141e-02,-1.120624017956953350e-01,-1.172679079200483233e-02,-5.333463473157174645e-02,3.087447228589978217e-03,6.162283331729619118e-02,-6.385287403936230899e-02,1.676042744317973385e-02,3.071130037894987189e-02,-1.141180788302914584e-01,1.801677426206395316e-02,-6.843717314907959981e-02,4.465707034784703600e-02,5.005193009263895002e-03,1.384940573572035656e-02,3.831218069459287057e-02,-2.135770997792819231e-02,1.819122418602660274e-02,-2.594191212272162206e-02,2.896272225429429026e-02,-3.083349934943193163e-03,3.478000124674608673e-02,-4.698799480171125115e-03,-8.894801004672184264e-02,-7.812457447738982430e-02,-1.752146575826338537e-01,-9.323026079475697780e-02,-2.050405376214307906e-03,-3.268470107499541616e-02,-1.841054350003528545e-02,-1.886860485273490484e-01,-8.094302731073381441e-02,-7.770362634338212615e-02,5.404434917661030992e-03,3.293561379154340968e-02,-1.627686102052842022e-03,-5.417365363702474068e-02,-7.197087737462135038e-02,-6.139862954175946685e-02,-6.841300769256468406e-02,-1.298348755231353013e-02,-9.028406512034041487e-02,1.978936228598219063e-02,6.681447389481189048e-02,1.173490556638284547e-02,3.540494624329217077e-02,7.137356264870297652e-03,3.528931769775422306e-02,7.794832706302727912e-03,1.873297955624318029e-02,2.717529293396202597e-02,-1.280501964074250154e-01,-1.251679454937322800e-01,-1.093104511447124949e-01,1.314093883192343076e-02,7.702226617885758742e-02,6.176280310071219359e-02,2.121228607752334572e-02,-8.793829338048855804e-02,-2.068741087808643186e-01,-6.784022658015410878e-02,-9.731952365683299577e-02,-4.361925162633583514e-02,-6.971323307903116995e-02,-1.445391581108276813e-01,-8.083142404934148817e-02,-1.753173958687155032e-01,-9.131401087984025722e-02,-8.104234615118165175e-02,-1.927950567510128971e-02,-2.481065451952743986e-02,2.909443423761050307e-02,4.102125346133354833e-02,3.735287773586944138e-02,-4.152818777949673912e-02,2.576061050648147804e-02,-2.050472081309403366e-02,4.442060992153636784e-02,-4.207610556411506969e-02,-4.933416535707771389e-02,-6.600192748774041940e-02,-6.914976935558697635e-02,-2.721345832137539444e-02,-3.978286444760581464e-02,3.507587496443931308e-02,-9.892907952727322818e-02,-4.606997239277053208e-02,-7.389307349390292212e-02,-6.855350515119112975e-02,-1.514828798943481381e-01,3.229490098830357925e-02,3.367840140779925460e-03,-4.414456163573810682e-02,-3.048253691320023523e-02,-1.691171765179913522e-02,-3.304725428310830576e-02,2.604146459150401618e-02,8.910711555500784239e-03,1.169467867834787962e-02,-2.306685670008832428e-02,-4.949501831594133039e-02,3.731683997463869362e-02,-4.323240647326631603e-02,2.140697047867073238e-02,-6.215316910855171913e-03,-1.247750781078107440e-01,-6.806188806601545793e-02,-5.365907412682803350e-03,-5.533627780668416013e-02,-4.095760702767850536e-02,-3.346288413251698179e-02,-2.948972787350282940e-02,-5.983644167853569354e-03,-2.630517949505147696e-02,-7.130692662233813206e-02,-2.409115286393138586e-02,-1.074767890629141076e-01,-7.641378845705799894e-02,-2.813767645350546270e-02,5.008712811453477215e-02,-2.490923095326023212e-02,-3.013405551959406556e-02,-9.333435368144067656e-02,-5.322955813954449028e-02,6.097887633455704309e-02,-1.823932792218793675e-02,8.942824648555166428e-03,9.697544287390219911e-03,3.891475346981781557e-04,1.463856709022056009e-02,1.844876757146633045e-02,-2.368444531925680344e-02,2.241823957448378646e-02,-9.145479305423022398e-02,-8.570560330112228509e-02,-7.611640715837196536e-02,-8.726297274903220894e-03,-3.755606406263146263e-02,-4.959695214178791098e-03,-4.656059551502296501e-02,-3.205911764081690457e-02,-1.116957279734303032e-01,-8.402964158723488786e-02,-1.076854500945765014e-01,-5.842799616486280684e-02,-3.082456782175234042e-02,-2.903098623563340336e-02,3.392737903286645318e-02,2.902683734096455845e-02,-9.069131189936247006e-02,-7.496166071959627086e-02,5.218873110990716879e-02,6.784818450321214445e-02,1.395045238118385218e-02,9.288428731727604859e-02,2.545816933587358860e-02,3.395795728205640296e-02,-7.623092120587020119e-03,3.028608020074841783e-02,5.084954266591523719e-02,-3.078788492228052773e-02,-2.400074837956143320e-02,-1.231967434253592453e-01,-6.722731226681015471e-02,3.718419351668608708e-02,-1.825010837239593800e-02,-7.234685654543202005e-02,-3.104397136971726034e-02,1.920808383458176213e-03,-6.321119129105876033e-02,-1.010582791576533773e-01,-3.274598952535193175e-02,-9.340085163018180259e-02,-5.325706062046082351e-02,-7.574624475080160568e-02,-5.147532975107112913e-02,3.448578381331082743e-02,-2.960277958274207255e-02,-7.078387468969449259e-02,-7.464356425245782280e-03,3.454276356176966961e-02,2.482966033351316840e-02,-4.643126708549540765e-02,-2.442218633979351822e-02,8.682840839001179992e-03,-2.415670735965896876e-02,-3.336227744821096408e-02,-3.988897207271942941e-02,-6.039686859986229811e-02,-8.055747299093225788e-02,-4.065773633880893217e-02,-2.183408900978987474e-02,-6.767926337713781049e-02,6.382502189576584606e-02,-1.121785590795876114e-01,-8.460031261526185231e-02,-1.097989428388542188e-01,-4.668114939092964100e-02,-6.949138775299948390e-02,-5.747884425679116588e-02,-6.636051442515150667e-02,-9.111598295025080674e-02,-9.972134477367722294e-02,1.241934459893627614e-02,5.101315610532187322e-02,-1.144236280767288796e-02,-5.872122214277353258e-02,3.457931727606700176e-03,-1.315683220119152376e-02,4.047199167572151229e-02,-6.342008261128066759e-03,-5.260781301085387662e-02,3.565751437058839891e-03,2.387054245788584189e-02,1.067354353485425698e-02,-2.552395919324704221e-02,4.630148071659083431e-02,-1.690106682890717138e-02,1.683430805099020086e-02,-3.882901140940152318e-02,-5.045789619777036467e-02,-7.033050860189062059e-02,-7.144370406120752193e-02,-8.421402375476327862e-02,-3.368832595262858526e-02,-9.821092103463922862e-02,-3.040120344626910318e-02,-1.423141919708509895e-01,-1.526329044000857560e-01,-7.192644962774420725e-02,-2.411595893544064839e-02,3.139359510384329838e-03,3.023647570561987033e-02,6.907169518456948709e-02,6.640838186586638103e-02,-7.656351398160902294e-03,-9.298398595437620470e-03,-2.962361685776465289e-02,-1.398926315230929716e-02,-9.578296394073904096e-02,4.091223863063622908e-03,4.562374417399386872e-02,-2.743380181166857248e-03,6.142245710707874840e-02,-5.304153904013061277e-02,-2.206632938590587234e-02,-6.727988547647377471e-02,-5.747148741306722271e-03,-6.200808375579360508e-04,-2.209262157897161957e-03,-6.190716202742667373e-02,-5.842750957907504733e-02,-2.516033890611909032e-02,6.321175158397579485e-02,2.119893475349794373e-02,-7.570548967728316092e-02,-3.212173926771018373e-02,2.810910552695050635e-02,-5.641299976615746919e-02,1.917152185209505463e-02,7.862241678268513945e-02,4.909044464910884004e-02,7.985742242280899350e-02,1.469943224829367220e-02,4.129589530203654074e-02,-1.215100737072120213e-02,6.605079855482040921e-03,-2.943857855513892091e-02,4.254001025328653374e-02,3.884985887788441807e-04,4.147352150119261449e-02,4.444068999903665051e-02,4.303145169180690177e-02,-1.018980896044513751e-01,-4.254162028959374703e-02,4.823300093019283231e-03,-6.575063849621383405e-02,-4.354595909579463131e-02,-7.904718833367564701e-02,6.941379851288859149e-02,7.828924962571734425e-02,1.375315296591438086e-02,-4.097171475935026952e-02,-2.475834817399120980e-02,-4.208135315655519432e-02,8.496498999797635898e-02,9.185481672110937246e-02,1.044255166433717512e-02,3.330784169369313541e-02,5.022239156414579769e-02,1.117965378939466958e-01,-1.535340845557622326e-02,5.256539517750780099e-02,-9.495207115064762705e-04,4.049347839908883084e-02,4.970236366830796393e-02,3.161997407982761188e-02,2.305169689415466350e-02,-5.679133200486433108e-02,-3.109637475536413537e-02,1.601762504728346942e-02,-2.168836964410738449e-02,3.607267006684087424e-02,-1.698735665777763721e-05,-2.763768925894785101e-03,2.715721324936812980e-02,9.586203968032251665e-02,6.495924843756768763e-02,7.532548110262493601e-02,7.122795901911903316e-02,7.797174718755586764e-02,1.093370268666685602e-01,5.719780259351356366e-02,1.144087787123026639e-01,2.048804706309794166e-01,4.620884387663593690e-02,5.179901514894839215e-02,4.722068351778227480e-02,4.509492498097274205e-02,1.967067583936954814e-02,2.926678672459320785e-02,-2.866927518179451101e-02,-9.051284484732627367e-02,5.003412540069355173e-03,-1.605291767266126685e-02,-5.969139603112718663e-03,-1.019221923319530397e-02,-3.898219953353540546e-02,-1.237691442672438384e-03,-1.784543855956382749e-02,-4.194049216431845750e-02,1.558689030982734341e-02,1.661161446673102560e-02,1.386630514994912668e-02,2.819291448787403925e-02,-9.649042651935575872e-04,-4.799949864872895405e-02,4.810357532268258463e-03,3.251048087246338758e-02,5.216296698422104305e-02,5.178548162926265713e-02,9.307419954309816001e-02,1.977319778617203996e-02,1.511134034244608453e-02,7.380550558569128061e-02,-2.325728654781093058e-02,-5.121420362553980726e-02,-5.582345364345812043e-03,2.135548234935983822e-02,5.670870225180570101e-02,-7.146586066714927764e-03,-1.896807054944354975e-02,-1.427761429259222052e-02,-3.989569605539998454e-02,3.209353940792213089e-02,-5.247886340506096627e-03,1.424919142710699520e-02,3.065764200427839592e-02,3.139598868736526160e-02,1.372487115738349299e-02,4.206854990840383501e-02,-6.965118403298214966e-02,4.382358587806228778e-02,-1.461048931160828339e-02,-4.600770637907893035e-02,-6.355446199952785938e-03,2.170440222530539351e-02,6.308593716821578323e-02,4.155448511207097961e-02,-1.013914327507608841e-02,-3.015709047731265913e-02,1.840042229314693689e-02,3.862909111001924106e-02,3.179824732840615120e-02,8.609126503153005303e-03,-8.775138724625654654e-03,-4.201212566256052640e-03,-9.832894708647357818e-02,-4.386211367548108371e-03,-5.978906845738468818e-03,-2.793176685620524236e-02
3.612057170994096428e-02,-5.144485500104364201e-02,2.002700661991993480e-02,-1.944442477899118588e-02,6.430149232067737010e-03,-9.719959700981880418e-03,-3.562166400466754146e-02,-1.811396301628574734e-02,-2.693747325302602025e-02,7.910143525875924092e-03,1.874861735276937141e-02,1.487644614576891580e-02,8.522550862005921768e-03,-3.500122496730841831e-02,-2.452104190073324530e-02,-5.250834152726205177e-03,-2.134065528343957047e-02,1.875578601362639514e-02,5.601448143483944708e-02,-3.601250799694321464e-03,-4.043312345073284131e-02,3.262649755630751131e-02,-1.385155799796790321e-02,7.287311132352722841e-03,-3.176753109410201253e-02,4.844132243875611671e-02,1.418953893474345432e-02,-2.065400635157886577e-02,1.413398561379302851e-02,5.680876673051059311e-02,3.151916519736967792e-02,-3.153637737752520986e-02,6.104036685337198981e-02,8.458289492592734743e-03,-6.902298536948561769e-02,-1.285159838046377040e-02,3.530038711263777662e-02,1.271023717774975165e-02,4.335342384539226691e-03,3.512267545681684727e-02,-4.089483740615590390e-02,3.278650021941888204e-02,-7.504555042898806462e-03,1.565146865327666711e-02,2.038723838596795748e-02,2.127510816231157134e-02,1.331148897816534019e-02,-2.529393897074069114e-02,-2.986103980359781224e-02,3.280181901347626466e-02,2.459138893164540193e-02,-4.605425736186883473e-02,-9.892830159462950856e-02,-2.776291302689935792e-03,6.321108335525089938e-02,-5.993480103184072039e-02,9.180278275213175215e-03,-1.955668066577345710e-02,7.312833728008566979e-03,4.068764237685527918e-02,-7.566860712247330811e-02,2.469518842259390418e-02,3.831940786795010045e-02,1.076308863692264535e-02,2.023246709907152927e-02,7.725825285332335417e-03,-1.570010653355808847e-02,7.034861714598711346e-02,5.676452587031120128e-02,2.449676651216802295e-02,-3.771988729906414900e-02,-2.518291176162981010e-02,-1.787443574583585590e-02,2.037884337481856226e-02,-4.079248529293928033e-02,3.439658455227207617e-02,-3.006199509475739398e-02,-2.370561536322565374e-02,-2.956086004619972070e-03,9.388360211870790117e-02,2.920927063279879846e-03,1.230343379086920597e-02,-1.869433082754056634e-03,-5.181133072183009836e-02,-1.035698335683337204e-02,4.315968069652303778e-03,2.333734755537434508e-02,9.878064462254143585e-03,4.986257553703526968e-02,1.467276627379535299e-02,-2.693112945718957596e-02,5.336450442223559382e-02,-5.509346766692386349e-02,-4.603271383010491130e-02,-3.065763372287510016e-02,-3.532435498031553933e-02,-7.348781801324755225e-02,-5.440873755755897684e-02,-1.142570564685136264e-01,-3.096905572442398835e-02,-1.052814856895845086e-01,-4.672159211510967108e-02,-1.033828136859688135e-01,-7.900705687413128731e-02,-7.679489240470867457e-03,-4.267135650385301543e-02,-1.117588167485632743e-02,2.114704648150502950e-02,-1.339132982784425538e-02,4.751574305684155147e-02,1.468558545926863107e-02,-2.288218034087399072e-02,5.791973902967997162e-02,-7.056314657276759050e-02,-2.389859170698953317e-02,-2.886286674501268787e-02,1.149025905482411666e-02,2.332100111468854431e-02,-2.499584056500697357e-02,1.102957806135567397e-02,-6.369495799240112999e-02,-8.273434801466885563e-03,-3.897070935071711775e-03,-4.027962348579524482e-02,2.386549613506594447e-02,-6.863154255705676554e-02,-5.636483152387412182e-02,-2.971689557259631423e-02,-1.470504912710100635e-02,-2.790287165270188136e-02,-7.956058280530504956e-02,2.673805873055292923e-02,3.702660940207218483e-03,-9.955876834237674389e-03,-1.181126195897685277e-02,6.490614998606533854e-03,-1.497034698501498780e-03,-2.954383164200607981e-02,5.168404013474522940e-02,-3.070279764221724855e-02,4.364941864733688087e-02,2.254716056743185509e-02,4.381619762105608447e-03,-8.181890957681849444e-03,-1.864200129529244160e-02,-1.831429467336521261e-02,1.193055392488212921e-02,-2.542001487784913139e-02,2.536204663353211833e-02,-2.113619849470682252e-02,-4.115229652489342527e-02,-1.375171745690111948e-02,-1.229578937134334776e-01,6.598189048790283062e-02,6.305945658950576349e-02,-2.301944699642130901e-02,7.784739996287263347e-03,-3.990391942163789424e-02,1.285287169069834279e-03,-2.639650765777179497e-02,5.468158861217121969e-02,2.321215405737945756e-02,6.703069868448145729e-02,7.934641275514532632e-02,2.786891464050215289e-02,9.936545532343106849e-03,4.374206795374405154e-02,-1.338592898096439485e-02,4.901791300425945019e-02,1.935017952509204830e-02,4.771126458931203296e-02,-1.333521083373690440e-04,3.408460155890940396e-02,-1.988456568221966952e-02,-1.530075674287465805e-02,-2.332421623813881253e-02,-5.944425380781025343e-03,7.703388000973460104e-02,3.831739838350396027e-02,6.907467445387979743e-02,-3.215636057857962360e-02,2.597768621983410908e-02,9.685690619532517573e-03,5.602724096676104520e-02,3.620873390628128602e-02,8.704035428429991728e-02,1.257269677621454486e-03,5.117566363322603729e-02,1.563335210661207508e-01,4.170530842346149153e-02,1.158029197618874184e-01,5.693077207492481390e-02,-2.396112455899104647e-03,-4.000603357523027648e-02,-3.982465024227005435e-02,2.399061489516403009e-02,3.358098668681345350e-02,3.410210322311638814e-02,3.132087673901139298e-03,5.561174109068618698e-02,-3.418685558851571743e-02,-5.075698507986219077e-02,-5.635037579317838524e-02,-1.635546641627075304e-02,9.320255319013075884e-03,-8.269105667287890427e-03,-4.897221723774732027e-02,-5.926657093913206137e-02,-2.711367394680697096e-03,1.681901402377508625e-02,2.615900014553179317e-02,4.060528144227543851e-02,6.038518602661718804e-02,5.069574393555589809e-02,1.070565108477933569e-01,1.425561187642627459e-01,9.084576908181062060e-02,4.845058328660948460e-02,2.603164081418738937e-02,-3.496243648112565272e-02,-8.324356560506590563e-03,6.185976071805934784e-02,-5.120067945452810160e-02,-3.822342022229258812e-02,-1.443420339735245611e-02,2.315695362223548631e-02,-5.379874041878943657e-03,2.436401851463554716e-02,-6.077995413063141256e-02,-2.006408302187585521e-02,-7.967362825507715018e-02,-7.345730130898762977e-02,-3.768851556577934581e-02,-4.752065236382578550e-02,-8.987692521730292899e-03,-3.532521432208673637e-03,-5.191428146282621968e-04,-1.493944959785547220e-02,6.821252367433841557e-02,1.281724729950502531e-02,4.371955159091601290e-02,4.099829053496369113e-02,1.190018928437235751e-01,7.607117582772010556e-02,-1.782230525062346565e-03,5.722477033244301875e-02,-2.612526006303166407e-02,3.665537850338988074e-02,5.639162340074160146e-02,-7.669714695536439426e-03,1.056966679924802336e-03,-1.747963681139865595e-03,-2.975030312330416427e-02,4.101321446683563882e-02,1.232875517710692662e-02,-2.343142726546391941e-02,4.422696193471293419e-02,-4.155363556789402890e-02,-6.093181340065755014e-02,-9.472896199518100746e-02,-8.362156912360067806e-02,-8.615696130159883337e-02,7.850130131945480885e-03,4.878371695058407800e-03,-4.546811158818672705e-02,-2.870711238849368505e-02,-1.134182163026296354e-02,-4.054299828762337327e-02,7.250791699236799892e-03,7.816734752560887400e-03,3.221993902662545484e-02,-3.917342031375584122e-02,6.084762486828083905e-02,2.886918454260175779e-02,-9.265758201570703512e-03,-1.217663392247808965e-02,9.689018703859908488e-02,4.387969745946550260e-02,-1.861704761552359158e-02,-1.251688249816243145e-02,6.341263890644829870e-02,5.052467825580059246e-02,-1.489302022676599127e-02,-1.475652324509184495e-02,-2.641125669662031453e-02,8.536879487542232969e-03,-7.225287891272283436e-02,5.113872995618212736e-02,2.262223282364871427e-02,-4.110198971747695135e-02,2.393493367832140797e-02,-6.445077769166240693e-03,-5.398828160319982944e-02,-6.500782702310049614e-03,-8.397091636927823954e-02,1.149985579487680827e-02,-9.211007705285791797e-03,-6.037796216917550723e-02,-1.396536923005176935e-03,-4.282949947776537591e-02,-8.143995615489721396e-02,-1.489704552163235822e-03,2.296096617112526952e-02,-2.026797183261909441e-02,5.548943590435482381e-02,-3.468411739187325649e-02,2.417539453514077480e-02,9.500830059305100800e-03,1.449842621737208737e-02,4.898423907964991053e-02,-2.912371311088930194e-03,3.344585034048144778e-02,3.103010426832595106e-02,1.034402665573752739e-01,2.716119557379739063e-02,-2.322208713283145307e-02,1.424072434343391647e-02,-5.289355245669514344e-02,4.862981296648641316e-02,5.032774495896991801e-02,-4.054568068823415083e-02,-7.783192522659904133e-02,7.419477197666742192e-03,-2.527714159605851801e-02,-1.777246234649752440e-02,5.925507210101264161e-02,-2.666764794914443931e-02,1.789520549141280711e-02,-5.018801967638464312e-02,6.038107001295592996e-02,-4.951869789578321364e-03,-6.654716428134835327e-02,8.055711637683095686e-03,2.972293906363909777e-02,1.827117522348776363e-02,6.357839418149540713e-03,6.336366657809711089e-02,-5.335622680555452552e-02,-1.198883125521961295e-02,-1.835083156595612936e-03,-2.887514314181583580e-02,-3.756093734439928250e-02,3.566757510214187826e-02,4.132610425620394240e-02,5.013833330104137953e-02,3.981181652045785724e-02,8.838751035182550175e-02,-2.994232386071559587e-02,-2.038711044682567017e-02,4.239570111582819517e-02,6.006139511996267527e-02,4.513111499140336214e-02,-1.768787408455283969e-02,-1.892816997758904260e-02,-2.228168308252560445e-02,5.204213054668139354e-02,-9.041490772970825485e-02,2.617275596078341010e-02,1.707713034271099873e-03,-1.219308457437335083e-02,1.414968006665618533e-03,-5.691146278400326802e-02,2.597463809925491807e-02,5.074674514298006117e-02,4.322521614739170226e-04,1.936722419982459670e-02,-5.244257245881630419e-02,-9.488652762610079450e-03,1.778831373859481729e-02,6.412839964752664948e-03,6.725281232320533265e-02,5.915592129232370017e-02,4.418553016314210463e-02,1.969535293375990898e-02,7.050028165622100607e-02,-7.344167748794547257e-02,2.902496399597941611e-03,1.640244746345882049e-02,1.132088994588031222e-01,4.941686809928937801e-02,-2.188336059429151631e-02,-6.406489879796753439e-02,-2.272709388129958222e-02,-2.611612459894838839e-02,-8.564839422356194942e-02,-4.583147328786045527e-02,4.378736569154857011e-02,-4.228301135370557406e-02,-1.474054502784914213e-02,-4.219582660510802496e-02,9.033080032971294721e-03,5.285000103942034434e-03,-2.304688867490038706e-02,-3.816072382575634581e-02,-2.692305314560304932e-02,2.146305289471982930e-02,2.989383648574508306e-02,-3.004786027952209213e-02,1.524881279580669324e-01,4.915609008947167957e-02,3.673741437326721870e-02,1.416980522787739463e-02,2.537864079426936301e-02,-2.372404876434525134e-02,4.276802237329902640e-02,4.764826813619731788e-02,4.921023590523136704e-02,2.173678677108210281e-03,-1.159628597810261064e-01,-8.297492692805856496e-02,-1.880015567095290330e-02,-1.013729026524940457e-01,1.248652387203720397e-02,-4.942615041420618527e-02,2.235895376970616424e-02,1.677135266441134517e-02,1.035436725491751999e-03,-1.016898402746548545e-02,1.710320804254412399e-03,-1.276452662587394468e-02,5.391595650198743699e-03,3.022390024570925648e-02,-2.261529045748081779e-04,1.082783043645470060e-02,1.904194381220484372e-02,2.363890576796662951e-02,2.467871494690239420e-02,2.979643568591047731e-02,6.308411226835136665e-02,5.320343305277975415e-02,-1.280499286953677013e-03,-6.596578889109172561e-02,4.777583025675890410e-02,1.111364931218263852e-01,8.411078852106465553e-02,-8.007454818170135769e-02,-4.817916083773250702e-02,-7.627126772410569577e-02,-5.339946898686665638e-02,-5.544843489044035123e-02,-1.082409914864219530e-01,-6.867380336680056763e-02,-2.842246370927595939e-02,3.496963831677431245e-02,-1.572679740501247217e-02,-3.048775555023268760e-02,2.371846819396999928e-02,2.072352898969705495e-02,2.715385783646427111e-03,5.868310469364839549e-02,3.143640590478441812e-03,-1.807944406163158185e-02,-1.276235391765710540e-02,1.599343440867837321e-02,7.890556414946853225e-02,8.550889127590090288e-02,7.245124142998274341e-02,6.564590866097717858e-02,3.665383615114130994e-02,4.538779435173690216e-03,-1.303596825640458527e-03,9.115811663965474321e-02,3.565708218666029106e-02,1.524103382577877107e-02,-1.198648169478260840e-02,-2.369194503926569384e-02,-3.091833292962698626e-02,-1.081637243130339349e-01,-9.859560986524910919e-02,-6.330760900302487282e-02,-5.703740440271749118e-02,-1.577444009342033465e-02,-2.629746211575546139e-02,1.822971922608201262e-02,1.806482775225836876e-02,4.052315956089933002e-02,3.090133036946677778e-02,3.129380782285894752e-02,-8.257415568088368601e-03,2.597857709873691370e-03,-5.290982252209804060e-02,-2.244346051809461770e-02,6.452000941237770459e-02,9.912324555696173933e-02,1.726351105447412881e-02,-3.608040373842735164e-04,-2.016328436679977465e-02,1.020650706075303532e-01,9.904545245481942428e-02,9.496306014254102257e-02,-2.624909265251149093e-02,-2.490516088344551029e-02,-1.299102356360584340e-02,-1.947383950337638892e-02,-5.661915523224381880e-02,-8.119522740604261102e-02,-2.789601244055121831e-02,-7.695267800973942807e-02,-3.172354476456219763e-02,-8.621842546515821881e-02,1.418482250736331080e-02,-7.605326296897772786e-02,-1.166304454315160444e-02,-3.766832183676185886e-02,-3.517202077520178299e-02,1.161733975779637856e-02,2.225086341095522044e-02,3.656006459748126214e-02,-2.851994244544983972e-02,2.734138788875194528e-02,1.469136126136779547e-02,2.448749043882167409e-02,1.347939739884780434e-03,-8.818642307039814554e-02,-1.126998471293262777e-01,-1.041401011555363743e-01,5.553301626807494867e-02,3.353985036389411228e-02,4.547993606215219170e-02,2.143252627885083861e-02,-2.668880449730934648e-02,-8.752606985387252625e-02,-4.490330990561131053e-02,-2.856960823566199320e-02,-5.525447298981253641e-02,-7.790929004387418810e-02,-4.217425894465481884e-02,9.943950195921287885e-03,4.845091980805716313e-03,9.402065113447375874e-03,3.177408486122811765e-02,1.707329463885105120e-02,-1.415627232280616127e-02,-3.248794056927536977e-02,-3.904880607512822149e-02,-5.119784551887133356e-02,3.329076060254653087e-03,3.073863934181604932e-02,5.491522581702113111e-03,5.026796466729663293e-02,4.233312741902398382e-03,-7.188131242698221623e-02,-1.241444642667507842e-01,-1.091261820762404605e-01,-1.192811803411584493e-01,-7.135955628674196805e-02,-4.380640687190107130e-02,9.493836956348309861e-03,-2.483064864445544070e-02,-3.353412021415592970e-02,-2.618267402100275115e-02,-1.490655440460494485e-03,-1.693764254412097672e-02,-2.759205388008643955e-02,2.852460174283664648e-02,2.956668291994975044e-03,-2.781492693858939394e-02,-1.756257616138225813e-02,1.295996184022851425e-02,1.070712616175228254e-02,5.099725704040897895e-02,-3.073888915311302067e-02,3.272995818608700341e-02,-9.526595615929035971e-04,-2.959742293325805240e-02,-3.809169712858229834e-02,9.402523848156503494e-02,3.409428453523957736e-02,-4.632829477577522781e-02,-1.195014799635143489e-02,-7.294909935787011711e-03,-5.814936513151318376e-02,-8.473034433798330711e-02,-3.196589026561574842e-02,-1.479036451479295022e-01,-9.051224634571133909e-02,-5.698821408860889337e-02,-1.141120655106698037e-02,-3.122836269437426204e-02,-2.143137047336940437e-02,-7.295468213810921143e-02,-1.310728366272556622e-02,-5.653305685078585663e-02,-2.712939418494611857e-02,-4.530773104666126899e-02,-4.968338707272981596e-03,1.046284892115838640e-03,-2.019500701060613496e-02,3.284554755674330001e-02,1.436729607922284518e-02,2.556450285141711326e-02,-2.679436995555521325e-02,1.931392295737052126e-03,-5.797347729556919654e-02,-2.188304515369129261e-02,1.280428969949577896e-02,2.447761180482228155e-02,1.736696353564395195e-02,6.174930134073100194e-03,-7.754416276418073239e-02,-1.390112226969589526e-01,-4.578796164159828347e-02,-4.967413509329638571e-02,-4.167634734056973461e-02,2.825516737472808307e-02,-1.133907971697154307e-02,-1.983766197110016852e-02,-6.090171800148507647e-02,-2.704177463126908321e-02,-1.629238176289004442e-02,9.831122274493459944e-04,4.371801860312540637e-03,-4.607800110128928116e-03,5.779112043203164101e-02,3.835167839403861439e-02,9.506120890532102075e-02,-2.190110102835395728e-02,-3.924823576456904807e-03,-7.406786999912939873e-02,-2.464045195673062599e-03,-3.496580490258103385e-02,3.533943840536334785e-02,6.713871633538118222e-02,1.888257106411618405e-03,-6.554675902788956697e-03,6.051332891510994433e-02,-4.618362838698922973e-02,3.831395807830553085e-02,-3.028807751285894981e-02,1.491750561099107995e-02,1.261699661917925763e-01,-7.581570143662984262e-02,9.779026336791861451e-03,4.051321951092966972e-02,-7.310592461205847603e-02,2.585198001000859128e-02,5.283200960027249760e-02,5.094945828002964833e-03,6.786774673477665755e-03,-4.038920925695820702e-02,5.980902139982485766e-02,2.021145788515213426e-02,-3.739284349051651829e-02,6.456589414644209324e-02,-7.098482210609401155e-02,-2.234872727151344073e-03,1.533412958820183983e-02,-2.419328502938419140e-02,-6.327367535524937303e-02,-6.291057980254749493e-02,-9.136823126154745150e-03,3.332739439354962668e-02,2.031884345896480676e-02,1.701412555555440256e-02,1.143673709260471238e-01,-9.881982530699356948e-03,5.761912692517347223e-02,6.860257768284325208e-02,1.297114684632595938e-01,5.388543321139868669e-02,3.294134723377687562e-02,5.357946293015435069e-02,9.909858548324909644e-02,5.678362460413070856e-02,4.793844610025783243e-02,1.428997136925437778e-03,-1.382183558001543605e-02,-4.254760279039482979e-02,-2.532175957450581716e-02,2.487974800102958628e-02,1.081272778468502643e-02,3.757805390152703373e-02,-1.203955696861933045e-02,4.272047164737956260e-02,-2.612549365245313282e-02,-8.692254052270843856e-03,-9.786557379836070131e-03,-4.893209258183680438e-02,2.481831018380652870e-02,-7.814400536117879770e-02,-3.879400956173105486e-02,-6.130470891054898329e-04,-4.302792443841764458e-02,-5.246076349907705799e-02,-2.743550095095532645e-02,-2.574697850103780869e-02,-3.720928651725247636e-03,1.498614758052047025e-03,-1.485706384178443751e-02,4.274968287765169156e-02,-2.884657340915100163e-02,3.814672003243512605e-02,5.421048764651118651e-02,-3.805142463157932392e-02,1.897912327999917714e-02,2.202402223546489485e-02,8.257298890862643792e-03,-1.643262581993086210e-02,2.569064568476291457e-03,4.732106522945484645e-02,-1.444289966023429642e-02,-1.071672622307887207e-01,5.412589113837178861e-02,1.744468851014106467e-02,1.615377536246152823e-02,-5.551376771835128676e-02,-4.596469419214415514e-02,-1.874072083212579773e-02,-3.398392273125463298e-03,-9.618865100555268333e-02,-6.859371766955603411e-02,-1.447978119983834785e-02,-4.756974291212748285e-02,9.624785980450762529e-03,-4.021881549722094301e-02,-9.770405336808035690e-02,1.341466595619905146e-02,5.067359439040391295e-02,6.424124610075053650e-03,-5.886007009248737931e-02,-2.321590719663802968e-02,-3.044394570198778391e-02,1.474477964914597955e-02,5.326393527483964940e-02,-4.387477703802802886e-02,6.038840665682517102e-03,2.141308614979334224e-02,3.494374100932023768e-03,-3.200956287016147421e-03,4.943634911955038097e-02,2.709158748448267651e-02,3.839831586056087487e-02,7.770852036226881705e-03,5.846199814307537039e-03,-7.812204131655838685e-03,-4.483217241007810688e-02,-8.440046790152543749e-03,3.022573155399301253e-04,-9.188328419066857378e-02,-6.728001994481927484e-02,-4.050635477895302844e-02,-2.440015904351295478e-02,7.084305657807914852e-03,2.632079897999803006e-02,-4.031870133508665133e-02,-1.924497613263076792e-02,-6.144121078414595261e-02,-6.650695334856966678e-02,8.171615753533083282e-02,2.584102810924115631e-03,3.035552121137653075e-02,-1.694030135535726581e-02,-8.874186428956434836e-02,2.851403215982342698e-02,-1.182823693063434975e-02,-1.979032674171896100e-02,4.857012369628366244e-02,9.133340172191445339e-03,-5.992198718612073982e-02,-1.054648545237340043e-02,-8.850934762664712518e-02,-1.042432586098817129e-02,4.728721495863939112e-02,2.904924594902713597e-03,-8.110659549043035266e-02,4.272478858360610060e-02,4.847383909825223047e-02,-3.020880782630357489e-02,-2.618904397726282141e-02,-2.802378074394434870e-02,2.433876446443100292e-02,-4.706204420138773020e-02,-2.772542064833874442e-02,-7.656602821767620470e-02,-1.362581835116267450e-03,3.212010673884958117e-02,7.357430888870497045e-03,-1.155491877767153910e-02,7.151982352682814247e-04,-4.426956218905236246e-02,3.890696911740659791e-02,1.620991781015205385e-02,6.881322108614945643e-02,2.126563182094887150e-02
1.233184800971073858e-02,-3.325166374446474754e-02,-4.123241239410681963e-02,-2.603683261841119312e-02,4.876161682008471610e-02,2.850728948052755340e-02,-5.668928606542297105e-02,-2.048170075172977525e-04,-1.191131387890381060e-02,6.267769664722976607e-03,1.179253040597107519e-02,-8.821802275504671276e-02,-2.486687834220999843e-02,1.210237475831571832e-02,1.139164086040972065e-02,7.590207970924829628e-02,-1.740501301215813951e-02,-1.044336878409824788e-03,5.907430070431432144e-04,6.463378262176747158e-02,1.359147619986508099e-03,1.505433222642059074e-02,4.370738501688516131e-04,4.721374427135712620e-02,6.828259890889006034e-02,-1.663452509816200700e-04,1.683577612946779434e-02,-2.967525044424583480e-02,5.744642167442779584e-02,-2.353391238718515605e-02,5.858138933235300383e-02,7.102174975889091746e-02,9.696212214380042771e-02,-3.386549440210367967e-02,3.368902010981947304e-02,3.180034859228085542e-02,1.833360759202964929e-02,8.428548097096397185e-02,8.285799395377237142e-02,1.730748462183415506e-02,-4.935156295356007278e-02,4.737711448457544716e-02,4.763786356847704573e-02,9.549214423665049536e-03,9.828447909811573180e-02,-2.809869759396001893e-02,2.515688367778051021e-02,-6.613665227446754481e-03,-3.786712122051171664e-02,2.792900172810786064e-02,2.901628467884272838e-02,-2.533721146933770596e-02,1.201306086974818568e-02,1.653317920748481606e-02,-4.958457529658530892e-03,2.218614029293664719e-02,3.097765550637461562e-03,4.822155179144264892e-02,-4.253378418835614128e-02,7.044520676722577923e-02,6.564574249695294926e-03,-2.044256191502607373e-02,1.078251873112436900e-02,3.330172441978910408e-02,3.112551321021169576e-02,-3.656683967380234407e-02,1.304036391346707381e-02,-2.443990076884132445e-02,-6.006201145740271835e-02,-8.597165990370049526e-02,2.680642789135097293e-02,-6.213927113086784026e-03,3.197966242351950317e-02,-3.961949344665293901e-03,5.242260439681251799e-03,-3.141811158343097571e-02,4.253428799075854166e-02,-2.594288288029856365e-02,-3.713176340386351026e-02,5.657869386267022627e-02,4.798695378364983138e-02,-6.545499042424118841e-02,-6.203662556440997511e-02,-2.871910363992121254e-03,6.730919008614860699e-02,-6.710690766806756170e-03,-3.683585631461328697e-02,5.866160825423043929e-02,1.000704094798504085e-01,-7.607959245136103332e-02,-1.106799899791133593e-02,8.199781376970874391e-03,-3.820922759945422076e-02,3.713503497819860971e-02,1.616696314905335594e-02,-1.048192675920299813e-02,-1.187494772142557234e-02,-5.523770212976623906e-02,1.807328729364923031e-02,-4.148018739691159557e-02,-3.158033510797499110e-02,3.785869653080904673e-02,3.475663586529237348e-02,6.021257347755457068e-02,9.663510792538092253e-02,-5.515955867676655688e-02,-1.164598636273501443e-02,4.230636907035682792e-02,-5.783124427930513844e-02,-6.878672129695213855e-02,3.092343973545556152e-02,-1.572492512538875564e-02,4.301841056333388646e-02,-1.354167873433128819e-02,-1.953992312926093600e-02,6.902323307777689931e-02,5.614261497865126460e-03,5.280459806173006670e-02,2.073945690458741525e-02,3.583730324651282235e-03,-1.223979979380241355e-02,5.772538728614026726e-02,7.641910856676217834e-02,-3.246410600227394444e-02,3.465881888969725433e-02,6.319446885652052481e-02,-7.178343571134222778e-02,-4.248465523297144213e-03,-4.558400815071868284e-03,-6.306960580969085683e-02,3.692531116036144867e-02,6.802859869637453705e-02,1.071969568792740662e-01,5.445360155017315608e-03,1.774376625713475902e-02,9.055476556373861716e-03,-1.334042324052020154e-03,-1.460681578528071588e-02,1.006685192574793969e-01,-7.237919102626808043e-02,1.068909291183434140e-02,3.982231800848699886e-04,-5.239885751939134945e-02,-3.628718742068923198e-02,5.580381357755519189e-02,1.147350672479502398e-01,6.107821063573104503e-02,2.327111785281155837e-02,3.715232386302431272e-02,2.270535566459730772e-02,6.444062572100010822e-02,6.073819363301152796e-02,-5.382700898691521185e-02,-8.096964680201214348e-02,-1.186645135114843264e-01,-3.429963931483511613e-02,3.264054423319566467e-02,3.465363536484462187e-02,1.116316948250997698e-02,6.759011047703362973e-02,3.978366406314190473e-02,1.451485686481575506e-02,1.471671808691564498e-02,5.844442071072344230e-02,6.205132269541940165e-02,-1.588805191612427739e-02,1.767460343882292645e-02,2.273553434678199370e-02,-2.879637249138050463e-03,6.074100140001614280e-03,-5.707776050612480695e-02,5.517333608752050637e-03,1.036143313445382630e-02,7.713281661150565502e-03,5.744808757005911981e-02,4.713411052282444336e-02,1.433649492383569715e-02,8.578055337088280607e-02,-2.861594019790267979e-02,-2.149489102821400613e-02,-5.876813764076763841e-02,-1.373202656164729529e-01,-1.135320833478482422e-01,-9.451392182778528550e-02,-6.275165456420569998e-02,-2.504646847698007231e-02,3.369061338776286468e-02,-2.904474726958774719e-02,4.148144258899644915e-02,7.587814656352170894e-02,1.168305400473843014e-01,1.704340704439535545e-02,2.776702643936749051e-02,4.676733752913671965e-02,4.177028177045209734e-02,-3.954324210472467266e-02,-1.195994238745494084e-02,4.876029632746491788e-02,1.625004112973836914e-02,-1.214090193183077308e-02,5.962468547282923038e-04,-1.368344331617077358e-02,9.072139517973486916e-03,-4.427771466434599068e-02,3.760351221333426558e-02,-1.162163718754348207e-01,-1.199331207084640000e-01,-7.745312354951054690e-02,-1.076803555630707343e-01,-7.925857691776067027e-02,-1.030037142665253952e-01,-8.676629768565249923e-02,-6.369710897031951972e-03,-7.304992788161036171e-03,-1.532865451023403269e-02,-3.198766818107931509e-02,4.739786173231665817e-02,2.443617727390243535e-02,6.775986908247791374e-02,5.266404861944391086e-02,2.709196283104128855e-02,2.678989755988517643e-02,1.553898164186355395e-02,-1.093156734239220627e-02,4.546694006351723050e-02,-2.062975605669103291e-02,6.070902844190847331e-02,3.543143053748649268e-02,5.149043464500878409e-02,-6.006905964421252811e-03,-3.928870053888350485e-03,-7.129256710489630111e-02,-1.214619008907575903e-01,-1.607590756568496038e-01,-8.182411331106706487e-02,-5.344549394150524546e-02,-6.890449394885450607e-02,-2.362342554194319516e-02,7.650820944380001083e-04,-5.175524925023702871e-02,3.335439546607025380e-02,-1.357666009792600839e-02,1.991045867890706839e-02,5.830861481415400283e-02,-3.527892728997410188e-02,6.557116104278525905e-03,-5.598808534792097669e-02,-5.564866816942319605e-02,-3.439044957172365802e-02,3.364355583206617845e-02,3.649471703199510392e-02,-2.300734066712158132e-02,5.400020845515088319e-02,-1.935885879976026458e-02,-1.351431065316816525e-02,-2.600323173698089463e-02,-1.480577471775466371e-02,-8.212728057992257913e-02,-1.185590482952920133e-01,-1.297589985391916223e-01,-1.060264908892203789e-01,-1.102766341175413778e-01,-4.912643623424559070e-02,-9.454720234737165607e-02,-5.189623064279007963e-02,9.681238627079492495e-03,-7.633997213472101112e-03,8.548179282730677953e-02,-1.283516424102491360e-03,-4.599446617754091721e-02,5.731648163816745883e-02,1.439443988702372723e-02,-3.704895166962159092e-02,-3.242126648760906837e-02,-1.375455552487638289e-01,-1.700172404486064714e-01,-8.095861836409476431e-02,4.237439369855067889e-02,1.093476066517626473e-02,2.642234897007365163e-02,5.598004528224523324e-02,6.328444502129526583e-02,2.071591956910647306e-02,3.049047506613869821e-02,-3.122799632289596783e-02,2.393507627892796363e-02,-1.547999451022515349e-01,-1.666692615871173122e-01,-1.100699349917756836e-01,-1.041309468621694628e-01,-5.685692880085841533e-02,-1.542177435725658463e-01,-1.004780492856434532e-01,-3.188811924521504915e-02,8.318536273602236686e-02,5.847446390718268744e-02,-1.397934496507213147e-03,-1.555955028101990018e-02,-7.891491093457819739e-02,-1.122071614904415066e-01,-7.706727601701443553e-02,-8.506367752905967528e-02,-7.162392674991692465e-02,-9.004298494208244630e-02,-5.044525562203446001e-02,-1.338925726507006302e-02,-2.359143916225042627e-03,4.937093085366198175e-02,-7.569549002796900627e-02,-2.257682220917013594e-02,-5.273246346150946978e-03,-2.586786085830547477e-02,-8.144308952935268298e-02,-1.830779750340407255e-02,-5.443748862606215960e-02,-7.729861871603266321e-02,-1.071612453425767747e-01,-1.019664381527322083e-01,-1.104326717837152277e-01,-8.630633294916206788e-02,-1.104274608577959504e-01,-1.015879431591635157e-01,-4.325522207217920995e-02,8.105904016087116595e-03,-3.556142652165347751e-02,2.922656980831067619e-02,-1.718823826159454962e-02,-7.263271526143627588e-02,-5.905569895150750148e-02,-1.197297971592722055e-01,-6.869568534871117738e-02,-1.999577373660806068e-02,-1.628420201179837587e-02,-1.128838093211069656e-02,1.813590968253636290e-02,4.563648307118204489e-02,3.470610580225465258e-02,-5.274601818898314032e-02,1.690910271602366968e-02,5.873275006123899328e-02,1.748510287229287224e-02,-8.891084302127275074e-03,-8.689242949444334063e-02,-1.997668558154810925e-02,-7.717847672303451700e-02,3.798749093717149086e-04,-2.805716403451703062e-02,-7.101066145369769322e-02,-2.072959150867909606e-01,-1.379049991120837315e-01,-1.043139071833675130e-01,-1.084420083983988342e-01,-2.336239283365756578e-02,-6.316642292063524844e-02,-6.742087374454092119e-02,-1.764401437612630186e-01,-3.839248385067849101e-02,-5.435678074409380084e-02,3.679344844017847123e-03,5.611020888545274060e-02,3.120638834331243561e-02,9.352893613864730893e-03,-4.426416621066962820e-02,-1.412085998373569656e-02,9.340316890354249946e-03,-6.795883449681415327e-03,1.317290958606561271e-02,-1.987469037702433924e-02,-6.621249012849295124e-02,-9.207417218904989653e-02,-5.347796506799112372e-03,-4.999604828791428396e-02,-2.242496840969599586e-02,-2.022831824979259494e-02,1.467503857163317445e-02,1.047428310780780351e-02,-1.471805685118839635e-01,-1.250750275265511413e-01,-1.014128780628742801e-02,-1.153693773210151194e-03,-2.572442651578571438e-02,-3.491382656540504420e-02,9.459743645214704422e-04,-5.762708469957620629e-03,1.245868822017388508e-02,-1.112061870807377478e-01,-1.541581611754716877e-02,1.817777522777435512e-02,8.062875068062054507e-02,-2.054728903803263937e-02,-8.537124151018415930e-02,8.421789928807373732e-03,-1.566056792170677711e-03,1.535102745008622843e-02,3.875981277808740119e-03,3.085855167078709396e-02,2.553011519362708218e-03,1.446915004188989960e-02,7.739500144109252161e-03,-2.567696273891343847e-02,-8.992287048950333220e-03,5.337291677278686169e-02,4.108727142271021565e-02,-6.092044552981804029e-02,-7.031257182002659256e-02,2.798261223864547884e-02,-8.315906309601169000e-03,-6.152142823907583852e-02,-6.358391527236424701e-02,4.716279434632216633e-02,3.582724694477439076e-02,4.238680575266923906e-02,1.192846188585277266e-02,5.494694368952852959e-02,5.704705385707668774e-02,-1.052669006673865974e-02,-4.712631690864343970e-02,-7.094774402935913327e-02,3.053380293652398214e-02,-2.437273843606231616e-02,-8.254640808357624482e-03,-6.069396527222295891e-04,2.602151088245335114e-02,1.741702640831353788e-02,-6.452561774418442975e-02,-6.212818885104448227e-03,6.351804166371857741e-02,1.017415808569869101e-01,1.081690803510365756e-01,1.166041214990785752e-01,6.405226340237951677e-02,4.656047027588284398e-02,-7.498387608034753904e-02,5.568359942210284776e-03,2.731114847909429499e-03,3.137614580033520895e-02,2.331842880490446468e-02,-4.320619154140535600e-02,1.554712691466326882e-03,-5.215225023371646007e-02,1.383582209361317408e-04,-2.067803128949021255e-02,2.442563739867092618e-02,7.158275636560416932e-02,1.444970253860280475e-02,-2.743037941489593484e-02,-1.143279392202577356e-02,-2.734407196874688584e-02,6.097298849593713738e-02,-2.315712947898070778e-02,-1.466521627528460242e-02,-1.994132420440042699e-02,-1.091074300903958384e-02,5.799326465545442955e-03,3.924206256606437015e-02,1.495713365623274893e-01,1.373964032502779653e-01,7.603626193660933952e-02,9.244489440782038825e-02,7.775469845313608130e-02,2.597921029152596567e-02,7.513216850584944484e-02,9.117556862117721928e-02,3.300827497859986498e-02,1.630359115883837917e-02,3.423648734871007765e-02,3.344393706397996713e-03,3.458533578475407599e-02,1.039961694263442579e-02,-8.123243881999582527e-02,3.961420754840973973e-02,2.641723814453176417e-02,1.715387247032557419e-02,-4.273637048819048379e-02,-1.255541627958550212e-02,5.832747731067129682e-02,7.488490191239778604e-02,4.049735767406456577e-02,-6.499711479261953938e-03,2.012859761118282464e-02,-2.824206045559717396e-02,4.712708711997726924e-02,1.416752624777977421e-01,4.967969300073665079e-02,9.985690502530980561e-02,1.125140348529474477e-01,7.738211599343904068e-02,4.051950114700436645e-02,1.317700204385457985e-01,1.303396334963497494e-01,9.684005746031401629e-02,4.589883139377346627e-02,-3.265457158404436872e-02,-7.621331381280837050e-03,4.477682090379097300e-04,-5.719126468050739383e-03,1.777394539166749290e-03,-4.579549383875880508e-02,2.489498824456288020e-02,-4.822378202956801967e-03,1.167651374248906276e-02,-7.301086473415796529e-02,-5.597838997571288194e-02,6.698129394523488767e-02,3.756518819150971369e-03,-3.746779869571578020e-02,2.464586942875767600e-02,3.142385528105427067e-02,2.338901509617641664e-02,5.283052358503215196e-02,6.509646507556397788e-02,8.752597807704050326e-02,1.992451506098825986e-02,6.136695085510574660e-02,2.335092289996553230e-02,9.341666393313573236e-02,7.093771158819292544e-02,7.025282638647800670e-02,1.073789658214703568e-01,1.917384031396629843e-02,-3.897857610697359060e-02,-1.709316958743490808e-02,-2.155418190482336765e-02,2.319839418048677895e-03,-5.535601874205860196e-02,3.597483433394484207e-03,-1.646775228103329602e-02,5.636189503107144616e-02,-1.931465213448971263e-02,-8.970465489908431567e-02,1.375597449799473293e-02,6.938444570340558670e-02,-4.930954142107696336e-02,-6.484581296903549341e-02,-5.619545353845242786e-02,-1.459149941676206146e-02,-8.276261911062668050e-03,1.481216104632442597e-02,-1.073095497452205768e-02,-2.332206335443320552e-02,8.848316988552433482e-02,-7.417172130946826820e-03,8.723803366445362362e-02,9.876398026131717744e-02,9.902257483961494910e-02,9.655032842806014759e-02,1.000096330651485121e-01,7.622738024370186161e-02,-3.590890619517352750e-02,3.845839001068613455e-02,6.175870814721954455e-02,-7.354725504241217682e-02,-2.773512160782171110e-02,4.593549434332271780e-02,4.436943679326673523e-03,1.310219346070149067e-02,6.073745624622429486e-03,6.745618104883173427e-02,-2.071473539594517049e-02,-5.228849146736876119e-02,-2.546792401491448921e-02,-5.219735979399898508e-03,-1.637406092110924027e-02,-1.650659835842790621e-02,3.328775411647407617e-02,3.236616679108135063e-03,-3.426605598515374690e-02,-1.960322798359404733e-02,-3.393923840369586498e-02,2.943300234197214482e-02,7.413251814524934868e-02,7.517246626391663189e-02,1.070943218959147097e-01,4.055056115720313825e-02,7.712195849057484898e-02,8.089799832224821297e-02,3.153540572615166210e-02,3.287988173859601043e-02,2.334599005519162607e-02,1.620122130677276390e-03,-2.991557892919285977e-02,1.438126820486197938e-03,9.973193831529471309e-02,-2.024932092436542569e-02,3.394164385787788729e-02,5.018756426054066244e-02,3.887177944917827310e-02,3.546458438677747502e-03,1.835649315279660326e-02,-6.737817436383491086e-03,-5.663547151546565557e-04,2.186224273698898768e-02,5.357726962554705367e-03,-6.185591779601326036e-03,-1.887477130814155246e-02,-3.988687220952048633e-03,4.546385025925823303e-02,3.894073321668510557e-02,1.233889068396522015e-01,5.259098520456131909e-02,2.841491144014865466e-02,1.645635926045006803e-02,-6.222656125885805967e-02,-8.028875640262780888e-02,-4.798342081143571608e-03,-6.457312873775646056e-02,-2.378320350162074770e-02,-3.528793771080374064e-02,-1.689229677364867746e-02,1.515636660691767161e-02,9.217504242654285529e-02,8.692332678798841972e-02,1.085961698021114911e-02,-1.648767395147596876e-02,2.133820200684610757e-02,1.346584973680311700e-02,-1.869908672469795113e-02,3.309429511537652358e-02,-7.313888411563651375e-03,6.676014257550755282e-02,-1.783758454738681651e-02,-6.441376827049122289e-02,-1.738978817444016695e-02,-1.670443434953070710e-02,8.377072880955425960e-02,8.812502395138303857e-02,6.593190266440879244e-02,-4.747427293341065224e-02,-1.764248371193068848e-02,-1.324268462998783313e-01,-2.757810513810069961e-02,-6.486837817069154855e-02,-6.385985800124982514e-02,-1.074452274860261958e-01,-4.087721993836959666e-02,3.668845623042088500e-02,9.045692502216590505e-03,-2.917738316450755806e-03,-7.143985828549450669e-03,-3.272241655022736090e-02,5.842679937205342774e-03,-4.991990361518705349e-04,1.933898818174094314e-03,-1.996494803254965367e-02,4.898917363939365305e-02,1.625871066749828148e-02,2.924614809008922039e-02,1.376403779819298547e-02,3.485145224615807114e-02,-1.260523207749813732e-02,-2.530115578590102707e-02,-1.904949310847820973e-02,-8.416948979202526493e-02,-1.600703517040903689e-02,-5.892620287308730082e-02,-1.167069040982097045e-01,-1.522258046510368834e-01,-2.047777424280505520e-01,-1.480636570940773167e-01,-9.926945277894200226e-02,-4.578022995805444001e-02,-4.817497073189747764e-02,-7.814044936086279869e-02,-6.776550713828317918e-02,-1.275442180921819782e-02,-1.855850794301687479e-02,5.944512676606052148e-02,3.488481918257074071e-02,-3.927256088395240236e-02,1.794180216316516169e-02,-3.777685723761543823e-02,-2.157766144607532743e-02,-5.190400868170936578e-03,-1.746966953818350488e-02,-2.683773276279131231e-02,1.485853187581728015e-03,5.229482791895653099e-02,3.035851261189058750e-02,-1.881006970001069048e-02,-4.069901453862424801e-02,-3.926661480612449184e-02,-1.866534330533147976e-02,-1.295106706617557557e-01,-1.128268802462739917e-01,-5.779852796064679360e-02,-1.186163622147846791e-01,-1.198732510376569332e-01,-5.696778093166882800e-02,-8.196551511521393829e-02,-7.262033807935634744e-02,-3.857363283348261979e-02,-6.153137421888878883e-02,-1.978099141668927113e-02,-3.629919956841607537e-02,-2.569660627960735841e-02,3.699476498531200502e-02,1.777931828561246652e-02,-4.925942631981847925e-02,2.712355194153039627e-03,5.029092730449537425e-03,1.394418606408816264e-02,-5.166179890567558497e-02,-4.890436268942030540e-02,2.605173517430323799e-02,-3.299467357348535856e-02,-1.207376530482142003e-02,-9.163906930993977532e-03,9.543385565276653326e-03,-1.015025916949807427e-01,1.653637870826312611e-02,2.829758303473312725e-02,-3.309387207318904150e-02,8.470287043204743557e-03,-5.487588279642765382e-02,-3.951219669831013831e-02,-5.994185704628537253e-02,-3.759309486534623962e-03,-4.164783479395000459e-02,-1.329456060269366101e-02,-5.167425455572058346e-02,-1.825646156735883166e-02,1.569166377219946909e-02,-1.803751631417405479e-02,-2.367321321964565434e-02,-2.341660416600277461e-02,5.395397581238394781e-03,-2.329857427884387405e-02,-1.315576163136875261e-03,5.085699108972553673e-02,-1.005354639251813259e-02,-9.392925429896360756e-02,7.374345902239412553e-02,2.473029864255724825e-02,6.448800920705113904e-02,4.664190863113267665e-02,5.634010326381567665e-03,4.805159764838783099e-02,-5.325494130887549471e-02,-2.037460962930360414e-02,-2.232279966505146263e-02,1.545937420073461611e-02,1.165952501878561240e-02,-4.239018117544545924e-03,-1.616176235781627973e-02,1.391140004914902251e-02,7.586976942416836026e-03,-3.594640353780968051e-02,-2.844405820826211018e-02,3.767483162025796195e-02,2.526430630463999405e-02,3.111612881089399762e-02,-2.303534738102052531e-02,4.782083422852529547e-02,4.192641056602260802e-02,-2.059928658887426323e-02,-2.000252640563279782e-02,-4.417256921088291710e-02,-2.894711595744912241e-02,1.895828309545157658e-02,-1.718117117551620082e-02,5.579776320759695374e-02,-3.086053824881666852e-02,-2.849488237511451499e-02,3.771330791218194256e-02,-1.430774246867741288e-02,8.258558232601093119e-02,-3.985046629775148425e-02,3.196225141706723893e-02,1.465791432986534616e-02,-2.353890457378325293e-02,4.223828938025136343e-02,-3.506666069436859771e-03,1.533694263459718654e-02,4.440989417735460854e-02,4.468675810345000381e-03,-7.458434553049764215e-02,-6.665177183098262848e-02,-2.756625486376420436e-02,6.690142943439661427e-02,-5.998073247880914699e-02,2.483267032804273300e-02,-3.236173819161011767e-03,2.945727961380036064e-02,7.808093537977545649e-03
