5.267176141206834222e-02,-5.166555266027070825e-01,1.016261595359490601e-02,-1.459677995737834570e-02,-1.746000834566973636e-01,1.576009416955879705e-01,-1.764260850349017584e-01,-1.696796257230332450e-01,-1.292524766587750396e+00,3.153632201266168278e-01,5.907142325027460172e-01,-2.497375466315155668e-01,2.404103606060262466e-01,-1.143191354100905367e-02,-5.833818765510504975e-03,-6.199489047724400514e-02,-1.336826982416833010e-01,4.763891592298229866e-02,-8.485992814832036268e-01,-2.223755538527266359e-02,-1.525151779242846228e-01,-4.660286701237138507e-01,7.688650040561404927e-03,-8.243324185657758818e-01,3.364545774880365880e-01,-6.579896028590072332e-02,-1.162594144453976686e+00,-1.709695794733714636e-01,-1.143507123435216988e+00,-8.090146083140067890e-02,-2.192227554531756273e-01,2.652718985935048623e-01,-4.305869867123101047e-01,8.087443632556141904e-02,-1.728356133249165927e+00,-1.146439101190122267e+00,-1.455981865153880839e-01,-3.460357546757041880e-01,-3.188304734237444316e-01,-3.841841778274204811e-01,4.816265476887626740e-01,5.728005640490173578e-01,-1.788618402760600579e-01,-1.452464535853319916e+00,-3.641738607972033748e-01,7.750901196746894095e-02,-1.169174547770559514e+00,-2.904864144564365258e-01,-9.752201413787300877e-02,1.370301957428114559e+00,1.124072563162906851e-01,1.002761490675018630e+00,-1.210043787538385013e-01,3.140374974743960490e-02,-2.540669086391031950e-01,-5.332217464897059944e-01,-9.003207698221760147e-01,-5.182410100885963544e-01,-5.655261823226218620e-01,1.382401182580670629e-01,-7.566627327005699399e-01,-1.956426925732729583e+00,-5.151852781616134136e-02,-3.591195380587123426e-02,1.614507728136912734e-01,-4.241428391423578831e-02,-3.890355187031938056e-01,-2.734743452814961673e-01,-3.503058239188869827e-01,-2.793750920347153888e-01,2.480914631887961574e-01,7.661937952313313538e-02,8.320597384368874291e-03,-8.206563428392229728e-03,-1.257012011863500589e-01,1.435795818267614932e+00,-1.841340540305102733e-02,-5.431842097892458643e-01,-1.799006078902034012e-01,-3.358393301777707896e-01,-7.789867338789389084e-01,1.760668311048949573e-03,-7.617525567088261340e-01,-1.006454861914470644e+00,6.777011172457036992e-01,1.080189758707728265e+00,-8.818520437560556369e-01,-2.511074604386081544e-01,1.463241956020016055e-01,-2.418352478371540437e-01,-4.653715284193253865e-01,-8.818580092791600267e-01,6.611264851451806868e-01,-5.553235318156569678e-01,-5.120132812833531888e-02,-1.040121497206913936e-01,-6.555519505823400594e-01,-2.278044759146211073e-01,9.812344014344857868e-02,1.250102980840833711e-01,-3.595409015642813677e-01,-9.574036241690494498e-01,-2.870259855558758288e-01,-5.948082740271207758e-01,-3.043126336400513859e-02,5.987912421627593629e-01,-4.513580148276926107e-01,-6.254735975540137716e-01,9.727884155895714924e-02,-2.636103133251876396e-01,9.395897366537159234e-02,4.850153703355354895e-01,-6.352016013973276788e-03,-9.624466579333081917e-01,-2.209660387359911327e-01,1.086229438102192857e+00,-1.494030040215711841e+00,-2.562477126494341340e-01,-3.065473036324298239e-01,-1.907323306926259621e-01,-3.514668258857283623e-01,1.183027864754346847e+00,-4.415859915039399008e-01,-1.869146838637369967e-01,-1.827549893880960619e-01,-6.066064122215570897e-01,-1.746970724088286325e-02,-1.414564532822223941e-01,-1.178236939353370927e+00,-1.263868223415291203e-01,-7.813973987019526835e-01,-1.662525175739656413e-01,6.560670115475205622e-01,-5.950204456442687029e-01,3.508802639974748505e-01,-8.981479957619670218e-02,-9.882186483090067419e-01,-4.277221895297325105e-01,-6.219368062827274057e-01,-7.898611906952921480e-01,5.827509161201006871e-02,-2.732696616095060538e-01,-4.230029819533284163e-01,-4.285541701716870655e-01,1.031987963387230763e-02,2.257019711737080422e-02,-1.061475535121704089e-01,-6.420216389332822349e-01,7.865243291134069725e-01,-6.610481328277048041e-01,-1.320720648540282927e+00,-1.430785189441474259e+00,-8.787716210143248219e-02,2.270411197147362004e-01,-1.564646523140363454e+00,-2.087031715207920690e-01,-4.551144543817011723e-01,-1.019567112825549016e+00,-1.947923459603864704e-01,-7.259455316365219790e-01,-1.367212912148281778e-01,-2.679696893056022211e-01,1.440508009925686173e-01,-3.608567307967869287e-01,-2.372644590774755369e-01,-2.932850559120846468e-01,-7.584316323963798956e-01,-5.412447424892482539e-01,-4.470783121582542208e-01,-3.998218184804475661e-01,4.235994520608956648e-01,-1.189101938455985191e-01,2.491130799180026612e-01,2.337029847849940445e-01,-6.064594632338067282e-01,-6.927266362986041030e-03,-6.793620825215636039e-01,-6.381461608270961872e-01,-4.489664835777827934e-01,1.977695347475970367e-01,-8.507385184624358665e-01,-7.428817606268253715e-02,-1.660985120990436381e-01,9.398906183617228294e-01,-2.560940431112603277e-01,-1.533990339644646594e+00,-6.209621578957706944e-01,-1.101719564465954287e-01,-3.655369454011079822e-01,-6.551664265563927891e-02,1.161287712972183805e-01,-1.285647879231456292e+00,5.218433939788873488e-01,-8.552239133659080006e-02,-1.116566415096260506e-01,-3.935872511309155275e-01,1.118244978740859097e-01,-7.797519607704881395e-01,-4.430927340778095247e-01,5.276623966578584124e-01
1.512520221508426238e-03,-3.588857782703651078e-01,9.745580970271028667e-03,4.566967863579003972e-01,7.276635272908904550e-01,-1.707002059875578348e-01,-5.789107246153782915e-01,-6.740666508447783478e-01,-4.875540538982556793e-01,-6.798471842828659462e-01,-1.642507895458843459e-01,-3.676162585373689562e-01,1.020258657074918536e-02,-1.829851736447251492e-02,-1.045244029831940757e+00,-1.357383300603581255e-01,-3.112719604714576649e-01,-2.285006009762516332e-01,-6.037760696027741902e-01,-2.461759005824210034e-02,-1.033143899743290017e+00,1.210884463618228102e-01,-1.951909948731058442e-01,-5.249132432810936777e-01,2.258417146504990980e-01,2.771661138892104678e-02,7.889104192905870006e-02,-6.776362866392909856e-02,2.622200196100814007e-01,3.047146952617780808e-03,4.163479725258544505e-03,-1.455191890632385077e+00,-1.035040625661640901e+00,-2.611855214454150698e-01,-1.761483063263515891e-01,5.590196425521415380e-02,-1.811998794754269948e+00,2.677655140098885722e-01,-3.358875473829794345e-01,1.426045409846553591e+00,-5.311754822500607265e-01,-2.625073845519516613e-01,-7.598326264539830843e-01,3.242146355759714660e-01,-3.146668052535236959e-01,-5.207311635089888480e-01,-7.758991819970871839e-01,1.341556405831277610e-01,-2.877305000254132272e-01,-2.557317278717346487e-01,-3.895208532989704597e-01,-4.844369884055638176e-01,4.510388107906175559e-02,8.098417860613413843e-01,4.572550528361551403e-01,-1.178801215769296751e-01,-7.720139607980605057e-01,5.016128529353551802e-01,5.565866709207925034e-01,-3.014835328099026990e-01,5.930941779522465040e-01,-2.694081387685470230e-01,1.204070841530880731e+00,-4.743453094346539722e-01,-8.268449305059494270e-02,-6.315974966841947369e-01,4.415700528457811025e-01,-1.026593534654041129e+00,-6.218453813202189095e-02,7.398156778205795536e-01,-2.548763349587198634e-01,-2.136023879146121685e-01,-8.487632115752996587e-02,-3.151515818942587921e-01,-2.214071623100541952e-01,-9.072670846542599254e-02,2.403867289122314232e-01,1.204098573857050186e-01,-6.849846151494136670e-01,-1.746407395893527503e-01,-2.225170372883496506e-01,-3.641958726555118986e-01,4.526681699796845648e-01,3.982600372024285296e-01,-6.835385385924733770e-01,-4.185604785517661464e-01,2.645263680148781660e-01,2.677693348329485135e-01,-3.794168554622423181e-03,2.566029081477089746e-01,-5.761064895367852545e-02,-2.974454110035403831e-01,2.299470096847069100e-01,-1.300074078148892934e-02,6.051331371459678365e-01,-2.461936210599613983e-01,-9.625570820332272556e-03,1.404383009143464756e-01,-7.690375377456690753e-01,-9.116091966331439644e-02,3.209898275866839290e-01,-1.500443524045725452e+00,-1.838370099378397182e-01,-2.181925960122217956e-01,-2.263688861598887048e-01,9.757621804983375446e-02,-9.033562562620884862e-01,-9.398122771645629481e-01,-1.281009676381740681e+00,-2.820406933484365664e-01,-1.807486877996707791e-02,-4.134277266750054913e-01,4.404674051321207789e-02,-6.966194948524948027e-02,1.875490806023828450e-01,-8.588362172594661559e-02,2.799083016617591180e-01,-2.358719155594467543e-01,-1.534144337367236710e-01,1.059465030567167343e+00,-4.482803442087016088e-01,-7.639157429129123100e-01,2.034423158731488157e-01,2.434424322744386249e-01,8.276758381695311639e-01,-6.564238198088631071e-01,3.929803692536579240e-01,-1.110985309064131066e+00,-3.405666734877240698e-01,1.525438027663021945e-01,-3.338751750194119960e-01,-4.913331128779819812e-01,4.165683359230616944e-01,-8.938598180389679682e-01,-4.642455496438820939e-01,-1.012394279061042818e-01,-2.492721231302692519e-01,8.033336701666491386e-01,6.705688736682327566e-02,-1.987122317222091428e-01,1.569222064732932465e+00,-3.692121820223969592e-02,-4.186002010098862636e-01,-6.130695579943336998e-02,-5.691970724397781289e-01,-5.006555670927038681e-01,5.872395156465393812e-02,-4.931285640778900192e-01,-3.652655375579237362e-01,-1.359296066651969649e-02,-6.064848122766719474e-01,-6.992227027414710250e-01,-1.067274209086340048e-01,-7.662607154666378761e-01,1.220777684911376476e-01,-1.201457473962218997e-01,-5.353673241506326508e-02,-4.032268601787001444e-02,-2.210827031533021680e-01,1.083814082818832736e+00,-3.600061023927232373e-01,-4.748067367306005315e-02,-3.940792633753426033e-01,-6.010307895117341648e-01,-1.504516626932856094e-01,-4.814849002772298991e-01,1.900533780770339298e-01,7.792152537850182137e-01,5.013041409378831137e-01,3.072521072373728401e-01,-2.128402605989574703e-01,-3.184994040272464549e-02,-9.190804434486363889e-03,-4.135779572632412582e-01,-1.298638907331274961e+00,-3.396351174438173026e-01,-2.087423467031021662e+00,-4.201755195915548441e-02,-2.843299171119251234e-01,-5.160644796737059448e-01,-2.738718989023037897e-01,-8.018906826459698545e-02,-1.142453940242691840e-01,-1.645594983000463196e-01,9.892699970093262740e-01,3.724845243933178618e-01,8.712632473209764861e-01,3.767208083249753980e-01,-2.107448505872821509e-01,8.301136830309706616e-01,-8.783904961361767294e-02,-5.621826781154227737e-01,3.646136195832909155e-01,-1.960943167225723538e-01,-7.559680039205051161e-01,-2.390636118789507825e-01,8.757677646251691428e-01,2.922460350781846961e-02,-1.950707502680472660e-01,-9.545440852577067314e-01
1.512791264468661967e-01,2.849798573551187708e-01,-8.439431028241112243e-02,1.170494180025239972e+00,6.361224354931754865e-01,7.395482484042002758e-02,5.367839454719364189e-01,-2.522371349230928539e-01,-1.182153753764254134e+00,1.597118558430755952e-02,-7.432051311115966952e-01,-5.140087257901237994e-01,4.183918222696912381e-01,7.049385281106579360e-02,-7.388447163969245057e-01,-6.088175443462319480e-02,2.479135496215859602e-01,-1.667299069112840662e-02,8.448452539737341116e-01,1.114066206980955653e-01,8.284521419109427409e-01,-2.704216651660820148e-01,-9.253129223890241284e-02,-3.646625431596821065e-01,-1.167881961956302783e+00,-7.617167857341493320e-02,-8.648303517050155431e-01,-1.407737004217043120e-01,9.793377102053927308e-01,-2.357994917986480365e-01,-3.778198989855364731e-01,-5.805746602881544094e-01,-7.368492790191346620e-01,1.365693034166810260e-01,-1.419324136442205342e+00,1.936494088931231428e+00,-8.915318071602300332e-02,-8.774448323810373207e-01,2.558495506230703750e-02,-6.236269023875675721e-01,5.055751667056903598e-01,-9.587511453207364642e-01,1.394560152424915711e-01,5.243101251851386285e-02,-1.964167499206877221e-01,-3.016346146103979567e-02,1.032219471490209983e-01,-2.171884528410746862e-01,1.010648339878982699e-01,-7.699004978980836800e-01,2.909148315371524740e-01,-1.074473621275501944e+00,1.702193049971981065e+00,6.688056889051842147e-01,-3.282605718794893712e-01,-3.637539966115646006e-01,1.532453862243603027e+00,3.766227779477412940e-01,-3.362540340923506621e-01,-9.861456941808806331e-02,-1.678169624296645679e-01,-1.560821425075314961e+00,-2.790408032539473115e-01,-6.398741075852644455e-02,2.849803367607426155e-02,-6.328721408149819150e-02,-1.579980627242541846e+00,5.542466746848616621e-01,-9.485925658907862212e-01,8.367520785747066536e-02,-3.168552249113048558e-01,1.553414393412100747e+00,-1.797453258667888742e-01,-5.193973626950537659e-01,-6.303979563175775569e-01,-1.019395924899848538e+00,-9.080699499433846356e-01,1.184411398435334162e+00,-4.170763042517075525e-02,-1.125718862034314101e-03,-1.212429222830047504e+00,4.617550835276799763e-03,1.273949264088082289e+00,1.275853286325973612e-01,1.319097366830445539e+00,-1.162304802040335511e-01,-9.565956398521251458e-01,8.071079614103782163e-01,4.055719569860901652e-01,-1.573676328574228622e-01,-1.310397371473773553e+00,-5.485479544317299894e-01,-6.334388602702968607e-02,1.309584324106745079e+00,-8.894441198468103771e-01,-3.673597788588048307e-02,6.552665425379259334e-01,-1.569222805809149524e-01,3.111325045337957063e-01,-4.042582656869160573e-02,3.897891587170673744e-02,-3.852512689234657839e-01,4.970254223709965821e-03,-3.825461399298883958e-01,4.318975986090568125e-02,-1.059621106172945471e+00,-3.483843324975700040e-01,7.165778337771171458e-01,7.236848955275784201e-01,2.857500079142046845e-01,1.932952356444535835e-01,1.648680174481188532e+00,1.503712266274484510e-01,-6.033212004022879826e-01,-1.680134809459216672e-01,9.890805319479123447e-01,1.403950869903943799e+00,-1.967777295339858956e-01,1.064011918040723773e-02,1.216378670128754447e+00,8.262950149590239102e-01,-1.921825129751189923e-02,1.256965165822388208e-01,2.115333059766744128e-01,-1.818722293003720014e-01,-3.249828582075575678e-01,6.063585540333784607e-01,-6.573636488151107793e-01,-3.839703418063437068e-01,-7.105256366874471152e-02,3.756561423376286180e-01,1.429010098428759590e-02,-2.419154272858773658e-01,-9.770391309317334461e-01,-5.238760179046531018e-01,-1.507069987315806658e-01,-3.572765389773699951e-01,9.738897908921045898e-01,1.150485666876685409e+00,3.208714711033206490e-01,-4.867711092326650335e-01,-6.802220203337543125e-02,-4.322275534678955422e-01,1.907276986057434122e-03,-3.121857906234536129e-02,6.880023806551749388e-02,-2.883263527259080083e-01,1.144949461455145867e+00,-5.219347465433197275e-01,-2.573813908556442653e-01,-1.373365398861197573e+00,-8.419987243679515343e-01,1.282824524004922695e-01,-2.953947940806065375e-01,5.350776331130406849e-01,-3.853419870900522959e-01,1.478739453493541911e-01,7.831219755980258768e-01,-2.159115781281663038e-01,-3.179167027551364488e-01,-4.181358277437556281e-01,1.950026222982778890e-01,-1.024521167323711422e-02,-8.166591294578151583e-02,8.940876846567381853e-02,5.750045386289367455e-01,-8.943301889987627096e-01,2.423450426417777248e-01,-2.236911516875732531e+00,-1.211885781366322412e+00,-5.343613163512397346e-01,1.033844524387263625e-01,-5.969497507236986023e-01,-3.056732577476074519e-01,-2.803337383500262847e-01,9.529377179898623762e-02,-9.789949038838274831e-02,-2.526258676496238031e-01,-3.199797827906422643e-01,2.377569462471567086e+00,5.136740578712349903e-01,4.765968917684196282e-02,-9.729739836722151036e-01,-8.024428781557916279e-01,3.138333264125099387e-01,9.315673156041669456e-01,-2.033791954144684444e-01,2.055858912022965335e-01,1.481397208605759151e-02,-5.620275560182523833e-01,8.882045716379691203e-02,7.159650236130243872e-01,5.256858095211975890e-01,2.049478799162711140e-01,-1.495700026031887786e+00,-2.268728532464786285e-01,-1.024524201172500426e+00,-1.181060304249332171e+00,-2.429159020079964537e-01,-8.722527136950778415e-01
-1.403703394553064698e-01,-5.215085089128915774e-01,-6.792543373505317839e-02,-1.066053772949543177e+00,-4.832923563110665399e-01,-2.919234200488893816e-01,1.103348827130881116e+00,-7.900272064677033024e-01,-1.234344539225013415e+00,5.004163781611351558e-01,-1.517811028950300178e+00,1.828055195197637317e-01,-1.166442255497816882e+00,1.181693681216529623e-01,-1.167313651143627590e-01,1.475502196338115968e-01,-1.077508529899154022e+00,2.547992424220257152e-02,8.263034740025269054e-01,1.282990849180599413e-01,-1.381836815334285040e+00,-8.574157736580528821e-01,-1.398395563483151971e+00,-7.294909121900037263e-01,5.702509685643387671e-01,4.934324084966774243e-02,2.415130454922328196e-01,-1.482854044682541290e-02,-7.567936029346111759e-01,-3.356164393140681490e-01,1.010825040555526355e-01,-4.923604070095157215e-01,-2.816033340974309282e-02,-6.572338060401232418e-02,-4.584716996174006964e-01,-1.268057454603784551e-01,-6.683638106634837671e-03,-1.347928921126614332e+00,-1.883267043780437189e-01,-1.471364285969362307e+00,-1.248419698934441380e+00,-7.260902986744829368e-01,-2.831266198535217216e-01,1.927919602586697090e-01,-4.225224772747511182e-01,-1.989162758682930521e-01,4.983633884895683486e-01,-1.671701106031799333e-01,-5.805081326712395740e-01,-8.347960303925889836e-01,-9.137664005733357742e-02,9.374173558347111967e-01,-5.593664351194369555e-01,-7.904099888047024791e-01,-2.291384096718518115e-01,2.864151276589461115e-01,1.330299270200099082e+00,-4.086990482956103787e-01,-2.296197821907218772e-01,-1.663170824562775874e+00,-3.122735879425948546e-01,6.087981391256344077e-01,-2.069622224131967281e-01,-1.851201711798952654e-01,-2.587834679564208762e-01,-5.501300358319635014e-02,-1.307135876830939625e-01,-8.953591183079213645e-01,-2.774736262091224703e-01,-8.789435912296464926e-01,9.110023195731618006e-01,-1.165299032283405173e-01,2.036387630816862693e-01,-5.986622623782013042e-01,-5.737856238810012943e-01,-8.702586237861561491e-01,-1.356867359503610038e+00,9.966013402760697248e-01,-1.096856115867584670e-02,2.029796518542025807e-01,1.665747807215562704e+00,-1.402351846222799070e-01,-4.362443987405487111e-01,-1.448714849617112499e+00,2.580159928008134845e-02,-4.877809187084576337e-01,1.962012681536257630e-01,1.384212480305923032e+00,2.359835999943413198e-01,-2.475521419761120556e-01,-3.869503625307886829e-01,-1.565002292608866086e-01,4.676737164531066804e-01,-3.319455436512487312e-01,-1.047925908598434930e+00,-1.780408007571324391e-01,8.699870430379521569e-01,2.367102630160436427e-01,-6.464882905900228849e-01,1.256963047695953614e-02,-8.980759298377007094e-02,8.897467444139937065e-01,1.981956296298264641e+00,-2.438252317061255781e-01,-7.402794106208407388e-02,-1.101338830459279716e+00,3.948182457390447125e-02,-1.391843405736005623e+00,-4.675956980262662155e-01,3.108145883856124891e-01,-1.312974920254919853e-01,-1.156982822524077914e+00,-8.116878650111461480e-02,-7.769999689165917323e-01,-9.255475092016907102e-02,-1.426559943524211282e-01,-1.430525547583515689e+00,-3.729699168248397090e-01,-1.502831139976312791e-02,-1.342402658718489628e+00,4.022830433202296829e-01,-7.410398776840344537e-01,4.075807771168857979e-02,-2.271103250086999037e-01,2.446707512034602239e+00,5.785260323675424088e-01,-1.065685574349365838e+00,6.042216892010771057e-01,1.153572938979299467e+00,-1.463614875559307027e-01,-8.817808905460677860e-01,-1.442439058515144479e-01,6.581214366923667791e-01,-1.645017853912906114e+00,-2.669128665735936642e-02,6.885045692433074127e-02,-7.874603009413301269e-01,-3.458494316995496809e-01,3.132226991495888346e-01,-1.090610241472190767e+00,-3.578270936282227921e-01,-3.738636137149928956e-02,-7.268017430098099030e-02,-1.433099103378709938e-01,-2.130868605918965208e-01,-3.488912473470265341e-01,-2.795764487030089063e-01,-4.316336808899322031e-01,4.996149717288943526e-01,-3.648577334728740906e-01,1.575724699424149833e+00,-1.647347826328732445e+00,8.432287416749588427e-02,-4.043253613244789380e-01,9.437151030874064983e-02,-3.044483786430469130e-01,9.476613197679915890e-02,-2.248780722225715567e-01,-2.675747185448529852e-01,1.086679422020558006e+00,1.627712310012555674e+00,5.111029459603434466e-01,-2.788413230185987635e-01,-3.453098620345254055e-01,9.616519961119568416e-02,2.659317442737516371e-02,-9.182720490102224131e-01,-8.298700969587810006e-01,1.319254607913178390e+00,1.977410817715372859e+00,-6.729417767191118172e-01,-6.939908723886124564e-01,-1.381862976896828243e+00,-2.754717255797949904e-01,-2.383219896934628823e-01,2.208322765658966291e-01,2.788773045454049915e-01,-1.531796729856634287e-01,-1.012530521721883847e+00,-1.079840232550552281e+00,1.499758477747775987e-01,-9.709811831648094971e-02,1.658296765014562357e+00,-1.251919755817729740e-01,1.005234131353802018e+00,-1.166772606788512301e-01,-8.421297241028176117e-01,-4.745062861834203338e-01,-3.573221986364440994e-01,-9.406393653830774637e-01,-1.105896003386449555e-01,6.108785508640999368e-02,-1.750388805923639990e-01,-2.744463774721528360e-01,1.691012131639648974e-01,-1.077701545839065689e-01,-1.925501082098436331e-02,-7.391095397370268660e-01,-2.559584965310446880e-01,3.964144953649537118e-01
-1.746330416957796727e-01,-1.240241970908048552e+00,-1.876518962030264068e-02,-8.661932154770317360e-02,1.107307280107552527e+00,2.025098603411279730e-01,-1.277201840456193560e+00,6.437474542100554142e-01,-1.784022735766487011e-01,-1.007169931043774058e+00,-6.065166599127190528e-02,-5.900863666488210812e-01,3.432145756830441707e-02,-4.595333706048871925e-01,-5.969331365935164335e-01,6.111317379833020730e-02,-3.508360050027263255e-01,-2.095281131097065097e-01,-4.917787858745810148e-01,9.431684808784483731e-02,-3.598740221054478883e-01,4.819240245935615952e-01,-6.825158068768178987e-01,-1.491725364398767573e+00,-7.332943366818490682e-01,-3.078234703866103428e-02,-1.626890281321861920e-01,-1.161143542143728974e-01,3.137721873317927956e-01,5.863087613709512536e-02,1.557991210736303200e+00,-4.386148782535768953e-02,-1.241259088726147652e+00,-3.361705343296791937e-01,7.301508034469855746e-01,-4.336536257611994238e-01,1.162481751539026602e-02,-7.548543075506201072e-01,-2.722226392664730543e-01,-1.641211566211937811e-01,-3.409913543401493219e-01,8.014385388063847149e-01,-6.446499784811519085e-01,2.274820852846904384e-01,-6.440316361290149283e-01,-5.483496885446937918e-01,-1.898016211631581740e+00,1.611244165801164474e+00,-3.905366984684496834e-01,-8.731341321038385006e-01,-4.925627065535273519e-01,-8.846209523134250796e-01,-1.237693499259334917e+00,7.014526233771626318e-01,-9.325536562420658759e-01,-3.024384852527362555e-01,-8.998351555419916714e-01,-3.173177589148216682e-01,-7.201239391224958375e-01,-1.285630247557372485e-01,4.853916634553395726e-01,-6.909905026258320038e-02,1.928479474480767342e-01,-2.603557574127585497e-02,-8.608193612684454654e-02,-1.320770706200641853e-01,4.435107845479977495e-01,-8.954061212301177575e-01,-1.772207583263726849e-01,1.444599397453810052e+00,-1.099245671494467835e+00,-1.262923738923312555e+00,-2.661875940091606996e-01,-2.534350946249309122e-01,-1.292690536292188996e+00,7.836118705695300779e-01,7.013678967035633094e-02,-9.141544191981578749e-01,1.428720882780402546e+00,3.287217244653365955e-01,2.911913309619936774e-01,-5.760387384017722628e-02,-2.159907851747566998e-01,-1.136108240954707638e+00,8.350576886435329832e-03,-5.599134168846411908e-02,-1.615236532322655627e+00,-7.203166287544534585e-01,-1.266298941780974636e-02,-2.448218165274073654e-01,7.997945719545485055e-01,3.769807607173153441e-01,-2.031409721082380937e+00,1.380405880345619618e+00,4.248023049794007466e-01,-2.750575761361648830e-01,5.194837222784370878e-01,2.877582869447234404e-01,-4.884841524059614359e-01,4.162022506312992171e-02,9.890074403039575968e-01,-1.673518628773467132e-01,-1.483513015157448267e-01,-3.615868592206893106e-02,-2.542948462517823083e-02,8.803462114157251106e-01,4.519908457022532300e-01,1.340102333638707732e-01,-1.219458127681073423e+00,-2.705494838086139331e-01,-3.558894364165123281e-01,-3.975233675506070763e-01,1.297012034542141423e+00,-1.670431464117995812e+00,-4.118913989376262741e-01,-5.886748541360004028e-01,-8.655682238905005876e-01,-3.715161790626942406e-01,-4.430271642225444007e-01,-5.270298820117940153e-01,-7.316603267122595566e-02,-3.405936811694309507e-01,-8.157323380138430460e-04,-1.461929516644347449e-01,-3.104304854035150329e-01,-1.997854660089993240e-01,-3.655428363400323177e-01,-2.105253469483570061e+00,-3.377837810727037371e-01,-1.690708365593315485e-02,6.368227966712536325e-01,-8.281370302883900303e-02,-1.382540472490920713e+00,1.253839586343270529e+00,1.427116124440694703e-02,-7.007042784192929995e-03,-6.880602554974890595e-02,-7.847201463072606131e-01,-1.021007296288507726e+00,-1.978137363020227371e-02,1.800678632306246696e+00,-3.610550457334457675e-01,-2.790656308394559582e-01,1.588147432839317752e-01,-1.797035250324521133e-02,-3.300315563201638436e-01,-1.648707621503895382e-01,-1.406229432671329160e+00,4.669018959503953292e-01,-8.743220219194203224e-01,2.065827170030947180e-01,-1.031306320417131328e+00,-7.651154408025456766e-01,-3.510672228914908377e-01,1.394171887877885818e-01,2.243026171344993380e-01,1.177137023856081599e-01,6.185446536741588952e-01,-5.729489903911798576e-01,1.294958613592006244e-02,-3.919988867145205447e-01,-5.488791829353505403e-01,-3.306917354866972247e-01,7.887783669236856365e-01,-2.035609989797206310e-01,-1.172660889510225068e+00,-4.119662610875768349e-02,2.703051316712253294e-01,-1.625657424957565877e-01,-3.710410464961623189e-01,-1.425671286944342198e+00,-3.254107629178240590e-01,3.405423403096659585e-01,-5.528998697867761880e-01,1.192123778918634525e+00,-2.051764962101801648e-01,-3.911903209640766321e-01,-9.262913143601563259e-01,5.491163488230139250e-02,-3.563679483556384531e-01,6.984550459993380533e-01,1.324770034033775912e-01,-2.377234935224402934e-01,4.887892276547445986e-02,3.561758984930696870e-01,-5.993468360645091142e-01,-5.771358155275492507e-02,1.171451428282635820e+00,-2.176748224941252585e-01,-1.915860619427533218e-01,-2.481156277434775903e-01,-7.568389330133624693e-01,1.303656934304220583e+00,1.683022025144498279e-02,-5.218379031000952573e-01,2.037724418165936857e+00,-7.042527844634740575e-01,-6.067130533778208878e-01,3.353213250371928633e-01,-3.038573416928460058e-01
3.195774057954010264e-03,1.424755419041354942e+00,2.970424350213182046e-02,-5.647629634473422949e-02,2.447319862192169349e-01,2.041709007323205538e-01,2.748778691671422414e-01,5.760198311231118362e-01,1.428585653166772218e+00,-5.218879548362611587e-01,-5.149826113175159925e-02,-5.322967616465918983e-01,1.013036605821321379e+00,-3.997194486204561081e-02,2.851717481286705769e-01,-7.914016993600705985e-02,4.315998642718632539e-02,3.911307681715575635e-03,-6.817605458975806165e-01,6.824219331785583154e-02,7.554705305410777116e-01,8.655145762636722029e-02,1.531169723926366188e+00,1.496756132831992492e+00,3.344147819297997593e-02,-9.122759248031203638e-02,5.675827380764638663e-01,-1.451179957099955342e-01,-1.120511046972525460e+00,5.335454958554196603e-01,-4.780385088995641601e-02,-5.225888655095860952e-02,4.842761085262006771e-01,-1.236766071789675153e-01,-3.914592519887762911e-01,1.759249338443342470e-01,-7.460129065815064298e-01,1.155434954598607566e+00,-2.433028695186826018e-01,1.353128783959955284e+00,-7.010753774878304423e-01,8.200966831210813046e-01,-1.865357765180730709e-01,-6.223652147973540716e-01,-3.977525730066356346e-01,4.052811416416393087e-01,7.277782693116818802e-01,-2.500387596717365546e-01,-3.802517132536851197e-01,-1.280788515323124654e+00,6.696653590936291200e-02,6.552705997391773396e-01,9.100083640326629419e-01,1.208596074460119019e-01,5.602491272490568441e-01,4.736770879969088854e-01,-4.260507357151521735e-01,1.184619545598239870e-01,1.936314064208212393e+00,1.519622764984819963e+00,-6.828355457315279931e-02,7.889528337199355201e-01,-1.334996444796189841e-01,7.328458802037200737e-02,9.628682045570054193e-03,1.227526207508957828e-01,1.244262059385018854e-01,6.282262239293138206e-01,-7.818481871018438667e-02,4.144097330272681345e-01,-5.659982870342060712e-01,-3.936211245909117529e-01,1.620829823494561173e-01,1.527109979293446440e-01,-4.563508712763389430e-01,-1.566547970484899688e+00,4.193080313081712918e-01,3.020775164537181645e-01,-4.780851815252106229e-01,-6.159002034471206671e-02,1.059581156997328133e+00,3.099968045529371413e-02,-6.738187326444978753e-01,-8.049895407816579085e-02,-9.327504943238648094e-01,-1.549371598229171143e+00,5.135987513540476446e-01,-3.208820358222482239e-01,5.568685263257808771e-01,2.676172228841819378e-02,6.570377843638055548e-01,-8.624262535367708260e-01,2.077693010137928939e-02,-3.256651763256897952e-02,9.929671023678516839e-01,-1.035315440927980501e-01,-4.531846436263146649e-01,1.002667310689005498e-01,1.672683727124500697e-02,3.529733126627065953e-01,-1.292174236289714839e-01,-1.910699390123524966e+00,-1.573680524359039490e+00,2.461907367657251988e-01,2.446488897651849515e-01,1.019620358741024857e+00,9.906217227523841373e-01,-6.949064850046297037e-01,7.199346712954483862e-02,-2.107633109487141887e+00,-6.387262316733058332e-02,-5.646839621965098477e-01,3.044040881548697175e-02,1.114178072801732311e+00,4.546565999730272090e-01,-7.771545459040335446e-01,-1.115556976997163774e-01,-4.079039239609371092e-01,1.938847059114345017e-01,-4.121055860028524642e-01,-7.267009814743546903e-01,1.689348163578543727e-01,2.748229657619850608e-01,2.216800792156801703e-01,-8.207908496801485931e-01,-6.751561147480370506e-01,-1.023297693833961491e-01,-4.479986415072040318e-01,1.570276671787391942e+00,-1.968609614259556606e-01,3.510955967134556377e-01,-2.937673472031343547e-01,-8.782729998700765650e-01,-1.058872335407807341e+00,3.520730870527020162e-01,-2.568090270245033113e-01,-8.595320452492853924e-01,3.736965766469012018e-01,1.950622628383597845e-01,-8.467115042317142626e-01,-1.335413682705561822e-01,5.290390962824172150e-02,-1.034498091170467232e-01,6.571998284872144006e-03,-9.911371711259781003e-02,-6.059883107141196268e-01,-3.115709342333097820e-01,-4.860903681902342677e-01,3.334789110353819641e-01,-3.340281327783280463e-01,1.163939447204193511e+00,1.909733893621238243e+00,-3.326083629049501195e-02,8.411739005257191648e-01,1.820895293402958470e-01,1.679201767295013942e-02,-6.274264540273323532e-02,-1.092117821198650196e+00,9.326434709360960085e-01,-1.671976713141506199e+00,1.157341162085313568e+00,-1.120979823634973283e+00,-2.357769818747242063e-01,-5.283161423018742919e-01,-1.802063206028324815e-01,4.749411837106586876e-01,-9.968742908175772799e-01,-2.832057898023932485e-01,-7.957525999462486954e-01,-7.893842405549219565e-01,4.765972166673515531e-01,-1.804485489575499702e-01,8.552879964200301721e-01,-4.631841328881968756e-01,-6.281070923989973132e-01,3.136254058002125866e-01,-1.318936594091448367e+00,2.900618303829312628e-01,1.616806103136374739e+00,-2.803890665491349243e-01,1.045982508099853492e+00,7.855579202617969659e-02,-5.339376609728058165e-01,-6.877121677149711232e-01,7.674320001838408345e-01,-1.308861546977694523e+00,-6.549817448279946497e-01,-6.583728962557739983e-01,9.820210318396629945e-02,7.063147070666250249e-01,1.011322939553486143e-02,4.030350999036715898e-01,2.984219075215548411e-01,3.340603504647707833e-01,-1.117091644400642902e+00,-2.124234064651153442e-01,1.187030066497894332e+00,8.783283311888582245e-01,1.327364885082983559e+00,5.625037913217204033e-02
2.756100326621600538e-01,1.952520614816386779e-01,-2.786640834323450555e-01,9.923200508486255955e-02,-4.999586793012233410e-01,6.056537905514707693e-02,-7.598747218490435607e-02,-1.145616265438057058e+00,-9.234079040911298275e-01,5.618781790383897690e-01,-1.789733764159801011e-01,-2.106768762613804580e-01,-4.530392337179291462e-01,-2.954406241478849671e-01,2.729128193430645222e-02,-3.665051150974661387e-01,-3.572309086482259866e-01,-3.978313671618116110e-01,-6.166352520579377883e-01,-2.445616024460942062e-01,-2.586774262160839721e-01,-1.908324606864424955e-01,-5.919018398072424247e-01,-5.866647317799966732e-02,-3.221707182013668069e-02,-2.730037356455248254e-01,-1.138244576071281294e-01,-1.073210068717238286e-01,2.049018364102269674e-01,-3.798642361026755565e-01,-1.816040086890945426e-01,-1.881585745969884149e+00,7.989390878423480169e-01,-2.117782554991234738e-03,-1.003911378552172273e+00,-9.021169419533727751e-01,9.275002923212649630e-03,8.033375751772059425e-01,-5.231450744545745879e-01,-8.772884634486357580e-01,-3.555375757251864055e-01,3.354317478430782762e-01,-7.677144859696241608e-02,-2.361743455103969269e-01,-4.623372087212669901e-01,6.976196914823475093e-02,9.606011767062141438e-01,-7.221221259743644261e-01,-1.655405455616452970e-01,1.208367193415118597e-04,7.812548728191763547e-02,2.261488036234054477e-01,-5.753336277823350997e-01,-1.066020339371355430e+00,-5.456711158377981485e-01,-5.390695403409109243e-01,-1.843367939206419504e+00,-5.238130521871502826e-02,2.507993755921724133e-01,-6.705854388303252867e-01,4.807250719756068769e-01,-1.976701973287850800e+00,8.089037833031087130e-03,-4.672585534998169310e-02,-8.143461170355563439e-02,-1.875081093147552835e-01,2.257240069296856944e-01,-1.336647662068244646e-01,-2.675336286072458880e-01,-1.044307612830229770e-01,5.565517291181260040e-01,-5.188277938154155916e-02,-3.375511172300689755e-01,2.530670820774288954e-01,4.325804891824439613e-01,-1.327258191969180601e+00,-1.230002537954127062e+00,-1.639504865473028206e-01,-2.750747826374392857e-01,-1.733649279454931857e-01,-9.538606608371753559e-01,-9.128693649885698258e-02,1.008931900679026050e+00,6.251916835091517743e-01,-1.484988536828016015e+00,4.410931529113673588e-01,-4.247522468212573399e-01,-3.829633511951744396e-01,-1.857624295795996250e-01,-7.787288528102677410e-02,9.500123094043603222e-01,5.133883050237602053e-01,-1.381692689225963777e+00,-6.512491593127400780e-01,5.797633823731054292e-01,-4.295882176073267250e-02,-6.548705010862562181e-01,-2.108744846605770384e-01,-2.346559994117960665e-02,-3.772205797867264621e-01,1.039164848639403116e-01,-3.418409476482996423e-01,-3.247098445629670316e-01,-1.393118272519891510e-01,-1.930159245565993276e-02,-4.689158846026712513e-01,-4.058082655273055339e-01,4.581850383765664891e-01,-5.160947984162338464e-01,-9.521804737712727951e-01,1.437105485642997116e-01,6.304797949057165951e-01,2.050871747138673443e-02,1.716601160164022755e+00,6.628564479573358093e-02,-9.442024005293956357e-01,8.621901954338221374e-01,1.371565455249886267e-01,-1.377551740573870476e-01,-6.078497322025792071e-01,-1.095543565757311155e+00,-1.156293241717042675e-01,-3.932697533047149752e-01,7.507891901711513660e-02,-5.060293716900206989e-02,-2.411093802649105500e-01,1.244368163856003628e-01,-5.567292473664464669e-01,-1.453605786326628735e+00,8.696309932158086120e-03,1.796695724730891786e-01,-1.378621996973984631e-01,6.568138671728179778e-02,-6.558587253731459343e-01,-3.234681810264652402e-01,-4.084411585762053876e-01,3.610620468371401048e-01,-9.053186002600892568e-01,-2.362404583961365545e-01,1.018132084577495711e+00,-7.828413207366900772e-02,-1.648632641541977195e-01,-2.048759215206282513e-01,-4.870408007309975223e-02,7.886749259133207790e-02,4.366548044220790181e-02,-5.390500450350766554e-02,-6.871582546860661722e-01,5.105853367960638822e-01,-6.958318897611778797e-02,-1.641053265110281822e+00,1.279414967833075512e+00,-1.522700174452934182e-03,-1.183096504726085518e-01,-1.438735035305323651e+00,-3.439284865596206608e-01,-8.371221078173722574e-02,-4.025208426131440254e-01,3.314393547668224582e-01,-8.500301201942876972e-01,-4.048361332511756228e-01,-5.935870239549050353e-01,-5.955665453994769820e-02,4.906392122058256255e-02,-4.705494539674687227e-01,-3.363257117028367049e-01,8.877661197389463688e-01,-3.493629191794371813e-01,-3.908473855521772400e-01,7.673480226521385561e-02,-6.412577495672033834e-01,-1.379017643762654732e-01,-6.733896697136599885e-01,-5.328441232391641774e-02,1.135880325180979256e+00,-1.584952093377290372e-01,-5.322666304604610765e-01,-2.001803390358823653e-01,-5.855166248107770421e-01,-8.457818740439726479e-02,-1.455286773847130899e+00,2.287085979499703936e-01,-2.330384832997390437e-02,1.226541587637161923e+00,-6.148118581981114605e-01,-5.931887938352978784e-01,1.321886576856892370e+00,-7.760320899538377670e-01,-4.779543371721295952e-01,-2.212177736676997075e-01,2.529320052368329297e-02,-3.836811324594911754e-02,-6.432189458606111243e-01,8.671282953361023060e-02,-1.379581337306079181e-01,-5.056939868201554278e-01,8.848032931722636940e-01,-5.112885087823476615e-01,-3.231948811640635300e-01,-3.162564584209399121e-01
-9.267862452499360526e-02,-3.654028921103495975e-01,-1.908367958540575227e-01,3.965286683973839321e-01,3.341849707145242987e-01,-2.930800581546185168e-01,-2.515259704993809131e-01,6.676232179476581097e-01,2.417607127062989802e-01,-6.962681935282686307e-01,4.909404208054382046e-01,1.473500276235823359e+00,-1.899287420918083447e+00,-1.647243422444589697e-02,-9.278544881937446087e-01,9.073827338937981435e-02,5.363738607577227535e-01,5.520690706415140592e-02,8.886327206122207611e-01,-3.730953131839432890e-01,-1.837419309346374208e+00,-1.533866000897172732e-01,-4.847296193355203897e-01,9.149357974235261537e-01,9.671671594278243855e-01,6.919418829067322529e-02,-5.306512565991930996e-01,-2.666614009621329218e-01,-1.108906894144919386e+00,4.106495334925876900e-02,-1.210585546816775881e+00,3.981423424393051858e-01,-4.013450513926935526e-01,-1.139961714868267945e-01,1.466757389250633148e+00,3.264455458677663069e-01,5.407526131907895994e-01,-7.098605099611475788e-01,-3.747900509141364744e-01,-3.041439683528791016e-01,-1.385858631441827526e-01,2.899823681875991488e-01,-1.619101842029264660e-01,6.712231631548802591e-02,-1.201352781649940998e-01,-5.406077494645665782e-01,1.485717574179254152e-01,-2.445626451525421963e-01,-5.147167536830590251e-01,3.448451699295609907e-01,-2.756947072532852094e-01,-5.870844934288319550e-01,-1.142880970428616638e-01,1.331824591221671683e-01,7.253690828969883153e-01,-2.661297751590009295e-02,2.364233604508592379e-01,1.300541458201149025e-01,2.024662072027438031e-01,-3.910419082861950335e-02,2.986166732878750008e-01,4.649919060484374034e-02,-2.306765095630148865e-01,-2.630337673930670528e-01,3.202809420983952493e-01,3.035342673912175271e-01,4.884230165960045666e-01,-2.345238427697575734e-01,1.667029648302867262e+00,-6.794022353570479122e-01,2.906075790027600747e-01,4.788306288619686435e-01,3.296436418412699854e-01,-2.293107371824910368e-01,3.258454515624645276e-01,5.471539973920398481e-01,7.389899374407037369e-01,7.459668445200172693e-01,-6.521732280459185960e-01,1.935350614883177556e-01,-6.963668139042277216e-01,-1.494864125955223944e-01,-1.943563372135730938e-01,5.868650409823210345e-02,-1.998893923792021132e-01,-5.332806658814822631e-01,-1.662748135168097496e+00,-2.011899454487695582e+00,-1.212587524134871447e-01,1.170763733547940805e-01,-1.147697952189249831e-01,-1.353338749031697708e+00,1.082167154362622119e+00,-4.456069912581660242e-02,-3.280674152504046703e-01,-1.122188007022167505e-01,4.325899993581733827e-01,8.272165523736638160e-02,1.459092434161546881e-01,-4.743738619181200322e-01,5.593521315724234860e-02,-3.361543293156092904e-01,-4.263782994066074583e-02,-1.665611778158203327e-01,-6.995476067995246017e-02,5.570288342813947136e-01,-9.590756587119158016e-01,3.570111622048874334e-01,-1.977638723532579579e-01,-8.761119746034609079e-01,-3.050920396435284898e-01,-1.219201497800846967e+00,-6.470704988805932312e-02,1.231862059440707258e+00,-3.346150241084988042e-01,-2.444443406241809946e-01,-1.070690996838103093e+00,1.530925710088482106e+00,-2.944932896209078166e-01,-7.118826857850039935e-02,-6.243027729107231139e-01,-3.210672654104670953e-01,-1.925202561466879958e-01,-1.180685985535793459e-01,-6.671054088162705620e-01,3.420874838658046185e-03,-5.199227017644705295e-01,8.766736295257396838e-01,-1.659833324760487505e+00,-1.251188736847543871e-02,-2.959479918311996860e-01,-2.701215202612396449e-01,-6.293988551774025442e-02,1.406756848539339355e+00,-1.647092569783803750e-01,-4.440739477757343345e-01,2.263430781607626230e+00,-4.461219711161367729e-01,-8.290273769626664846e-01,7.346148337098581393e-01,-1.402937441052049261e-01,-1.008803410483059410e-01,-2.009055203319513594e-01,2.724155547075245501e-02,-1.345407695202633092e-01,-2.869293180331012882e-01,-1.503595183952338710e-01,-1.289320269756812021e+00,9.860360920523777301e-03,1.668508117712925065e+00,-1.323157100160783806e+00,-6.363192884094284740e-02,-4.005913216465294413e-01,-5.823525839005653376e-02,5.789149522386396463e-01,1.037693797157481362e-01,-6.723857552291750972e-02,3.897095316638559126e-01,-3.447388562708019744e-01,-7.387765991916063479e-02,-6.576402929798472741e-01,1.451112168274377133e-02,7.202866949802029517e-02,3.975001731360719992e-01,-4.208885839515179479e-03,-9.409485495390425003e-01,3.014679375209712298e-01,-5.256799832896926761e-01,1.489539378996692365e-01,3.576045494821981224e-02,1.095794066494440555e+00,-3.381248807474072915e-02,4.665873538842889579e-01,-4.820933424485338015e-01,-4.941293852696845845e-01,-2.295648731633408712e-01,-8.189895979632767775e-02,1.289290346768473761e+00,1.749625427694459501e-01,-3.841502904814114716e-01,-8.415135885105566871e-01,-1.791018960217355682e-01,1.235526347891163113e+00,-3.920418369965463223e-01,-1.084899225351245444e-01,1.074167268820777343e-01,4.780468348072804824e-02,5.642332384749633167e-01,-3.634182535720633656e-01,1.682069347099957923e+00,5.249777014933484226e-02,8.733502458911202027e-01,-5.585235990828782970e-01,-2.753638590367893380e-01,-1.889557785129561296e+00,5.954344976945012968e-01,-8.778582370160038506e-01,6.889702313858302452e-01,-3.967728486803434040e-01,-1.432516186826186247e-03
6.320658754061181384e-02,-2.649134894594830647e-01,7.336639234494535255e-02,-1.345708477881074616e+00,9.286477109338971136e-02,-2.331695618725397601e-02,-3.925927258092505867e-01,-1.107157133798870152e+00,3.840773835537248382e-01,-4.211797298000725109e-01,-1.697796018379062355e+00,-1.507749520126100418e+00,-3.660330759768470887e-01,1.764253352611936942e-01,3.625947022957694554e-01,1.276495203491937180e-01,-5.796985588089897945e-01,-1.162330450944426830e-01,6.427556568186278962e-01,2.125526566236795034e-01,8.938093030062082417e-03,1.507855474441518906e+00,-1.157678278324172805e+00,-1.077764614783839558e+00,-1.790275238088858134e-01,1.379010964329014099e-01,4.547005769681976561e-01,-3.919609174710952937e-02,-1.515407433425623784e+00,-9.150012113075693676e-02,-1.884514941247873165e-01,1.416301485423122376e-02,-3.090205496268225716e-01,-2.958052586330663924e-01,6.372409769590291484e-01,-1.185542349860884553e-01,4.267931485697303295e-01,-2.341227774054686628e-01,-2.084513123339993279e-01,-5.255789032713144016e-01,6.666708443103869230e-01,-9.087907645840705984e-01,-4.869582042307788461e-01,-3.469083982097755925e-01,-2.714567109492208585e-01,-3.085356072690665918e-01,-3.976267624720060678e-01,-6.885000174067016365e-01,6.966574953815374283e-01,-2.552405603154746516e-01,-2.820015206822434201e-02,-1.532763657575273719e-01,-1.940156729524095680e-01,-1.580890060014147613e-01,7.991187729560530473e-01,-4.721319039551576946e-01,-1.777236194695902993e+00,2.367319948425660736e-01,-2.665082014418264089e-01,-1.113983106133328738e+00,1.438582681157109522e-01,5.230677019000682382e-01,-2.182229825594984296e-01,-5.515870256856224285e-02,-2.370829920131496127e-01,1.060051010625176066e-01,-5.997485714935060219e-01,-6.361518030588697581e-01,-1.374987422193005848e-01,1.828050004090731040e-01,-5.895738682341568060e-01,-4.307865608965381066e-01,-1.097508519945608468e-01,2.658163035641575300e-01,6.341668754055586055e-01,-6.919554382499485401e-01,1.162436778217055711e+00,-1.717718927028826448e+00,-1.429514512747060762e+00,4.464217054723739614e-02,-1.673903524719042579e-01,2.066163151701576883e-01,-8.081008942922369709e-01,-7.401457796212386198e-01,-1.786533520888319293e+00,-1.304009629231317191e-01,5.104301387607481644e-01,2.070805485321729755e-01,-2.158252862317709964e-01,2.656314378475410631e-01,1.571677438278199501e-01,-6.055191497744093904e-02,-7.744729198305736473e-01,-5.191408888326903837e-01,-1.263501557278018383e+00,-3.292530872774571127e-02,-4.330879238393122721e-01,-1.974774449373745966e-01,1.025530411949736181e-01,1.956162639675880499e-01,-1.849595680962976996e+00,3.787786059963082486e-01,-4.185894683672158889e-01,2.476211729416709639e-01,-2.151471161244178087e-01,-5.752859680477038218e-01,-1.076134480503401436e+00,1.520826971620700352e+00,8.167683844931626913e-01,-6.487124897794647183e-01,8.219356143296571715e-02,-1.862815141920297179e+00,-2.178480920112612074e-01,-3.067847557629929667e-01,-6.039042115017945189e-02,-5.166882346347746457e-01,-9.487742667081233705e-01,-4.769086586832114172e-01,1.830031440542849164e-01,-1.334716218218801487e+00,-4.798837718166967248e-01,4.065832163521855835e-01,-2.604477615260458734e-01,-1.439137713676726105e-01,-1.708465192329178484e+00,-1.379574091005777658e+00,-1.460305673859840225e-01,-1.410512721798545810e+00,-2.422564709732829780e+00,1.639401429764431040e-01,9.407378371291788555e-02,-2.094050054050366691e-02,-7.681026810424080864e-01,-2.615893425005403561e+00,8.005633288691110794e-02,4.045689134269758735e-01,-4.818006997229251076e-01,-1.006748418438765835e+00,-3.064043389166174469e-01,-6.596706149485397352e-01,-7.348351273011350937e-01,-8.965327799524855368e-02,-3.483304469178999940e-01,-2.517483058144194819e-01,1.463914519495027045e-01,-3.164698853445823690e-01,2.157060102245473010e-01,-9.118030321838108687e-01,-1.236650032272667010e+00,-1.713265844044703778e-01,-2.415477866151072739e+00,-1.142504186213153083e+00,-4.941867063426235579e-02,-1.331734329818910767e-02,-1.829751765661297380e+00,9.024068481313454737e-02,-9.226319755423409430e-02,-4.660384131994226298e-01,-4.227506222419811222e-01,4.366902891548034016e-01,-1.480700647032886508e+00,-6.471360167159330157e-01,-5.817750961893485007e-02,-1.604518777149177122e+00,4.396196789724977905e-02,2.990122008318953362e-01,6.326186837770595428e-01,1.098364327773743154e+00,-4.804802950609914913e-01,-1.280795603247893544e+00,-5.644721601944573397e-01,4.541655337447254165e-02,-7.139202573286855813e-01,4.139772061583391755e-02,-9.111757799137184533e-01,-9.387801523237586376e-02,2.895432529165731794e-01,-2.874117609953161789e-01,-9.656436820325912107e-01,-1.479639501831907511e+00,-8.301324838158309349e-01,-1.160257715108905519e-01,-1.506510716956546148e+00,-1.482362057472505379e+00,-1.088952219308451319e+00,-1.765993789929803937e-01,-3.943331235994554373e-01,-1.967538403725454410e+00,3.854892677062419781e-01,-1.353981063304630528e+00,3.216648709092750219e-02,-1.091025122940124659e+00,-6.068994989009971475e-01,-2.621766050653584479e-01,3.859256380591703506e-01,-9.179737758382786605e-01,2.397463984809229398e-01,8.536434949467408551e-01,-8.636135304015125636e-01,-1.325611495828152853e+00
-2.059150290386984328e-01,1.358998509528305032e+00,5.848602394651890996e-02,-2.470941396871039752e-01,-1.032215597631766846e+00,-1.564141960334824721e-01,6.472421742499487873e-01,1.731236883211038635e-01,-2.798720301343805006e-01,1.353625381987562770e+00,1.370186529841141088e+00,-1.905323370778899905e+00,-1.845770906596868599e+00,-3.884017351398205697e-02,-7.654220153387408798e-01,2.681521119859438945e-02,-4.865340446200885349e-01,1.800947069468909756e-02,-1.992859797891662454e+00,-2.257641283853178971e-01,1.677568003803910912e-01,-1.543028174363777705e+00,-1.425993293524630667e+00,-3.001070496948277655e-01,-4.285855372402423424e-01,2.227247565581215796e-02,-5.255981130627357389e-01,-1.842460708464150332e-01,5.053374239717970395e-01,1.875235650493264905e-01,-1.417392601859620571e+00,-2.240349041607118119e-01,-6.911433378871143507e-01,-2.163424147299227440e-01,-4.393328105134089445e-01,-7.490390772012448517e-01,-8.172089156126939313e-01,6.942338753130332663e-01,7.440169034525552505e-02,1.994201787779529833e-01,3.190123527888064081e-01,-1.901080849396309391e+00,-5.753968732306774525e-01,-1.158524446745310854e+00,-4.975705352544170235e-01,-3.751115492220330472e-01,-4.352482357240108901e-01,-1.947956098052149532e+00,-8.259729690877511132e-02,-4.211757490346984545e-01,2.978886202652442430e-02,7.405886342951950585e-01,-4.589139323000040460e-01,-1.020309933735354502e+00,7.909828797336131145e-02,7.895547521199321184e-02,-9.750628092724227258e-01,-1.437233255235972618e-01,2.164865874904614018e-01,-8.620438887847147180e-01,-1.816936888189802479e+00,-3.830128724019950526e-01,9.438262159978937083e-02,-1.011310893940102623e-01,-2.957153001577008875e-02,-1.265732556630416727e-01,-9.470843254152920832e-01,-9.957718796866871225e-01,-8.724868597484990440e-01,-9.268591814104359949e-01,-1.996930645365255774e-01,-2.548527923995326239e-01,-8.826377985724666309e-02,-1.101138757256298062e-01,-6.439818269460638456e-02,-1.013159068263883855e-01,4.536803306280604575e-01,-1.227069893419538982e+00,8.971101235188264633e-01,2.361941986950567562e-01,6.249323674847609977e-01,5.354862964781407358e-02,-8.363410993995175069e-01,5.071651611209372357e-01,-4.976877920500935581e-01,-2.574106017890284148e-01,-3.303865386090012457e-01,-8.280377046813796049e-01,-7.223677311792746358e-02,4.757334762744614559e-02,-1.572561056314012884e+00,3.555273965346089637e-01,-1.692245063921222537e+00,-1.329778579302671515e+00,7.303459971292132202e-01,-2.268740922573505570e-01,-1.851616196230331468e+00,-8.729332553756410928e-02,-4.656541368049016971e-01,-1.209921027040476715e-01,5.979983533665355067e-01,-6.966532394656864691e-01,-4.022494512515178977e-01,-1.956065761285627480e-01,-2.684868554388265549e-01,-1.629329535633142756e+00,6.319590930238268012e-01,-5.630950752651949776e-01,-1.706642129331809865e-01,-4.956122133547238851e-01,-8.154112657424056332e-02,-4.350478121782009322e-01,-1.316542207055030778e+00,-5.871064999569393095e-01,-2.767255571877998664e-03,-1.451016599284473962e-01,-6.714928511481331741e-01,-1.423567178289167234e+00,1.087567179893982466e-01,-1.654757117242778575e-01,-5.317049848514671107e-01,-2.885083438526863664e-01,-5.177300206396121540e-01,-8.066138756485867478e-02,-1.230390531215873162e+00,8.051712412564621113e-01,-2.648862735394229007e-01,4.219267115230467824e-01,9.368097258335970068e-01,5.975064444972205679e-02,3.840739155832629259e-01,-2.608036028893681024e-01,7.823833207638438703e-01,1.069839927270226143e+00,-3.400067310124588182e-01,5.576962186538283461e-01,-1.922712830324674327e+00,-3.760061322108190218e-01,-2.263138032967113716e-02,-3.365033169747057573e-01,-1.636836467331893141e+00,-5.111394061042751069e-02,-1.096943687026852993e-01,-3.983227192231119096e-01,-1.339564779759049862e-01,-5.165309492278176151e-01,-1.067382699817633479e-01,5.269428939240387022e-01,-5.983240381626773186e-01,-5.021468627543083096e-01,1.158375847090987953e+00,-5.293632597014539254e-01,-2.061373927392901595e-01,1.286445955453592582e-01,2.877423544924840801e-02,1.941351653934549615e-01,1.327688446309430430e-03,2.399472106130719484e-01,-2.974767549405057943e-01,2.487127189984153774e-01,-3.529441226893814676e-01,5.978411537898595945e-02,-3.447877292949446670e-01,2.722342038216573612e-01,5.773271138254614659e-02,3.724617071889358977e-01,-3.142585253122368583e-01,1.222638598370458629e+00,2.082955615164384933e-01,-1.113915373626916283e+00,-1.232238564243447687e+00,-8.588405794886772027e-02,1.184672848792672983e+00,-8.914127653805716811e-01,-1.087100213915156210e+00,-1.657730665774158618e-01,-4.992884260899214666e-01,-5.727019119086939059e-01,-8.733525733494731380e-01,-8.149727055722224556e-01,6.558793266000436661e-01,-5.418712823211364882e-02,-1.584117858973280724e+00,1.083676849217144467e+00,-5.378242370537905659e-02,3.064130434304602746e-01,-4.123537972172898469e-02,9.137721024907031753e-01,7.754608852789880435e-01,9.837361203854877445e-01,-1.706834733748320287e-01,-1.975623187348684695e+00,-2.019756416361039975e+00,2.036451777936604604e-02,2.597752749627728619e-01,-2.123931236979356818e+00,-2.483272656877268743e-04,1.866956004867734720e-01,4.312718421018476578e-01,3.155170079531889327e-01
