3.294153738613938426e-02,-2.396831614364156038e-02,2.551399949546987594e-02,-1.160756522192933626e-02,-1.316926400263910835e-01,1.161191675764987746e-01,-2.128031787747617920e-01,-8.556673753726462550e-02,-3.660011117741611697e-01,-3.241952997645804191e-02,5.219597032006106224e-02,1.177807045642708245e-01,1.146486103750211094e-01,-2.338014127754216645e-02,3.861348476481669956e-02,-6.871179939501061151e-02,1.220601697678689625e-02,2.384549701146394113e-02,-3.063667210255601181e-01,1.037462008806896291e-02,2.370454448710469092e-02,1.352605290545360328e-01,1.640743658616333200e-01,-4.533507677765607341e-02,1.313062554181861075e-01,-6.966685196414025560e-02,-4.156166584906574313e-01,-1.621063161647555706e-01,-3.319987648766498101e-01,-2.658634391013368903e-02,-9.917290303285727915e-02,4.068252584528028737e-02,-8.086727250981465363e-04,7.310158879899256168e-02,-2.868844258574040906e-01,-2.353894799470958588e-01,2.033107560260137281e-01,-8.527368539127447300e-02,1.384028742107982872e-02,-1.605878891561632049e-01,-1.609444956601294441e-01,3.700553363667825890e-02,-1.474361793651767123e-02,-4.363147024345594982e-01,1.053114199607380480e-01,-1.609007370664996715e-03,-3.032850839447202573e-01,-1.141444184469567052e-01,-3.619426202279147492e-02,2.450227050553597241e-01,9.114855807080030070e-02,3.646193533211447013e-01,-6.989529030126952203e-02,1.356990432652546152e-01,-3.845840246868983958e-02,-3.966460289426139152e-01,9.711260561941990888e-02,-4.220863819710429232e-01,-9.236475699707252796e-02,1.752620145307256794e-01,-2.506697782559667020e-01,-5.723189618298557546e-01,-6.102018840681824180e-02,-6.361763438156725625e-02,1.270770758456430116e-01,1.299124206586696195e-01,-7.907208435324110385e-02,3.570903204470716324e-02,-1.038850883995794533e-01,-2.637342004048041644e-01,1.281365647283965077e-02,-3.646529179247632452e-02,5.245229794719717675e-02,1.932151846206620061e-02,7.461638791130839610e-02,3.654884385574355132e-01,3.893249167027930391e-02,-1.829010568188327301e-01,-9.154118869344057829e-02,-3.237006659615614401e-01,-2.637510418221832298e-01,-2.071517693057499734e-02,-1.779152223873685379e-01,-1.946223200867225334e-01,4.932711355214233762e-01,1.647251099900235993e-01,5.694860520268435478e-02,-6.755168208430634147e-02,-9.205152436790126069e-03,-3.106923778395890845e-01,-1.526736091711877186e-01,-1.457746267085339165e-01,1.293076171525413438e-02,-5.156773766214940713e-02,-1.423138060000621874e-01,-1.142546454065328093e-01,-3.294675479809456853e-01,-2.096422582180257621e-01,1.281499860774285016e-01,1.163076082661139848e-01,-3.181719561421984532e-01,-3.054403737357592186e-01,6.942759707110795001e-03,-4.243700801421193547e-01,-2.989606776590199647e-02,2.920793871787112361e-01,-6.777810964810900007e-02,-3.501092589606109029e-01,1.776453077351719534e-01,-8.590700627907487882e-03,5.674875353059818939e-02,2.941374621060155459e-01,-1.514863396148866115e-02,-1.178643358122063028e-01,-1.281123203656880927e-01,2.950374646207957197e-01,-2.667257099734126058e-01,9.274085955828924310e-02,-2.240718029112368226e-01,7.636596934763917321e-02,-4.600462642967995119e-02,2.579194047374661625e-01,-3.805750087803729809e-01,-1.594439365264100905e-01,-1.131674637601307876e-01,-2.722368720001004383e-01,2.535482843224701882e-02,-1.870156132814968647e-02,-1.906611689002559451e-01,-8.807927077977081853e-02,-2.356686186926147397e-01,-1.352631312118630358e-01,2.126239574830070811e-01,-4.181482680738210500e-02,2.923599325846449881e-01,9.995234295039613637e-02,-8.513806622458562623e-02,-1.572558602649586634e-01,-2.624382457237783850e-01,-2.210523022830893358e-01,8.085340179481366463e-02,-2.624029463765102932e-01,-4.542973177337484431e-02,-3.822803936847248285e-01,-3.127637249727998215e-03,1.959792475219310770e-01,-1.941390555118654992e-02,-1.206037510810068977e-02,1.352744238845399183e-01,-3.581931786612038010e-02,-2.827411354392916909e-01,-3.839857348306320861e-01,-2.896278350408575467e-02,4.031108888115644828e-02,-2.522318177237848347e-01,-1.194335102049564612e-01,-4.296698659042146318e-01,-3.485815844571426014e-01,2.534226435624718776e-02,-1.185015601812705321e-01,1.990734367879316846e-02,-1.574420622370757972e-01,1.582345201446557215e-01,-1.886686105108271172e-01,-1.986392950127375823e-01,-6.063883513283178928e-02,-2.853451709832656724e-01,-1.584234565782136617e-01,-2.456522069999296509e-01,-9.638607662857806568e-02,3.548801020319973243e-01,-1.133693433036822053e-02,8.282213884759200007e-02,2.796053246878938969e-01,-1.057278073534122648e-01,6.537156615401071812e-03,-1.756374327157640691e-01,-1.878476421896848880e-01,-2.605644496043856839e-01,1.943778674495348080e-01,-1.365966824601890228e-01,-7.764251395548300849e-02,-3.973601075049563308e-02,2.657378061751594633e-01,-9.304892060272375309e-02,-3.265293298333989402e-01,-1.504928171037532014e-01,-9.223919376502939804e-02,4.702779572518155093e-02,3.032779993801209412e-02,8.690473389316728803e-02,-1.162932257482650195e-01,1.838489810739544206e-01,-8.443624603220978297e-02,1.840884967971169114e-02,7.714503163791609774e-03,-1.591668931476469817e-02,-2.229870900025126557e-01,-9.405641530426239738e-02,1.692099707624276084e-01
-8.254063629466958096e-02,1.892073922935510327e-02,-6.901253204328122726e-02,-1.760608226979956670e-02,1.191578124642782149e-01,-2.144198531100739158e-01,-2.652498727864756600e-01,-1.811418823126370592e-01,-1.542962862411584833e-02,-2.649108457115616488e-01,-1.334611305530184200e-01,-5.418959752916452377e-02,-1.251135035793769223e-01,-6.319348712546921099e-02,-2.211467632794665017e-01,-1.980237923886304929e-01,-5.429782585059183403e-02,-2.608257841919368603e-01,-1.156147938523884033e-01,-1.601584841592673114e-01,-4.050515618829615971e-01,1.975781653489553369e-01,5.621224747682572465e-02,2.127293815991150930e-02,1.257105333137631398e-01,-9.699971478975566441e-02,1.934904104622365006e-01,-1.476742225315126611e-01,7.358212812081987853e-02,-9.198671970699021094e-02,-1.700143897862544107e-01,-1.845563793954002330e-01,-3.741063248301045863e-01,-2.443269584633136760e-01,-5.062443940067764755e-03,1.016743212177616124e-01,-2.182460070755015691e-01,1.262610859773265759e-01,-6.300294488173931173e-02,9.205743821226355927e-02,-1.148531278987922760e-01,-1.129750854340970528e-01,-4.264451193496124892e-01,1.082452930049113693e-01,1.151587641641425332e-02,-3.729251416754205128e-01,-7.383820637113681917e-02,4.627392834481872108e-02,-8.840528715884238276e-02,-1.787631883413429712e-01,-3.268919622241867606e-01,-1.003756280467781176e-01,9.048464185674130744e-02,1.858661685392898610e-01,3.104144804333701102e-01,-1.371015747208703395e-01,-5.764386473456392657e-02,1.579839497621670918e-01,1.030054184980471327e-01,-1.602611797115096604e-01,2.358936719654610159e-01,-9.615383984739765341e-03,4.433815175621670379e-01,-4.995884752389510575e-01,-1.306468589897945842e-01,4.363195823403384806e-03,1.713499472753451935e-02,-2.500895121343168492e-01,2.078228793726286383e-01,4.844042440573388952e-01,-9.049268513948829917e-02,3.097019259907069291e-02,-1.206157199967245464e-01,-2.598800783860191199e-01,-1.786716814406543244e-02,-5.382666780692624275e-02,2.512811513523814932e-01,1.091849064500465850e-02,-2.224450152995471539e-02,-2.287716185783257028e-01,1.282927878365468788e-01,-4.076379593973019078e-01,1.685042024811611583e-01,1.451595084784541023e-01,-2.255120850433843804e-01,-3.062307512326160608e-01,1.640903820337715757e-01,1.001313926714383351e-01,-9.171486424092382267e-03,4.548936027106578045e-02,7.015303426993337900e-03,1.352952531266810553e-02,1.724901384949871774e-01,-8.474603874790360980e-02,-4.739476377343711244e-03,-2.868048383928648581e-01,-1.567016218168754693e-01,-3.407215231104664122e-02,-4.485898998342919275e-01,-8.045361060447137058e-02,4.868867352178143232e-02,-9.314170797966793425e-02,-1.243402985018608881e-01,-1.950036456834269849e-01,-2.482465217126219037e-01,1.179492114382422151e-02,-1.796445130886950570e-01,-1.399974412454824679e-01,-2.959352254767211310e-01,-8.964780326729648863e-02,-1.188682866676956107e-01,-1.960221787441295271e-01,-1.444589382744751738e-01,4.721317929527175938e-02,5.351787631935917694e-02,-1.126534406020152090e-01,2.131341647833793762e-01,-2.550464040110748121e-01,-9.316634795473052733e-02,1.917968604030456936e-01,-6.661703342797531402e-02,-2.409431270902512578e-01,1.187621831821173979e-01,7.174094700117680801e-02,1.741189912167795950e-01,-1.549968769249566725e-01,1.536616375055256389e-01,-1.940913378081274565e-01,-5.272349148666367197e-02,7.403011089183283988e-02,-1.780772162408848225e-01,-4.287282368235644792e-01,1.172184625353856480e-01,-5.123605656641815054e-02,-4.049556071125902101e-01,-3.151776433185493609e-02,-1.969750465179705978e-01,3.480499562239795508e-01,9.446053902085629894e-02,-1.145295286708694765e-01,2.717709072103575291e-02,-7.890818342541559838e-02,-1.086770866252091267e-01,-6.429123901489822157e-02,-5.583153558299108754e-01,-1.770243246416523461e-02,-1.340816352017642783e-03,1.200127402574414776e-01,-1.940781380993997218e-01,1.288761977506451724e-02,-1.294238942531499292e-01,-9.412086163497661306e-02,-2.630796386447665364e-02,-5.503143411516607797e-01,1.509993782441997334e-01,-1.501167917616725023e-01,-1.300460451551611607e-01,-1.804582278281065821e-01,3.779821006249051152e-02,3.206511754801492087e-01,-1.793558561589319866e-01,4.201605845724724203e-02,-3.576149534929193852e-01,-1.260439468615134062e-01,-2.127504816741985216e-01,-4.734898102022806754e-02,1.426994782477639112e-01,1.454155705301305168e-01,1.585445220220785545e-01,5.542855650559492808e-01,-1.372422315190079123e-01,6.115362792940592235e-02,3.049353658435490985e-02,8.616447586265987835e-02,-1.159872252094969469e-01,-3.593387625612733949e-01,-1.406226139814542586e-01,-4.162860808653147393e-02,-1.518241159743289048e-01,-2.334504257370075553e-01,-3.749553348289459687e-02,-1.268630511521594562e-01,-3.960925212489323916e-02,-1.214986456327684337e-02,1.502699966124668510e-02,1.951816848709345131e-01,3.468789406002539266e-01,2.283503346705811343e-01,9.589365266031969759e-02,2.611018438184483648e-01,-1.511208930721666399e-01,-2.594082111465392804e-01,4.501170918842964386e-02,-2.122143892144869592e-01,-1.819926343927220636e-01,-2.775103798047210413e-01,3.989051298239086885e-01,3.269696302765177087e-01,6.650860562868095641e-03,-2.556165497309327850e-01
3.568052340539362016e-02,-5.123105387108037312e-02,-1.196388138504050902e-01,1.039207770452159341e-01,3.026917392631133796e-01,3.880420075487092668e-02,7.522133321931311067e-02,-1.044571284568362457e-01,-4.593694747944633283e-01,-3.937438970438896652e-02,-4.015094085788282197e-01,-1.878923640176991261e-01,1.187702843609341335e-01,7.012868935205310295e-02,-3.992361571098945183e-01,-8.767397241017164944e-02,-8.560891792825405314e-03,-4.002427974891308027e-02,2.969888914968197291e-01,9.443746969781936784e-02,1.485321702929942311e-01,-3.038270863783188447e-01,2.772975359232234677e-02,-1.780369888133124037e-02,-2.119664285713434293e-01,-1.141827266432398763e-01,-2.134619605928503860e-01,-1.877308792707388374e-01,1.469380209074193089e-01,-2.079159096268738960e-01,-3.848165907887048098e-02,-5.471733999242296420e-01,-3.735407195445604733e-01,8.088677827936366360e-02,-3.742995137033547359e-01,1.237596419072188314e-01,-3.987718761662985972e-02,-2.496443051584282813e-01,-1.084440790453925635e-01,-1.110716744793275451e-02,-1.138948465692725051e-02,-4.161721731134315205e-01,4.612230631685269866e-02,4.101498134704322646e-03,-1.281458245598348367e-01,-4.082741879935247731e-02,-5.698367028893285696e-02,6.451979430178708674e-02,-2.327385185364413689e-01,-1.209814108228310925e-01,2.742860511106445798e-01,-3.540817640125044075e-01,4.818356272975946042e-01,4.673608009949459241e-02,-1.707870697068133159e-01,-1.958042712073351510e-01,3.213269588272045785e-01,4.172918328700151586e-02,-8.926875026287162118e-02,-1.879063559971307432e-02,-1.942938702307462628e-01,-3.396822016860535087e-01,-1.952001650063909799e-01,-9.891111356255749554e-02,3.712716517064782590e-02,9.658421054553585974e-04,-3.637818039577135343e-01,1.127971580362296805e-01,-3.617490973377054941e-02,-1.142772389852280412e-01,-1.206801065617585100e-01,1.856946399911701684e-01,-1.897208777125970747e-01,-4.759945761409082321e-01,-2.675272500343721660e-01,-1.811518432870715678e-01,-2.959076622631108267e-01,2.143734688390182275e-01,-1.291271092275976251e-01,-8.598330020718586084e-03,-9.192117829123092054e-02,-1.628812310934534338e-02,3.595070765271744517e-01,2.523391099198547469e-02,1.888083850617010562e-01,-4.232362650685759370e-02,-1.073878413226504736e-01,-2.226670499134945566e-02,1.839005521374770802e-01,-2.638114859747053287e-01,-5.310977865117720853e-01,-2.520432665784370085e-01,3.859081288014259981e-02,4.793521739033037021e-01,-2.048281954564773744e-01,-6.732255925200789082e-02,1.245437658162099615e-01,-1.398279796731383695e-01,1.590496716964256430e-01,-7.788717875234586752e-02,-1.068420594307948890e-01,3.664948812853503768e-02,-5.498536810769320826e-02,-2.835575465611512302e-01,7.927715156130936414e-03,-2.245402672543244382e-01,-2.329809998328892240e-01,1.121937764847205088e-01,6.659761229952693151e-02,-1.720955748181051542e-02,1.323046165176609279e-01,2.553321427807040966e-01,2.797397692733719424e-03,-2.369842256938802516e-01,-2.203201371074308412e-01,1.438918102881169281e-01,1.671194654800281232e-01,-1.454223409211877760e-01,3.698331523915038277e-02,1.536809337267457110e-01,1.333525294700416697e-01,-1.793296427384914460e-01,1.003251083489249129e-01,1.204045265387673203e-01,-5.809039737084751090e-03,-1.711581846643422944e-01,1.148526549584655693e-01,2.190792495830576683e-02,-1.408734197021639378e-01,-1.200268656606480050e-01,1.037687172173790418e-01,-7.622610848695332043e-03,-1.808770605892247585e-01,-9.894537534387812250e-02,-4.670128203024484503e-01,-2.859477177370665091e-01,-1.698467324863584538e-01,3.189850803817783076e-01,1.486772411435254015e-01,5.384262430397215859e-02,-8.069160947708928222e-02,-1.043510860229866360e-01,-1.301654348039271436e-01,-1.232168727189130245e-02,-6.067822201336692256e-02,-5.030951220098416748e-02,-3.053451036819950226e-01,1.831553105546490090e-01,3.501478909316150384e-02,-2.074662796865325842e-01,-2.774024009872548269e-01,-3.599782631092799945e-01,-2.569981849808617574e-02,-2.233953544593391960e-01,6.415604931009452616e-02,-3.424671795760899085e-01,1.249017486632440638e-01,3.052471810329825952e-01,-1.437848040319746334e-01,3.931797376490590856e-02,-2.553380041383132015e-01,2.167451957385727879e-01,-1.260755197469785004e-02,-1.222197379185011729e-01,7.309029273607017818e-02,-8.388538161855982334e-02,-3.852136442568301899e-01,8.619545073168347407e-03,-2.919313248127572424e-01,-8.312135799170444761e-02,-1.364148619215735103e-01,1.016845787589458483e-01,-1.925123881093946665e-01,-2.762590399976371791e-01,-2.255011460881090890e-01,6.061523235353918904e-02,5.097017628089760277e-02,-3.078207132988729500e-01,-2.348399986871161638e-01,2.503326333749925081e-01,2.047596792934478216e-01,-9.165324641394639524e-03,-1.438539024960986956e-01,-1.086110236262849832e-01,1.137350612550377393e-01,2.589981954106438389e-01,-3.688996990953729016e-01,-7.233846900872746566e-02,-7.228085058543383401e-02,-1.577423170902690630e-01,4.066846627934683767e-02,1.979440116493166868e-01,1.119878981793107076e-01,1.197275627798134595e-01,-2.990178234956042957e-01,-9.601942048123783546e-02,-1.983724722242691252e-01,-2.276244502754720123e-01,-1.461879771557401120e-01,-2.742653559871324198e-01
-1.719746895384609287e-01,-1.701880944519415517e-01,-1.158743122955333410e-01,-1.565161140580318411e-01,-1.601324351271908031e-01,-3.003370461873842712e-01,6.257189342249903918e-02,-2.086709580786081930e-01,-1.168674299296976055e-01,-1.505946234653216531e-01,-4.299786394680056856e-01,1.329067211839798091e-01,-1.992073228016676828e-02,2.868954986014973438e-02,4.674983795698744483e-03,6.980348284207853193e-02,-3.714481302814282571e-01,-2.285874640926870496e-02,1.784482793404647549e-01,6.672797368871503931e-02,-4.222001095147480121e-01,-1.068074043464925238e-01,-1.899759307987154144e-01,-1.680914241843550760e-01,4.086989762426965211e-02,-2.869870198913236983e-02,1.058587248157926847e-01,-4.455596886509805704e-02,-1.222226467288027169e-01,-3.330637368014596755e-01,9.536636579571999839e-02,9.733924416747285905e-04,-1.128544957463380183e-02,-2.977207457464432078e-02,-4.606889913784145002e-02,-1.640146706151742600e-02,-2.421284769288203353e-01,-2.437343819328735006e-01,2.083488833666245210e-01,7.220144111279210020e-02,-3.811882033748884568e-01,-3.731809340138539377e-01,-6.592735299202433230e-02,1.939452096285467220e-01,-2.225062613765012021e-01,-1.613811842582272074e-02,2.301423988093956874e-01,-1.752449142416410977e-01,-2.333284006662229848e-01,-3.260619674163614534e-01,-7.327644233343089120e-02,6.337769656354777514e-02,-6.918091485843645694e-02,-1.253732437496312413e-01,-1.645197443770513579e-01,3.118055170242788332e-01,3.961424621815879954e-01,-2.701699532403954440e-01,-5.665652777062311213e-02,-4.512545738161652387e-01,-1.070593620338425311e-01,1.789928907150783732e-01,-1.296367831607489474e-01,-1.978864220614363345e-01,-2.475263368999668090e-01,5.989598768223501624e-02,4.789111003778579595e-02,-5.184624292204219609e-01,2.749787329678755887e-02,-2.656075046249317118e-01,2.222262751063231179e-01,-2.237204698304176217e-02,1.556941502788827536e-01,-4.371729668516335932e-01,-1.603667951324817820e-01,-1.426476215466830899e-01,-2.554529813884778844e-01,3.217431966084548928e-02,-8.033907002185515511e-03,9.039260012127631194e-02,1.909001963585889305e-01,-1.674109037070708739e-01,-1.872077416485307400e-01,-2.964451872757364326e-01,1.819877681349863219e-01,-2.241223768516246440e-01,2.131642338041082607e-01,1.366639534775241638e-01,1.489542116662430082e-01,-9.202128916782207832e-03,-5.134363173376872008e-02,-1.002081852500579934e-01,1.523067670482903258e-01,6.335643289422789037e-02,-1.763316326640929355e-01,-1.946003109402685838e-01,1.287641540267996931e-01,1.227007599798637799e-01,-3.799649517862913051e-01,9.853728463846714303e-02,-1.822623252955445083e-01,6.209221990325197726e-02,2.187764505874153775e-01,-1.202675212713885528e-01,-8.245431289861261670e-02,-4.001568951375129024e-01,5.313162343145468730e-02,-2.585700051550299250e-01,1.292770275602808383e-01,1.362272777495362464e-01,-1.524993004423274845e-01,-3.266092772834789937e-01,-4.461355162689586984e-02,-2.524325099917064108e-01,-8.756602792503240251e-02,8.294992715821157547e-02,-3.007406503320744218e-01,-2.760085426159260558e-01,-3.518337732660097722e-02,-2.375562968576269696e-01,1.713416722962086136e-01,-1.892024343049497070e-01,4.582495572276277379e-02,-2.031123404816694289e-01,2.963240387119600028e-01,2.705401604052392051e-01,-2.630896605930349019e-01,1.429481561836059844e-01,1.680443003165321414e-01,-1.181044330239475054e-01,-2.982843849770810407e-01,-8.315722791451921059e-02,2.304073494052883142e-01,-2.607088564264116171e-01,8.242575683918752782e-02,-1.605019978718636720e-01,-3.402279384344883972e-01,7.226927232108666665e-02,2.701752305112974928e-01,-2.573687489093496317e-01,-4.757598355621622116e-02,-8.560899458372688009e-02,9.321990388624440405e-02,-4.007097708071995223e-02,-1.989289641223815908e-01,-1.975032408358750047e-01,-2.550260415397690994e-01,-1.529146639577863009e-01,-3.376026653111042358e-02,-2.114505354415252836e-01,3.978348734065758618e-01,-2.182099353540605802e-01,6.283081716027046071e-02,-2.251214183889263254e-01,3.661949852271766809e-02,-2.530925190593726892e-01,1.124055514265936695e-01,-3.774763099283194590e-02,-1.289004868316432073e-01,1.872718168360212598e-01,1.439910528887984043e-01,3.983209231426695363e-01,-1.861834057073001314e-01,1.892555402528801282e-03,1.843694045033010542e-02,-4.277731150493347539e-02,-2.118916280108920080e-01,-8.919009010983694474e-02,5.900751012843479248e-01,3.747933183738880736e-01,-2.444083074431831759e-01,-5.347429678694962663e-01,-1.676805755112935059e-01,-2.525969554676008033e-01,-1.200383639026948168e-01,1.492848329955767106e-01,3.114644869724698950e-02,-1.237636899574375837e-01,-1.038663333778024056e-01,-3.944327304486448527e-01,8.715721344834675977e-02,-1.391177426772293169e-01,1.649549641879637651e-01,-1.208445457802101164e-01,8.578815066710132609e-02,-3.103906027475824003e-01,-3.007704516472399225e-01,-1.414536089450114942e-01,-1.896168746409093719e-02,-2.461237253217903320e-01,-1.302175686026376122e-01,-2.054876619401529991e-02,-2.021780112198867663e-02,-2.740305838498331981e-01,-7.073750319537298881e-02,-1.814928610765382810e-01,-1.111163827861318260e-01,-2.843825347202195153e-01,-1.265927618507887709e-01,1.684028168271079484e-01
-1.666724974045713792e-01,-2.493611673959503228e-01,2.507003699650788529e-03,6.393286283083562949e-02,1.631534459306397955e-01,1.485372093409065009e-01,-3.482269647819762337e-01,2.465170068994728403e-01,1.177935105710930658e-01,-2.642233509400876423e-01,-4.077023075961468124e-02,-2.140323433394916430e-01,4.324882323270595741e-02,-4.474116418900694891e-01,-1.003728032632262429e-01,1.355723599714465759e-02,-1.520851884819650335e-01,-2.052042206575163119e-01,1.233857239416782381e-01,7.607937681366452876e-02,6.985132892200278387e-02,5.860797383884951139e-02,-2.254550696394697074e-01,-9.824417579534688860e-02,-2.546958733969540978e-01,-6.480730071731839737e-02,-9.902545920836107463e-02,-1.474302856778964832e-01,1.661405347095441243e-01,6.316805844570533290e-02,2.408650140645577642e-01,5.759177542209657774e-02,-2.490960605739399591e-01,-2.965822914961100953e-01,3.130399037045448196e-01,-2.301957421220798272e-01,4.607104474240301256e-02,-2.769074768103029285e-02,-2.269766315637790910e-01,-4.044420023955962867e-02,-1.994180237573961734e-01,1.452057863577574659e-01,-2.031547104105345114e-01,2.120566077267029836e-01,-1.315939045964815146e-01,-1.862780370154476506e-01,-2.575276974256937579e-01,3.816378746440362013e-01,-1.640541004897890232e-01,-1.612181372641752486e-01,-4.479744453376552360e-01,-3.224463374935737647e-01,-6.259519493632988152e-02,4.880671443321424330e-02,-2.857299968423899217e-01,-1.814768143173339232e-01,-2.392060818195794747e-01,-2.147717769280339806e-01,-5.942371307304874367e-02,-2.401680781479863594e-02,1.538122622674788220e-01,2.924619557645307885e-02,1.437568188118549251e-01,-3.146840958197383298e-02,-1.046435531011752768e-01,5.508115415743208149e-03,2.213871072336940360e-01,-4.920744448158235196e-01,-3.929797168654840939e-02,3.382132205584703621e-01,-3.267659472438748658e-01,-3.906560685441944347e-01,-2.107402896514353752e-01,-1.529133972696184174e-01,-2.026567514277831938e-01,2.619056428381751345e-01,2.077389502062790272e-02,-1.144704221633489616e-01,1.161521385858607647e-01,1.173359644316098460e-01,-3.221063108125943319e-02,-7.458245471393491755e-02,1.368188668919396445e-01,-2.886027123168918296e-01,-4.961194816628203275e-02,1.691832801538085129e-01,-2.581471281735567280e-01,-3.772984583821357152e-01,-6.897148779749414857e-03,-7.142048379361694288e-02,7.038989728036702809e-02,1.847122615668544687e-01,-4.237691229343779065e-01,2.759653814587543774e-01,2.777161244576979438e-01,-2.760061106677132448e-01,2.796306016576763365e-01,1.487387401876339166e-01,-2.449229679354884281e-01,6.160319129430567864e-02,2.459420340804724658e-01,1.815093417078721405e-01,-6.738935495151342388e-03,2.371689134172064173e-02,1.960428587130644620e-02,3.588600225958523127e-01,-2.767655418185016591e-02,1.422888105057942554e-01,-2.245740517161096683e-01,-2.229064153454023492e-02,-3.481371010085376749e-01,-1.206891870432715182e-02,1.002918873596898297e-01,-1.683502050782745285e-01,-3.290043052310354654e-01,-2.502262911069109627e-02,-1.216823958150729801e-01,6.670449634398906147e-02,-3.216591505357087044e-01,-2.729098749596489126e-01,7.943185257382602560e-02,-1.232040595286320178e-01,6.651386815316508161e-02,-1.009835549140204319e-01,-1.917151712825677923e-01,6.152819523196757096e-02,-4.424268799934139018e-02,-3.252060575805164611e-01,3.585328400929150422e-02,4.159484488728067142e-02,2.934992229162366462e-01,-5.291031185830993161e-02,-1.279028472784353165e-01,1.885194644780831541e-01,1.269644538345136575e-01,-1.169879365675063343e-01,2.443597175523855858e-01,-2.297309920404702610e-01,-3.149394928745192224e-01,2.619417941010563355e-01,1.465980383421559285e-01,-3.441479924072076702e-01,4.352790340649729389e-03,2.125445055718976906e-01,-2.045201472938799891e-02,-4.266747505843613078e-03,-1.263520466006745335e-01,-5.474164572780150229e-01,8.314544161110724863e-02,-3.306482694905736319e-01,9.406511544805841452e-02,8.178592364635808853e-02,-5.232547041982904545e-01,-1.271880447957595417e-01,-1.999169976956710892e-01,1.841593425668213435e-01,8.132747018115814297e-02,1.765739891151441310e-01,-1.125288551811486765e-01,-2.356820960159687270e-02,2.348909092286266889e-02,-2.326180339269123820e-01,-2.656618268418328710e-01,2.396471817221427769e-01,-1.914117667640487797e-01,-4.046326735214039183e-01,1.829887097185277645e-01,8.567647837049308102e-02,-1.384928628084556856e-01,-1.917675114706691303e-02,-1.719193551751410642e-01,-2.094796856447361522e-01,1.582668932556532959e-01,-1.200377787618151816e-02,4.258259792458617410e-01,-1.381062782044049086e-01,-1.021499745613439897e-01,-9.607384963002736644e-02,1.577646226271668117e-01,-3.385444175120396193e-01,1.412878838420913163e-01,1.040078534259812337e-01,-4.290699839327524745e-02,1.298634398992031642e-04,6.936514598588280900e-02,-1.432094131323330966e-01,2.748646043349999291e-01,3.302531524014805098e-01,-1.449375668840476583e-01,-9.779979944918999746e-02,-2.563583099873170124e-01,-3.769803830320607174e-01,3.431010829373546955e-01,4.328395356766345792e-02,1.020698026467930647e-01,1.472667520295391774e-01,-9.236693010724487951e-02,-9.988814155313416321e-02,3.259498171377604447e-01,1.272288689532086181e-01
-4.695502769125727005e-02,2.235296790661943089e-01,-6.922145571585885948e-02,-2.963432279252466856e-02,-4.983945496519381901e-02,1.264357977619385009e-01,9.555934367499568927e-02,1.589982367271607633e-01,3.866821713062460475e-01,-1.134085174561440430e-02,-1.770883052998377394e-01,-1.761330483572927930e-01,2.013475797784954335e-01,-8.512994480343512305e-02,-2.150533919519818579e-02,-1.298325981597518441e-01,5.389589911963924007e-02,-3.766427091871244609e-02,-1.378993591002741492e-01,-3.836271738101165295e-03,2.619374166083301425e-01,2.402365123393213064e-01,4.465839564668673822e-01,2.181664382415366699e-01,5.360162449754600662e-03,-1.454686719043549181e-01,-1.517626258569653927e-02,-1.736642539368011551e-01,-2.756540354670383719e-01,1.608279658169965154e-01,1.749026600177259472e-01,2.088347805399230761e-01,-1.266395084407050675e-01,-1.449636822822591986e-01,-3.099558206476586419e-01,2.291425269551860405e-02,-4.251119223257766033e-01,2.337685097915812582e-01,-1.465287799067762076e-01,2.060692759659666085e-01,-4.273338840081925549e-01,2.946380560157956241e-01,-1.716000443833044509e-01,-3.998033262985262737e-01,-3.576870716290359020e-01,2.464690515293418704e-01,1.409581888554035933e-01,1.608968661444769577e-01,-2.049200342872389002e-01,-2.252776895471711449e-01,-6.540281939028652798e-03,2.491801956984826261e-01,2.990571117312403326e-01,3.926793092569261234e-02,1.861171853304856988e-02,2.559945694317203868e-01,-1.304007081854096639e-01,3.679214844685028268e-02,3.217996359350430158e-01,3.038299120149979826e-01,4.846990285693166672e-02,3.624555417507445143e-01,-1.934125352349090610e-02,5.191183955590314425e-02,-3.555269216345818134e-02,4.592050423208757400e-03,5.187985051645269130e-02,-9.044836210871459725e-03,6.831790343783786246e-02,1.077863491274498736e-01,-2.517290654980589570e-01,-2.461554603576786016e-01,1.535133741947569408e-01,1.353586540597030707e-01,-2.533240221678833004e-01,-2.586057652345462032e-01,-1.064490037543332490e-01,-1.528061879990823269e-01,-2.932749954291628477e-02,-4.514175452754101009e-02,1.334014103773635829e-01,-1.298828363086705802e-02,-2.759434054320991092e-01,-3.379964127068409152e-02,-1.323270862337982967e-01,-1.544502786139035633e-01,9.023902371347733431e-02,-1.458092999935606815e-01,1.912462655294172031e-01,1.778040931304080974e-01,2.674876650712618709e-01,-1.380281203488232522e-01,-1.499705339116879088e-01,-1.696098228939229291e-01,9.784542468069748478e-02,-1.286798200607690845e-01,-2.098008271660069257e-01,7.613079531495912933e-02,-2.050236878348892788e-01,2.643315902160002229e-01,-1.566775785329082293e-01,-2.897538048279187373e-01,-1.993560633803242166e-01,2.207818614766890730e-01,1.771865513210334475e-01,1.141295539821573085e-01,2.645107410611552412e-01,-1.448065554782595465e-01,-3.166567803661422542e-01,-7.478463203503232792e-01,-8.262121011557570227e-02,-1.729819994428811181e-01,-3.263493622740853972e-02,1.403938995754311636e-01,2.154108360305961034e-01,-1.511953532089985452e-01,2.878946434858249345e-02,-7.108157052158828315e-02,7.568481320440188787e-02,-7.090219279821026455e-02,-2.861181037823325446e-01,9.687780713001714616e-02,2.611025476301146453e-01,1.935313075307385500e-01,7.739547548156480716e-02,-6.865817584507313831e-02,2.635185278422969707e-02,-7.790483684384810759e-02,3.894711458917981539e-01,-2.089410868721170433e-01,9.444333428789930540e-02,-3.521064750219408679e-01,-2.135195569118411019e-01,-9.722029346899552227e-02,2.190323244025422500e-01,-1.484080001909273416e-01,-3.142946589026167636e-01,1.752836861862169526e-01,4.727760300198467075e-02,-2.379124376429009868e-01,-3.600931706805557408e-02,3.263439817296708012e-02,-1.511694717778772901e-01,4.879690121997869862e-02,-1.526120018437805981e-01,-3.120083741545407463e-01,-3.068878068467631448e-01,-1.891027334976368435e-01,2.787999538522763568e-02,4.776418085687005044e-02,4.584733464197898178e-01,1.460735613842005787e-01,-3.606043578051892906e-02,2.336927355278644869e-01,-2.567642884907185476e-03,-5.629949905500128415e-02,-5.101536965851287408e-02,-4.199558846365362141e-01,2.174027748958473061e-01,-1.780396751470346428e-01,2.436904097643536049e-01,-2.545138714716757011e-01,-3.064631969007780010e-01,-9.221125245999366171e-02,-1.867860840968987857e-01,5.523914908844566179e-02,-2.784629508380052076e-01,-1.625262944548899399e-02,-1.452808700800871933e-01,-1.929631112383792257e-01,1.192752450658118579e-01,-1.868427117398444581e-01,1.752011041721976692e-01,-8.656807890024557917e-02,-9.267634796379671525e-02,2.164143209873253537e-01,-6.107315997262201535e-01,1.790484367085496131e-01,3.066745871907162746e-01,-4.098741225807001759e-02,1.667985289087063061e-01,3.705244238627353887e-02,5.049535771520022309e-03,-1.244585176998770359e-01,1.100293270413027907e-01,-3.841232428211134864e-01,-8.212636249743270056e-02,-1.358769606823079790e-01,-4.212310479683178954e-03,3.031450892705501721e-01,-1.728322476807448230e-02,2.710891405046861324e-01,1.395342156799017908e-01,2.273201037912014888e-01,-3.429637796945917416e-01,1.791577280616954704e-01,2.730563239961776856e-01,8.389428122132853299e-03,3.532106989097819061e-01,-2.209752948437050390e-01
1.668426132442527854e-01,4.130174572848157449e-02,-2.686749557579634629e-01,8.166806113691166269e-02,-1.011302523489335248e-01,3.902304997459871139e-02,-9.561841484919945955e-02,-3.985216244817901265e-01,-1.417982259254357835e-01,1.213913285432701578e-01,1.185709783528578198e-01,-1.605485976050256836e-01,1.771187411951172241e-01,-2.911315939970484101e-01,-9.938808215120285838e-02,-3.737019689426868130e-01,-1.616027942375465876e-01,-3.959286412587827986e-01,-4.103545499351085590e-01,-2.398008479793147796e-01,-8.399520966277853468e-03,-2.855165358427472211e-01,-4.371859903806896847e-02,7.729533054518079871e-02,-2.579017341241752193e-01,-2.894870255838120077e-01,3.770997272479108264e-02,-1.223974597666408898e-01,1.873674491898558170e-01,-3.050187755241663412e-01,-1.047620945975850093e-01,-5.412911006296166061e-01,2.689853255602140947e-01,1.357071295993797326e-02,-3.423540130947584359e-01,-3.550535090723870857e-01,-1.251580864609549114e-02,1.369066556476098984e-01,-1.790938839534132465e-01,-5.583046319924963620e-03,9.586566877656435559e-02,2.414126953288054378e-01,2.919665891330303423e-02,7.646508056655870744e-03,-1.251589063290482473e-01,4.043381106431717664e-02,3.672764714339071812e-01,-2.326099198336426255e-01,-8.498214637088088996e-02,-1.000900738399448757e-02,9.423155381022955968e-02,-1.611311881337086083e-01,-1.591382778614505028e-02,6.434548547171964339e-02,-2.349355050883823182e-01,-2.592487114874937881e-01,-4.469556434443079929e-01,7.806527737424168167e-02,-2.721617016769391564e-02,-7.965902743428324162e-02,1.984405733818633555e-01,-4.068622719267397936e-01,1.181541186576105240e-01,-6.289876004764720363e-02,-7.794936414131183045e-02,8.280962860333909714e-02,1.187496655866287013e-02,5.057633160203969802e-02,-2.075366227902003258e-01,1.718722981345220946e-01,1.859679995217743409e-01,8.398501541864929198e-02,-3.317168181812892302e-01,1.715182727193314549e-01,1.185107041177670406e-01,-2.319729077856725330e-01,-2.417835175045059404e-01,7.744541263734502912e-02,-6.973425415397256633e-02,-1.993038789485608309e-01,8.715984522151037917e-02,-1.193296207014855614e-01,3.697239727577838475e-01,1.561298155538040078e-01,-4.723249041433236761e-01,1.096286220730399164e-01,-2.846043744987131197e-01,-1.358789997850661235e-01,-6.802133613020845682e-02,-1.815858700928433822e-01,1.585724569720450006e-01,4.510501210438752628e-01,-3.938033838743739690e-01,-1.167468388758548664e-01,2.422148098093604429e-01,-6.363692987562494241e-02,-9.824451299976066920e-02,-2.028184098981028194e-01,-9.703853369337976653e-02,-3.227539692631538615e-01,9.152277789034742039e-02,-1.667629382001518390e-01,-1.066363989332694689e-01,8.794641532403481288e-03,-3.484602563502780387e-02,-2.153745403992455426e-02,2.318830445498036227e-02,-2.011563676579317950e-01,-3.724956777839836808e-01,-6.890706489798156809e-02,8.892862809132227875e-02,1.936345358428041563e-01,7.815163276566641781e-02,2.180564032235105532e-01,2.126616748720436267e-02,-2.433835298487129206e-01,2.279708157361485799e-01,1.505101153902476396e-01,-3.248506502541900071e-02,-9.109446679162938598e-02,-2.968136950912409477e-01,-1.224922335177919958e-01,-3.216800257835968346e-01,7.633652453047268249e-02,-1.774327661383778287e-01,-1.216747116318066257e-01,5.877525040748098756e-02,-6.357150080376156032e-02,-8.573378682568444376e-02,1.789032519936973112e-02,9.973837293669712833e-02,-1.157369290190788935e-01,-2.342167355754908031e-01,-2.649006041006539691e-01,-2.648563991086596014e-01,-1.311678508046675296e-01,9.674439048738571467e-02,-2.660735589151552727e-01,-2.512902305162456953e-02,1.358632319488282114e-01,-1.355640539317337287e-03,-1.446544819825812400e-01,-2.011549464417049238e-01,-5.443652368690302806e-02,4.336114792828788672e-02,1.881143681727791284e-01,-3.081621704980792506e-02,9.473640703022211118e-02,9.836806042572851516e-02,5.649562206990844937e-02,-2.332375234998555202e-01,1.240269239156601561e-01,9.435432481860760168e-02,-3.478940411363574264e-02,-3.648381574206937539e-01,-2.671410035062780075e-01,-9.261290570126186339e-02,-2.714279644056469820e-01,7.561475741539977480e-02,-5.742254542329801315e-02,-1.474968301328336562e-01,-2.140855765200788685e-01,-9.764133666464200334e-02,1.695627748028787074e-02,-4.230600815249955238e-01,2.288508896209886720e-02,3.325706892109335233e-01,2.120820451367616197e-02,-2.398210881096203562e-01,2.321896563485974924e-02,-2.312972552342948407e-01,-1.180831360393593266e-01,-1.623460421280880916e-01,-5.048638411320894269e-03,5.566576763010459006e-01,-1.735696433526933424e-01,7.182458163632063353e-02,8.835074454160006530e-03,6.420543624831773211e-02,6.277941384206796142e-03,-2.154890134076451746e-01,1.679803555610631105e-01,-1.668703357938031984e-01,1.434436768515739702e-01,-5.033518030972609913e-02,2.178620617839456888e-02,4.077835450155773422e-01,-1.842373856209686966e-01,-1.063107247916038889e-01,-4.449903599598707682e-02,-7.558385907767043756e-03,1.103266184627199470e-01,-2.298676152959372443e-01,8.862712910823039580e-02,1.659761699864011897e-01,-1.519392659170924198e-01,1.510378306260186654e-01,-1.651877249507909262e-01,-1.119758465108230405e-01,-1.902447326469440814e-01
-8.125396421553038317e-02,7.300997740544556969e-02,-2.000797419506161745e-01,-5.361881308224376169e-02,-1.888395920510491099e-02,-3.006764966240549897e-01,6.763747055546466547e-02,4.348066581492349703e-01,4.694049606674674524e-02,-3.437003716311721191e-01,2.058431625123561537e-01,3.939341260384690013e-01,-4.564185725433638208e-01,-6.197782027642761982e-02,-2.685652527735055695e-01,3.228866335185796160e-02,7.139331990941748252e-02,-1.263798840529803576e-02,3.071767174745284462e-02,-3.409426347555030157e-01,-5.651159608015906555e-01,-1.980095140622269989e-01,-1.394673786659753056e-01,3.328518136986882703e-01,9.936151749162802638e-02,1.153895820545919847e-02,-2.899790918644397086e-01,-2.811421645315586582e-01,-2.975837209170479891e-01,2.664623275798639473e-02,-5.810397075299975622e-01,8.486432367084172090e-02,8.599093611264435610e-02,-7.856657247682304057e-02,2.233460297387231952e-01,1.742558508679574458e-01,-4.174357655803033473e-02,-3.826329714787561898e-01,-1.029923138434839791e-01,-2.216279611314435349e-02,1.894303924710705744e-01,8.929449885030986411e-02,4.552515597720603602e-02,6.260654688308942006e-02,9.280113189148225805e-02,-4.287587428205207329e-01,-1.414855828252191694e-01,1.548898069489017260e-01,-6.780502842837407562e-02,1.432665141381394558e-01,-2.778648692796083508e-01,-2.146173629933115501e-01,1.143452010944032322e-02,-9.141112763858234846e-02,3.582397437247398231e-01,2.012473435654298093e-01,-2.908852923895397218e-03,1.367952873535623615e-01,1.498213693921463252e-01,-9.112692339858942392e-02,-1.561207325733210138e-01,2.700787431773454816e-01,-5.221747521525069852e-02,-2.780286073703906458e-01,1.307812523794968096e-01,3.098580359729588216e-02,2.319175354613788875e-01,1.517744631398753874e-01,3.142750549757948320e-01,-2.237595444261524791e-01,-7.356996189174041210e-03,1.191541774242395463e-01,1.849940292712253798e-01,-1.976592011116107550e-01,2.201340588999205483e-01,1.433295865841400785e-01,2.240883817682957913e-01,1.455163457890087074e-02,-1.262611759960468594e-01,1.142342751534032586e-01,-2.230231260912471369e-01,-1.755272917546260858e-01,-7.610731176469755221e-02,-1.793035601184189698e-02,1.455320552698181891e-01,-1.666751721532379049e-01,-3.608132699391437548e-01,-3.735671222517037426e-01,-1.142504437277325202e-01,4.689460343321478347e-02,-2.110956427210866626e-01,-3.406478678330793763e-01,3.578283611673430675e-01,-1.542659710439790374e-02,-2.169432581931233506e-01,-1.301210558368008641e-01,-9.529568135289545605e-02,6.895030283816325212e-02,1.336981718154204579e-01,-3.396510780803140284e-01,8.850664054816295007e-03,-1.789212504883262167e-01,1.190844648690268237e-01,-4.175528004162694373e-02,-6.547050523621700258e-02,-1.387217187926378936e-01,-3.451889654137482721e-01,1.814185454035158879e-02,2.342455420027141633e-01,-2.432303773473759867e-01,-3.082786479985895056e-01,-1.479138772402339985e-01,-1.990989685940918463e-01,1.764902975765188231e-01,-2.356020134687588086e-01,-1.517426706838333472e-01,-1.009559529868873790e-01,1.590207561598020181e-01,-2.149557392334981998e-01,-6.344819817919544747e-02,-2.038603067130112245e-01,2.087953055356103482e-01,-1.122924438943849190e-01,-8.413330588027251311e-02,-5.612254826296349253e-02,2.205044149301071954e-01,-2.764005339556905305e-01,3.866613878884508915e-02,4.581601929297385994e-02,-6.350063522888964307e-03,-3.812353536382910857e-01,-1.894742872985763493e-01,-4.374756153617029297e-02,3.354671704600382109e-01,-1.368735673567761102e-01,-3.078213452085741819e-01,3.594318032621647840e-01,-1.006245080447532858e-01,-1.149425815425310915e-01,7.011522234219731697e-02,-1.520389498229266501e-01,-1.088399896499288450e-01,-6.705166495832265428e-02,6.270447798828070185e-02,-1.270261844318983646e-01,-2.996698198442781513e-01,-1.386808683718112334e-01,-3.367519815504823044e-01,-7.550979418418686528e-02,3.411573452380510796e-01,-2.857512114110140680e-02,-4.757063930770139525e-03,-2.003743115026017929e-01,7.426845679502162498e-03,1.816077850053166298e-01,4.819149689369076756e-02,-5.157142806207312691e-02,8.213218899807041284e-02,-9.353165063318187589e-02,-6.900535595943868561e-02,9.293953915614634742e-02,-4.909037193012298628e-02,9.525710089712000062e-02,1.401220246067231001e-01,-4.940333397821315004e-02,-4.842530590635726329e-01,-1.179010692600880178e-01,-1.023556712892179643e-01,1.884937554517737979e-01,5.393364503347088806e-02,3.211688812718025421e-01,7.314140784158355661e-03,2.778828987316464896e-02,1.254574227298219102e-01,-2.360893401598569419e-01,-2.060764214645205150e-01,4.918138704562398378e-02,1.612365598822917134e-01,1.177254904324233631e-01,1.398688397096862490e-01,-1.182011695144640218e-01,-1.973007167923669924e-01,1.124972343958552945e-01,9.529796311071508930e-03,-1.500797397459077177e-02,-5.356386976051940099e-03,3.923206149234199913e-03,1.631111953096242920e-02,2.088937568315629018e-02,2.519422717383142940e-01,2.281686289634286130e-02,2.098004607549378842e-01,1.638377378920398073e-02,-2.623585275355014845e-01,-5.580518894114909756e-01,4.127314290894652099e-02,-6.657290570145228681e-02,2.564178984250776172e-01,-1.187196221920297501e-01,2.807671365580164183e-02
3.191791896990952421e-02,1.591591878945581781e-02,-2.163015008982906162e-02,-3.805360649023526443e-01,1.043849609688990987e-01,-3.486513312242555535e-02,6.290201014968133109e-02,-3.781218808733861625e-01,2.813590476009614760e-01,-6.533935729911126422e-02,-4.396748561739757255e-01,-4.603821529498107190e-01,8.011436698086453478e-02,2.053314271322280171e-01,6.727704237356349481e-02,1.208434257281572888e-01,-2.612004778277886574e-01,-1.284725906781807869e-01,2.230748498542933778e-01,1.995063700722684852e-01,2.351708715746289313e-01,2.465199829392049347e-01,-2.799873453242175958e-01,-2.526207991741165615e-01,-1.669936284276687943e-01,1.173661830239389886e-01,6.044904660766348831e-02,-4.260096587927171552e-02,-1.831335653489232496e-01,-5.846084037308365428e-02,1.769925440607648670e-01,3.211097171209759682e-01,-1.027916278169796194e-01,-2.664329489075955015e-01,2.530157079291579514e-01,2.544184227328313286e-01,-8.267214165991071742e-03,-1.446732208697320554e-01,-1.988490448401231403e-01,-1.439069623572058754e-01,3.352255010656277068e-01,-2.132514277427713933e-01,-4.170743427773129786e-01,-1.022770780670107793e-01,-3.429936548065021240e-01,-8.213332326833404362e-02,-1.437683802347114181e-01,-1.327712512976400583e-01,1.419824635090764786e-01,-1.276119468177503158e-01,-1.746507613817224053e-02,-1.104574554642268752e-01,-8.888829735500435036e-02,-1.635225393411589637e-02,1.733060222417431018e-01,-2.497838829476057565e-01,-3.206123838556857453e-01,2.316951480917668615e-01,-7.733344884278680297e-03,-2.429184052105048397e-01,-1.904925847777669545e-01,9.655841687617289226e-02,-2.766006889832866023e-01,-5.610432255487519254e-02,-2.429970026068205002e-01,1.352667935257180661e-02,-2.105925181775497035e-01,-3.471196111484500108e-02,-1.234207956632141744e-02,-5.475031250833353041e-02,-2.986089608724675215e-01,-2.701777348753483521e-01,-1.055517686982954118e-01,1.431532572764191436e-01,-3.324226821397954432e-03,-1.647826474819406306e-01,3.681685124683796440e-02,-3.357692098314749574e-01,-1.644218037563001666e-01,3.190171650000513809e-02,1.014556697036384236e-01,1.926446908492786825e-01,-3.426271364430071853e-01,-2.913615100428447180e-01,-2.399197269831309098e-01,-3.499743302973110093e-02,-3.083286117869361810e-04,1.740122146443019713e-01,-1.723410103748166944e-01,1.805883305445481479e-01,-1.299176520609080648e-02,-9.733731557839050974e-02,-3.571663100873458396e-01,-1.364350630388138086e-01,-3.536068786333697034e-01,-3.614010755609012998e-02,-2.323712906362481456e-01,-1.730205257646669770e-01,2.339003997815151947e-01,1.668772169593033261e-01,-4.811386565843140395e-01,3.211892902676740658e-01,-2.369957707919580214e-01,2.147199832219690019e-01,-1.997079210464686450e-01,-3.243068923657914659e-01,-2.011292729311928706e-01,3.312425035393326556e-01,1.876929211426131838e-01,1.969065523095785419e-01,7.417683299044430800e-02,-2.993493650955826868e-01,-2.497604165300642554e-01,-1.132616718131369306e-02,-6.435360455618553688e-02,-1.822290072704304820e-01,-1.836859992600449812e-02,-3.421319044988673785e-01,3.974802489747567003e-02,-1.436601130159152750e-01,-2.177297454300736734e-01,1.285371898567865545e-01,-1.426644642884859482e-01,-1.196594281800964360e-01,-2.012753132593845529e-01,-3.868084637616693855e-01,-1.414857032767278533e-01,-2.587948092418716484e-01,-3.927124675833928436e-01,7.226458749953161044e-03,-4.569151826319603482e-02,-1.215257289445905234e-02,-1.291671234040500105e-01,-1.940426524093390448e-01,1.201464960236905688e-01,6.909330451360476411e-02,-2.913555141349114530e-01,-2.525704556746964369e-01,-1.484211625559898884e-01,-2.807687691640113337e-01,-1.026105623810245199e-01,-9.213282582149494304e-02,-4.309467891279260554e-01,-1.855078096050937486e-01,1.675110598209796076e-01,1.293208769258322455e-01,5.701050640435938177e-02,-6.000319584143003204e-02,-3.416667472575767306e-01,-1.019754189665585814e-01,-3.176515903399800278e-01,-3.472015755419780580e-01,-8.373170340243359100e-02,8.429387942452935822e-02,-3.229956148106001290e-01,8.916283807311545240e-02,-3.332320626480059222e-02,3.083947625785909627e-02,-1.527869543510414485e-01,-8.927982212436520737e-02,-3.492524931492735907e-01,-1.313504166887699276e-01,3.957013246892951419e-02,-4.630313055889343499e-01,7.028048106238508896e-02,-7.162799985193137042e-02,-1.759594731873119489e-01,1.848047521260520742e-01,-2.338688263899723063e-01,-1.845478485900284016e-01,-1.927845491269879474e-01,9.698323376932414808e-02,-3.150533346608932472e-01,2.247692445418503215e-02,-2.755994333885332659e-01,-3.664179762923903960e-02,2.778727082475948018e-01,-9.293987498763532640e-02,-2.998432636852960131e-01,-1.032217129370631842e-01,-1.435478986992135553e-01,-1.412982813120128300e-01,-3.332012945560893780e-01,-1.729085430772820675e-01,-2.430864387057023734e-01,1.563918838871962980e-01,-2.599422801977740449e-01,-3.995973232990518986e-01,-3.440680520387794789e-02,-1.442927057040687133e-01,1.611052655995715704e-02,-3.530919559254735440e-01,-2.054693914347315020e-01,-2.430426828865123734e-01,1.389551764313869120e-01,-3.196348806350516880e-01,-9.839435408722815857e-02,7.593778095803815908e-02,-2.327220044841224189e-01,-1.619111345431503146e-01
-2.521018607041409787e-01,2.885647416869506210e-01,-8.474876227564806519e-03,-1.183705721224322244e-01,-2.103250369800779840e-01,-1.712698114199523725e-01,2.141953302855609531e-01,2.855176206199500633e-01,-1.979595746631805653e-02,2.131721813702767976e-01,3.077669910492111804e-01,-5.068149170823831318e-01,-7.749455210898567037e-01,-2.426107736929637715e-02,5.735236867937913707e-02,-5.494262966934144315e-02,-2.191655738318661895e-01,-8.399618469800106124e-03,-2.613767742515477610e-01,-1.972608931216892070e-01,1.775056905797567364e-01,-3.102946065741706838e-01,-1.805064400932374635e-01,-1.535561969060705023e-01,-2.431198231991350545e-01,-7.798050491079336344e-02,4.380318651286470299e-02,-2.184500546805410170e-01,1.006431558906619728e-01,1.010380611281596619e-01,-2.148412839309228606e-01,6.067153726770778410e-02,-1.579760090121854754e-01,-2.161535385083863670e-01,2.786762100175360635e-01,-2.911584076954624178e-01,-9.610920534391319270e-02,4.561720837783870934e-03,2.453355950875286684e-01,2.322626308924730792e-02,2.259794873975501939e-01,-4.986391142882328764e-01,-1.727376751351602790e-01,-2.557678202391353017e-01,7.448061345100424890e-02,-3.392316319675187652e-01,-1.656629382252732818e-01,-1.780565027911745757e-01,-2.883002816702479737e-02,6.376647302265361916e-02,7.924133127031281199e-02,1.118467024108169700e-01,-1.608029264095281186e-01,-5.736941667383670812e-02,-1.124804532371647126e-01,1.961629264650002480e-01,-2.431584721821388739e-01,-1.265886288093895917e-01,5.827146673413103987e-03,1.381345840410485529e-03,-5.105343658302412546e-01,-2.303021835818874485e-01,-8.363528634974506937e-02,-1.202502611921187486e-01,-6.231028003949182908e-02,-1.027066388564541882e-01,-1.636382079192516548e-01,-1.523083360981629664e-01,-1.550703260646847659e-01,-2.508681312288552623e-01,-9.350270564708859644e-02,-2.160780127888884128e-01,-9.812476901164586540e-02,-1.692571978474246772e-02,-1.603376284102697724e-01,-2.001323372540073087e-02,3.895627513508622547e-02,-1.065778526127624110e-01,3.584067826045915783e-01,8.299427287661553798e-02,1.993407268069937767e-03,1.360409882718052223e-02,-3.279062595172962391e-01,-5.229352866021023602e-03,-3.269574601668864822e-01,-7.175836973538401997e-02,-1.042699258547683111e-01,-1.139107344587192566e-01,-1.541034134938405742e-01,4.200986682767070962e-02,-4.194063418224965312e-01,1.136304996359861624e-01,-6.475824226652450166e-01,-3.415266596967701795e-02,1.042815246728908685e-01,-2.566150043834843908e-01,-3.426782559027284902e-01,-1.328572170990888202e-01,-1.798893442549341082e-01,-3.240448697492595564e-02,1.795966849907458529e-01,1.091931641768940503e-01,-2.621287124455978224e-01,-3.755307463021289455e-02,-2.904338680127983019e-01,-2.320170675774210212e-01,6.500986923305333842e-02,-5.584781932364499268e-02,-4.039963502393831285e-01,-1.885020169628432163e-01,-1.090541663002621842e-01,-2.753763269321984342e-01,-2.837267144069594016e-01,-2.500556041988598044e-01,-6.183952821993345117e-02,-1.187421016690454328e-01,-2.818724100487896012e-01,-3.542908957604796183e-01,2.073081017736538301e-01,-1.133041407252529525e-01,-1.253933568057316039e-01,2.920170809184590571e-02,-4.490882251975295558e-01,-1.238860905184570177e-01,-3.520593575955602850e-01,3.088531467754531690e-01,-2.175792070970350156e-01,3.577244139063662787e-01,5.383098185160064414e-02,7.215878572902280526e-03,2.613841964630452264e-01,-1.786953751190923090e-01,-1.775899890248101576e-01,3.514454728183299403e-01,-2.979597010189153905e-01,3.853590933289937487e-02,-1.777356196203192795e-01,-1.043120629879588784e-01,-4.498709142892189095e-02,-8.698432581133264119e-02,-2.710805690565796788e-01,-7.319606869293464324e-02,1.819046395909978964e-01,-3.429167772618283982e-01,-1.458562502850300757e-01,7.534265004750631545e-02,-8.540680792757333883e-02,1.534578688221165388e-01,-1.894557375728198878e-01,1.003264589051863359e-01,7.362357691630566636e-02,1.020767946515997032e-01,-1.578203089697047812e-01,4.545189356234978495e-02,3.389251354081309654e-03,1.169097394621359115e-01,-4.770212896978615058e-02,-1.843942567368198754e-02,-2.580388808394575295e-01,-1.094026878400780334e-01,-3.302442397440100152e-02,2.210473312603938312e-01,-3.375766683248793143e-01,3.400978504871863262e-01,4.912740639049589797e-02,-2.997345295516142677e-02,5.033586991684341205e-01,2.034739097059196089e-02,2.890277472137213199e-01,-1.167600038267129908e-01,-4.984882868477965023e-01,-4.963033683078454938e-02,1.689643179404283491e-01,-1.736263830915631134e-01,-9.181625467028048382e-02,-1.902159519622069195e-01,1.190085469930347029e-01,-2.186048160378510907e-01,-9.862217437392119257e-02,-4.006931399900255375e-01,3.153467315600430032e-01,-9.608720317494437446e-02,-2.858003101830172699e-01,3.530650560304288837e-02,-1.087687694483535084e-01,1.622931988345663323e-01,-3.331046143907041845e-02,3.922817963435441535e-01,1.522439416174155846e-01,1.398907199296826054e-01,-1.987930334885844308e-01,-4.899879889018340373e-01,-2.920673155035894419e-01,2.133104621949687488e-02,2.963513615841133486e-01,-3.551473191256360740e-01,6.802164807067696828e-02,-3.492883677707216139e-02,2.619264778957184833e-02,2.148106416284438491e-01
