3.724632900289047421e-02,-3.047529303702881456e-02,-6.801250811049797639e-03,-7.174948584357643266e-02,-1.661081629952340100e-01,1.391851114763602570e-01,-2.396050982905346960e-01,-1.890649389137564751e-01,-8.182023936911942963e-01,6.988455718788073867e-02,3.262857897530442308e-01,6.573891205805402344e-03,1.781741466398746032e-01,-2.222899980443129170e-02,-2.780981160915952863e-02,-6.874142632905849704e-02,-7.011771181731250857e-02,4.023107760771780367e-02,-5.471519581173255320e-01,-2.736468546120133724e-02,1.057003046118711737e-01,-2.536880851414162752e-01,1.864949098460439159e-01,-4.535456252882104078e-01,1.980387707331556779e-01,-7.383967389937319548e-02,-9.783469270548967867e-01,-1.748020838539728894e-01,-5.932678135218530935e-01,-7.894439534985117635e-02,-1.751522353296536549e-01,3.177871329717948251e-02,-7.269172835007703393e-02,7.317896757481892611e-02,-8.119170664931167902e-01,-5.768667362571934243e-01,1.922258106208184492e-01,-2.418902489460166561e-01,-6.702540093013653610e-02,-2.310165294184967077e-01,-9.714222456488494362e-02,1.178614290635230655e-01,-1.799895047685500238e-01,-8.444941830874674871e-01,-1.412851182753942503e-01,6.340392112043483075e-02,-6.488463053654661694e-01,-1.392173978240534016e-01,-3.880934361025547023e-05,5.543557806614783923e-01,1.087779960184308004e-01,6.123510409366846874e-01,-1.118819290984263415e-01,1.786331996461258120e-01,-2.586858945042652125e-01,-5.325316097904574386e-01,-2.487419001154005105e-01,-5.088300289591976000e-01,-2.374329479635137186e-01,3.376953590934561045e-01,-5.799036154073193838e-01,-1.165799125097075173e+00,-7.427152904624004237e-02,-4.166248267188792792e-02,1.483278197873249549e-01,1.635616914217221107e-01,-1.605762148266555167e-01,-2.792958441569297623e-01,-2.192739652857194632e-01,-3.048041358145930357e-01,6.764126796895339466e-02,-8.576083248731780628e-02,1.718012409997392298e-02,-1.389794906473965606e-02,-2.964913906723392126e-03,8.971524015838895361e-01,9.946725718003356434e-03,-3.578666936998378678e-01,-1.191624834541293310e-01,-3.302293588013929804e-01,-5.783912141778094762e-01,-7.352667402663104479e-03,-4.844011409681722169e-01,-4.024732096647217761e-01,7.119132195046007361e-01,4.945511354263296688e-01,-3.806977796551789806e-01,-2.607861253714270910e-01,9.536433007301760301e-03,-3.478388086070031693e-01,-2.506540284474397251e-01,-2.733395057311068244e-01,9.191495600605151250e-02,-1.005238973808704750e-01,-1.933101072951619870e-01,-1.100279436698768099e-01,-4.075460347794118698e-01,-2.315964179954392854e-01,9.293807980564353088e-02,1.096767484867890996e-01,-2.993643483662127291e-01,-6.460261004450653655e-01,-1.132333748882179691e-01,-5.977572933582481207e-01,-3.430692155595503612e-02,3.678604655613242347e-01,-1.875755779057673156e-01,-5.257559117632898404e-01,1.137798940356804858e-02,-5.531869424624616394e-02,7.687835002272044860e-02,4.701430925898608670e-01,-3.244739952821638906e-02,-2.963976427472821973e-01,-1.827799154721373998e-01,5.756581447656157202e-01,-7.077653086565662832e-01,-2.448680280417740718e-02,-3.070151395479356338e-01,4.742828466243639851e-02,-3.986089405094314642e-01,5.568654138457328484e-01,-4.443654539288287575e-01,-1.918750471269832780e-01,-1.559767538261653541e-01,-4.747814779566663645e-01,-2.775093472044928150e-02,4.083376604833392765e-02,-4.322135631414363299e-01,-1.521126864235176623e-01,-4.746189862592326558e-01,-1.698063605902121742e-01,1.591852504771532062e-01,-2.782556554446025676e-01,2.977990650909233539e-01,4.789967217971782126e-02,-4.781944546062316670e-01,-4.218910952472355036e-01,-6.097025856436153468e-01,-3.390638739674641244e-01,4.603298616075755106e-02,-2.776327753276819355e-01,-3.971689708835097199e-01,-4.311269274793610440e-01,4.615844834785979948e-03,2.970577924959366123e-01,-1.099394783951258558e-01,-1.638811743857750969e-01,6.663427195752482657e-01,-3.400299304415986268e-01,-7.415798112767771899e-01,-6.421417906117173890e-01,-1.053957281376658728e-01,7.202552534905622139e-02,-6.870135675426676247e-01,-2.110106877697572603e-01,-4.590209581369233405e-01,-7.938456120721050224e-01,-4.592117897698607537e-02,-3.044007647041842568e-01,-5.088024341800220784e-02,-1.905380687247667515e-01,1.392353302614946498e-01,-3.097164553165062673e-01,-2.402029999412574057e-01,-2.927413130940418884e-01,-4.607688675843633064e-01,-2.752741690018060128e-01,-4.386730778089397154e-01,-1.754059983895497610e-01,1.966740799801688921e-01,-1.260635740458185827e-01,1.170370350677644722e-01,4.928580521030389572e-01,-2.191372136821026495e-01,-2.869195139284752300e-03,-1.448016100718555188e-01,-4.859076054830758773e-01,-2.650052535549521915e-01,2.005630258997138926e-01,-4.708482495340798324e-01,-8.179874185397760511e-02,-9.378132828983509750e-02,4.997676459665686965e-01,-2.203099386573462437e-01,-6.034937710681285150e-01,-3.560577459207307505e-01,-1.056864788692516988e-01,-1.023318160319210968e-01,-2.949859208509932051e-02,1.006659454811786591e-01,-5.590512865899708306e-01,3.687546830132239495e-01,-9.350680536245922769e-02,1.408950298336055507e-01,-1.106810643731377386e-01,8.173775240487789195e-02,-4.811294296344882926e-01,-2.779190847779039464e-01,3.313979768778324009e-01
-3.024645060532181115e-02,-2.707793772000580482e-02,-3.124878887661768773e-02,2.108926186268047231e-01,3.784410058199703664e-01,-1.890583714946678373e-01,-3.871700994450860689e-01,-6.347427132395188076e-01,-2.246920133417023568e-01,-3.050844622771515802e-01,-6.965925933513293644e-02,-2.171171714605395209e-01,-3.127850157097378236e-01,-4.133462297405406799e-02,-3.659020600984774219e-01,-1.554170640573412088e-01,-1.802122215681352946e-01,-2.406349406595384710e-01,-6.644878581079181057e-01,-6.665286817054118240e-02,-7.086835346244297895e-01,2.178631873555848808e-01,1.451843693284985207e-02,-2.535119004090603534e-01,2.576589914491862476e-01,-6.855580265644419663e-03,-1.600661142097688922e-02,-8.956931752810687319e-02,1.463287607779887589e-01,-3.354416366679183886e-02,-9.342713116829488851e-02,-7.140074958691754459e-01,-5.921143936143334896e-01,-2.699946684871511460e-01,8.216663378993985245e-02,7.893227757079483708e-02,-8.593589349420004408e-01,1.602446829664495309e-01,-2.312475932525325240e-01,2.094808795979022364e-01,-3.025764877107020023e-01,-1.887185530830867430e-01,-7.631549045694644429e-01,1.257551750882133224e-01,-2.366935717295383934e-01,-4.218041446342821743e-01,-2.942340952741313020e-01,8.989386003256176483e-02,1.044098132229279451e-04,-1.764041154835996605e-01,-4.005939524707790023e-01,-2.795863475046640456e-01,1.548190134577005217e-01,2.290480461436671111e-01,3.280963195800618015e-01,-1.230505868357456706e-01,-4.925486604678717129e-01,2.360856047638072441e-01,3.298555523212133300e-01,-1.510131553035372054e-01,2.513031815974395289e-01,-3.409030454953625444e-01,7.641223886686231426e-01,-4.844893258047501816e-01,-1.018024422445967664e-01,-2.958162121842049241e-02,9.559140295635328022e-02,-6.558273399349706656e-01,1.819445169162260401e-01,6.085044755828820096e-01,-2.038755665808852369e-01,-8.703146158867165749e-02,-9.756971263749791845e-02,-3.302305329710622517e-01,-1.419412791667444274e-01,-3.815970272223523363e-02,3.075349225396525332e-01,2.169039779245314770e-01,-9.802478571125644580e-02,-2.024015903163401409e-01,1.408242105626472673e-01,-3.826752793723089408e-01,3.087004497197596842e-01,6.565112836570911881e-02,-3.622955245922558909e-01,-2.936175001604565682e-01,2.752905650784889247e-01,9.178786154131074460e-02,2.668243754798193743e-02,2.713214712169479959e-01,-4.014970108914710234e-02,9.234089727188431879e-03,9.380817970745665424e-02,1.170160819676285650e-02,1.202536346540506867e-01,-2.575481331012351993e-01,-9.827386436488043386e-02,8.312565377084892015e-02,-7.721352911132634000e-01,-1.157227095414391366e-01,1.131503107816670406e-01,-7.361125495925308071e-01,-4.708013627850467231e-02,-2.459929051671922440e-01,-2.377206300118651916e-01,4.103816658542547985e-02,-3.589267512782363112e-01,-5.161515487933761026e-01,-6.180398425637911863e-01,-1.105574950479982221e-01,-5.656037363971588156e-02,-2.022143533860949749e-01,-1.234022057769683933e-01,3.510674020226190600e-02,1.426092091576400822e-01,-9.172565252875940212e-02,1.948763547313721312e-01,-2.670525021665185461e-01,-1.754388531417286623e-01,3.013482795226065103e-01,-2.457015889930193597e-01,-2.803707022782176983e-01,1.708799329448933702e-01,1.629747095939666768e-01,3.995496196192303562e-01,-3.123027709815591191e-01,2.696364064821581974e-01,-5.119789814951410944e-01,-8.130807379511136024e-02,7.435647380253219974e-02,-2.734195755815070905e-01,-5.003094670078400696e-01,1.955837010429085365e-01,-3.384406700943791146e-01,-4.723571013708429689e-01,-2.057757997163153166e-03,-2.108832547378950983e-01,5.058394105267651764e-01,7.440910629396668696e-02,-1.488972727532985874e-01,5.747080983497802054e-01,-5.725417381932987326e-02,-3.613288540015900940e-01,-7.351518563141162810e-02,-5.780506909039154761e-01,-1.876458171565516253e-01,1.632439217178724422e-02,-9.083173605919503402e-02,-3.016910150963570403e-01,-1.524413302236988198e-02,-1.835768841958750897e-01,-8.778645731607055691e-02,-1.250889439938054348e-01,-6.304140648710727657e-01,2.821996640213856322e-01,-1.376501803127418710e-01,-7.736734534407206654e-02,-7.599137445401991930e-02,7.568490895452298882e-03,6.757938730344315026e-01,-2.834128065309959310e-01,-1.048798470400857108e-01,-4.020344082761625470e-01,-3.751782616867563314e-01,-1.699568077259846766e-01,-2.129946553607114101e-01,4.488074146404252840e-01,4.432203650767354008e-01,1.244786207881575513e-01,6.419834103526416147e-01,-2.268795478802768106e-01,-4.539929162766639936e-02,4.773650383845474271e-02,-1.192433385853578984e-02,-4.690743918047357575e-01,-3.540756643164267858e-01,-1.008535226237379012e+00,-4.531147298700566317e-02,-1.371608065045806235e-01,-4.092846946752457526e-01,-8.029765883735731635e-02,-9.975863915538941973e-02,1.789352409887189077e-01,2.203919413189042720e-02,3.133666048009122740e-01,1.499665822417984851e-01,5.851177107063957328e-01,4.011837106889672988e-01,9.632775668702298066e-02,5.983747600063701322e-01,-1.104429710674187243e-01,-5.467457863685137864e-01,2.225904075980773278e-01,-2.085032040294104161e-01,-2.726184108970614584e-01,-2.777524494636028352e-01,6.255843391687641031e-01,4.073463993753645429e-01,-2.179773812963532037e-02,-4.233751784589603329e-01
9.749292952052965311e-02,1.022969509190846532e-01,-1.027354859009954463e-01,4.020132248055660606e-01,5.680327370125723974e-01,4.639646842775042856e-02,1.592555091893195773e-01,-3.470526929263230143e-01,-8.804224056251491737e-01,-1.663766929085605806e-01,-6.682537225649374246e-01,-1.792568360302840835e-01,7.393352354410102911e-02,7.057541167958122919e-02,-7.312840684759174259e-01,-7.844605797287397542e-02,1.489207059314200665e-01,-2.251057425117761190e-02,4.774918211722390393e-01,9.592016301904686404e-02,6.131559568523835546e-01,-2.583545308244389327e-01,2.919927184970477416e-03,-2.589257951316983331e-01,-6.905526535818281575e-01,-8.924561103143108243e-02,-4.699137263079298799e-01,-1.471747467141872601e-01,6.948329339445922237e-01,-2.435879401838925984e-01,-8.876388231350876290e-02,-6.209708527511935694e-01,-3.815557327515707309e-01,1.021838360372770149e-01,-7.491543665168853838e-01,5.976520170090423578e-01,-1.046042771614726224e-01,-5.109180122097237708e-01,-1.095201675879570180e-01,1.518385876412297053e-01,1.202188879153594375e-01,-6.704243497874935453e-01,7.024730590958710996e-02,-2.034879261859437738e-01,-1.856608615639967763e-01,-1.038818453508980229e-02,-1.050551456109597992e-01,1.145430408365878394e-01,-1.639647957768815001e-01,-3.344201068233721985e-01,2.822555091260719462e-01,-7.968721978609156764e-01,1.011937568925765030e+00,3.311599641269541983e-01,-3.655355513135722378e-01,-3.678983145156130008e-01,9.576891576882404777e-01,2.233119139998070712e-01,-2.381645209675199437e-01,-5.219605319641443947e-02,-1.316840214359347450e-01,-8.874109984028322184e-01,-1.741160036642675213e-01,-7.662288164355796072e-02,4.230554324405692845e-02,3.714960841007210884e-02,-8.376484689039348508e-01,3.643550219197969620e-01,-2.629463531614804617e-01,-1.645274939079024307e-02,-2.230188247032485471e-01,5.396121152105310959e-01,-1.909340377662389343e-01,-5.251479206711723302e-01,-3.061700576546567132e-01,-4.967833133156910885e-01,-3.829296745636195376e-01,5.057509320241809769e-01,-1.157963994701764338e-01,-2.399775955404665623e-02,-4.511514349985169536e-01,-9.144851192099366644e-03,7.733545329731138507e-01,5.154483395029901827e-02,8.716209323721368918e-01,-9.700280991188997559e-03,-4.195050685585922645e-01,1.210217292045909915e-01,2.380247648727559784e-01,-3.247273782416438270e-01,-7.645858827228422250e-01,-2.623578626287672577e-01,1.557286522277175067e-01,1.012863261137628479e+00,-4.571272133303289631e-01,-4.654028104723004905e-02,4.529288382138477176e-01,-1.660023168152271467e-01,2.936333834529646913e-01,-4.511255316297110851e-02,-2.320523857452184147e-01,-4.376707253371068390e-02,-3.333126265402593796e-02,-3.924675497123660817e-01,3.057957376249744244e-02,-6.572949641799777920e-01,-3.025460705248856907e-01,4.951319049887809021e-01,3.455599473316138259e-01,6.988850994090362034e-02,1.667139220697232971e-01,6.813997882253582938e-01,1.331376790431945956e-01,-3.635563604870937771e-01,-1.892277235464206453e-01,5.532674586001294914e-01,4.862388795832782162e-01,-1.721651016695707193e-01,5.859219814783717638e-03,6.938615415667528374e-01,1.126608629489361246e-01,-2.284284594251966838e-01,1.242610804554993981e-01,1.901396990809511023e-01,-2.768782887227261638e-02,-3.822632881279967587e-01,4.052071641602488783e-01,-2.189208449894614050e-01,-1.924638837071798447e-01,-8.749520399569360452e-02,3.698513310871436310e-01,6.482641229123712982e-03,-2.194160731196730107e-01,-4.233009554895905135e-01,-5.253475885945004809e-01,-2.199879525114544487e-01,-2.767145025072761388e-01,5.191958650032322264e-01,3.755786906652486823e-01,1.368217030592126238e-01,3.248535363389500746e-02,-7.508988393754087443e-02,-5.129820446312641780e-01,-4.603696815007862417e-03,-5.313756742546420914e-02,1.342597426124234050e-01,-2.956938149712762809e-01,3.606799618222422121e-01,6.369085034925453526e-02,-2.519764493713478326e-01,-6.763183542788830938e-01,-5.415308178617950219e-01,2.799518896662061065e-02,-2.756929304320333007e-01,1.459047622044594705e-01,-3.941056672972277353e-01,1.348248368973473943e-01,4.247099362580415427e-01,-1.544696803876689783e-01,2.369853447719698011e-02,-3.292002894712347527e-01,2.495656550142460461e-01,-2.550463360433759610e-02,-2.065412539684960691e-01,8.728937045818428719e-02,9.567210260915388897e-02,-5.337960460105133365e-01,8.941763742412457694e-02,-1.019668450096513190e+00,-4.130770003101684185e-01,-2.830184581311113723e-01,9.425803549914439639e-02,-3.449768384738672866e-01,-2.107750973122004823e-01,-3.112135524115739460e-01,8.170349119361730583e-02,-1.429019455918821291e-01,-2.934632405164650515e-01,-2.715097850095093968e-01,9.816836465265407208e-01,4.191062748198060572e-01,1.768218118120944496e-02,-3.929438258892437030e-01,-4.865861241852572072e-01,2.289290292614371281e-01,5.172561551842468353e-01,-2.768165935998710969e-01,5.295349310749113830e-02,4.909291204539346920e-03,-4.383150743186742249e-01,7.504525035861409066e-02,5.041521748779689283e-01,4.761668453114658583e-01,1.784357816979132150e-01,-8.753399384416565843e-01,-1.386942348989370355e-01,-5.954475474111493583e-01,-5.810396213874960969e-01,-2.536832142959197789e-01,-6.402013500224166265e-01
-1.583765392244194381e-01,-3.705532496503296525e-01,-8.666144313226156748e-02,-3.859256520941421464e-01,-2.165200620075583282e-01,-2.987340663774687433e-01,3.717582731447550692e-01,-7.245740274642862300e-01,-5.940027775448590841e-01,-1.025110899883413251e-01,-7.911624329590518645e-01,1.187014790887892975e-02,-4.366289602135335901e-01,9.850736482358160573e-02,-2.952926837242156322e-01,1.228127988519747138e-01,-8.237539475337082306e-01,1.684182466269009554e-02,4.311399554609555707e-01,9.534989729507337142e-02,-1.106982731584273738e+00,-5.298510926752650896e-01,-6.852298493565236459e-01,-4.324023398890174952e-01,2.979935401469250289e-01,3.026386085181774141e-02,3.829818378349726660e-02,-2.453723296584919833e-02,-4.540743455708435850e-01,-3.400744745706514860e-01,5.534689400822761368e-02,-2.650293454085028699e-01,2.430141955607561730e-02,-7.456245937865493834e-02,-4.380935876433809106e-01,-5.450680548436196565e-02,-1.895462008200822779e-01,-5.630583350585718350e-01,1.791617165593624994e-01,-3.157251945549464645e-01,-7.274624845994843714e-01,-4.862329489055856047e-01,-2.973237334842127599e-01,2.198205348372004875e-01,-3.487276821624559764e-01,-1.081083931134034365e-01,6.937294210869955347e-01,-2.075468930794143185e-01,-2.587314176162656687e-01,-4.226645573062344785e-01,-1.004584690552212389e-01,4.794727152310401808e-01,-2.213838504687404007e-01,-2.745722597948997978e-01,-2.405958744339694311e-01,2.811204786914309750e-01,8.796075882645877364e-01,-3.251394809276329512e-01,-1.010629784549522681e-01,-1.053376412204147350e+00,-1.602834493206281574e-01,2.064647699848678741e-01,-1.979340217840322158e-01,-1.894689293528706853e-01,-2.615693755972495760e-01,5.843827370631951568e-02,2.969416621901240783e-01,-7.727554549006654394e-01,-4.953177539293554532e-02,-4.335337267046589504e-01,3.329126736005735276e-01,-1.260006623571327811e-01,1.959075840323377393e-01,-6.021756029170580726e-01,-1.328383380047769291e-01,-4.424542769167486567e-01,-4.775922270992806196e-01,2.806253023208146180e-01,8.858609517278634438e-02,1.483620469780530804e-01,6.695940533594777477e-01,-1.499890942583815279e-01,-2.537700036128643366e-01,-6.704910891197509715e-01,2.599672609727629591e-01,-3.093715503309241166e-01,4.264399191984354909e-01,1.428508394111868418e-01,2.525038848653760604e-01,6.126193539134443082e-03,-2.005144256050843954e-01,-2.107134818060323739e-02,2.817538651066977540e-01,-1.429259745323250563e-01,-5.045067887787996197e-01,-1.831305438434386312e-01,3.178539787562870145e-01,2.035343828549048273e-01,-6.553514307234689085e-01,6.628205047556247863e-03,-2.809373115382557962e-01,2.752264780601726413e-01,9.036890323297427363e-01,-2.436612694199364049e-01,-7.839150319845382409e-02,-7.677342960974137265e-01,-4.721165429709012554e-03,-7.187889638468170084e-01,1.211969862871975154e-02,6.120287907424035861e-02,-1.450632157223426255e-01,-7.422529768126486793e-01,-5.276672283806169150e-02,-3.102182671582822682e-01,-7.812644749591728111e-02,4.336490818694781202e-02,-6.905951225579437525e-01,-3.520285165978495612e-01,-3.005639677965797271e-02,-6.300772762872862698e-01,1.510875967136346976e-01,-4.550888622998802147e-01,3.905378175057578477e-02,-2.292585036318003366e-01,1.054305837903365850e+00,2.343203113626713130e-01,-4.905301284295529585e-01,2.358683624373330567e-01,4.507561718129716177e-01,-1.683803164845263656e-01,-5.925310238962869791e-01,-1.502210640819392484e-01,6.003049479797514243e-01,-8.032489171339168843e-01,-1.932959728964950968e-02,-1.703216743569282987e-01,-6.281032151015880638e-01,-7.103260580095033250e-02,2.309216740726550421e-01,-7.890315904797058355e-01,-3.904540135390207473e-02,-4.467681505831852529e-02,-2.403328076611795094e-02,-1.459460351184613536e-01,-2.208862666657845641e-01,-2.576531154008348534e-01,-2.905067805240714174e-01,-4.710489901970330573e-01,-9.527332352694097353e-03,-3.094572438828464001e-01,9.227372547094895294e-01,-6.792102380363178593e-01,6.387826107140612275e-02,-2.639718497998455593e-01,-6.048448080931367182e-02,-3.084848240171699785e-01,8.073611978261192867e-02,-2.112548314384395387e-01,-1.359530533024509436e-01,7.243231672879518745e-01,6.910826923270020350e-01,5.504954479994008665e-01,-2.811673022716020265e-01,-2.470091350651680007e-01,8.373547533009245702e-02,-6.154056695444541647e-02,-4.901948214874772281e-01,-2.603483913444453179e-01,6.568560527160204332e-01,9.688443645470422583e-01,-4.639711849573622260e-01,-6.968565541700225685e-01,-6.475232814014207916e-01,-1.798423002169295959e-01,-6.355319041756717080e-02,2.026613687934604446e-01,4.768248418515883685e-02,-1.345694681979407448e-01,-5.465287205505970913e-01,-9.519082974300686617e-01,2.790556467572659072e-01,-1.147036866000831906e-01,6.561630778705794809e-01,-1.338721895096569026e-01,2.433262181592788231e-01,-5.297131653382045613e-01,-4.166600930585045437e-01,-2.619668890993782639e-01,1.039635202409934095e-01,-3.424410393774888761e-01,-1.178177505336239356e-01,-2.697638537480803733e-01,-6.727930423615736955e-02,-2.809510665475942193e-01,7.013701413204537216e-02,-2.335352486703855535e-01,-3.334052762093739786e-03,-4.313414182161978139e-01,-1.915622365555782747e-01,8.499153767454980385e-03
-1.782348555159391501e-01,-6.828679171323210895e-01,-2.240426892936871542e-02,2.634933346398455820e-02,1.483558715590024002e-01,1.979621497603817615e-01,-7.146186622469948846e-01,7.104718127358475854e-01,1.818725894270161458e-01,-4.708185716398132770e-01,-1.202455324575191081e-01,-3.580643708889436061e-01,2.216891261438922733e-01,-4.637475503180102931e-01,-1.733370017581180034e-01,5.348767083277496809e-02,-2.074735196265119208e-01,-2.104914209694653815e-01,4.250589045087608403e-02,9.428026932003380489e-02,-4.050320948881234312e-02,1.403232924414652971e-01,-4.254265776120850218e-01,-6.901902251495929397e-01,-5.787151764763067696e-01,-3.672713266110985697e-02,-2.823200888197643921e-01,-1.189808605333128461e-01,1.068374443694564691e-01,6.249904243434797890e-02,6.769722631641991173e-01,1.636330840906727035e-01,-6.104465551409843371e-01,-3.306357072712038381e-01,4.328821040445137158e-01,-2.696342323006766240e-01,-7.793089702466013402e-02,-1.497696055069399346e-01,-4.926721609821241299e-01,-1.020609408618469438e-01,-2.552474315911902325e-01,2.863399345746143743e-01,-6.146084958518743813e-01,3.750353211284562227e-01,-4.387151482754069742e-01,-3.396563917302875546e-01,-1.188322843865545764e+00,6.441110107045064925e-01,-1.814745291710988528e-01,-2.908042863925877630e-01,-4.940960968052301450e-01,-9.344262198913556583e-01,-4.419904679245936774e-01,9.457826962259149872e-02,-6.868396898698464481e-01,-2.778415129834481689e-01,-5.203006533485199370e-01,-2.871614702495474125e-01,-3.702963557468461064e-01,-1.267142495089118304e-01,7.121766798695443323e-02,-1.415183854186918000e-01,2.172495958199500976e-01,-2.422734627186517997e-02,-9.115371580892585313e-02,-8.864815158746665313e-02,2.497699379389421437e-01,-8.156491997022030649e-01,-9.209679388354084784e-02,6.694135866996809847e-01,-7.594865369175630709e-01,-7.017478980159185253e-01,-2.522926185348670081e-01,-2.467168132768183808e-01,-4.730535484952088643e-01,5.601342881476601976e-01,6.272538715425370059e-02,-3.381381648163100384e-01,2.949681456760145370e-01,2.344755903418023757e-01,-6.106985095839552458e-02,-5.953641996230051026e-02,6.202336034308230869e-03,-6.703624625613487931e-01,-1.564693931402534322e-01,1.820268725756644113e-01,-8.161709110390434896e-01,-6.509703398116651885e-01,-1.020175870068610047e-01,-3.873188473957050321e-02,1.534355392169727550e-01,1.065604899008515682e-01,-9.174961762919185970e-01,6.012260788743377660e-01,3.953448740675241102e-01,-2.753269821897542657e-01,4.211279425130303733e-01,2.584142852842965521e-01,-4.780545953215885602e-01,4.381227144196835760e-02,4.964221153518450502e-01,1.943783110365043532e-01,1.995822345194178324e-03,-3.002507556538168421e-02,-1.827051084902282102e-02,8.117781388656991615e-01,3.307027391624921264e-02,1.093025159954340575e-01,-7.867092470589204245e-01,2.678571559858319504e-02,-3.578926529475648377e-01,-5.676120453578373248e-02,2.830371860995559707e-01,-9.735050110362454268e-01,-3.692326865949974724e-01,-2.655807476502952680e-01,-7.272183422039664169e-01,-1.148350783418667087e-01,-4.477195133456696730e-01,-2.952372830807921678e-01,9.067330889493503687e-02,-1.602674720727604585e-01,5.543640812705857325e-03,-1.451997006221808773e-01,-2.008739030372378997e-01,8.127422751144830829e-03,-1.392753360902071191e-01,-1.080795504263708740e+00,-1.261951234192440208e-01,-3.036792745539813876e-02,4.335218615744995674e-01,-8.267655619049431304e-02,-8.010738978714837533e-01,3.875836300280330327e-01,2.093884537161113182e-02,-1.440830192083303318e-01,2.522087104235944399e-01,-5.296095956335102883e-01,-6.854680296494825020e-01,2.395052735975426450e-01,5.698293135358442063e-01,-3.625774053610091308e-01,-2.546312024021247788e-01,1.623943510587937400e-01,-1.675671956489251449e-02,-1.447168059802648454e-01,-1.689816982928224742e-01,-9.308605497897194381e-01,2.156467767598329310e-01,-6.587853069261978556e-01,9.227329305727874353e-02,-2.332865834957967288e-01,-7.352810513043579466e-01,-2.124590056171516139e-01,-2.458675160193564690e-01,2.258340372541589591e-01,1.133628938767668737e-01,3.067512947800433154e-01,-2.558858771128600940e-01,1.409998984141718481e-01,-1.291315487010229468e-01,-4.669126396913264032e-01,-3.323381419174102347e-01,5.264417479668546118e-01,-2.072106260058788341e-01,-8.884604633583390587e-01,1.563460339112368036e-01,1.440491935169311843e-01,-2.269220494165077040e-01,4.481928951985201387e-02,-7.681497294921206809e-01,-3.243368723733494607e-01,2.888847663683956624e-01,-1.301923162077160689e-01,6.092994560611358912e-01,-1.928833406929266747e-01,-4.824203613867136253e-01,-4.965407978838408676e-01,8.492028527944472938e-02,-3.455905508172282259e-01,2.375960623350456824e-01,1.257116017963927079e-01,1.038433938209880336e-02,1.197941916195291445e-01,1.979623578509662751e-01,-3.228656986475336721e-01,1.814204580522109367e-01,5.462925965898939307e-01,-3.198289291778070309e-01,-2.433782986158047612e-01,-2.509954210118976459e-01,-5.204059150666168199e-01,6.340581667011134792e-01,2.302978040165488613e-02,-8.440996048601806523e-02,6.902577130141983597e-01,-2.941361025686625719e-01,-3.024262708860894766e-01,3.675414557876302557e-01,2.099016848983727840e-02
-1.339806367477729479e-02,6.545509810607711421e-01,-4.250954240087609880e-03,6.821770096913158665e-02,5.694461451595021068e-02,1.759029462130365651e-01,1.463005624138193073e-01,4.475149938393790383e-01,5.429067184859239781e-01,4.270682215124649295e-02,-1.724722612739724992e-01,-3.071576036609541260e-01,7.903893827918011539e-01,-4.903094701672398165e-02,2.013603058334886564e-01,-9.978083129105484728e-02,9.709613514068866913e-02,-3.903301600707643430e-03,-3.473195230835903757e-01,3.854156272479169337e-02,5.720761357070989206e-01,1.220868347027215112e-01,7.811810166237174169e-01,6.540647634494335394e-01,1.512479864206365821e-01,-1.070787878097508444e-01,2.980182279010260560e-01,-1.491403647698130441e-01,-4.732056511891092332e-01,3.505482238309231002e-01,1.800201119253746762e-01,1.223536950170714260e-01,-1.603691217874204239e-02,-1.245423388244947110e-01,-3.635280816484179334e-01,-3.643628861821765486e-02,-4.278887150408000051e-01,5.363304888537147042e-01,-1.557698258879586795e-01,5.050622496085008795e-01,-6.784108861350289787e-01,2.794532372689915722e-01,-1.715206687245219019e-01,-6.817364157349343756e-01,-3.746558264560004292e-01,3.070133403623461210e-01,6.940470884117211359e-01,1.689789728243457634e-01,-2.253663857566063355e-01,-6.827453212277455608e-01,5.393721755258527178e-02,5.303843074837084615e-01,6.278792500870581383e-01,-2.796697860901494262e-02,2.850995999555432925e-01,4.484274082656782845e-01,-4.212517749027689939e-01,7.885296619825706010e-02,8.510503145703081085e-01,8.216240062170081515e-01,1.345425129141835097e-01,5.526126170927779802e-01,5.645406801246785448e-03,6.454309131581906223e-02,6.232860481815731199e-03,1.268219427964690227e-01,-5.335709582373385218e-02,3.212202475336637941e-01,6.150412120616818856e-02,5.774750611412539369e-02,-2.782049687302697860e-01,-3.152273273020717581e-01,1.602731282791769740e-01,1.277172459563671036e-01,-3.044467779621187753e-01,-8.679304150832211073e-01,8.314863650121116778e-02,-7.657942697439962254e-02,-1.168972049908900968e-01,-5.814092927977609210e-02,5.157492114511852410e-01,1.449594613459582841e-02,-4.991021404720286103e-01,-7.286839601762280794e-02,-5.925509787252924987e-01,-5.786005301462952000e-01,3.290222540827900111e-01,-1.247620620939730446e-01,3.757804500426056293e-01,2.278118593834843608e-01,4.802342876215506817e-01,-3.899178427021218196e-01,-1.565315904168634309e-01,-1.020753976948464009e-01,3.472148445086175039e-01,-1.081520784133676721e-01,-3.634444995896555231e-01,9.403291954091540228e-02,1.629489296527040013e-02,3.351251149052400513e-01,-2.586156276484150585e-01,-7.828413923392111284e-01,-8.234709992173439019e-01,2.388754246465791264e-01,2.417136369794305184e-01,4.404253421252788958e-01,5.150138492492363218e-01,-2.508558245554301513e-01,-1.651152677481997344e-01,-1.486316012563785538e+00,-7.674672705634681680e-02,-5.260017650919659449e-01,-1.566597701574761956e-02,5.884413957642924409e-01,2.686946329252065113e-01,-5.668969130740453277e-01,1.247277375772576080e-01,-2.456766380178849185e-01,1.807991962777861783e-01,-1.449783995268681402e-01,-4.914852256130016750e-01,2.687945336274223385e-01,2.792479640002912822e-01,2.257084769723012307e-01,-9.555838542106885602e-02,-2.643743809977523451e-01,1.407761743032613366e-01,-9.312779171221712005e-02,8.577417577771727641e-01,-2.124522013393806974e-01,1.753218822266167098e-01,-3.037732455634057915e-01,-4.899741571776971560e-01,-4.782852358943863735e-01,3.045155170537726108e-01,-1.172398493320217921e-01,-6.537525938546493443e-01,4.600754725663149802e-01,2.374272662606289608e-01,-4.526735433655804663e-01,-3.599280287196952866e-02,5.250235476743597696e-02,-8.938486078235392818e-02,1.123785583724882728e-02,-1.108036581171668450e-01,-5.334498044360374003e-01,-3.177604708459328964e-01,-1.487241568225348420e-01,2.424046249043657411e-02,-1.062547936269609555e-01,8.912271119596232305e-01,8.163807305585005780e-01,-3.819071083510187925e-02,5.458217904670306098e-01,4.889082558035572068e-02,5.079526935397570171e-03,-6.222908376196945035e-02,-8.497886093260815787e-01,3.797232467478744988e-01,-9.320230161347060616e-01,7.681337211878649374e-01,-9.014327892877758153e-01,-2.401801493973529100e-01,-4.297578417914069693e-01,-1.813403071958109292e-01,2.039990182299687149e-01,-4.084696844544851158e-01,-5.308578183600744238e-02,-5.237934138436577403e-01,-5.442902211504198062e-01,3.266871625148732861e-01,-1.820738525872274416e-01,4.216624389378970661e-01,-2.638954069722254658e-01,-2.801397690278761288e-01,2.874317810189807587e-01,-8.278329084461492071e-01,2.198946697923423177e-01,8.923582049062142030e-01,-7.261055802473802279e-02,5.276232460329834950e-01,6.125190990846825917e-02,-1.164648860781561795e-01,-4.173053265993153516e-01,2.396601536675427579e-01,-7.604366786677873025e-01,-2.952997216116929891e-01,-3.770455072690999665e-01,2.122312931916562617e-01,6.830473517478520273e-01,-3.260517564195819940e-03,3.812359922901835119e-01,2.559253396468110786e-01,3.039218155790405773e-01,-4.895707944941111722e-01,2.891036351110940275e-02,7.255721350551829207e-01,3.594842310525689366e-01,6.426101332382043729e-01,-1.696288888040459186e-01
2.192912292791991957e-01,5.626598019410252588e-02,-2.861387044159763304e-01,5.455064691979948088e-02,-2.574044670408875413e-01,4.266043310886533102e-02,-6.812413293468198849e-02,-1.024411896543764300e+00,-5.406799315443373555e-01,3.271688091985905933e-01,1.936506366634591636e-01,-2.209983799979862717e-01,5.882244057676146859e-02,-2.991632476762999815e-01,2.436235255685369715e-03,-3.726847826829650656e-01,-2.604959275196275792e-01,-4.014946682442547266e-01,-5.893840256854806503e-01,-2.550084376159121868e-01,-1.593043517377649432e-01,-3.758432137969169307e-01,-1.745315168693896135e-01,2.662940369800886192e-02,-2.359827550292624143e-01,-2.833909204252871850e-01,-8.187344451538598744e-02,-1.132168358163712640e-01,3.003100834085869475e-01,-3.566634552931872149e-01,-1.569131130114153339e-01,-1.183778170828526211e+00,3.052197317967358936e-01,-9.769956773898856237e-03,-7.877046549732032998e-01,-5.567333821708646546e-01,5.216397616030598455e-02,4.266413741558567341e-01,-3.226343829021791620e-01,-2.244505324095665277e-01,3.255538365671139384e-02,1.412465389810453886e-01,-7.245270768583911281e-02,-1.946208230822722429e-01,-2.854208498222826629e-01,3.950968624714954608e-02,6.872589596323765981e-01,-4.697711452793731923e-01,-1.132085325070986137e-01,-1.273859799995327169e-01,7.205831964237316423e-02,-7.081331823089222210e-02,-2.547306295689702460e-01,4.432328408002685766e-02,-3.448498892283378137e-01,-5.024526968683525885e-01,-1.107752257004401608e+00,1.042962202117910311e-02,-8.002166541242814249e-03,-2.097420468194965970e-01,4.687531757568820234e-01,-1.160149015491000579e+00,6.584958550368534558e-02,-5.442702281300166450e-02,-9.628601635990835517e-02,9.034074102935457651e-02,5.881857125740821979e-02,3.269535154527393461e-02,-2.499056728549388373e-01,9.624438511501895444e-02,3.407428587550324628e-01,3.706404909115815216e-02,-3.364065755690264226e-01,2.385805374180476335e-01,1.858002874641236091e-01,-5.509119274366306440e-01,-4.680691752279411699e-01,-4.585835038335067670e-02,-1.523673744458736989e-01,-1.857562990525007951e-01,-2.600425513182088588e-01,-1.053795218251381699e-01,5.691596408082444380e-01,2.423224200828081043e-01,-9.459601778057729060e-01,1.155421345352546231e-01,-2.910929345914827215e-01,-3.365410534460964720e-01,-1.197587901677365924e-01,-1.916520027371501622e-01,2.727374236413662723e-01,4.163637510532189889e-01,-8.598926870023861913e-01,-3.696988110438764186e-01,5.856205533556962939e-01,-5.063342489517086431e-02,-3.061605766422388908e-01,-2.187403980345852261e-01,-4.371497189903451874e-02,-3.804951943375700640e-01,1.549496554762672465e-02,-2.757450071683149595e-01,-1.392442553403188676e-01,-1.372441745069560015e-01,-2.616171771506243041e-02,-2.240001136090396250e-01,-9.110334445023776651e-02,-1.473200787101741349e-01,-6.100930120012253433e-01,-4.518323685137731194e-01,1.189318028391320170e-01,3.235415002523838734e-01,7.848927526297533319e-02,6.398898606210340345e-01,3.763173379452492556e-02,-4.864702789737644917e-01,5.147403787035579326e-01,1.601711123078404242e-01,-1.413108184443581938e-01,-2.561316115633004431e-01,-7.214678951930779682e-01,-7.830478678079706711e-02,-3.968025256913654264e-01,6.451997843612003458e-02,-1.940499014869962180e-01,-1.664053504122330607e-01,3.733591082373646786e-02,-3.012798031261752496e-01,-4.981696316167393279e-01,-1.088673064313087045e-03,1.166557141494622973e-01,-1.422524204424036320e-01,-1.066805117200654990e-01,-4.292305749998520659e-01,-3.177865227084026856e-01,-1.633564582036755308e-01,3.320528516329112612e-01,-6.278271732810125627e-01,-1.058451107033066829e-01,5.181856617028015588e-01,-5.122572969234875234e-02,-1.672376736127574037e-01,-2.082601705030061590e-01,-5.308700293678550453e-02,6.006591922127318267e-02,2.987438404196277597e-01,-6.351955426378752545e-02,-9.571563789688425361e-02,5.018005648425640786e-01,2.207722403060160751e-02,-8.845706605978399528e-01,3.346312582425979842e-01,7.029671574205938363e-03,-4.288439003225660157e-02,-7.163078190100397036e-01,-3.483851078495314724e-01,-9.236486691871460819e-02,-3.472995580765604329e-01,1.674318351983333508e-01,-3.144592473990825421e-01,-2.840647455593850457e-01,-5.056326504683684719e-01,-7.560037327907509486e-02,4.154410525100464546e-02,-4.743688605620339227e-01,-1.046171530183704484e-01,5.526794064325278866e-01,-5.448208430352129150e-02,-3.766036000823270169e-01,1.715486499730239922e-02,-4.469520542381741346e-01,-1.473243581153251547e-01,-2.638589185438379725e-01,4.660265354180069541e-02,6.756395052136185964e-01,-1.660619036949284033e-01,-6.046153405432950351e-02,-6.531473648518341946e-02,-1.106366834027688456e-01,-8.013795551186497779e-02,-7.077210728766675230e-01,2.083404801856380273e-01,-1.525178884814659130e-01,6.400283015727281644e-01,-2.388571615332405473e-01,-2.780051240842235094e-01,6.938370884921057913e-01,-4.357460758175110138e-01,-2.176378618084796601e-01,-9.783113439562524105e-02,9.651024771269712393e-03,-2.492329143975228339e-02,-5.408097893172192361e-01,8.027933653700029815e-02,2.792699051228945684e-01,-2.708599923405954901e-01,3.570424067516482225e-01,-2.873540070854553874e-01,-2.508814161140285881e-01,-2.048726462905229306e-01
-8.700719962255297479e-02,5.761900640578721672e-02,-1.913624901724659544e-01,-2.977363090743541385e-02,2.283685038761761738e-03,-3.000285612698247451e-01,1.845254538530898547e-01,7.893721154555013442e-01,8.952035052973220108e-02,-3.480206973902467693e-01,5.175464739446156842e-02,6.224793076457131313e-01,-1.108280965374231597e+00,-2.570172216894260273e-02,-7.638928147988794937e-01,8.118941980158013438e-02,1.604917419020583380e-01,4.729517487411227794e-02,3.743449964678508546e-01,-3.692328854495048884e-01,-1.185518147281798385e+00,-4.449629618484489124e-01,-2.395161913721447766e-01,6.553144735909486318e-01,2.608720774357471406e-01,6.026806220508167111e-02,-3.993754836602311786e-01,-2.696110273418113601e-01,-6.515892030161470894e-01,6.356971301650515827e-02,-7.244884061826595278e-01,1.766848114954096549e-01,-2.746402207839575005e-01,-1.172458582305365843e-01,8.828845335164005048e-01,2.239961778631158473e-01,1.092758113141561738e-01,-5.496330883054457717e-01,-3.460034827760610776e-01,-1.373227930318621226e-01,1.941779266008634985e-01,2.606292987687686136e-01,-1.638594015481331656e-01,2.029982113100935182e-02,-1.145810859914008772e-01,-4.700428403104183750e-01,-1.203545018098351321e-01,1.379678480197582546e-01,-1.122477772823067821e-01,3.787561486377456488e-01,-2.836408333703661078e-01,-4.179064768425080345e-01,-7.493113322908265261e-02,4.894365730676840387e-02,4.741441384980680240e-01,-3.751954575524737989e-02,-2.378617970935533940e-02,1.176426754273231234e-01,1.413284930045586585e-01,-3.770534385256208570e-02,-1.589177807993978619e-02,2.561493198867721421e-01,-1.131720104665237397e-01,-2.671172242191548474e-01,2.563470434478330451e-01,5.166998179578296407e-02,5.764163821785928121e-01,-4.643085689349153028e-02,8.848935815742707822e-01,-3.071108596270282765e-01,5.482266301855182739e-02,2.624986168725637614e-01,2.867512365647962302e-01,-2.295062093379576229e-01,3.122375049719139373e-01,4.581756559217332048e-01,4.414406107325893891e-01,3.607006253631480641e-01,-2.669604236258123486e-01,1.691820719477747370e-01,-5.159541241995010408e-01,-1.558988805370533082e-01,-1.542880907065382612e-01,5.089206815783559046e-02,9.058574588911841308e-02,-2.028729191600938675e-01,-9.323593428901129077e-01,-9.217356138451553438e-01,-1.330075600477972353e-01,5.472398069968444773e-02,-5.716669253521682731e-02,-6.534060379413436648e-01,6.473175021349146796e-01,-9.422011922979127430e-02,-3.160778651498835079e-01,-1.153289764751684598e-01,4.074580489070071115e-02,8.534972755171413294e-02,1.465820444749889595e-01,-4.774251099865252090e-01,1.994957627973177883e-01,-2.296194988204748044e-01,8.294102064448215239e-02,-1.658678537976307488e-01,-6.897748009036927530e-02,2.128005286800588314e-01,-5.154605520092827575e-01,1.485561219909527497e-01,1.044161335818579034e-01,-5.604241182237699181e-01,-3.053182351729275545e-01,-5.950763079269466571e-01,-1.794935519681984948e-01,5.216940235457967479e-01,-2.691459666102253845e-01,-1.314388309952833345e-01,-3.671981236433891627e-01,5.993472902161806060e-01,-3.028231033930300908e-01,-7.903113847396241176e-02,-3.481731736032991908e-01,2.149703526042810453e-01,-1.885489586151896935e-01,-1.145203189412029726e-01,-7.417264449552292416e-02,3.571714205945541454e-01,-3.478915983320309824e-01,1.362421256117984925e-01,-4.271635236704536820e-01,-2.993934371262361310e-02,-5.699185582872167144e-01,-2.735860142075493551e-01,-9.313171294586647386e-02,9.930201395035473944e-01,-1.652858523147118230e-01,-3.787570149991360546e-01,1.118949850064445473e+00,-2.498193332460017790e-01,-3.376697371076271548e-01,2.639054443035944719e-01,-2.265871404412404255e-01,-1.052719721297338817e-01,-1.825457555679906030e-01,2.948844650810182599e-02,-1.390212142242824300e-01,-3.566717928253496650e-01,-1.536721433991313224e-01,-9.358956475755748627e-01,-8.982361500432320400e-02,8.798021107039932787e-01,-6.503655574542772655e-01,4.115633508414404812e-02,-3.951125131895675824e-01,-2.297999184349190649e-02,3.568065307594479041e-01,9.144800216710097240e-02,-6.817670703095141116e-02,1.156543714121588684e-01,-1.801710835629880547e-01,-1.782327259024593658e-01,-1.319503716286062056e-01,-8.960069910688904515e-02,7.105387730756146381e-02,3.669582458922422963e-01,-7.900660954659353627e-03,-7.644707275467002017e-01,-2.592161937731605192e-01,-2.150922573063589749e-01,2.010076189867181506e-01,6.122944206681183582e-02,7.941421561660896300e-01,-3.284759080072170018e-02,1.550354288310710205e-01,2.998861933043532255e-02,-3.491903457135918654e-01,-2.239611340200231004e-01,-2.440876863833972843e-01,5.939313023813307391e-01,1.730847927052769075e-01,2.448331446753756468e-01,-4.321959747808410968e-01,-1.880453158163720162e-01,5.104508870298311018e-01,-8.104745819869033086e-02,-5.020312933776534953e-02,-1.243263158355332049e-01,-1.527144037203152088e-02,5.995033237216201155e-02,6.107375762384613382e-02,5.413723916939088276e-01,4.622589435992272011e-02,5.465407742771142274e-01,-1.214741108670009395e-01,-2.767030918556755426e-01,-1.252607870815648727e+00,2.268451252497633297e-01,-3.034927668684906932e-01,4.277770234584384323e-01,-1.963825793868374248e-01,-2.204019656069713673e-01
3.167190299387971641e-02,-7.952152056878226960e-02,2.815197473798998484e-02,-5.848808345123868158e-01,1.211784194326850084e-01,-3.852349330368579766e-02,-5.987521308777344481e-02,-1.032059781888893246e+00,4.676699843653047139e-01,-3.348459681061501797e-02,-6.496298827824809052e-01,-9.808187904760234943e-01,1.291832447338582823e-01,1.634321739922420802e-01,2.259640188253311255e-01,1.123771052232402645e-01,-4.460270375873867099e-01,-1.242326783973296683e-01,4.385753283984091810e-01,1.914651650526661697e-01,1.914564272752227458e-01,6.372608704562434667e-01,-7.631880426080280833e-01,-4.907357321846554932e-01,-2.209634266193092333e-01,1.162539884651959676e-01,2.420220844515815206e-01,-4.749393319420649323e-02,-5.014778713822400924e-01,-1.057881981104917962e-01,1.135852121720000857e-01,3.283719121050180378e-01,-9.161269437379311598e-02,-3.004137620473574799e-01,5.444633684825993525e-01,7.540244922080444057e-02,1.611086523239316226e-01,-2.025255270144176445e-01,-1.041752254427393415e-01,-2.807634487474023888e-01,3.584484826341743369e-01,-5.952945415211950975e-01,-4.903569658154512956e-01,-4.173730210936874574e-01,-3.250847758330098758e-01,-2.016284827963044368e-01,-3.569590630374245843e-01,-3.113072589630674902e-01,3.599028066586737462e-01,-1.278328222837968875e-01,-3.477926914083536575e-02,-1.216381565657676106e-01,-2.149297164227442769e-01,-8.786331178104726802e-02,2.850583556498711424e-01,-4.685280966258645874e-01,-1.096522550836692034e+00,2.113024149496879889e-01,-1.761826987729687433e-01,-5.671165140335754362e-01,-8.057666633611337836e-02,6.405460749621906258e-01,-4.127862204467133145e-01,-5.978960486191503554e-02,-2.508279718621553855e-01,-2.356766968565337898e-03,-2.777484179141445630e-01,-6.725742610379802089e-02,-7.282827054150876889e-02,-5.351868117845327150e-02,-4.967427484596074749e-01,-3.566949077553402958e-01,-1.177419482789410082e-01,2.570299991670180195e-01,2.370264280456323147e-01,-2.829847172650307718e-01,4.085902662735780289e-01,-8.128396598376941284e-01,-4.654967407935802215e-01,1.927067515078798726e-02,1.059743014853518767e-01,1.944575798498745511e-01,-5.787815359083766653e-01,-5.340596771947269117e-01,-1.078455604138636170e+00,2.205252964016437764e-02,-1.607229374553529114e-02,1.406973209908964351e-01,-2.543523822467605999e-01,1.866610033223353171e-01,4.555100121463097340e-02,5.397957507173664626e-02,-9.156731822277479615e-01,-2.955652091200524079e-01,-8.313913974305716659e-01,-3.811938773899598704e-02,-4.262175085597424973e-01,-2.072375438476426190e-01,9.936853962567493426e-02,1.829513540058089471e-01,-1.217062234015977351e+00,6.329333168046811231e-01,-3.676684955098237784e-01,2.410697101123773223e-01,-2.213114738938001813e-01,-4.764684162008233637e-01,-4.594357421583672996e-01,7.028255530918869898e-01,7.340044525115160812e-02,1.680923065778397729e-01,6.186661249568700671e-02,-8.276442033675699417e-01,-2.583055704109530337e-01,-1.939375567795510180e-01,-6.947215681841364954e-02,-4.523129999056352268e-01,-1.758148920560439477e-01,-4.111682105274058752e-01,1.740367608389490339e-01,-5.343969964798221950e-01,-4.629840671499956262e-01,2.899572644539777921e-01,-2.630620298931899415e-01,-1.591273881212834918e-01,-6.320137859743837350e-01,-7.626541316073156551e-01,-1.873891511041915203e-01,-5.372862869156185273e-01,-1.089741957596160660e+00,9.498001190247790104e-02,-1.903650484187017697e-02,-2.528829423769970650e-02,-2.063726548409585970e-01,-8.535274699046703217e-01,7.299717127960782259e-02,3.036286326714296435e-01,-3.947010462538717013e-01,-6.842509766430372453e-01,-2.367500375184636574e-01,-3.929795416144518660e-01,-2.260953604120410076e-01,-9.587437050849793863e-02,-3.989404425211856564e-01,-2.539592282304780069e-01,1.393034341423452227e-01,5.320826036266303183e-03,1.955419085881459351e-01,-1.493159449013980733e-01,-7.830876630621833590e-01,-1.429164197564589678e-01,-1.097218089129471164e+00,-5.625036010373155593e-01,-5.570738872799715913e-02,9.857782309647771662e-03,-8.116123045122989321e-01,8.380233899504280215e-02,-1.018090618567149275e-01,-3.531243633558981965e-01,-2.106766220768821196e-01,6.853917804839328165e-02,-9.470061580716903071e-01,-4.723436682079330540e-01,-6.095631658316639362e-02,-1.166252636725436220e+00,3.560030166337144197e-02,2.127917348820494992e-01,5.147591713969763144e-02,4.803192803598912985e-01,-4.200817086578639836e-01,-4.210701768226168817e-01,-4.803900543301669601e-01,4.002465776471507419e-02,-5.670627930013077966e-01,7.488848378637018299e-02,-4.934904494899016170e-01,-1.000411015263471676e-01,8.035777494785134589e-01,-2.163377924935969976e-01,-5.159213948158959395e-01,-7.184953033830041580e-01,-4.793475946838998691e-01,-1.346822851897819251e-01,-6.443984092824224241e-01,-5.192530291469131809e-01,-4.735853733398783239e-01,2.493336047976875691e-01,-4.138941417623016594e-01,-1.176778208184280139e+00,1.584341486078792438e-01,-4.265925243777410891e-01,1.932958976894798286e-02,-6.708694406074255934e-01,-4.440191472097386738e-01,-2.689404541164408524e-01,5.683115855995117816e-01,-5.231737224277163145e-01,-1.357420770550326616e-01,2.996690853645222474e-01,-4.981516736362415765e-01,-4.813477738899916702e-01
-2.282955205247846342e-01,6.810098151041097392e-01,2.059844963752003807e-02,-1.652587742642101509e-01,-2.584987190308428162e-01,-1.688144226349549137e-01,3.599691751700075937e-01,2.080334734122597506e-01,1.215148351606984076e-02,5.115116275892368503e-01,6.926226518544622568e-01,-1.086820227694869079e+00,-1.294336669835409293e+00,-4.841653719061276423e-02,-2.498177134725635129e-01,-3.814772058091215153e-05,-3.321306625871358609e-01,1.109649312925981360e-02,-9.600071085524856107e-01,-2.465712976715016824e-01,2.380855865212793635e-03,-6.985456041403476091e-01,-6.371563400657286325e-01,-2.063327040601492524e-01,-1.943809312847672721e-01,-8.429976173805461825e-03,-3.552462393052887579e-01,-1.935055305739424580e-01,3.367051245877388799e-01,1.511189487358891304e-01,-5.862116851379706173e-01,-4.345027465407104439e-02,-3.596559990341816060e-01,-2.222685121326142266e-01,7.543651268849603519e-02,-5.088604420524950323e-01,-3.713320557087992357e-01,4.409047291287969683e-01,2.521661035678176010e-01,7.870237156332796080e-02,1.198216148239644174e-01,-1.138995543155274515e+00,-5.725865933865560420e-01,-7.240113774612834119e-01,-3.628715658142325773e-01,-3.334612230561069257e-01,-2.506161467055235681e-01,-6.817370771414141828e-01,1.223160211749886733e-01,2.855689304475429735e-02,2.879489830574355827e-02,6.283313482164639696e-01,-3.082003608756616053e-01,-1.152468161517401224e-01,-1.023029162367359302e-01,1.173863789138047814e-01,-4.755463522148909994e-01,-1.582907497599993774e-01,1.415780303096484949e-01,-2.554326416257040600e-01,-1.238477196931351054e+00,-7.927220597793095402e-01,7.003138843091605541e-04,-1.064447054172473900e-01,-3.455815377485149664e-02,-4.813321165935170731e-02,-3.637642162953148017e-01,-5.678055274222968407e-01,-3.542490252060694345e-01,-4.187380185379139252e-01,-2.743077536325302934e-01,-3.085616204140949614e-01,-9.716808759599099288e-02,-1.138850605361343138e-01,-7.429027100043797405e-02,1.191605046225865383e-01,2.792511277457878638e-01,-5.218205497733485743e-01,5.879344419467001925e-01,1.668332767083147705e-01,2.096665273785266737e-01,4.053990137165874863e-02,-8.299097585698046453e-01,2.444672385595144173e-02,-2.516177983130682971e-01,-3.811447594573704606e-02,-2.103942038910939505e-01,-3.537880653939127762e-01,-1.193616987199164203e-01,1.472663516473699807e-01,-8.500022045333033294e-01,3.287158094434485811e-01,-1.426484099238081393e+00,-3.672181483840918359e-01,4.606199536416528684e-01,-2.340095964468155987e-01,-9.083078988635125972e-01,-1.017652478188814519e-01,-4.720617821555158633e-01,-1.292754329324785900e-01,3.097613534694454440e-01,-1.836959139547438002e-01,-2.940291175092404341e-01,-1.965178553910728876e-01,-2.751006837780550773e-01,-7.408710652712418021e-01,3.070380899192026725e-01,-1.632229967496186818e-01,-6.411623447789411845e-01,-6.634732384710677611e-01,-9.503101042138611954e-02,-2.325698061161282082e-01,-5.165880035120569147e-01,-3.964444250501163447e-01,-2.353350608852610923e-02,-2.256569613395035395e-02,-4.150500471578980055e-01,-6.578697733349428978e-01,1.118122410023079799e-01,-1.866967012052338781e-01,-6.113487586291330711e-01,8.310255821936854415e-02,-5.201102594146853608e-01,-9.436490556430117416e-02,-6.698661774883468700e-01,1.887473646689095674e-01,-2.124311092381857835e-01,4.411444723959274672e-01,1.400735603869240342e-01,5.480168118667785339e-03,2.679678352256467111e-01,-2.643629040059831681e-01,1.787336072759181937e-01,6.451016391850494802e-01,-3.461956621218632013e-01,1.283016661898105371e-01,-8.751547365933647349e-01,-1.948774560398863209e-01,-1.031368338499341897e-01,-2.899730787028072521e-01,-6.783828586977526109e-01,-5.642590885949698432e-02,-7.177744696281211645e-02,-4.014297835142489057e-01,-1.443152977954381411e-01,-1.658465851629676024e-01,-1.230899224670506942e-01,3.511426148249330859e-01,-3.499616183711524720e-01,-9.959697038627890464e-02,5.581585670883331129e-01,-3.358410960057250233e-02,-2.148867176183045791e-01,1.194696815225578801e-01,-4.888153482767926966e-02,1.792291911986421127e-01,-1.387150421164509359e-02,5.563164518441220813e-02,-1.981810694791654726e-01,-1.409848673796512512e-02,-1.107830477640275729e-01,2.220068539039443331e-02,-3.508570816385583879e-01,4.547748014812927342e-01,4.712160257669331664e-02,-1.162308380238447209e-01,4.740692559163273145e-01,3.080766351828625460e-01,3.798094398089492119e-01,-3.031427862094774883e-01,-9.747148035791040055e-01,-9.368343334337517203e-02,5.084470222670415263e-01,-2.647878555387579436e-01,-6.554988641376446878e-01,-1.737759541655471973e-01,4.193775160230610310e-02,-3.761258798009923243e-01,-2.965837882931665614e-01,-7.533230395796328693e-01,5.065917876891079530e-01,-7.342623564124797775e-02,-6.200884334675439424e-01,4.879742510298454850e-01,-1.739614485085340945e-01,2.699159533291628152e-02,-6.890032080048138835e-04,6.720038146686700964e-01,2.171690226404972834e-01,4.521549225869596622e-01,-1.838124506020942517e-01,-1.104737594279534107e+00,-1.020951032734035202e+00,1.450766781124442420e-02,4.102310850453764757e-01,-8.539229205820131341e-01,2.420943225297440549e-01,1.009103344832458643e-01,2.824592396088626556e-01,1.465509807668663733e-01
